digraph Tree {
node [shape=box] ;
0 [label="acumg_0 <= 0.5\nentropy = 1.0\nsamples = 3200\nvalue = [1622, 1578]"] ;
1 [label="acumg_1 <= 0.5\nentropy = 0.965\nsamples = 2535\nvalue = [990, 1545]"] ;
0 -> 1 [labeldistance=2.5, labelangle=45, headlabel="True"] ;
2 [label="acumg_4 <= 0.5\nentropy = 0.878\nsamples = 1875\nvalue = [557, 1318]"] ;
1 -> 2 ;
3 [label="page_0 <= 0.5\nentropy = 0.951\nsamples = 1264\nvalue = [469, 795]"] ;
2 -> 3 ;
4 [label="folder <= 0.5\nentropy = 0.867\nsamples = 173\nvalue = [123, 50]"] ;
3 -> 4 ;
5 [label="entropy = 0.0\nsamples = 100\nvalue = [100, 0]"] ;
4 -> 5 ;
6 [label="oucontent_4 <= 0.5\nentropy = 0.899\nsamples = 73\nvalue = [23, 50]"] ;
4 -> 6 ;
7 [label="homepage_3 <= 0.5\nentropy = 0.969\nsamples = 58\nvalue = [23, 35]"] ;
6 -> 7 ;
8 [label="forumng_2 <= 0.5\nentropy = 0.99\nsamples = 34\nvalue = [19, 15]"] ;
7 -> 8 ;
9 [label="glossary_0 <= 0.5\nentropy = 0.702\nsamples = 21\nvalue = [17, 4]"] ;
8 -> 9 ;
10 [label="entropy = 0.0\nsamples = 1\nvalue = [0, 1]"] ;
9 -> 10 ;
11 [label="forumng_4 <= 0.5\nentropy = 0.61\nsamples = 20\nvalue = [17, 3]"] ;
9 -> 11 ;
12 [label="url_2 <= 0.5\nentropy = 0.485\nsamples = 19\nvalue = [17, 2]"] ;
11 -> 12 ;
13 [label="entropy = 0.0\nsamples = 9\nvalue = [9, 0]"] ;
12 -> 13 ;
14 [label="forumng_3 <= 0.5\nentropy = 0.722\nsamples = 10\nvalue = [8, 2]"] ;
12 -> 14 ;
15 [label="entropy = 0.0\nsamples = 3\nvalue = [3, 0]"] ;
14 -> 15 ;
16 [label="acumneg_3 <= 0.5\nentropy = 0.863\nsamples = 7\nvalue = [5, 2]"] ;
14 -> 16 ;
17 [label="acumneg_2 <= 0.5\nentropy = 0.65\nsamples = 6\nvalue = [5, 1]"] ;
16 -> 17 ;
18 [label="entropy = 0.0\nsamples = 4\nvalue = [4, 0]"] ;
17 -> 18 ;
19 [label="resource_2 <= 0.5\nentropy = 1.0\nsamples = 2\nvalue = [1, 1]"] ;
17 -> 19 ;
20 [label="entropy = 0.0\nsamples = 1\nvalue = [1, 0]"] ;
19 -> 20 ;
21 [label="entropy = 0.0\nsamples = 1\nvalue = [0, 1]"] ;
19 -> 21 ;
22 [label="entropy = 0.0\nsamples = 1\nvalue = [0, 1]"] ;
16 -> 22 ;
23 [label="entropy = 0.0\nsamples = 1\nvalue = [0, 1]"] ;
11 -> 23 ;
24 [label="resource_3 <= 0.5\nentropy = 0.619\nsamples = 13\nvalue = [2, 11]"] ;
8 -> 24 ;
25 [label="entropy = 0.0\nsamples = 9\nvalue = [0, 9]"] ;
24 -> 25 ;
26 [label="acumneg_3 <= 0.5\nentropy = 1.0\nsamples = 4\nvalue = [2, 2]"] ;
24 -> 26 ;
27 [label="entropy = 0.0\nsamples = 2\nvalue = [2, 0]"] ;
26 -> 27 ;
28 [label="entropy = 0.0\nsamples = 2\nvalue = [0, 2]"] ;
26 -> 28 ;
29 [label="url_3 <= 0.5\nentropy = 0.65\nsamples = 24\nvalue = [4, 20]"] ;
7 -> 29 ;
30 [label="entropy = 0.0\nsamples = 15\nvalue = [0, 15]"] ;
29 -> 30 ;
31 [label="subpage_3 <= 0.5\nentropy = 0.991\nsamples = 9\nvalue = [4, 5]"] ;
29 -> 31 ;
32 [label="forumng_3 <= 0.5\nentropy = 0.722\nsamples = 5\nvalue = [4, 1]"] ;
31 -> 32 ;
33 [label="entropy = 0.0\nsamples = 4\nvalue = [4, 0]"] ;
32 -> 33 ;
34 [label="entropy = 0.0\nsamples = 1\nvalue = [0, 1]"] ;
32 -> 34 ;
35 [label="entropy = 0.0\nsamples = 4\nvalue = [0, 4]"] ;
31 -> 35 ;
36 [label="entropy = 0.0\nsamples = 15\nvalue = [0, 15]"] ;
6 -> 36 ;
37 [label="quiz_0 <= 0.5\nentropy = 0.901\nsamples = 1091\nvalue = [346, 745]"] ;
3 -> 37 ;
38 [label="resource_0 <= 0.5\nentropy = 0.804\nsamples = 660\nvalue = [162, 498]"] ;
37 -> 38 ;
39 [label="subpage_3 <= 0.5\nentropy = 0.733\nsamples = 540\nvalue = [111, 429]"] ;
38 -> 39 ;
40 [label="quiz_3 <= 0.5\nentropy = 0.634\nsamples = 413\nvalue = [66, 347]"] ;
39 -> 40 ;
41 [label="oucontent_4 <= 0.5\nentropy = 0.61\nsamples = 406\nvalue = [61, 345]"] ;
40 -> 41 ;
42 [label="resource_4 <= 0.5\nentropy = 0.65\nsamples = 360\nvalue = [60, 300]"] ;
41 -> 42 ;
43 [label="acumneg_4 <= 0.5\nentropy = 0.597\nsamples = 324\nvalue = [47, 277]"] ;
42 -> 43 ;
44 [label="oucontent_0 <= 0.5\nentropy = 0.54\nsamples = 291\nvalue = [36, 255]"] ;
43 -> 44 ;
45 [label="oucontent_2 <= 0.5\nentropy = 0.496\nsamples = 276\nvalue = [30, 246]"] ;
44 -> 45 ;
46 [label="url_2 <= 0.5\nentropy = 0.413\nsamples = 229\nvalue = [19, 210]"] ;
45 -> 46 ;
47 [label="url_3 <= 0.5\nentropy = 0.369\nsamples = 212\nvalue = [15, 197]"] ;
46 -> 47 ;
48 [label="subpage_0 <= 0.5\nentropy = 0.264\nsamples = 156\nvalue = [7, 149]"] ;
47 -> 48 ;
49 [label="quiz_2 <= 0.5\nentropy = 0.303\nsamples = 130\nvalue = [7, 123]"] ;
48 -> 49 ;
50 [label="homepage_4 <= 0.5\nentropy = 0.137\nsamples = 52\nvalue = [1, 51]"] ;
49 -> 50 ;
51 [label="entropy = 0.0\nsamples = 41\nvalue = [0, 41]"] ;
50 -> 51 ;
52 [label="entropy = 0.439\nsamples = 11\nvalue = [1, 10]"] ;
50 -> 52 ;
53 [label="url_4 <= 0.5\nentropy = 0.391\nsamples = 78\nvalue = [6, 72]"] ;
49 -> 53 ;
54 [label="entropy = 0.439\nsamples = 66\nvalue = [6, 60]"] ;
53 -> 54 ;
55 [label="entropy = 0.0\nsamples = 12\nvalue = [0, 12]"] ;
53 -> 55 ;
56 [label="entropy = 0.0\nsamples = 26\nvalue = [0, 26]"] ;
48 -> 56 ;
57 [label="acumneg_0 <= 0.5\nentropy = 0.592\nsamples = 56\nvalue = [8, 48]"] ;
47 -> 57 ;
58 [label="forumng_3 <= 0.5\nentropy = 0.267\nsamples = 44\nvalue = [2, 42]"] ;
57 -> 58 ;
59 [label="entropy = 0.0\nsamples = 29\nvalue = [0, 29]"] ;
58 -> 59 ;
60 [label="resource_2 <= 0.5\nentropy = 0.567\nsamples = 15\nvalue = [2, 13]"] ;
58 -> 60 ;
61 [label="entropy = 0.863\nsamples = 7\nvalue = [2, 5]"] ;
60 -> 61 ;
62 [label="entropy = 0.0\nsamples = 8\nvalue = [0, 8]"] ;
60 -> 62 ;
63 [label="acumg_3 <= 0.5\nentropy = 1.0\nsamples = 12\nvalue = [6, 6]"] ;
57 -> 63 ;
64 [label="forumng_1 <= 0.5\nentropy = 0.65\nsamples = 6\nvalue = [1, 5]"] ;
63 -> 64 ;
65 [label="entropy = 0.0\nsamples = 5\nvalue = [0, 5]"] ;
64 -> 65 ;
66 [label="entropy = 0.0\nsamples = 1\nvalue = [1, 0]"] ;
64 -> 66 ;
67 [label="ouwiki_0 <= 0.5\nentropy = 0.65\nsamples = 6\nvalue = [5, 1]"] ;
63 -> 67 ;
68 [label="entropy = 0.0\nsamples = 3\nvalue = [3, 0]"] ;
67 -> 68 ;
69 [label="entropy = 0.918\nsamples = 3\nvalue = [2, 1]"] ;
67 -> 69 ;
70 [label="acumneg_2 <= 0.5\nentropy = 0.787\nsamples = 17\nvalue = [4, 13]"] ;
46 -> 70 ;
71 [label="entropy = 0.0\nsamples = 10\nvalue = [0, 10]"] ;
70 -> 71 ;
72 [label="forumng_3 <= 0.5\nentropy = 0.985\nsamples = 7\nvalue = [4, 3]"] ;
70 -> 72 ;
73 [label="entropy = 0.0\nsamples = 2\nvalue = [0, 2]"] ;
72 -> 73 ;
74 [label="homepage_2 <= 0.5\nentropy = 0.722\nsamples = 5\nvalue = [4, 1]"] ;
72 -> 74 ;
75 [label="entropy = 0.0\nsamples = 2\nvalue = [2, 0]"] ;
74 -> 75 ;
76 [label="entropy = 0.918\nsamples = 3\nvalue = [2, 1]"] ;
74 -> 76 ;
77 [label="resource_2 <= 0.5\nentropy = 0.785\nsamples = 47\nvalue = [11, 36]"] ;
45 -> 77 ;
78 [label="forumng_2 <= 0.5\nentropy = 0.988\nsamples = 23\nvalue = [10, 13]"] ;
77 -> 78 ;
79 [label="forumng_1 <= 0.5\nentropy = 0.934\nsamples = 20\nvalue = [7, 13]"] ;
78 -> 79 ;
80 [label="subpage_2 <= 0.5\nentropy = 0.619\nsamples = 13\nvalue = [2, 11]"] ;
79 -> 80 ;
81 [label="entropy = 0.0\nsamples = 7\nvalue = [0, 7]"] ;
80 -> 81 ;
82 [label="url_4 <= 0.5\nentropy = 0.918\nsamples = 6\nvalue = [2, 4]"] ;
80 -> 82 ;
83 [label="entropy = 0.722\nsamples = 5\nvalue = [1, 4]"] ;
82 -> 83 ;
84 [label="entropy = 0.0\nsamples = 1\nvalue = [1, 0]"] ;
82 -> 84 ;
85 [label="acumneg_1 <= 0.5\nentropy = 0.863\nsamples = 7\nvalue = [5, 2]"] ;
79 -> 85 ;
86 [label="entropy = 0.0\nsamples = 5\nvalue = [5, 0]"] ;
85 -> 86 ;
87 [label="entropy = 0.0\nsamples = 2\nvalue = [0, 2]"] ;
85 -> 87 ;
88 [label="entropy = 0.0\nsamples = 3\nvalue = [3, 0]"] ;
78 -> 88 ;
89 [label="folder <= 0.5\nentropy = 0.25\nsamples = 24\nvalue = [1, 23]"] ;
77 -> 89 ;
90 [label="entropy = 0.0\nsamples = 23\nvalue = [0, 23]"] ;
89 -> 90 ;
91 [label="entropy = 0.0\nsamples = 1\nvalue = [1, 0]"] ;
89 -> 91 ;
92 [label="acumneg_0 <= 0.5\nentropy = 0.971\nsamples = 15\nvalue = [6, 9]"] ;
44 -> 92 ;
93 [label="acumg_2 <= 0.5\nentropy = 0.971\nsamples = 10\nvalue = [6, 4]"] ;
92 -> 93 ;
94 [label="entropy = 0.0\nsamples = 2\nvalue = [0, 2]"] ;
93 -> 94 ;
95 [label="resource_1 <= 0.5\nentropy = 0.811\nsamples = 8\nvalue = [6, 2]"] ;
93 -> 95 ;
96 [label="entropy = 0.0\nsamples = 4\nvalue = [4, 0]"] ;
95 -> 96 ;
97 [label="forumng_4 <= 0.5\nentropy = 1.0\nsamples = 4\nvalue = [2, 2]"] ;
95 -> 97 ;
98 [label="entropy = 0.0\nsamples = 2\nvalue = [0, 2]"] ;
97 -> 98 ;
99 [label="entropy = 0.0\nsamples = 2\nvalue = [2, 0]"] ;
97 -> 99 ;
100 [label="entropy = 0.0\nsamples = 5\nvalue = [0, 5]"] ;
92 -> 100 ;
101 [label="resource_1 <= 0.5\nentropy = 0.918\nsamples = 33\nvalue = [11, 22]"] ;
43 -> 101 ;
102 [label="homepage_3 <= 0.5\nentropy = 0.61\nsamples = 20\nvalue = [3, 17]"] ;
101 -> 102 ;
103 [label="entropy = 0.0\nsamples = 9\nvalue = [0, 9]"] ;
102 -> 103 ;
104 [label="url_3 <= 0.5\nentropy = 0.845\nsamples = 11\nvalue = [3, 8]"] ;
102 -> 104 ;
105 [label="oucontent_2 <= 0.5\nentropy = 0.503\nsamples = 9\nvalue = [1, 8]"] ;
104 -> 105 ;
106 [label="entropy = 0.0\nsamples = 6\nvalue = [0, 6]"] ;
105 -> 106 ;
107 [label="subpage_1 <= 0.5\nentropy = 0.918\nsamples = 3\nvalue = [1, 2]"] ;
105 -> 107 ;
108 [label="entropy = 0.0\nsamples = 2\nvalue = [0, 2]"] ;
107 -> 108 ;
109 [label="entropy = 0.0\nsamples = 1\nvalue = [1, 0]"] ;
107 -> 109 ;
110 [label="entropy = 0.0\nsamples = 2\nvalue = [2, 0]"] ;
104 -> 110 ;
111 [label="url_4 <= 0.5\nentropy = 0.961\nsamples = 13\nvalue = [8, 5]"] ;
101 -> 111 ;
112 [label="entropy = 0.0\nsamples = 4\nvalue = [0, 4]"] ;
111 -> 112 ;
113 [label="subpage_0 <= 0.5\nentropy = 0.503\nsamples = 9\nvalue = [8, 1]"] ;
111 -> 113 ;
114 [label="entropy = 0.0\nsamples = 8\nvalue = [8, 0]"] ;
113 -> 114 ;
115 [label="entropy = 0.0\nsamples = 1\nvalue = [0, 1]"] ;
113 -> 115 ;
116 [label="forumng_2 <= 0.5\nentropy = 0.944\nsamples = 36\nvalue = [13, 23]"] ;
42 -> 116 ;
117 [label="homepage_3 <= 0.5\nentropy = 1.0\nsamples = 26\nvalue = [13, 13]"] ;
116 -> 117 ;
118 [label="subpage_1 <= 0.5\nentropy = 0.918\nsamples = 18\nvalue = [12, 6]"] ;
117 -> 118 ;
119 [label="glossary_0 <= 0.5\nentropy = 0.75\nsamples = 14\nvalue = [11, 3]"] ;
118 -> 119 ;
120 [label="entropy = 0.0\nsamples = 7\nvalue = [7, 0]"] ;
119 -> 120 ;
121 [label="homepage_4 <= 0.5\nentropy = 0.985\nsamples = 7\nvalue = [4, 3]"] ;
119 -> 121 ;
122 [label="url_2 <= 0.5\nentropy = 0.722\nsamples = 5\nvalue = [4, 1]"] ;
121 -> 122 ;
123 [label="entropy = 0.0\nsamples = 3\nvalue = [3, 0]"] ;
122 -> 123 ;
124 [label="entropy = 1.0\nsamples = 2\nvalue = [1, 1]"] ;
122 -> 124 ;
125 [label="entropy = 0.0\nsamples = 2\nvalue = [0, 2]"] ;
121 -> 125 ;
126 [label="forumng_4 <= 0.5\nentropy = 0.811\nsamples = 4\nvalue = [1, 3]"] ;
118 -> 126 ;
127 [label="entropy = 0.918\nsamples = 3\nvalue = [1, 2]"] ;
126 -> 127 ;
128 [label="entropy = 0.0\nsamples = 1\nvalue = [0, 1]"] ;
126 -> 128 ;
129 [label="acumneg_3 <= 0.5\nentropy = 0.544\nsamples = 8\nvalue = [1, 7]"] ;
117 -> 129 ;
130 [label="entropy = 0.0\nsamples = 6\nvalue = [0, 6]"] ;
129 -> 130 ;
131 [label="forumng_4 <= 0.5\nentropy = 1.0\nsamples = 2\nvalue = [1, 1]"] ;
129 -> 131 ;
132 [label="entropy = 0.0\nsamples = 1\nvalue = [0, 1]"] ;
131 -> 132 ;
133 [label="entropy = 0.0\nsamples = 1\nvalue = [1, 0]"] ;
131 -> 133 ;
134 [label="entropy = 0.0\nsamples = 10\nvalue = [0, 10]"] ;
116 -> 134 ;
135 [label="forumng_4 <= 0.5\nentropy = 0.151\nsamples = 46\nvalue = [1, 45]"] ;
41 -> 135 ;
136 [label="entropy = 0.0\nsamples = 43\nvalue = [0, 43]"] ;
135 -> 136 ;
137 [label="ouwiki_1 <= 0.5\nentropy = 0.918\nsamples = 3\nvalue = [1, 2]"] ;
135 -> 137 ;
138 [label="entropy = 0.0\nsamples = 1\nvalue = [1, 0]"] ;
137 -> 138 ;
139 [label="entropy = 0.0\nsamples = 2\nvalue = [0, 2]"] ;
137 -> 139 ;
140 [label="acumneg_1 <= 0.5\nentropy = 0.863\nsamples = 7\nvalue = [5, 2]"] ;
40 -> 140 ;
141 [label="forumng_1 <= 0.5\nentropy = 0.918\nsamples = 3\nvalue = [1, 2]"] ;
140 -> 141 ;
142 [label="entropy = 0.0\nsamples = 1\nvalue = [1, 0]"] ;
141 -> 142 ;
143 [label="entropy = 0.0\nsamples = 2\nvalue = [0, 2]"] ;
141 -> 143 ;
144 [label="entropy = 0.0\nsamples = 4\nvalue = [4, 0]"] ;
140 -> 144 ;
145 [label="homepage_1 <= 0.5\nentropy = 0.938\nsamples = 127\nvalue = [45, 82]"] ;
39 -> 145 ;
146 [label="forumng_4 <= 0.5\nentropy = 0.86\nsamples = 113\nvalue = [32, 81]"] ;
145 -> 146 ;
147 [label="folder <= 0.5\nentropy = 0.938\nsamples = 79\nvalue = [28, 51]"] ;
146 -> 147 ;
148 [label="quiz_3 <= 0.5\nentropy = 0.996\nsamples = 54\nvalue = [25, 29]"] ;
147 -> 148 ;
149 [label="acumneg_0 <= 0.5\nentropy = 0.976\nsamples = 49\nvalue = [20, 29]"] ;
148 -> 149 ;
150 [label="oucontent_1 <= 0.5\nentropy = 1.0\nsamples = 41\nvalue = [20, 21]"] ;
149 -> 150 ;
151 [label="ouwiki_1 <= 0.5\nentropy = 0.874\nsamples = 17\nvalue = [12, 5]"] ;
150 -> 151 ;
152 [label="quiz_1 <= 0.5\nentropy = 0.722\nsamples = 15\nvalue = [12, 3]"] ;
151 -> 152 ;
153 [label="oucontent_0 <= 0.5\nentropy = 0.469\nsamples = 10\nvalue = [9, 1]"] ;
152 -> 153 ;
154 [label="entropy = 0.0\nsamples = 7\nvalue = [7, 0]"] ;
153 -> 154 ;
155 [label="acumneg_3 <= 0.5\nentropy = 0.918\nsamples = 3\nvalue = [2, 1]"] ;
153 -> 155 ;
156 [label="entropy = 0.0\nsamples = 1\nvalue = [0, 1]"] ;
155 -> 156 ;
157 [label="entropy = 0.0\nsamples = 2\nvalue = [2, 0]"] ;
155 -> 157 ;
158 [label="acumneg_1 <= 0.5\nentropy = 0.971\nsamples = 5\nvalue = [3, 2]"] ;
152 -> 158 ;
159 [label="url_2 <= 0.5\nentropy = 0.918\nsamples = 3\nvalue = [1, 2]"] ;
158 -> 159 ;
160 [label="entropy = 0.0\nsamples = 2\nvalue = [0, 2]"] ;
159 -> 160 ;
161 [label="entropy = 0.0\nsamples = 1\nvalue = [1, 0]"] ;
159 -> 161 ;
162 [label="entropy = 0.0\nsamples = 2\nvalue = [2, 0]"] ;
158 -> 162 ;
163 [label="entropy = 0.0\nsamples = 2\nvalue = [0, 2]"] ;
151 -> 163 ;
164 [label="resource_3 <= 0.5\nentropy = 0.918\nsamples = 24\nvalue = [8, 16]"] ;
150 -> 164 ;
165 [label="quiz_1 <= 0.5\nentropy = 0.544\nsamples = 16\nvalue = [2, 14]"] ;
164 -> 165 ;
166 [label="forumng_2 <= 0.5\nentropy = 1.0\nsamples = 4\nvalue = [2, 2]"] ;
165 -> 166 ;
167 [label="homepage_3 <= 0.5\nentropy = 0.918\nsamples = 3\nvalue = [2, 1]"] ;
166 -> 167 ;
168 [label="entropy = 0.0\nsamples = 2\nvalue = [2, 0]"] ;
167 -> 168 ;
169 [label="entropy = 0.0\nsamples = 1\nvalue = [0, 1]"] ;
167 -> 169 ;
170 [label="entropy = 0.0\nsamples = 1\nvalue = [0, 1]"] ;
166 -> 170 ;
171 [label="entropy = 0.0\nsamples = 12\nvalue = [0, 12]"] ;
165 -> 171 ;
172 [label="acumneg_2 <= 0.5\nentropy = 0.811\nsamples = 8\nvalue = [6, 2]"] ;
164 -> 172 ;
173 [label="homepage_4 <= 0.5\nentropy = 1.0\nsamples = 4\nvalue = [2, 2]"] ;
172 -> 173 ;
174 [label="entropy = 0.0\nsamples = 2\nvalue = [0, 2]"] ;
173 -> 174 ;
175 [label="entropy = 0.0\nsamples = 2\nvalue = [2, 0]"] ;
173 -> 175 ;
176 [label="entropy = 0.0\nsamples = 4\nvalue = [4, 0]"] ;
172 -> 176 ;
177 [label="entropy = 0.0\nsamples = 8\nvalue = [0, 8]"] ;
149 -> 177 ;
178 [label="entropy = 0.0\nsamples = 5\nvalue = [5, 0]"] ;
148 -> 178 ;
179 [label="url_1 <= 0.5\nentropy = 0.529\nsamples = 25\nvalue = [3, 22]"] ;
147 -> 179 ;
180 [label="url_4 <= 0.5\nentropy = 0.811\nsamples = 12\nvalue = [3, 9]"] ;
179 -> 180 ;
181 [label="oucontent_3 <= 0.5\nentropy = 0.684\nsamples = 11\nvalue = [2, 9]"] ;
180 -> 181 ;
182 [label="homepage_3 <= 0.5\nentropy = 1.0\nsamples = 4\nvalue = [2, 2]"] ;
181 -> 182 ;
183 [label="forumng_2 <= 0.5\nentropy = 0.918\nsamples = 3\nvalue = [2, 1]"] ;
182 -> 183 ;
184 [label="entropy = 0.0\nsamples = 1\nvalue = [0, 1]"] ;
183 -> 184 ;
185 [label="entropy = 0.0\nsamples = 2\nvalue = [2, 0]"] ;
183 -> 185 ;
186 [label="entropy = 0.0\nsamples = 1\nvalue = [0, 1]"] ;
182 -> 186 ;
187 [label="entropy = 0.0\nsamples = 7\nvalue = [0, 7]"] ;
181 -> 187 ;
188 [label="entropy = 0.0\nsamples = 1\nvalue = [1, 0]"] ;
180 -> 188 ;
189 [label="entropy = 0.0\nsamples = 13\nvalue = [0, 13]"] ;
179 -> 189 ;
190 [label="oucontent_4 <= 0.5\nentropy = 0.523\nsamples = 34\nvalue = [4, 30]"] ;
146 -> 190 ;
191 [label="homepage_4 <= 0.5\nentropy = 0.353\nsamples = 30\nvalue = [2, 28]"] ;
190 -> 191 ;
192 [label="entropy = 0.0\nsamples = 9\nvalue = [0, 9]"] ;
191 -> 192 ;
193 [label="acumneg_3 <= 0.5\nentropy = 0.454\nsamples = 21\nvalue = [2, 19]"] ;
191 -> 193 ;
194 [label="oucontent_1 <= 0.5\nentropy = 0.323\nsamples = 17\nvalue = [1, 16]"] ;
193 -> 194 ;
195 [label="entropy = 0.0\nsamples = 12\nvalue = [0, 12]"] ;
194 -> 195 ;
196 [label="url_3 <= 0.5\nentropy = 0.722\nsamples = 5\nvalue = [1, 4]"] ;
194 -> 196 ;
197 [label="entropy = 0.0\nsamples = 3\nvalue = [0, 3]"] ;
196 -> 197 ;
198 [label="quiz_2 <= 0.5\nentropy = 1.0\nsamples = 2\nvalue = [1, 1]"] ;
196 -> 198 ;
199 [label="entropy = 0.0\nsamples = 1\nvalue = [0, 1]"] ;
198 -> 199 ;
200 [label="entropy = 0.0\nsamples = 1\nvalue = [1, 0]"] ;
198 -> 200 ;
201 [label="resource_3 <= 0.5\nentropy = 0.811\nsamples = 4\nvalue = [1, 3]"] ;
193 -> 201 ;
202 [label="entropy = 0.0\nsamples = 3\nvalue = [0, 3]"] ;
201 -> 202 ;
203 [label="entropy = 0.0\nsamples = 1\nvalue = [1, 0]"] ;
201 -> 203 ;
204 [label="resource_3 <= 0.5\nentropy = 1.0\nsamples = 4\nvalue = [2, 2]"] ;
190 -> 204 ;
205 [label="entropy = 0.0\nsamples = 2\nvalue = [0, 2]"] ;
204 -> 205 ;
206 [label="entropy = 0.0\nsamples = 2\nvalue = [2, 0]"] ;
204 -> 206 ;
207 [label="acumg_3 <= 0.5\nentropy = 0.371\nsamples = 14\nvalue = [13, 1]"] ;
145 -> 207 ;
208 [label="entropy = 0.0\nsamples = 11\nvalue = [11, 0]"] ;
207 -> 208 ;
209 [label="resource_2 <= 0.5\nentropy = 0.918\nsamples = 3\nvalue = [2, 1]"] ;
207 -> 209 ;
210 [label="entropy = 0.0\nsamples = 1\nvalue = [0, 1]"] ;
209 -> 210 ;
211 [label="entropy = 0.0\nsamples = 2\nvalue = [2, 0]"] ;
209 -> 211 ;
212 [label="ouwiki_1 <= 0.5\nentropy = 0.984\nsamples = 120\nvalue = [51, 69]"] ;
38 -> 212 ;
213 [label="url_0 <= 0.5\nentropy = 0.951\nsamples = 62\nvalue = [39, 23]"] ;
212 -> 213 ;
214 [label="homepage_3 <= 0.5\nentropy = 0.848\nsamples = 51\nvalue = [37, 14]"] ;
213 -> 214 ;
215 [label="oucontent_2 <= 0.5\nentropy = 0.459\nsamples = 31\nvalue = [28, 3]"] ;
214 -> 215 ;
216 [label="forumng_1 <= 0.5\nentropy = 0.235\nsamples = 26\nvalue = [25, 1]"] ;
215 -> 216 ;
217 [label="entropy = 0.0\nsamples = 20\nvalue = [20, 0]"] ;
216 -> 217 ;
218 [label="acumneg_0 <= 0.5\nentropy = 0.65\nsamples = 6\nvalue = [5, 1]"] ;
216 -> 218 ;
219 [label="entropy = 0.0\nsamples = 4\nvalue = [4, 0]"] ;
218 -> 219 ;
220 [label="url_3 <= 0.5\nentropy = 1.0\nsamples = 2\nvalue = [1, 1]"] ;
218 -> 220 ;
221 [label="entropy = 0.0\nsamples = 1\nvalue = [1, 0]"] ;
220 -> 221 ;
222 [label="entropy = 0.0\nsamples = 1\nvalue = [0, 1]"] ;
220 -> 222 ;
223 [label="subpage_0 <= 0.5\nentropy = 0.971\nsamples = 5\nvalue = [3, 2]"] ;
215 -> 223 ;
224 [label="acumneg_3 <= 0.5\nentropy = 0.918\nsamples = 3\nvalue = [1, 2]"] ;
223 -> 224 ;
225 [label="entropy = 0.0\nsamples = 2\nvalue = [0, 2]"] ;
224 -> 225 ;
226 [label="entropy = 0.0\nsamples = 1\nvalue = [1, 0]"] ;
224 -> 226 ;
227 [label="entropy = 0.0\nsamples = 2\nvalue = [2, 0]"] ;
223 -> 227 ;
228 [label="url_4 <= 0.5\nentropy = 0.993\nsamples = 20\nvalue = [9, 11]"] ;
214 -> 228 ;
229 [label="subpage_1 <= 0.5\nentropy = 0.811\nsamples = 12\nvalue = [9, 3]"] ;
228 -> 229 ;
230 [label="entropy = 0.0\nsamples = 8\nvalue = [8, 0]"] ;
229 -> 230 ;
231 [label="acumg_3 <= 0.5\nentropy = 0.811\nsamples = 4\nvalue = [1, 3]"] ;
229 -> 231 ;
232 [label="entropy = 0.0\nsamples = 3\nvalue = [0, 3]"] ;
231 -> 232 ;
233 [label="entropy = 0.0\nsamples = 1\nvalue = [1, 0]"] ;
231 -> 233 ;
234 [label="entropy = 0.0\nsamples = 8\nvalue = [0, 8]"] ;
228 -> 234 ;
235 [label="subpage_2 <= 0.5\nentropy = 0.684\nsamples = 11\nvalue = [2, 9]"] ;
213 -> 235 ;
236 [label="entropy = 0.0\nsamples = 9\nvalue = [0, 9]"] ;
235 -> 236 ;
237 [label="entropy = 0.0\nsamples = 2\nvalue = [2, 0]"] ;
235 -> 237 ;
238 [label="acumneg_1 <= 0.5\nentropy = 0.736\nsamples = 58\nvalue = [12, 46]"] ;
212 -> 238 ;
239 [label="url_2 <= 0.5\nentropy = 0.803\nsamples = 49\nvalue = [12, 37]"] ;
238 -> 239 ;
240 [label="homepage_1 <= 0.5\nentropy = 0.755\nsamples = 46\nvalue = [10, 36]"] ;
239 -> 240 ;
241 [label="acumg_3 <= 0.5\nentropy = 0.821\nsamples = 39\nvalue = [10, 29]"] ;
240 -> 241 ;
242 [label="acumneg_2 <= 0.5\nentropy = 1.0\nsamples = 10\nvalue = [5, 5]"] ;
241 -> 242 ;
243 [label="subpage_0 <= 0.5\nentropy = 0.863\nsamples = 7\nvalue = [2, 5]"] ;
242 -> 243 ;
244 [label="entropy = 0.0\nsamples = 4\nvalue = [0, 4]"] ;
243 -> 244 ;
245 [label="forumng_2 <= 0.5\nentropy = 0.918\nsamples = 3\nvalue = [2, 1]"] ;
243 -> 245 ;
246 [label="entropy = 0.0\nsamples = 1\nvalue = [1, 0]"] ;
245 -> 246 ;
247 [label="quiz_2 <= 0.5\nentropy = 1.0\nsamples = 2\nvalue = [1, 1]"] ;
245 -> 247 ;
248 [label="entropy = 0.0\nsamples = 1\nvalue = [0, 1]"] ;
247 -> 248 ;
249 [label="entropy = 0.0\nsamples = 1\nvalue = [1, 0]"] ;
247 -> 249 ;
250 [label="entropy = 0.0\nsamples = 3\nvalue = [3, 0]"] ;
242 -> 250 ;
251 [label="homepage_3 <= 0.5\nentropy = 0.663\nsamples = 29\nvalue = [5, 24]"] ;
241 -> 251 ;
252 [label="entropy = 0.0\nsamples = 12\nvalue = [0, 12]"] ;
251 -> 252 ;
253 [label="forumng_2 <= 0.5\nentropy = 0.874\nsamples = 17\nvalue = [5, 12]"] ;
251 -> 253 ;
254 [label="subpage_2 <= 0.5\nentropy = 0.961\nsamples = 13\nvalue = [5, 8]"] ;
253 -> 254 ;
255 [label="acumneg_2 <= 0.5\nentropy = 0.845\nsamples = 11\nvalue = [3, 8]"] ;
254 -> 255 ;
256 [label="oucollaborate <= 0.5\nentropy = 0.954\nsamples = 8\nvalue = [3, 5]"] ;
255 -> 256 ;
257 [label="quiz_2 <= 0.5\nentropy = 1.0\nsamples = 6\nvalue = [3, 3]"] ;
256 -> 257 ;
258 [label="entropy = 0.0\nsamples = 2\nvalue = [2, 0]"] ;
257 -> 258 ;
259 [label="subpage_1 <= 0.5\nentropy = 0.811\nsamples = 4\nvalue = [1, 3]"] ;
257 -> 259 ;
260 [label="entropy = 1.0\nsamples = 2\nvalue = [1, 1]"] ;
259 -> 260 ;
261 [label="entropy = 0.0\nsamples = 2\nvalue = [0, 2]"] ;
259 -> 261 ;
262 [label="entropy = 0.0\nsamples = 2\nvalue = [0, 2]"] ;
256 -> 262 ;
263 [label="entropy = 0.0\nsamples = 3\nvalue = [0, 3]"] ;
255 -> 263 ;
264 [label="entropy = 0.0\nsamples = 2\nvalue = [2, 0]"] ;
254 -> 264 ;
265 [label="entropy = 0.0\nsamples = 4\nvalue = [0, 4]"] ;
253 -> 265 ;
266 [label="entropy = 0.0\nsamples = 7\nvalue = [0, 7]"] ;
240 -> 266 ;
267 [label="oucontent_3 <= 0.5\nentropy = 0.918\nsamples = 3\nvalue = [2, 1]"] ;
239 -> 267 ;
268 [label="entropy = 0.0\nsamples = 1\nvalue = [0, 1]"] ;
267 -> 268 ;
269 [label="entropy = 0.0\nsamples = 2\nvalue = [2, 0]"] ;
267 -> 269 ;
270 [label="entropy = 0.0\nsamples = 9\nvalue = [0, 9]"] ;
238 -> 270 ;
271 [label="forumng_4 <= 0.5\nentropy = 0.985\nsamples = 431\nvalue = [184, 247]"] ;
37 -> 271 ;
272 [label="homepage_4 <= 0.5\nentropy = 0.999\nsamples = 337\nvalue = [162, 175]"] ;
271 -> 272 ;
273 [label="url_2 <= 0.5\nentropy = 1.0\nsamples = 307\nvalue = [155, 152]"] ;
272 -> 273 ;
274 [label="oucollaborate <= 0.5\nentropy = 0.996\nsamples = 214\nvalue = [99, 115]"] ;
273 -> 274 ;
275 [label="resource_1 <= 0.5\nentropy = 0.998\nsamples = 140\nvalue = [74, 66]"] ;
274 -> 275 ;
276 [label="url_0 <= 0.5\nentropy = 0.956\nsamples = 98\nvalue = [61, 37]"] ;
275 -> 276 ;
277 [label="forumng_2 <= 0.5\nentropy = 0.967\nsamples = 94\nvalue = [57, 37]"] ;
276 -> 277 ;
278 [label="url_4 <= 0.5\nentropy = 1.0\nsamples = 51\nvalue = [26, 25]"] ;
277 -> 278 ;
279 [label="acumg_3 <= 0.5\nentropy = 0.968\nsamples = 43\nvalue = [26, 17]"] ;
278 -> 279 ;
280 [label="acumneg_0 <= 0.5\nentropy = 0.996\nsamples = 28\nvalue = [13, 15]"] ;
279 -> 280 ;
281 [label="subpage_3 <= 0.5\nentropy = 0.983\nsamples = 26\nvalue = [11, 15]"] ;
280 -> 281 ;
282 [label="resource_4 <= 0.5\nentropy = 0.946\nsamples = 11\nvalue = [7, 4]"] ;
281 -> 282 ;
283 [label="forumng_3 <= 0.5\nentropy = 0.764\nsamples = 9\nvalue = [7, 2]"] ;
282 -> 283 ;
284 [label="entropy = 0.0\nsamples = 2\nvalue = [0, 2]"] ;
283 -> 284 ;
285 [label="entropy = 0.0\nsamples = 7\nvalue = [7, 0]"] ;
283 -> 285 ;
286 [label="entropy = 0.0\nsamples = 2\nvalue = [0, 2]"] ;
282 -> 286 ;
287 [label="homepage_2 <= 0.5\nentropy = 0.837\nsamples = 15\nvalue = [4, 11]"] ;
281 -> 287 ;
288 [label="homepage_0 <= 0.5\nentropy = 0.991\nsamples = 9\nvalue = [4, 5]"] ;
287 -> 288 ;
289 [label="entropy = 0.954\nsamples = 8\nvalue = [3, 5]"] ;
288 -> 289 ;
290 [label="entropy = 0.0\nsamples = 1\nvalue = [1, 0]"] ;
288 -> 290 ;
291 [label="entropy = 0.0\nsamples = 6\nvalue = [0, 6]"] ;
287 -> 291 ;
292 [label="entropy = 0.0\nsamples = 2\nvalue = [2, 0]"] ;
280 -> 292 ;
293 [label="oucontent_3 <= 0.5\nentropy = 0.567\nsamples = 15\nvalue = [13, 2]"] ;
279 -> 293 ;
294 [label="entropy = 0.0\nsamples = 11\nvalue = [11, 0]"] ;
293 -> 294 ;
295 [label="homepage_3 <= 0.5\nentropy = 1.0\nsamples = 4\nvalue = [2, 2]"] ;
293 -> 295 ;
296 [label="entropy = 0.0\nsamples = 1\nvalue = [0, 1]"] ;
295 -> 296 ;
297 [label="acumneg_2 <= 0.5\nentropy = 0.918\nsamples = 3\nvalue = [2, 1]"] ;
295 -> 297 ;
298 [label="entropy = 0.0\nsamples = 2\nvalue = [2, 0]"] ;
297 -> 298 ;
299 [label="entropy = 0.0\nsamples = 1\nvalue = [0, 1]"] ;
297 -> 299 ;
300 [label="entropy = 0.0\nsamples = 8\nvalue = [0, 8]"] ;
278 -> 300 ;
301 [label="ouwiki_0 <= 0.5\nentropy = 0.854\nsamples = 43\nvalue = [31, 12]"] ;
277 -> 301 ;
302 [label="url_1 <= 0.5\nentropy = 0.954\nsamples = 32\nvalue = [20, 12]"] ;
301 -> 302 ;
303 [label="resource_2 <= 0.5\nentropy = 0.863\nsamples = 28\nvalue = [20, 8]"] ;
302 -> 303 ;
304 [label="oucontent_3 <= 0.5\nentropy = 0.946\nsamples = 22\nvalue = [14, 8]"] ;
303 -> 304 ;
305 [label="resource_4 <= 0.5\nentropy = 0.946\nsamples = 11\nvalue = [4, 7]"] ;
304 -> 305 ;
306 [label="oucontent_1 <= 0.5\nentropy = 0.918\nsamples = 6\nvalue = [4, 2]"] ;
305 -> 306 ;
307 [label="entropy = 0.722\nsamples = 5\nvalue = [4, 1]"] ;
306 -> 307 ;
308 [label="entropy = 0.0\nsamples = 1\nvalue = [0, 1]"] ;
306 -> 308 ;
309 [label="entropy = 0.0\nsamples = 5\nvalue = [0, 5]"] ;
305 -> 309 ;
310 [label="subpage_4 <= 0.5\nentropy = 0.439\nsamples = 11\nvalue = [10, 1]"] ;
304 -> 310 ;
311 [label="entropy = 0.0\nsamples = 1\nvalue = [0, 1]"] ;
310 -> 311 ;
312 [label="entropy = 0.0\nsamples = 10\nvalue = [10, 0]"] ;
310 -> 312 ;
313 [label="entropy = 0.0\nsamples = 6\nvalue = [6, 0]"] ;
303 -> 313 ;
314 [label="entropy = 0.0\nsamples = 4\nvalue = [0, 4]"] ;
302 -> 314 ;
315 [label="entropy = 0.0\nsamples = 11\nvalue = [11, 0]"] ;
301 -> 315 ;
316 [label="entropy = 0.0\nsamples = 4\nvalue = [4, 0]"] ;
276 -> 316 ;
317 [label="oucontent_1 <= 0.5\nentropy = 0.893\nsamples = 42\nvalue = [13, 29]"] ;
275 -> 317 ;
318 [label="acumneg_3 <= 0.5\nentropy = 0.821\nsamples = 39\nvalue = [10, 29]"] ;
317 -> 318 ;
319 [label="subpage_3 <= 0.5\nentropy = 0.65\nsamples = 30\nvalue = [5, 25]"] ;
318 -> 319 ;
320 [label="entropy = 0.0\nsamples = 17\nvalue = [0, 17]"] ;
319 -> 320 ;
321 [label="url_3 <= 0.5\nentropy = 0.961\nsamples = 13\nvalue = [5, 8]"] ;
319 -> 321 ;
322 [label="acumneg_1 <= 0.5\nentropy = 0.722\nsamples = 10\nvalue = [2, 8]"] ;
321 -> 322 ;
323 [label="entropy = 0.0\nsamples = 8\nvalue = [0, 8]"] ;
322 -> 323 ;
324 [label="entropy = 0.0\nsamples = 2\nvalue = [2, 0]"] ;
322 -> 324 ;
325 [label="entropy = 0.0\nsamples = 3\nvalue = [3, 0]"] ;
321 -> 325 ;
326 [label="subpage_2 <= 0.5\nentropy = 0.991\nsamples = 9\nvalue = [5, 4]"] ;
318 -> 326 ;
327 [label="entropy = 0.0\nsamples = 3\nvalue = [0, 3]"] ;
326 -> 327 ;
328 [label="url_1 <= 0.5\nentropy = 0.65\nsamples = 6\nvalue = [5, 1]"] ;
326 -> 328 ;
329 [label="entropy = 0.0\nsamples = 1\nvalue = [0, 1]"] ;
328 -> 329 ;
330 [label="entropy = 0.0\nsamples = 5\nvalue = [5, 0]"] ;
328 -> 330 ;
331 [label="entropy = 0.0\nsamples = 3\nvalue = [3, 0]"] ;
317 -> 331 ;
332 [label="url_0 <= 0.5\nentropy = 0.923\nsamples = 74\nvalue = [25, 49]"] ;
274 -> 332 ;
333 [label="resource_2 <= 0.5\nentropy = 0.945\nsamples = 69\nvalue = [25, 44]"] ;
332 -> 333 ;
334 [label="acumneg_1 <= 0.5\nentropy = 0.961\nsamples = 65\nvalue = [25, 40]"] ;
333 -> 334 ;
335 [label="oucontent_3 <= 0.5\nentropy = 0.924\nsamples = 56\nvalue = [19, 37]"] ;
334 -> 335 ;
336 [label="acumg_3 <= 0.5\nentropy = 0.797\nsamples = 29\nvalue = [7, 22]"] ;
335 -> 336 ;
337 [label="entropy = 0.0\nsamples = 17\nvalue = [0, 17]"] ;
336 -> 337 ;
338 [label="acumneg_4 <= 0.5\nentropy = 0.98\nsamples = 12\nvalue = [7, 5]"] ;
336 -> 338 ;
339 [label="homepage_3 <= 0.5\nentropy = 0.881\nsamples = 10\nvalue = [7, 3]"] ;
338 -> 339 ;
340 [label="entropy = 0.0\nsamples = 1\nvalue = [0, 1]"] ;
339 -> 340 ;
341 [label="acumneg_2 <= 0.5\nentropy = 0.764\nsamples = 9\nvalue = [7, 2]"] ;
339 -> 341 ;
342 [label="forumng_2 <= 0.5\nentropy = 0.918\nsamples = 6\nvalue = [4, 2]"] ;
341 -> 342 ;
343 [label="entropy = 0.722\nsamples = 5\nvalue = [4, 1]"] ;
342 -> 343 ;
344 [label="entropy = 0.0\nsamples = 1\nvalue = [0, 1]"] ;
342 -> 344 ;
345 [label="entropy = 0.0\nsamples = 3\nvalue = [3, 0]"] ;
341 -> 345 ;
346 [label="entropy = 0.0\nsamples = 2\nvalue = [0, 2]"] ;
338 -> 346 ;
347 [label="acumg_2 <= 0.5\nentropy = 0.991\nsamples = 27\nvalue = [12, 15]"] ;
335 -> 347 ;
348 [label="acumneg_4 <= 0.5\nentropy = 0.722\nsamples = 15\nvalue = [3, 12]"] ;
347 -> 348 ;
349 [label="acumneg_3 <= 0.5\nentropy = 0.592\nsamples = 14\nvalue = [2, 12]"] ;
348 -> 349 ;
350 [label="entropy = 0.0\nsamples = 7\nvalue = [0, 7]"] ;
349 -> 350 ;
351 [label="glossary_0 <= 0.5\nentropy = 0.863\nsamples = 7\nvalue = [2, 5]"] ;
349 -> 351 ;
352 [label="entropy = 1.0\nsamples = 2\nvalue = [1, 1]"] ;
351 -> 352 ;
353 [label="url_3 <= 0.5\nentropy = 0.722\nsamples = 5\nvalue = [1, 4]"] ;
351 -> 353 ;
354 [label="entropy = 0.811\nsamples = 4\nvalue = [1, 3]"] ;
353 -> 354 ;
355 [label="entropy = 0.0\nsamples = 1\nvalue = [0, 1]"] ;
353 -> 355 ;
356 [label="entropy = 0.0\nsamples = 1\nvalue = [1, 0]"] ;
348 -> 356 ;
357 [label="forumng_3 <= 0.5\nentropy = 0.811\nsamples = 12\nvalue = [9, 3]"] ;
347 -> 357 ;
358 [label="acumneg_3 <= 0.5\nentropy = 0.954\nsamples = 8\nvalue = [5, 3]"] ;
357 -> 358 ;
359 [label="resource_3 <= 0.5\nentropy = 0.863\nsamples = 7\nvalue = [5, 2]"] ;
358 -> 359 ;
360 [label="url_3 <= 0.5\nentropy = 0.971\nsamples = 5\nvalue = [3, 2]"] ;
359 -> 360 ;
361 [label="entropy = 0.0\nsamples = 1\nvalue = [1, 0]"] ;
360 -> 361 ;
362 [label="entropy = 1.0\nsamples = 4\nvalue = [2, 2]"] ;
360 -> 362 ;
363 [label="entropy = 0.0\nsamples = 2\nvalue = [2, 0]"] ;
359 -> 363 ;
364 [label="entropy = 0.0\nsamples = 1\nvalue = [0, 1]"] ;
358 -> 364 ;
365 [label="entropy = 0.0\nsamples = 4\nvalue = [4, 0]"] ;
357 -> 365 ;
366 [label="ouwiki_1 <= 0.5\nentropy = 0.918\nsamples = 9\nvalue = [6, 3]"] ;
334 -> 366 ;
367 [label="entropy = 0.0\nsamples = 3\nvalue = [0, 3]"] ;
366 -> 367 ;
368 [label="entropy = 0.0\nsamples = 6\nvalue = [6, 0]"] ;
366 -> 368 ;
369 [label="entropy = 0.0\nsamples = 4\nvalue = [0, 4]"] ;
333 -> 369 ;
370 [label="entropy = 0.0\nsamples = 5\nvalue = [0, 5]"] ;
332 -> 370 ;
371 [label="glossary_0 <= 0.5\nentropy = 0.97\nsamples = 93\nvalue = [56, 37]"] ;
273 -> 371 ;
372 [label="oucontent_2 <= 0.5\nentropy = 0.896\nsamples = 16\nvalue = [5, 11]"] ;
371 -> 372 ;
373 [label="entropy = 0.0\nsamples = 8\nvalue = [0, 8]"] ;
372 -> 373 ;
374 [label="subpage_4 <= 0.5\nentropy = 0.954\nsamples = 8\nvalue = [5, 3]"] ;
372 -> 374 ;
375 [label="forumng_1 <= 0.5\nentropy = 0.65\nsamples = 6\nvalue = [5, 1]"] ;
374 -> 375 ;
376 [label="entropy = 0.0\nsamples = 5\nvalue = [5, 0]"] ;
375 -> 376 ;
377 [label="entropy = 0.0\nsamples = 1\nvalue = [0, 1]"] ;
375 -> 377 ;
378 [label="entropy = 0.0\nsamples = 2\nvalue = [0, 2]"] ;
374 -> 378 ;
379 [label="oucontent_3 <= 0.5\nentropy = 0.923\nsamples = 77\nvalue = [51, 26]"] ;
371 -> 379 ;
380 [label="subpage_0 <= 0.5\nentropy = 0.82\nsamples = 43\nvalue = [32, 11]"] ;
379 -> 380 ;
381 [label="resource_1 <= 0.5\nentropy = 0.792\nsamples = 42\nvalue = [32, 10]"] ;
380 -> 381 ;
382 [label="acumneg_0 <= 0.5\nentropy = 0.874\nsamples = 34\nvalue = [24, 10]"] ;
381 -> 382 ;
383 [label="acumneg_1 <= 0.5\nentropy = 0.929\nsamples = 29\nvalue = [19, 10]"] ;
382 -> 383 ;
384 [label="forumng_3 <= 0.5\nentropy = 0.993\nsamples = 20\nvalue = [11, 9]"] ;
383 -> 384 ;
385 [label="entropy = 0.0\nsamples = 3\nvalue = [0, 3]"] ;
384 -> 385 ;
386 [label="resource_4 <= 0.5\nentropy = 0.937\nsamples = 17\nvalue = [11, 6]"] ;
384 -> 386 ;
387 [label="oucollaborate <= 0.5\nentropy = 0.837\nsamples = 15\nvalue = [11, 4]"] ;
386 -> 387 ;
388 [label="resource_3 <= 0.5\nentropy = 1.0\nsamples = 6\nvalue = [3, 3]"] ;
387 -> 388 ;
389 [label="entropy = 0.811\nsamples = 4\nvalue = [3, 1]"] ;
388 -> 389 ;
390 [label="entropy = 0.0\nsamples = 2\nvalue = [0, 2]"] ;
388 -> 390 ;
391 [label="oucontent_1 <= 0.5\nentropy = 0.503\nsamples = 9\nvalue = [8, 1]"] ;
387 -> 391 ;
392 [label="entropy = 0.0\nsamples = 8\nvalue = [8, 0]"] ;
391 -> 392 ;
393 [label="entropy = 0.0\nsamples = 1\nvalue = [0, 1]"] ;
391 -> 393 ;
394 [label="entropy = 0.0\nsamples = 2\nvalue = [0, 2]"] ;
386 -> 394 ;
395 [label="forumng_2 <= 0.5\nentropy = 0.503\nsamples = 9\nvalue = [8, 1]"] ;
383 -> 395 ;
396 [label="entropy = 0.0\nsamples = 6\nvalue = [6, 0]"] ;
395 -> 396 ;
397 [label="homepage_1 <= 0.5\nentropy = 0.918\nsamples = 3\nvalue = [2, 1]"] ;
395 -> 397 ;
398 [label="entropy = 0.0\nsamples = 1\nvalue = [0, 1]"] ;
397 -> 398 ;
399 [label="entropy = 0.0\nsamples = 2\nvalue = [2, 0]"] ;
397 -> 399 ;
400 [label="entropy = 0.0\nsamples = 5\nvalue = [5, 0]"] ;
382 -> 400 ;
401 [label="entropy = 0.0\nsamples = 8\nvalue = [8, 0]"] ;
381 -> 401 ;
402 [label="entropy = 0.0\nsamples = 1\nvalue = [0, 1]"] ;
380 -> 402 ;
403 [label="forumng_3 <= 0.5\nentropy = 0.99\nsamples = 34\nvalue = [19, 15]"] ;
379 -> 403 ;
404 [label="acumneg_3 <= 0.5\nentropy = 0.902\nsamples = 22\nvalue = [15, 7]"] ;
403 -> 404 ;
405 [label="acumneg_4 <= 0.5\nentropy = 1.0\nsamples = 12\nvalue = [6, 6]"] ;
404 -> 405 ;
406 [label="subpage_2 <= 0.5\nentropy = 0.971\nsamples = 10\nvalue = [4, 6]"] ;
405 -> 406 ;
407 [label="oucollaborate <= 0.5\nentropy = 0.985\nsamples = 7\nvalue = [4, 3]"] ;
406 -> 407 ;
408 [label="ouwiki_1 <= 0.5\nentropy = 0.971\nsamples = 5\nvalue = [2, 3]"] ;
407 -> 408 ;
409 [label="entropy = 0.0\nsamples = 2\nvalue = [2, 0]"] ;
408 -> 409 ;
410 [label="entropy = 0.0\nsamples = 3\nvalue = [0, 3]"] ;
408 -> 410 ;
411 [label="entropy = 0.0\nsamples = 2\nvalue = [2, 0]"] ;
407 -> 411 ;
412 [label="entropy = 0.0\nsamples = 3\nvalue = [0, 3]"] ;
406 -> 412 ;
413 [label="entropy = 0.0\nsamples = 2\nvalue = [2, 0]"] ;
405 -> 413 ;
414 [label="oucollaborate <= 0.5\nentropy = 0.469\nsamples = 10\nvalue = [9, 1]"] ;
404 -> 414 ;
415 [label="entropy = 0.0\nsamples = 8\nvalue = [8, 0]"] ;
414 -> 415 ;
416 [label="homepage_3 <= 0.5\nentropy = 1.0\nsamples = 2\nvalue = [1, 1]"] ;
414 -> 416 ;
417 [label="entropy = 0.0\nsamples = 1\nvalue = [1, 0]"] ;
416 -> 417 ;
418 [label="entropy = 0.0\nsamples = 1\nvalue = [0, 1]"] ;
416 -> 418 ;
419 [label="acumneg_2 <= 0.5\nentropy = 0.918\nsamples = 12\nvalue = [4, 8]"] ;
403 -> 419 ;
420 [label="resource_3 <= 0.5\nentropy = 0.722\nsamples = 10\nvalue = [2, 8]"] ;
419 -> 420 ;
421 [label="entropy = 0.0\nsamples = 7\nvalue = [0, 7]"] ;
420 -> 421 ;
422 [label="acumneg_3 <= 0.5\nentropy = 0.918\nsamples = 3\nvalue = [2, 1]"] ;
420 -> 422 ;
423 [label="entropy = 0.0\nsamples = 2\nvalue = [2, 0]"] ;
422 -> 423 ;
424 [label="entropy = 0.0\nsamples = 1\nvalue = [0, 1]"] ;
422 -> 424 ;
425 [label="entropy = 0.0\nsamples = 2\nvalue = [2, 0]"] ;
419 -> 425 ;
426 [label="acumg_2 <= 0.5\nentropy = 0.784\nsamples = 30\nvalue = [7, 23]"] ;
272 -> 426 ;
427 [label="acumneg_4 <= 0.5\nentropy = 0.677\nsamples = 28\nvalue = [5, 23]"] ;
426 -> 427 ;
428 [label="ouwiki_1 <= 0.5\nentropy = 0.918\nsamples = 15\nvalue = [5, 10]"] ;
427 -> 428 ;
429 [label="entropy = 0.0\nsamples = 2\nvalue = [2, 0]"] ;
428 -> 429 ;
430 [label="acumneg_3 <= 0.5\nentropy = 0.779\nsamples = 13\nvalue = [3, 10]"] ;
428 -> 430 ;
431 [label="entropy = 0.0\nsamples = 5\nvalue = [0, 5]"] ;
430 -> 431 ;
432 [label="glossary_1 <= 0.5\nentropy = 0.954\nsamples = 8\nvalue = [3, 5]"] ;
430 -> 432 ;
433 [label="resource_3 <= 0.5\nentropy = 1.0\nsamples = 6\nvalue = [3, 3]"] ;
432 -> 433 ;
434 [label="oucontent_3 <= 0.5\nentropy = 0.811\nsamples = 4\nvalue = [1, 3]"] ;
433 -> 434 ;
435 [label="entropy = 0.0\nsamples = 1\nvalue = [1, 0]"] ;
434 -> 435 ;
436 [label="entropy = 0.0\nsamples = 3\nvalue = [0, 3]"] ;
434 -> 436 ;
437 [label="entropy = 0.0\nsamples = 2\nvalue = [2, 0]"] ;
433 -> 437 ;
438 [label="entropy = 0.0\nsamples = 2\nvalue = [0, 2]"] ;
432 -> 438 ;
439 [label="entropy = 0.0\nsamples = 13\nvalue = [0, 13]"] ;
427 -> 439 ;
440 [label="entropy = 0.0\nsamples = 2\nvalue = [2, 0]"] ;
426 -> 440 ;
441 [label="subpage_3 <= 0.5\nentropy = 0.785\nsamples = 94\nvalue = [22, 72]"] ;
271 -> 441 ;
442 [label="acumg_3 <= 0.5\nentropy = 0.863\nsamples = 70\nvalue = [20, 50]"] ;
441 -> 442 ;
443 [label="entropy = 0.0\nsamples = 4\nvalue = [4, 0]"] ;
442 -> 443 ;
444 [label="oucontent_1 <= 0.5\nentropy = 0.799\nsamples = 66\nvalue = [16, 50]"] ;
442 -> 444 ;
445 [label="oucollaborate <= 0.5\nentropy = 0.856\nsamples = 57\nvalue = [16, 41]"] ;
444 -> 445 ;
446 [label="entropy = 0.0\nsamples = 7\nvalue = [0, 7]"] ;
445 -> 446 ;
447 [label="homepage_3 <= 0.5\nentropy = 0.904\nsamples = 50\nvalue = [16, 34]"] ;
445 -> 447 ;
448 [label="acumneg_2 <= 0.5\nentropy = 0.963\nsamples = 31\nvalue = [12, 19]"] ;
447 -> 448 ;
449 [label="url_4 <= 0.5\nentropy = 0.871\nsamples = 24\nvalue = [7, 17]"] ;
448 -> 449 ;
450 [label="entropy = 0.0\nsamples = 7\nvalue = [0, 7]"] ;
449 -> 450 ;
451 [label="resource_4 <= 0.5\nentropy = 0.977\nsamples = 17\nvalue = [7, 10]"] ;
449 -> 451 ;
452 [label="glossary_1 <= 0.5\nentropy = 0.811\nsamples = 4\nvalue = [3, 1]"] ;
451 -> 452 ;
453 [label="entropy = 0.0\nsamples = 1\nvalue = [0, 1]"] ;
452 -> 453 ;
454 [label="entropy = 0.0\nsamples = 3\nvalue = [3, 0]"] ;
452 -> 454 ;
455 [label="acumneg_3 <= 0.5\nentropy = 0.89\nsamples = 13\nvalue = [4, 9]"] ;
451 -> 455 ;
456 [label="oucontent_3 <= 0.5\nentropy = 0.811\nsamples = 12\nvalue = [3, 9]"] ;
455 -> 456 ;
457 [label="glossary_0 <= 0.5\nentropy = 0.985\nsamples = 7\nvalue = [3, 4]"] ;
456 -> 457 ;
458 [label="entropy = 0.971\nsamples = 5\nvalue = [2, 3]"] ;
457 -> 458 ;
459 [label="entropy = 1.0\nsamples = 2\nvalue = [1, 1]"] ;
457 -> 459 ;
460 [label="entropy = 0.0\nsamples = 5\nvalue = [0, 5]"] ;
456 -> 460 ;
461 [label="entropy = 0.0\nsamples = 1\nvalue = [1, 0]"] ;
455 -> 461 ;
462 [label="resource_4 <= 0.5\nentropy = 0.863\nsamples = 7\nvalue = [5, 2]"] ;
448 -> 462 ;
463 [label="entropy = 0.0\nsamples = 2\nvalue = [0, 2]"] ;
462 -> 463 ;
464 [label="entropy = 0.0\nsamples = 5\nvalue = [5, 0]"] ;
462 -> 464 ;
465 [label="resource_3 <= 0.5\nentropy = 0.742\nsamples = 19\nvalue = [4, 15]"] ;
447 -> 465 ;
466 [label="entropy = 0.0\nsamples = 11\nvalue = [0, 11]"] ;
465 -> 466 ;
467 [label="acumneg_4 <= 0.5\nentropy = 1.0\nsamples = 8\nvalue = [4, 4]"] ;
465 -> 467 ;
468 [label="url_3 <= 0.5\nentropy = 0.918\nsamples = 6\nvalue = [2, 4]"] ;
467 -> 468 ;
469 [label="entropy = 0.0\nsamples = 3\nvalue = [0, 3]"] ;
468 -> 469 ;
470 [label="entropy = 0.918\nsamples = 3\nvalue = [2, 1]"] ;
468 -> 470 ;
471 [label="entropy = 0.0\nsamples = 2\nvalue = [2, 0]"] ;
467 -> 471 ;
472 [label="entropy = 0.0\nsamples = 9\nvalue = [0, 9]"] ;
444 -> 472 ;
473 [label="oucollaborate <= 0.5\nentropy = 0.414\nsamples = 24\nvalue = [2, 22]"] ;
441 -> 473 ;
474 [label="resource_2 <= 0.5\nentropy = 0.722\nsamples = 10\nvalue = [2, 8]"] ;
473 -> 474 ;
475 [label="resource_3 <= 0.5\nentropy = 0.503\nsamples = 9\nvalue = [1, 8]"] ;
474 -> 475 ;
476 [label="entropy = 0.0\nsamples = 7\nvalue = [0, 7]"] ;
475 -> 476 ;
477 [label="url_3 <= 0.5\nentropy = 1.0\nsamples = 2\nvalue = [1, 1]"] ;
475 -> 477 ;
478 [label="entropy = 0.0\nsamples = 1\nvalue = [1, 0]"] ;
477 -> 478 ;
479 [label="entropy = 0.0\nsamples = 1\nvalue = [0, 1]"] ;
477 -> 479 ;
480 [label="entropy = 0.0\nsamples = 1\nvalue = [1, 0]"] ;
474 -> 480 ;
481 [label="entropy = 0.0\nsamples = 14\nvalue = [0, 14]"] ;
473 -> 481 ;
482 [label="dataplus <= 0.5\nentropy = 0.595\nsamples = 611\nvalue = [88, 523]"] ;
2 -> 482 ;
483 [label="quiz_2 <= 0.5\nentropy = 0.748\nsamples = 342\nvalue = [73, 269]"] ;
482 -> 483 ;
484 [label="oucontent_0 <= 0.5\nentropy = 0.869\nsamples = 238\nvalue = [69, 169]"] ;
483 -> 484 ;
485 [label="url_3 <= 0.5\nentropy = 0.857\nsamples = 235\nvalue = [66, 169]"] ;
484 -> 485 ;
486 [label="subpage_1 <= 0.5\nentropy = 0.747\nsamples = 122\nvalue = [26, 96]"] ;
485 -> 486 ;
487 [label="acumneg_4 <= 0.5\nentropy = 0.697\nsamples = 117\nvalue = [22, 95]"] ;
486 -> 487 ;
488 [label="oucollaborate <= 0.5\nentropy = 0.491\nsamples = 56\nvalue = [6, 50]"] ;
487 -> 488 ;
489 [label="url_4 <= 0.5\nentropy = 0.709\nsamples = 31\nvalue = [6, 25]"] ;
488 -> 489 ;
490 [label="entropy = 0.0\nsamples = 14\nvalue = [0, 14]"] ;
489 -> 490 ;
491 [label="resource_3 <= 0.5\nentropy = 0.937\nsamples = 17\nvalue = [6, 11]"] ;
489 -> 491 ;
492 [label="homepage_4 <= 0.5\nentropy = 0.994\nsamples = 11\nvalue = [6, 5]"] ;
491 -> 492 ;
493 [label="entropy = 0.0\nsamples = 2\nvalue = [0, 2]"] ;
492 -> 493 ;
494 [label="oucontent_4 <= 0.5\nentropy = 0.918\nsamples = 9\nvalue = [6, 3]"] ;
492 -> 494 ;
495 [label="subpage_3 <= 0.5\nentropy = 1.0\nsamples = 6\nvalue = [3, 3]"] ;
494 -> 495 ;
496 [label="entropy = 0.0\nsamples = 3\nvalue = [0, 3]"] ;
495 -> 496 ;
497 [label="entropy = 0.0\nsamples = 3\nvalue = [3, 0]"] ;
495 -> 497 ;
498 [label="entropy = 0.0\nsamples = 3\nvalue = [3, 0]"] ;
494 -> 498 ;
499 [label="entropy = 0.0\nsamples = 6\nvalue = [0, 6]"] ;
491 -> 499 ;
500 [label="entropy = 0.0\nsamples = 25\nvalue = [0, 25]"] ;
488 -> 500 ;
501 [label="oucontent_4 <= 0.5\nentropy = 0.83\nsamples = 61\nvalue = [16, 45]"] ;
487 -> 501 ;
502 [label="glossary_0 <= 0.5\nentropy = 0.602\nsamples = 34\nvalue = [5, 29]"] ;
501 -> 502 ;
503 [label="url_4 <= 0.5\nentropy = 0.811\nsamples = 20\nvalue = [5, 15]"] ;
502 -> 503 ;
504 [label="entropy = 0.0\nsamples = 1\nvalue = [1, 0]"] ;
503 -> 504 ;
505 [label="oucontent_3 <= 0.5\nentropy = 0.742\nsamples = 19\nvalue = [4, 15]"] ;
503 -> 505 ;
506 [label="oucollaborate <= 0.5\nentropy = 0.544\nsamples = 16\nvalue = [2, 14]"] ;
505 -> 506 ;
507 [label="entropy = 0.0\nsamples = 2\nvalue = [0, 2]"] ;
506 -> 507 ;
508 [label="homepage_3 <= 0.5\nentropy = 0.592\nsamples = 14\nvalue = [2, 12]"] ;
506 -> 508 ;
509 [label="forumng_3 <= 0.5\nentropy = 0.65\nsamples = 12\nvalue = [2, 10]"] ;
508 -> 509 ;
510 [label="entropy = 0.722\nsamples = 10\nvalue = [2, 8]"] ;
509 -> 510 ;
511 [label="entropy = 0.0\nsamples = 2\nvalue = [0, 2]"] ;
509 -> 511 ;
512 [label="entropy = 0.0\nsamples = 2\nvalue = [0, 2]"] ;
508 -> 512 ;
513 [label="entropy = 0.918\nsamples = 3\nvalue = [2, 1]"] ;
505 -> 513 ;
514 [label="entropy = 0.0\nsamples = 14\nvalue = [0, 14]"] ;
502 -> 514 ;
515 [label="subpage_3 <= 0.5\nentropy = 0.975\nsamples = 27\nvalue = [11, 16]"] ;
501 -> 515 ;
516 [label="ouwiki_1 <= 0.5\nentropy = 0.99\nsamples = 25\nvalue = [11, 14]"] ;
515 -> 516 ;
517 [label="page_0 <= 0.5\nentropy = 0.954\nsamples = 8\nvalue = [5, 3]"] ;
516 -> 517 ;
518 [label="glossary_1 <= 0.5\nentropy = 0.971\nsamples = 5\nvalue = [2, 3]"] ;
517 -> 518 ;
519 [label="oucollaborate <= 0.5\nentropy = 1.0\nsamples = 4\nvalue = [2, 2]"] ;
518 -> 519 ;
520 [label="url_4 <= 0.5\nentropy = 0.918\nsamples = 3\nvalue = [1, 2]"] ;
519 -> 520 ;
521 [label="entropy = 1.0\nsamples = 2\nvalue = [1, 1]"] ;
520 -> 521 ;
522 [label="entropy = 0.0\nsamples = 1\nvalue = [0, 1]"] ;
520 -> 522 ;
523 [label="entropy = 0.0\nsamples = 1\nvalue = [1, 0]"] ;
519 -> 523 ;
524 [label="entropy = 0.0\nsamples = 1\nvalue = [0, 1]"] ;
518 -> 524 ;
525 [label="entropy = 0.0\nsamples = 3\nvalue = [3, 0]"] ;
517 -> 525 ;
526 [label="url_2 <= 0.5\nentropy = 0.937\nsamples = 17\nvalue = [6, 11]"] ;
516 -> 526 ;
527 [label="forumng_4 <= 0.5\nentropy = 0.896\nsamples = 16\nvalue = [5, 11]"] ;
526 -> 527 ;
528 [label="entropy = 0.0\nsamples = 1\nvalue = [0, 1]"] ;
527 -> 528 ;
529 [label="page_1 <= 0.5\nentropy = 0.918\nsamples = 15\nvalue = [5, 10]"] ;
527 -> 529 ;
530 [label="entropy = 1.0\nsamples = 4\nvalue = [2, 2]"] ;
529 -> 530 ;
531 [label="resource_3 <= 0.5\nentropy = 0.845\nsamples = 11\nvalue = [3, 8]"] ;
529 -> 531 ;
532 [label="entropy = 0.0\nsamples = 2\nvalue = [0, 2]"] ;
531 -> 532 ;
533 [label="oucollaborate <= 0.5\nentropy = 0.918\nsamples = 9\nvalue = [3, 6]"] ;
531 -> 533 ;
534 [label="glossary_0 <= 0.5\nentropy = 0.971\nsamples = 5\nvalue = [2, 3]"] ;
533 -> 534 ;
535 [label="entropy = 0.0\nsamples = 2\nvalue = [0, 2]"] ;
534 -> 535 ;
536 [label="entropy = 0.918\nsamples = 3\nvalue = [2, 1]"] ;
534 -> 536 ;
537 [label="glossary_1 <= 0.5\nentropy = 0.811\nsamples = 4\nvalue = [1, 3]"] ;
533 -> 537 ;
538 [label="entropy = 0.0\nsamples = 3\nvalue = [0, 3]"] ;
537 -> 538 ;
539 [label="entropy = 0.0\nsamples = 1\nvalue = [1, 0]"] ;
537 -> 539 ;
540 [label="entropy = 0.0\nsamples = 1\nvalue = [1, 0]"] ;
526 -> 540 ;
541 [label="entropy = 0.0\nsamples = 2\nvalue = [0, 2]"] ;
515 -> 541 ;
542 [label="resource_2 <= 0.5\nentropy = 0.722\nsamples = 5\nvalue = [4, 1]"] ;
486 -> 542 ;
543 [label="entropy = 0.0\nsamples = 4\nvalue = [4, 0]"] ;
542 -> 543 ;
544 [label="entropy = 0.0\nsamples = 1\nvalue = [0, 1]"] ;
542 -> 544 ;
545 [label="subpage_4 <= 0.5\nentropy = 0.938\nsamples = 113\nvalue = [40, 73]"] ;
485 -> 545 ;
546 [label="acumneg_3 <= 0.5\nentropy = 0.65\nsamples = 24\nvalue = [4, 20]"] ;
545 -> 546 ;
547 [label="entropy = 0.0\nsamples = 16\nvalue = [0, 16]"] ;
546 -> 547 ;
548 [label="glossary_0 <= 0.5\nentropy = 1.0\nsamples = 8\nvalue = [4, 4]"] ;
546 -> 548 ;
549 [label="entropy = 0.0\nsamples = 2\nvalue = [2, 0]"] ;
548 -> 549 ;
550 [label="page_1 <= 0.5\nentropy = 0.918\nsamples = 6\nvalue = [2, 4]"] ;
548 -> 550 ;
551 [label="entropy = 0.0\nsamples = 3\nvalue = [0, 3]"] ;
550 -> 551 ;
552 [label="oucollaborate <= 0.5\nentropy = 0.918\nsamples = 3\nvalue = [2, 1]"] ;
550 -> 552 ;
553 [label="entropy = 0.0\nsamples = 2\nvalue = [2, 0]"] ;
552 -> 553 ;
554 [label="entropy = 0.0\nsamples = 1\nvalue = [0, 1]"] ;
552 -> 554 ;
555 [label="quiz_3 <= 0.5\nentropy = 0.974\nsamples = 89\nvalue = [36, 53]"] ;
545 -> 555 ;
556 [label="entropy = 0.0\nsamples = 6\nvalue = [0, 6]"] ;
555 -> 556 ;
557 [label="folder <= 0.5\nentropy = 0.987\nsamples = 83\nvalue = [36, 47]"] ;
555 -> 557 ;
558 [label="entropy = 0.0\nsamples = 8\nvalue = [8, 0]"] ;
557 -> 558 ;
559 [label="homepage_3 <= 0.5\nentropy = 0.953\nsamples = 75\nvalue = [28, 47]"] ;
557 -> 559 ;
560 [label="acumneg_1 <= 0.5\nentropy = 0.837\nsamples = 45\nvalue = [12, 33]"] ;
559 -> 560 ;
561 [label="forumng_3 <= 0.5\nentropy = 0.639\nsamples = 37\nvalue = [6, 31]"] ;
560 -> 561 ;
562 [label="oucollaborate <= 0.5\nentropy = 0.845\nsamples = 22\nvalue = [6, 16]"] ;
561 -> 562 ;
563 [label="forumng_4 <= 0.5\nentropy = 0.391\nsamples = 13\nvalue = [1, 12]"] ;
562 -> 563 ;
564 [label="page_0 <= 0.5\nentropy = 1.0\nsamples = 2\nvalue = [1, 1]"] ;
563 -> 564 ;
565 [label="entropy = 0.0\nsamples = 1\nvalue = [1, 0]"] ;
564 -> 565 ;
566 [label="entropy = 0.0\nsamples = 1\nvalue = [0, 1]"] ;
564 -> 566 ;
567 [label="entropy = 0.0\nsamples = 11\nvalue = [0, 11]"] ;
563 -> 567 ;
568 [label="ouwiki_1 <= 0.5\nentropy = 0.991\nsamples = 9\nvalue = [5, 4]"] ;
562 -> 568 ;
569 [label="acumneg_0 <= 0.5\nentropy = 0.863\nsamples = 7\nvalue = [5, 2]"] ;
568 -> 569 ;
570 [label="acumneg_2 <= 0.5\nentropy = 0.65\nsamples = 6\nvalue = [5, 1]"] ;
569 -> 570 ;
571 [label="entropy = 0.811\nsamples = 4\nvalue = [3, 1]"] ;
570 -> 571 ;
572 [label="entropy = 0.0\nsamples = 2\nvalue = [2, 0]"] ;
570 -> 572 ;
573 [label="entropy = 0.0\nsamples = 1\nvalue = [0, 1]"] ;
569 -> 573 ;
574 [label="entropy = 0.0\nsamples = 2\nvalue = [0, 2]"] ;
568 -> 574 ;
575 [label="entropy = 0.0\nsamples = 15\nvalue = [0, 15]"] ;
561 -> 575 ;
576 [label="oucollaborate <= 0.5\nentropy = 0.811\nsamples = 8\nvalue = [6, 2]"] ;
560 -> 576 ;
577 [label="ouwiki_1 <= 0.5\nentropy = 1.0\nsamples = 4\nvalue = [2, 2]"] ;
576 -> 577 ;
578 [label="entropy = 0.0\nsamples = 2\nvalue = [0, 2]"] ;
577 -> 578 ;
579 [label="entropy = 0.0\nsamples = 2\nvalue = [2, 0]"] ;
577 -> 579 ;
580 [label="entropy = 0.0\nsamples = 4\nvalue = [4, 0]"] ;
576 -> 580 ;
581 [label="page_1 <= 0.5\nentropy = 0.997\nsamples = 30\nvalue = [16, 14]"] ;
559 -> 581 ;
582 [label="entropy = 0.0\nsamples = 3\nvalue = [0, 3]"] ;
581 -> 582 ;
583 [label="resource_4 <= 0.5\nentropy = 0.975\nsamples = 27\nvalue = [16, 11]"] ;
581 -> 583 ;
584 [label="oucollaborate <= 0.5\nentropy = 0.881\nsamples = 20\nvalue = [14, 6]"] ;
583 -> 584 ;
585 [label="acumneg_1 <= 0.5\nentropy = 0.954\nsamples = 16\nvalue = [10, 6]"] ;
584 -> 585 ;
586 [label="forumng_4 <= 0.5\nentropy = 0.918\nsamples = 15\nvalue = [10, 5]"] ;
585 -> 586 ;
587 [label="resource_1 <= 0.5\nentropy = 0.811\nsamples = 12\nvalue = [9, 3]"] ;
586 -> 587 ;
588 [label="acumneg_0 <= 0.5\nentropy = 0.881\nsamples = 10\nvalue = [7, 3]"] ;
587 -> 588 ;
589 [label="entropy = 0.918\nsamples = 9\nvalue = [6, 3]"] ;
588 -> 589 ;
590 [label="entropy = 0.0\nsamples = 1\nvalue = [1, 0]"] ;
588 -> 590 ;
591 [label="entropy = 0.0\nsamples = 2\nvalue = [2, 0]"] ;
587 -> 591 ;
592 [label="oucontent_3 <= 0.5\nentropy = 0.918\nsamples = 3\nvalue = [1, 2]"] ;
586 -> 592 ;
593 [label="entropy = 0.0\nsamples = 2\nvalue = [0, 2]"] ;
592 -> 593 ;
594 [label="entropy = 0.0\nsamples = 1\nvalue = [1, 0]"] ;
592 -> 594 ;
595 [label="entropy = 0.0\nsamples = 1\nvalue = [0, 1]"] ;
585 -> 595 ;
596 [label="entropy = 0.0\nsamples = 4\nvalue = [4, 0]"] ;
584 -> 596 ;
597 [label="glossary_1 <= 0.5\nentropy = 0.863\nsamples = 7\nvalue = [2, 5]"] ;
583 -> 597 ;
598 [label="entropy = 0.0\nsamples = 5\nvalue = [0, 5]"] ;
597 -> 598 ;
599 [label="entropy = 0.0\nsamples = 2\nvalue = [2, 0]"] ;
597 -> 599 ;
600 [label="entropy = 0.0\nsamples = 3\nvalue = [3, 0]"] ;
484 -> 600 ;
601 [label="page_0 <= 0.5\nentropy = 0.235\nsamples = 104\nvalue = [4, 100]"] ;
483 -> 601 ;
602 [label="entropy = 0.0\nsamples = 4\nvalue = [4, 0]"] ;
601 -> 602 ;
603 [label="entropy = 0.0\nsamples = 100\nvalue = [0, 100]"] ;
601 -> 603 ;
604 [label="ouwiki_1 <= 0.5\nentropy = 0.31\nsamples = 269\nvalue = [15, 254]"] ;
482 -> 604 ;
605 [label="resource_1 <= 0.5\nentropy = 0.062\nsamples = 138\nvalue = [1, 137]"] ;
604 -> 605 ;
606 [label="entropy = 0.0\nsamples = 131\nvalue = [0, 131]"] ;
605 -> 606 ;
607 [label="url_4 <= 0.5\nentropy = 0.592\nsamples = 7\nvalue = [1, 6]"] ;
605 -> 607 ;
608 [label="entropy = 0.0\nsamples = 4\nvalue = [0, 4]"] ;
607 -> 608 ;
609 [label="entropy = 0.918\nsamples = 3\nvalue = [1, 2]"] ;
607 -> 609 ;
610 [label="folder <= 0.5\nentropy = 0.49\nsamples = 131\nvalue = [14, 117]"] ;
604 -> 610 ;
611 [label="entropy = 0.0\nsamples = 3\nvalue = [3, 0]"] ;
610 -> 611 ;
612 [label="acumneg_1 <= 0.5\nentropy = 0.423\nsamples = 128\nvalue = [11, 117]"] ;
610 -> 612 ;
613 [label="glossary_1 <= 0.5\nentropy = 0.347\nsamples = 123\nvalue = [8, 115]"] ;
612 -> 613 ;
614 [label="homepage_4 <= 0.5\nentropy = 0.378\nsamples = 109\nvalue = [8, 101]"] ;
613 -> 614 ;
615 [label="entropy = 0.0\nsamples = 11\nvalue = [0, 11]"] ;
614 -> 615 ;
616 [label="resource_2 <= 0.5\nentropy = 0.408\nsamples = 98\nvalue = [8, 90]"] ;
614 -> 616 ;
617 [label="url_4 <= 0.5\nentropy = 0.426\nsamples = 92\nvalue = [8, 84]"] ;
616 -> 617 ;
618 [label="acumneg_3 <= 0.5\nentropy = 0.764\nsamples = 9\nvalue = [2, 7]"] ;
617 -> 618 ;
619 [label="entropy = 0.0\nsamples = 7\nvalue = [0, 7]"] ;
618 -> 619 ;
620 [label="entropy = 0.0\nsamples = 2\nvalue = [2, 0]"] ;
618 -> 620 ;
621 [label="acumneg_4 <= 0.5\nentropy = 0.374\nsamples = 83\nvalue = [6, 77]"] ;
617 -> 621 ;
622 [label="entropy = 0.0\nsamples = 27\nvalue = [0, 27]"] ;
621 -> 622 ;
623 [label="resource_4 <= 0.5\nentropy = 0.491\nsamples = 56\nvalue = [6, 50]"] ;
621 -> 623 ;
624 [label="oucollaborate <= 0.5\nentropy = 0.414\nsamples = 24\nvalue = [2, 22]"] ;
623 -> 624 ;
625 [label="entropy = 0.0\nsamples = 10\nvalue = [0, 10]"] ;
624 -> 625 ;
626 [label="forumng_4 <= 0.5\nentropy = 0.592\nsamples = 14\nvalue = [2, 12]"] ;
624 -> 626 ;
627 [label="entropy = 0.0\nsamples = 2\nvalue = [0, 2]"] ;
626 -> 627 ;
628 [label="entropy = 0.65\nsamples = 12\nvalue = [2, 10]"] ;
626 -> 628 ;
629 [label="forumng_4 <= 0.5\nentropy = 0.544\nsamples = 32\nvalue = [4, 28]"] ;
623 -> 629 ;
630 [label="oucollaborate <= 0.5\nentropy = 0.811\nsamples = 4\nvalue = [1, 3]"] ;
629 -> 630 ;
631 [label="entropy = 1.0\nsamples = 2\nvalue = [1, 1]"] ;
630 -> 631 ;
632 [label="entropy = 0.0\nsamples = 2\nvalue = [0, 2]"] ;
630 -> 632 ;
633 [label="oucollaborate <= 0.5\nentropy = 0.491\nsamples = 28\nvalue = [3, 25]"] ;
629 -> 633 ;
634 [label="entropy = 0.469\nsamples = 10\nvalue = [1, 9]"] ;
633 -> 634 ;
635 [label="entropy = 0.503\nsamples = 18\nvalue = [2, 16]"] ;
633 -> 635 ;
636 [label="entropy = 0.0\nsamples = 6\nvalue = [0, 6]"] ;
616 -> 636 ;
637 [label="entropy = 0.0\nsamples = 14\nvalue = [0, 14]"] ;
613 -> 637 ;
638 [label="forumng_4 <= 0.5\nentropy = 0.971\nsamples = 5\nvalue = [3, 2]"] ;
612 -> 638 ;
639 [label="entropy = 0.0\nsamples = 3\nvalue = [3, 0]"] ;
638 -> 639 ;
640 [label="entropy = 0.0\nsamples = 2\nvalue = [0, 2]"] ;
638 -> 640 ;
641 [label="quiz_0 <= 0.5\nentropy = 0.929\nsamples = 660\nvalue = [433, 227]"] ;
1 -> 641 ;
642 [label="page_0 <= 0.5\nentropy = 0.996\nsamples = 412\nvalue = [222, 190]"] ;
641 -> 642 ;
643 [label="entropy = 0.0\nsamples = 28\nvalue = [28, 0]"] ;
642 -> 643 ;
644 [label="resource_0 <= 0.5\nentropy = 1.0\nsamples = 384\nvalue = [194, 190]"] ;
642 -> 644 ;
645 [label="oucontent_0 <= 0.5\nentropy = 0.989\nsamples = 295\nvalue = [129, 166]"] ;
644 -> 645 ;
646 [label="acumneg_4 <= 0.5\nentropy = 0.964\nsamples = 229\nvalue = [89, 140]"] ;
645 -> 646 ;
647 [label="resource_1 <= 0.5\nentropy = 0.954\nsamples = 224\nvalue = [84, 140]"] ;
646 -> 647 ;
648 [label="forumng_3 <= 0.5\nentropy = 0.875\nsamples = 122\nvalue = [36, 86]"] ;
647 -> 648 ;
649 [label="url_2 <= 0.5\nentropy = 0.832\nsamples = 110\nvalue = [29, 81]"] ;
648 -> 649 ;
650 [label="oucontent_3 <= 0.5\nentropy = 0.894\nsamples = 87\nvalue = [27, 60]"] ;
649 -> 650 ;
651 [label="acumneg_2 <= 0.5\nentropy = 0.85\nsamples = 76\nvalue = [21, 55]"] ;
650 -> 651 ;
652 [label="url_1 <= 0.5\nentropy = 0.764\nsamples = 54\nvalue = [12, 42]"] ;
651 -> 652 ;
653 [label="forumng_1 <= 0.5\nentropy = 0.803\nsamples = 49\nvalue = [12, 37]"] ;
652 -> 653 ;
654 [label="oucontent_2 <= 0.5\nentropy = 0.896\nsamples = 32\nvalue = [10, 22]"] ;
653 -> 654 ;
655 [label="quiz_2 <= 0.5\nentropy = 0.976\nsamples = 22\nvalue = [9, 13]"] ;
654 -> 655 ;
656 [label="acumneg_0 <= 0.5\nentropy = 0.852\nsamples = 18\nvalue = [5, 13]"] ;
655 -> 656 ;
657 [label="homepage_3 <= 0.5\nentropy = 0.971\nsamples = 10\nvalue = [4, 6]"] ;
656 -> 657 ;
658 [label="entropy = 0.991\nsamples = 9\nvalue = [4, 5]"] ;
657 -> 658 ;
659 [label="entropy = 0.0\nsamples = 1\nvalue = [0, 1]"] ;
657 -> 659 ;
660 [label="glossary_0 <= 0.5\nentropy = 0.544\nsamples = 8\nvalue = [1, 7]"] ;
656 -> 660 ;
661 [label="entropy = 0.918\nsamples = 3\nvalue = [1, 2]"] ;
660 -> 661 ;
662 [label="entropy = 0.0\nsamples = 5\nvalue = [0, 5]"] ;
660 -> 662 ;
663 [label="entropy = 0.0\nsamples = 4\nvalue = [4, 0]"] ;
655 -> 663 ;
664 [label="forumng_0 <= 0.5\nentropy = 0.469\nsamples = 10\nvalue = [1, 9]"] ;
654 -> 664 ;
665 [label="entropy = 0.0\nsamples = 1\nvalue = [1, 0]"] ;
664 -> 665 ;
666 [label="entropy = 0.0\nsamples = 9\nvalue = [0, 9]"] ;
664 -> 666 ;
667 [label="quiz_1 <= 0.5\nentropy = 0.523\nsamples = 17\nvalue = [2, 15]"] ;
653 -> 667 ;
668 [label="entropy = 0.0\nsamples = 8\nvalue = [0, 8]"] ;
667 -> 668 ;
669 [label="homepage_1 <= 0.5\nentropy = 0.764\nsamples = 9\nvalue = [2, 7]"] ;
667 -> 669 ;
670 [label="entropy = 0.0\nsamples = 5\nvalue = [0, 5]"] ;
669 -> 670 ;
671 [label="url_3 <= 0.5\nentropy = 1.0\nsamples = 4\nvalue = [2, 2]"] ;
669 -> 671 ;
672 [label="entropy = 0.0\nsamples = 2\nvalue = [2, 0]"] ;
671 -> 672 ;
673 [label="entropy = 0.0\nsamples = 2\nvalue = [0, 2]"] ;
671 -> 673 ;
674 [label="entropy = 0.0\nsamples = 5\nvalue = [0, 5]"] ;
652 -> 674 ;
675 [label="subpage_1 <= 0.5\nentropy = 0.976\nsamples = 22\nvalue = [9, 13]"] ;
651 -> 675 ;
676 [label="url_4 <= 0.5\nentropy = 0.65\nsamples = 12\nvalue = [2, 10]"] ;
675 -> 676 ;
677 [label="entropy = 0.0\nsamples = 6\nvalue = [0, 6]"] ;
676 -> 677 ;
678 [label="forumng_2 <= 0.5\nentropy = 0.918\nsamples = 6\nvalue = [2, 4]"] ;
676 -> 678 ;
679 [label="entropy = 0.0\nsamples = 1\nvalue = [1, 0]"] ;
678 -> 679 ;
680 [label="entropy = 0.722\nsamples = 5\nvalue = [1, 4]"] ;
678 -> 680 ;
681 [label="forumng_2 <= 0.5\nentropy = 0.881\nsamples = 10\nvalue = [7, 3]"] ;
675 -> 681 ;
682 [label="entropy = 0.0\nsamples = 2\nvalue = [2, 0]"] ;
681 -> 682 ;
683 [label="quiz_2 <= 0.5\nentropy = 0.954\nsamples = 8\nvalue = [5, 3]"] ;
681 -> 683 ;
684 [label="oucontent_2 <= 0.5\nentropy = 0.863\nsamples = 7\nvalue = [5, 2]"] ;
683 -> 684 ;
685 [label="url_1 <= 0.5\nentropy = 0.918\nsamples = 6\nvalue = [4, 2]"] ;
684 -> 685 ;
686 [label="entropy = 1.0\nsamples = 2\nvalue = [1, 1]"] ;
685 -> 686 ;
687 [label="entropy = 0.811\nsamples = 4\nvalue = [3, 1]"] ;
685 -> 687 ;
688 [label="entropy = 0.0\nsamples = 1\nvalue = [1, 0]"] ;
684 -> 688 ;
689 [label="entropy = 0.0\nsamples = 1\nvalue = [0, 1]"] ;
683 -> 689 ;
690 [label="subpage_1 <= 0.5\nentropy = 0.994\nsamples = 11\nvalue = [6, 5]"] ;
650 -> 690 ;
691 [label="acumneg_2 <= 0.5\nentropy = 0.592\nsamples = 7\nvalue = [6, 1]"] ;
690 -> 691 ;
692 [label="entropy = 0.0\nsamples = 6\nvalue = [6, 0]"] ;
691 -> 692 ;
693 [label="entropy = 0.0\nsamples = 1\nvalue = [0, 1]"] ;
691 -> 693 ;
694 [label="entropy = 0.0\nsamples = 4\nvalue = [0, 4]"] ;
690 -> 694 ;
695 [label="forumng_1 <= 0.5\nentropy = 0.426\nsamples = 23\nvalue = [2, 21]"] ;
649 -> 695 ;
696 [label="entropy = 0.0\nsamples = 16\nvalue = [0, 16]"] ;
695 -> 696 ;
697 [label="homepage_1 <= 0.5\nentropy = 0.863\nsamples = 7\nvalue = [2, 5]"] ;
695 -> 697 ;
698 [label="entropy = 0.0\nsamples = 3\nvalue = [0, 3]"] ;
697 -> 698 ;
699 [label="subpage_2 <= 0.5\nentropy = 1.0\nsamples = 4\nvalue = [2, 2]"] ;
697 -> 699 ;
700 [label="entropy = 0.0\nsamples = 2\nvalue = [2, 0]"] ;
699 -> 700 ;
701 [label="entropy = 0.0\nsamples = 2\nvalue = [0, 2]"] ;
699 -> 701 ;
702 [label="oucontent_2 <= 0.5\nentropy = 0.98\nsamples = 12\nvalue = [7, 5]"] ;
648 -> 702 ;
703 [label="homepage_0 <= 0.5\nentropy = 0.991\nsamples = 9\nvalue = [4, 5]"] ;
702 -> 703 ;
704 [label="url_3 <= 0.5\nentropy = 0.863\nsamples = 7\nvalue = [2, 5]"] ;
703 -> 704 ;
705 [label="entropy = 0.0\nsamples = 4\nvalue = [0, 4]"] ;
704 -> 705 ;
706 [label="acumneg_2 <= 0.5\nentropy = 0.918\nsamples = 3\nvalue = [2, 1]"] ;
704 -> 706 ;
707 [label="entropy = 0.0\nsamples = 1\nvalue = [0, 1]"] ;
706 -> 707 ;
708 [label="entropy = 0.0\nsamples = 2\nvalue = [2, 0]"] ;
706 -> 708 ;
709 [label="entropy = 0.0\nsamples = 2\nvalue = [2, 0]"] ;
703 -> 709 ;
710 [label="entropy = 0.0\nsamples = 3\nvalue = [3, 0]"] ;
702 -> 710 ;
711 [label="homepage_2 <= 0.5\nentropy = 0.998\nsamples = 102\nvalue = [48, 54]"] ;
647 -> 711 ;
712 [label="oucollaborate <= 0.5\nentropy = 1.0\nsamples = 91\nvalue = [46, 45]"] ;
711 -> 712 ;
713 [label="acumneg_0 <= 0.5\nentropy = 1.0\nsamples = 89\nvalue = [44, 45]"] ;
712 -> 713 ;
714 [label="homepage_0 <= 0.5\nentropy = 0.974\nsamples = 42\nvalue = [25, 17]"] ;
713 -> 714 ;
715 [label="forumng_0 <= 0.5\nentropy = 0.992\nsamples = 38\nvalue = [21, 17]"] ;
714 -> 715 ;
716 [label="quiz_1 <= 0.5\nentropy = 0.963\nsamples = 31\nvalue = [19, 12]"] ;
715 -> 716 ;
717 [label="oucontent_3 <= 0.5\nentropy = 0.811\nsamples = 4\nvalue = [1, 3]"] ;
716 -> 717 ;
718 [label="entropy = 0.0\nsamples = 3\nvalue = [0, 3]"] ;
717 -> 718 ;
719 [label="entropy = 0.0\nsamples = 1\nvalue = [1, 0]"] ;
717 -> 719 ;
720 [label="oucontent_2 <= 0.5\nentropy = 0.918\nsamples = 27\nvalue = [18, 9]"] ;
716 -> 720 ;
721 [label="forumng_2 <= 0.5\nentropy = 0.982\nsamples = 19\nvalue = [11, 8]"] ;
720 -> 721 ;
722 [label="ouwiki_1 <= 0.5\nentropy = 0.722\nsamples = 10\nvalue = [8, 2]"] ;
721 -> 722 ;
723 [label="url_1 <= 0.5\nentropy = 0.503\nsamples = 9\nvalue = [8, 1]"] ;
722 -> 723 ;
724 [label="entropy = 0.0\nsamples = 8\nvalue = [8, 0]"] ;
723 -> 724 ;
725 [label="entropy = 0.0\nsamples = 1\nvalue = [0, 1]"] ;
723 -> 725 ;
726 [label="entropy = 0.0\nsamples = 1\nvalue = [0, 1]"] ;
722 -> 726 ;
727 [label="url_2 <= 0.5\nentropy = 0.918\nsamples = 9\nvalue = [3, 6]"] ;
721 -> 727 ;
728 [label="subpage_1 <= 0.5\nentropy = 0.971\nsamples = 5\nvalue = [3, 2]"] ;
727 -> 728 ;
729 [label="entropy = 0.0\nsamples = 1\nvalue = [0, 1]"] ;
728 -> 729 ;
730 [label="entropy = 0.811\nsamples = 4\nvalue = [3, 1]"] ;
728 -> 730 ;
731 [label="entropy = 0.0\nsamples = 4\nvalue = [0, 4]"] ;
727 -> 731 ;
732 [label="subpage_0 <= 0.5\nentropy = 0.544\nsamples = 8\nvalue = [7, 1]"] ;
720 -> 732 ;
733 [label="entropy = 0.0\nsamples = 6\nvalue = [6, 0]"] ;
732 -> 733 ;
734 [label="acumneg_3 <= 0.5\nentropy = 1.0\nsamples = 2\nvalue = [1, 1]"] ;
732 -> 734 ;
735 [label="entropy = 0.0\nsamples = 1\nvalue = [1, 0]"] ;
734 -> 735 ;
736 [label="entropy = 0.0\nsamples = 1\nvalue = [0, 1]"] ;
734 -> 736 ;
737 [label="acumneg_2 <= 0.5\nentropy = 0.863\nsamples = 7\nvalue = [2, 5]"] ;
715 -> 737 ;
738 [label="entropy = 0.0\nsamples = 2\nvalue = [0, 2]"] ;
737 -> 738 ;
739 [label="oucontent_1 <= 0.5\nentropy = 0.971\nsamples = 5\nvalue = [2, 3]"] ;
737 -> 739 ;
740 [label="url_3 <= 0.5\nentropy = 0.811\nsamples = 4\nvalue = [1, 3]"] ;
739 -> 740 ;
741 [label="entropy = 0.0\nsamples = 3\nvalue = [0, 3]"] ;
740 -> 741 ;
742 [label="entropy = 0.0\nsamples = 1\nvalue = [1, 0]"] ;
740 -> 742 ;
743 [label="entropy = 0.0\nsamples = 1\nvalue = [1, 0]"] ;
739 -> 743 ;
744 [label="entropy = 0.0\nsamples = 4\nvalue = [4, 0]"] ;
714 -> 744 ;
745 [label="forumng_1 <= 0.5\nentropy = 0.973\nsamples = 47\nvalue = [19, 28]"] ;
713 -> 745 ;
746 [label="glossary_1 <= 0.5\nentropy = 0.991\nsamples = 27\nvalue = [15, 12]"] ;
745 -> 746 ;
747 [label="oucontent_1 <= 0.5\nentropy = 0.954\nsamples = 24\nvalue = [15, 9]"] ;
746 -> 747 ;
748 [label="subpage_1 <= 0.5\nentropy = 0.997\nsamples = 15\nvalue = [8, 7]"] ;
747 -> 748 ;
749 [label="homepage_0 <= 0.5\nentropy = 0.961\nsamples = 13\nvalue = [8, 5]"] ;
748 -> 749 ;
750 [label="oucontent_2 <= 0.5\nentropy = 0.918\nsamples = 12\nvalue = [8, 4]"] ;
749 -> 750 ;
751 [label="entropy = 0.918\nsamples = 3\nvalue = [1, 2]"] ;
750 -> 751 ;
752 [label="quiz_2 <= 0.5\nentropy = 0.764\nsamples = 9\nvalue = [7, 2]"] ;
750 -> 752 ;
753 [label="entropy = 1.0\nsamples = 4\nvalue = [2, 2]"] ;
752 -> 753 ;
754 [label="entropy = 0.0\nsamples = 5\nvalue = [5, 0]"] ;
752 -> 754 ;
755 [label="entropy = 0.0\nsamples = 1\nvalue = [0, 1]"] ;
749 -> 755 ;
756 [label="entropy = 0.0\nsamples = 2\nvalue = [0, 2]"] ;
748 -> 756 ;
757 [label="quiz_2 <= 0.5\nentropy = 0.764\nsamples = 9\nvalue = [7, 2]"] ;
747 -> 757 ;
758 [label="forumng_0 <= 0.5\nentropy = 0.544\nsamples = 8\nvalue = [7, 1]"] ;
757 -> 758 ;
759 [label="entropy = 0.918\nsamples = 3\nvalue = [2, 1]"] ;
758 -> 759 ;
760 [label="entropy = 0.0\nsamples = 5\nvalue = [5, 0]"] ;
758 -> 760 ;
761 [label="entropy = 0.0\nsamples = 1\nvalue = [0, 1]"] ;
757 -> 761 ;
762 [label="entropy = 0.0\nsamples = 3\nvalue = [0, 3]"] ;
746 -> 762 ;
763 [label="quiz_2 <= 0.5\nentropy = 0.722\nsamples = 20\nvalue = [4, 16]"] ;
745 -> 763 ;
764 [label="homepage_0 <= 0.5\nentropy = 0.353\nsamples = 15\nvalue = [1, 14]"] ;
763 -> 764 ;
765 [label="entropy = 0.0\nsamples = 13\nvalue = [0, 13]"] ;
764 -> 765 ;
766 [label="subpage_1 <= 0.5\nentropy = 1.0\nsamples = 2\nvalue = [1, 1]"] ;
764 -> 766 ;
767 [label="entropy = 0.0\nsamples = 1\nvalue = [1, 0]"] ;
766 -> 767 ;
768 [label="entropy = 0.0\nsamples = 1\nvalue = [0, 1]"] ;
766 -> 768 ;
769 [label="oucontent_2 <= 0.5\nentropy = 0.971\nsamples = 5\nvalue = [3, 2]"] ;
763 -> 769 ;
770 [label="entropy = 0.0\nsamples = 2\nvalue = [2, 0]"] ;
769 -> 770 ;
771 [label="entropy = 0.918\nsamples = 3\nvalue = [1, 2]"] ;
769 -> 771 ;
772 [label="entropy = 0.0\nsamples = 2\nvalue = [2, 0]"] ;
712 -> 772 ;
773 [label="forumng_0 <= 0.5\nentropy = 0.684\nsamples = 11\nvalue = [2, 9]"] ;
711 -> 773 ;
774 [label="entropy = 0.0\nsamples = 9\nvalue = [0, 9]"] ;
773 -> 774 ;
775 [label="entropy = 0.0\nsamples = 2\nvalue = [2, 0]"] ;
773 -> 775 ;
776 [label="entropy = 0.0\nsamples = 5\nvalue = [5, 0]"] ;
646 -> 776 ;
777 [label="resource_3 <= 0.5\nentropy = 0.967\nsamples = 66\nvalue = [40, 26]"] ;
645 -> 777 ;
778 [label="homepage_0 <= 0.5\nentropy = 0.999\nsamples = 46\nvalue = [24, 22]"] ;
777 -> 778 ;
779 [label="url_0 <= 0.5\nentropy = 1.0\nsamples = 43\nvalue = [21, 22]"] ;
778 -> 779 ;
780 [label="resource_4 <= 0.5\nentropy = 0.998\nsamples = 40\nvalue = [21, 19]"] ;
779 -> 780 ;
781 [label="url_4 <= 0.5\nentropy = 0.985\nsamples = 35\nvalue = [20, 15]"] ;
780 -> 781 ;
782 [label="homepage_1 <= 0.5\nentropy = 0.967\nsamples = 33\nvalue = [20, 13]"] ;
781 -> 782 ;
783 [label="subpage_2 <= 0.5\nentropy = 0.544\nsamples = 8\nvalue = [7, 1]"] ;
782 -> 783 ;
784 [label="entropy = 0.0\nsamples = 7\nvalue = [7, 0]"] ;
783 -> 784 ;
785 [label="entropy = 0.0\nsamples = 1\nvalue = [0, 1]"] ;
783 -> 785 ;
786 [label="acumneg_3 <= 0.5\nentropy = 0.999\nsamples = 25\nvalue = [13, 12]"] ;
782 -> 786 ;
787 [label="subpage_2 <= 0.5\nentropy = 0.964\nsamples = 18\nvalue = [7, 11]"] ;
786 -> 787 ;
788 [label="forumng_1 <= 0.5\nentropy = 0.684\nsamples = 11\nvalue = [2, 9]"] ;
787 -> 788 ;
789 [label="quiz_2 <= 0.5\nentropy = 0.971\nsamples = 5\nvalue = [2, 3]"] ;
788 -> 789 ;
790 [label="acumneg_1 <= 0.5\nentropy = 0.811\nsamples = 4\nvalue = [1, 3]"] ;
789 -> 790 ;
791 [label="entropy = 0.0\nsamples = 2\nvalue = [0, 2]"] ;
790 -> 791 ;
792 [label="forumng_2 <= 0.5\nentropy = 1.0\nsamples = 2\nvalue = [1, 1]"] ;
790 -> 792 ;
793 [label="entropy = 0.0\nsamples = 1\nvalue = [0, 1]"] ;
792 -> 793 ;
794 [label="entropy = 0.0\nsamples = 1\nvalue = [1, 0]"] ;
792 -> 794 ;
795 [label="entropy = 0.0\nsamples = 1\nvalue = [1, 0]"] ;
789 -> 795 ;
796 [label="entropy = 0.0\nsamples = 6\nvalue = [0, 6]"] ;
788 -> 796 ;
797 [label="forumng_2 <= 0.5\nentropy = 0.863\nsamples = 7\nvalue = [5, 2]"] ;
787 -> 797 ;
798 [label="entropy = 0.0\nsamples = 5\nvalue = [5, 0]"] ;
797 -> 798 ;
799 [label="entropy = 0.0\nsamples = 2\nvalue = [0, 2]"] ;
797 -> 799 ;
800 [label="url_1 <= 0.5\nentropy = 0.592\nsamples = 7\nvalue = [6, 1]"] ;
786 -> 800 ;
801 [label="entropy = 0.0\nsamples = 6\nvalue = [6, 0]"] ;
800 -> 801 ;
802 [label="entropy = 0.0\nsamples = 1\nvalue = [0, 1]"] ;
800 -> 802 ;
803 [label="entropy = 0.0\nsamples = 2\nvalue = [0, 2]"] ;
781 -> 803 ;
804 [label="url_4 <= 0.5\nentropy = 0.722\nsamples = 5\nvalue = [1, 4]"] ;
780 -> 804 ;
805 [label="entropy = 0.0\nsamples = 4\nvalue = [0, 4]"] ;
804 -> 805 ;
806 [label="entropy = 0.0\nsamples = 1\nvalue = [1, 0]"] ;
804 -> 806 ;
807 [label="entropy = 0.0\nsamples = 3\nvalue = [0, 3]"] ;
779 -> 807 ;
808 [label="entropy = 0.0\nsamples = 3\nvalue = [3, 0]"] ;
778 -> 808 ;
809 [label="url_2 <= 0.5\nentropy = 0.722\nsamples = 20\nvalue = [16, 4]"] ;
777 -> 809 ;
810 [label="forumng_2 <= 0.5\nentropy = 0.353\nsamples = 15\nvalue = [14, 1]"] ;
809 -> 810 ;
811 [label="entropy = 0.0\nsamples = 13\nvalue = [13, 0]"] ;
810 -> 811 ;
812 [label="url_4 <= 0.5\nentropy = 1.0\nsamples = 2\nvalue = [1, 1]"] ;
810 -> 812 ;
813 [label="entropy = 0.0\nsamples = 1\nvalue = [0, 1]"] ;
812 -> 813 ;
814 [label="entropy = 0.0\nsamples = 1\nvalue = [1, 0]"] ;
812 -> 814 ;
815 [label="forumng_1 <= 0.5\nentropy = 0.971\nsamples = 5\nvalue = [2, 3]"] ;
809 -> 815 ;
816 [label="subpage_1 <= 0.5\nentropy = 0.918\nsamples = 3\nvalue = [2, 1]"] ;
815 -> 816 ;
817 [label="entropy = 0.0\nsamples = 2\nvalue = [2, 0]"] ;
816 -> 817 ;
818 [label="entropy = 0.0\nsamples = 1\nvalue = [0, 1]"] ;
816 -> 818 ;
819 [label="entropy = 0.0\nsamples = 2\nvalue = [0, 2]"] ;
815 -> 819 ;
820 [label="acumneg_0 <= 0.5\nentropy = 0.841\nsamples = 89\nvalue = [65, 24]"] ;
644 -> 820 ;
821 [label="acumneg_1 <= 0.5\nentropy = 0.529\nsamples = 50\nvalue = [44, 6]"] ;
820 -> 821 ;
822 [label="forumng_0 <= 0.5\nentropy = 0.258\nsamples = 23\nvalue = [22, 1]"] ;
821 -> 822 ;
823 [label="entropy = 0.0\nsamples = 22\nvalue = [22, 0]"] ;
822 -> 823 ;
824 [label="entropy = 0.0\nsamples = 1\nvalue = [0, 1]"] ;
822 -> 824 ;
825 [label="homepage_2 <= 0.5\nentropy = 0.691\nsamples = 27\nvalue = [22, 5]"] ;
821 -> 825 ;
826 [label="homepage_0 <= 0.5\nentropy = 0.619\nsamples = 26\nvalue = [22, 4]"] ;
825 -> 826 ;
827 [label="glossary_1 <= 0.5\nentropy = 0.742\nsamples = 19\nvalue = [15, 4]"] ;
826 -> 827 ;
828 [label="url_1 <= 0.5\nentropy = 0.65\nsamples = 18\nvalue = [15, 3]"] ;
827 -> 828 ;
829 [label="entropy = 0.0\nsamples = 7\nvalue = [7, 0]"] ;
828 -> 829 ;
830 [label="forumng_2 <= 0.5\nentropy = 0.845\nsamples = 11\nvalue = [8, 3]"] ;
828 -> 830 ;
831 [label="oucontent_1 <= 0.5\nentropy = 0.503\nsamples = 9\nvalue = [8, 1]"] ;
830 -> 831 ;
832 [label="entropy = 0.0\nsamples = 6\nvalue = [6, 0]"] ;
831 -> 832 ;
833 [label="entropy = 0.918\nsamples = 3\nvalue = [2, 1]"] ;
831 -> 833 ;
834 [label="entropy = 0.0\nsamples = 2\nvalue = [0, 2]"] ;
830 -> 834 ;
835 [label="entropy = 0.0\nsamples = 1\nvalue = [0, 1]"] ;
827 -> 835 ;
836 [label="entropy = 0.0\nsamples = 7\nvalue = [7, 0]"] ;
826 -> 836 ;
837 [label="entropy = 0.0\nsamples = 1\nvalue = [0, 1]"] ;
825 -> 837 ;
838 [label="url_3 <= 0.5\nentropy = 0.996\nsamples = 39\nvalue = [21, 18]"] ;
820 -> 838 ;
839 [label="homepage_0 <= 0.5\nentropy = 0.999\nsamples = 35\nvalue = [17, 18]"] ;
838 -> 839 ;
840 [label="quiz_1 <= 0.5\nentropy = 0.985\nsamples = 28\nvalue = [12, 16]"] ;
839 -> 840 ;
841 [label="forumng_0 <= 0.5\nentropy = 0.503\nsamples = 9\nvalue = [1, 8]"] ;
840 -> 841 ;
842 [label="entropy = 0.0\nsamples = 6\nvalue = [0, 6]"] ;
841 -> 842 ;
843 [label="oucontent_3 <= 0.5\nentropy = 0.918\nsamples = 3\nvalue = [1, 2]"] ;
841 -> 843 ;
844 [label="entropy = 1.0\nsamples = 2\nvalue = [1, 1]"] ;
843 -> 844 ;
845 [label="entropy = 0.0\nsamples = 1\nvalue = [0, 1]"] ;
843 -> 845 ;
846 [label="url_2 <= 0.5\nentropy = 0.982\nsamples = 19\nvalue = [11, 8]"] ;
840 -> 846 ;
847 [label="subpage_0 <= 0.5\nentropy = 0.937\nsamples = 17\nvalue = [11, 6]"] ;
846 -> 847 ;
848 [label="entropy = 0.0\nsamples = 4\nvalue = [4, 0]"] ;
847 -> 848 ;
849 [label="oucontent_2 <= 0.5\nentropy = 0.996\nsamples = 13\nvalue = [7, 6]"] ;
847 -> 849 ;
850 [label="url_4 <= 0.5\nentropy = 0.946\nsamples = 11\nvalue = [7, 4]"] ;
849 -> 850 ;
851 [label="forumng_3 <= 0.5\nentropy = 0.881\nsamples = 10\nvalue = [7, 3]"] ;
850 -> 851 ;
852 [label="url_0 <= 0.5\nentropy = 0.918\nsamples = 9\nvalue = [6, 3]"] ;
851 -> 852 ;
853 [label="entropy = 0.811\nsamples = 4\nvalue = [3, 1]"] ;
852 -> 853 ;
854 [label="forumng_0 <= 0.5\nentropy = 0.971\nsamples = 5\nvalue = [3, 2]"] ;
852 -> 854 ;
855 [label="entropy = 0.0\nsamples = 1\nvalue = [0, 1]"] ;
854 -> 855 ;
856 [label="entropy = 0.811\nsamples = 4\nvalue = [3, 1]"] ;
854 -> 856 ;
857 [label="entropy = 0.0\nsamples = 1\nvalue = [1, 0]"] ;
851 -> 857 ;
858 [label="entropy = 0.0\nsamples = 1\nvalue = [0, 1]"] ;
850 -> 858 ;
859 [label="entropy = 0.0\nsamples = 2\nvalue = [0, 2]"] ;
849 -> 859 ;
860 [label="entropy = 0.0\nsamples = 2\nvalue = [0, 2]"] ;
846 -> 860 ;
861 [label="subpage_0 <= 0.5\nentropy = 0.863\nsamples = 7\nvalue = [5, 2]"] ;
839 -> 861 ;
862 [label="entropy = 0.0\nsamples = 2\nvalue = [0, 2]"] ;
861 -> 862 ;
863 [label="entropy = 0.0\nsamples = 5\nvalue = [5, 0]"] ;
861 -> 863 ;
864 [label="entropy = 0.0\nsamples = 4\nvalue = [4, 0]"] ;
838 -> 864 ;
865 [label="resource_3 <= 0.5\nentropy = 0.608\nsamples = 248\nvalue = [211, 37]"] ;
641 -> 865 ;
866 [label="oucontent_0 <= 0.5\nentropy = 0.542\nsamples = 233\nvalue = [204, 29]"] ;
865 -> 866 ;
867 [label="page_1 <= 0.5\nentropy = 0.599\nsamples = 199\nvalue = [170, 29]"] ;
866 -> 867 ;
868 [label="homepage_2 <= 0.5\nentropy = 0.657\nsamples = 171\nvalue = [142, 29]"] ;
867 -> 868 ;
869 [label="homepage_1 <= 0.5\nentropy = 0.549\nsamples = 134\nvalue = [117, 17]"] ;
868 -> 869 ;
870 [label="entropy = 0.0\nsamples = 19\nvalue = [19, 0]"] ;
869 -> 870 ;
871 [label="acumneg_4 <= 0.5\nentropy = 0.604\nsamples = 115\nvalue = [98, 17]"] ;
869 -> 871 ;
872 [label="dataplus <= 0.5\nentropy = 0.565\nsamples = 113\nvalue = [98, 15]"] ;
871 -> 872 ;
873 [label="subpage_1 <= 0.5\nentropy = 0.544\nsamples = 112\nvalue = [98, 14]"] ;
872 -> 873 ;
874 [label="oucollaborate <= 0.5\nentropy = 0.387\nsamples = 66\nvalue = [61, 5]"] ;
873 -> 874 ;
875 [label="oucontent_1 <= 0.5\nentropy = 0.273\nsamples = 64\nvalue = [61, 3]"] ;
874 -> 875 ;
876 [label="subpage_3 <= 0.5\nentropy = 0.422\nsamples = 35\nvalue = [32, 3]"] ;
875 -> 876 ;
877 [label="acumneg_3 <= 0.5\nentropy = 0.222\nsamples = 28\nvalue = [27, 1]"] ;
876 -> 877 ;
878 [label="entropy = 0.0\nsamples = 23\nvalue = [23, 0]"] ;
877 -> 878 ;
879 [label="oucontent_2 <= 0.5\nentropy = 0.722\nsamples = 5\nvalue = [4, 1]"] ;
877 -> 879 ;
880 [label="resource_2 <= 0.5\nentropy = 1.0\nsamples = 2\nvalue = [1, 1]"] ;
879 -> 880 ;
881 [label="entropy = 0.0\nsamples = 1\nvalue = [1, 0]"] ;
880 -> 881 ;
882 [label="entropy = 0.0\nsamples = 1\nvalue = [0, 1]"] ;
880 -> 882 ;
883 [label="entropy = 0.0\nsamples = 3\nvalue = [3, 0]"] ;
879 -> 883 ;
884 [label="ouwiki_1 <= 0.5\nentropy = 0.863\nsamples = 7\nvalue = [5, 2]"] ;
876 -> 884 ;
885 [label="acumneg_3 <= 0.5\nentropy = 1.0\nsamples = 4\nvalue = [2, 2]"] ;
884 -> 885 ;
886 [label="forumng_0 <= 0.5\nentropy = 0.918\nsamples = 3\nvalue = [1, 2]"] ;
885 -> 886 ;
887 [label="entropy = 0.0\nsamples = 1\nvalue = [0, 1]"] ;
886 -> 887 ;
888 [label="url_1 <= 0.5\nentropy = 1.0\nsamples = 2\nvalue = [1, 1]"] ;
886 -> 888 ;
889 [label="entropy = 0.0\nsamples = 1\nvalue = [1, 0]"] ;
888 -> 889 ;
890 [label="entropy = 0.0\nsamples = 1\nvalue = [0, 1]"] ;
888 -> 890 ;
891 [label="entropy = 0.0\nsamples = 1\nvalue = [1, 0]"] ;
885 -> 891 ;
892 [label="entropy = 0.0\nsamples = 3\nvalue = [3, 0]"] ;
884 -> 892 ;
893 [label="entropy = 0.0\nsamples = 29\nvalue = [29, 0]"] ;
875 -> 893 ;
894 [label="entropy = 0.0\nsamples = 2\nvalue = [0, 2]"] ;
874 -> 894 ;
895 [label="url_3 <= 0.5\nentropy = 0.713\nsamples = 46\nvalue = [37, 9]"] ;
873 -> 895 ;
896 [label="forumng_2 <= 0.5\nentropy = 0.592\nsamples = 42\nvalue = [36, 6]"] ;
895 -> 896 ;
897 [label="resource_0 <= 0.5\nentropy = 0.696\nsamples = 32\nvalue = [26, 6]"] ;
896 -> 897 ;
898 [label="resource_1 <= 0.5\nentropy = 0.439\nsamples = 22\nvalue = [20, 2]"] ;
897 -> 898 ;
899 [label="entropy = 0.0\nsamples = 9\nvalue = [9, 0]"] ;
898 -> 899 ;
900 [label="forumng_0 <= 0.5\nentropy = 0.619\nsamples = 13\nvalue = [11, 2]"] ;
898 -> 900 ;
901 [label="url_1 <= 0.5\nentropy = 0.811\nsamples = 8\nvalue = [6, 2]"] ;
900 -> 901 ;
902 [label="oucontent_2 <= 0.5\nentropy = 0.592\nsamples = 7\nvalue = [6, 1]"] ;
901 -> 902 ;
903 [label="entropy = 0.0\nsamples = 2\nvalue = [2, 0]"] ;
902 -> 903 ;
904 [label="entropy = 0.722\nsamples = 5\nvalue = [4, 1]"] ;
902 -> 904 ;
905 [label="entropy = 0.0\nsamples = 1\nvalue = [0, 1]"] ;
901 -> 905 ;
906 [label="entropy = 0.0\nsamples = 5\nvalue = [5, 0]"] ;
900 -> 906 ;
907 [label="acumneg_3 <= 0.5\nentropy = 0.971\nsamples = 10\nvalue = [6, 4]"] ;
897 -> 907 ;
908 [label="oucontent_1 <= 0.5\nentropy = 0.918\nsamples = 9\nvalue = [6, 3]"] ;
907 -> 908 ;
909 [label="acumneg_0 <= 0.5\nentropy = 1.0\nsamples = 4\nvalue = [2, 2]"] ;
908 -> 909 ;
910 [label="entropy = 0.0\nsamples = 1\nvalue = [0, 1]"] ;
909 -> 910 ;
911 [label="url_0 <= 0.5\nentropy = 0.918\nsamples = 3\nvalue = [2, 1]"] ;
909 -> 911 ;
912 [label="entropy = 0.0\nsamples = 1\nvalue = [1, 0]"] ;
911 -> 912 ;
913 [label="entropy = 1.0\nsamples = 2\nvalue = [1, 1]"] ;
911 -> 913 ;
914 [label="url_2 <= 0.5\nentropy = 0.722\nsamples = 5\nvalue = [4, 1]"] ;
908 -> 914 ;
915 [label="entropy = 0.0\nsamples = 3\nvalue = [3, 0]"] ;
914 -> 915 ;
916 [label="acumneg_1 <= 0.5\nentropy = 1.0\nsamples = 2\nvalue = [1, 1]"] ;
914 -> 916 ;
917 [label="entropy = 0.0\nsamples = 1\nvalue = [0, 1]"] ;
916 -> 917 ;
918 [label="entropy = 0.0\nsamples = 1\nvalue = [1, 0]"] ;
916 -> 918 ;
919 [label="entropy = 0.0\nsamples = 1\nvalue = [0, 1]"] ;
907 -> 919 ;
920 [label="entropy = 0.0\nsamples = 10\nvalue = [10, 0]"] ;
896 -> 920 ;
921 [label="acumneg_0 <= 0.5\nentropy = 0.811\nsamples = 4\nvalue = [1, 3]"] ;
895 -> 921 ;
922 [label="entropy = 0.0\nsamples = 1\nvalue = [1, 0]"] ;
921 -> 922 ;
923 [label="entropy = 0.0\nsamples = 3\nvalue = [0, 3]"] ;
921 -> 923 ;
924 [label="entropy = 0.0\nsamples = 1\nvalue = [0, 1]"] ;
872 -> 924 ;
925 [label="entropy = 0.0\nsamples = 2\nvalue = [0, 2]"] ;
871 -> 925 ;
926 [label="forumng_1 <= 0.5\nentropy = 0.909\nsamples = 37\nvalue = [25, 12]"] ;
868 -> 926 ;
927 [label="glossary_1 <= 0.5\nentropy = 0.758\nsamples = 32\nvalue = [25, 7]"] ;
926 -> 927 ;
928 [label="resource_4 <= 0.5\nentropy = 0.855\nsamples = 25\nvalue = [18, 7]"] ;
927 -> 928 ;
929 [label="subpage_4 <= 0.5\nentropy = 0.684\nsamples = 22\nvalue = [18, 4]"] ;
928 -> 929 ;
930 [label="resource_1 <= 0.5\nentropy = 0.592\nsamples = 21\nvalue = [18, 3]"] ;
929 -> 930 ;
931 [label="entropy = 0.0\nsamples = 7\nvalue = [7, 0]"] ;
930 -> 931 ;
932 [label="subpage_2 <= 0.5\nentropy = 0.75\nsamples = 14\nvalue = [11, 3]"] ;
930 -> 932 ;
933 [label="entropy = 0.0\nsamples = 6\nvalue = [6, 0]"] ;
932 -> 933 ;
934 [label="acumneg_2 <= 0.5\nentropy = 0.954\nsamples = 8\nvalue = [5, 3]"] ;
932 -> 934 ;
935 [label="oucontent_1 <= 0.5\nentropy = 0.863\nsamples = 7\nvalue = [5, 2]"] ;
934 -> 935 ;
936 [label="url_0 <= 0.5\nentropy = 0.918\nsamples = 3\nvalue = [1, 2]"] ;
935 -> 936 ;
937 [label="entropy = 0.0\nsamples = 2\nvalue = [0, 2]"] ;
936 -> 937 ;
938 [label="entropy = 0.0\nsamples = 1\nvalue = [1, 0]"] ;
936 -> 938 ;
939 [label="entropy = 0.0\nsamples = 4\nvalue = [4, 0]"] ;
935 -> 939 ;
940 [label="entropy = 0.0\nsamples = 1\nvalue = [0, 1]"] ;
934 -> 940 ;
941 [label="entropy = 0.0\nsamples = 1\nvalue = [0, 1]"] ;
929 -> 941 ;
942 [label="entropy = 0.0\nsamples = 3\nvalue = [0, 3]"] ;
928 -> 942 ;
943 [label="entropy = 0.0\nsamples = 7\nvalue = [7, 0]"] ;
927 -> 943 ;
944 [label="entropy = 0.0\nsamples = 5\nvalue = [0, 5]"] ;
926 -> 944 ;
945 [label="entropy = 0.0\nsamples = 28\nvalue = [28, 0]"] ;
867 -> 945 ;
946 [label="entropy = 0.0\nsamples = 34\nvalue = [34, 0]"] ;
866 -> 946 ;
947 [label="subpage_3 <= 0.5\nentropy = 0.997\nsamples = 15\nvalue = [7, 8]"] ;
865 -> 947 ;
948 [label="acumneg_0 <= 0.5\nentropy = 0.918\nsamples = 9\nvalue = [6, 3]"] ;
947 -> 948 ;
949 [label="url_2 <= 0.5\nentropy = 0.811\nsamples = 8\nvalue = [6, 2]"] ;
948 -> 949 ;
950 [label="subpage_2 <= 0.5\nentropy = 0.918\nsamples = 6\nvalue = [4, 2]"] ;
949 -> 950 ;
951 [label="entropy = 0.0\nsamples = 2\nvalue = [2, 0]"] ;
950 -> 951 ;
952 [label="homepage_2 <= 0.5\nentropy = 1.0\nsamples = 4\nvalue = [2, 2]"] ;
950 -> 952 ;
953 [label="forumng_1 <= 0.5\nentropy = 0.918\nsamples = 3\nvalue = [2, 1]"] ;
952 -> 953 ;
954 [label="entropy = 0.0\nsamples = 2\nvalue = [2, 0]"] ;
953 -> 954 ;
955 [label="entropy = 0.0\nsamples = 1\nvalue = [0, 1]"] ;
953 -> 955 ;
956 [label="entropy = 0.0\nsamples = 1\nvalue = [0, 1]"] ;
952 -> 956 ;
957 [label="entropy = 0.0\nsamples = 2\nvalue = [2, 0]"] ;
949 -> 957 ;
958 [label="entropy = 0.0\nsamples = 1\nvalue = [0, 1]"] ;
948 -> 958 ;
959 [label="forumng_0 <= 0.5\nentropy = 0.65\nsamples = 6\nvalue = [1, 5]"] ;
947 -> 959 ;
960 [label="entropy = 0.0\nsamples = 5\nvalue = [0, 5]"] ;
959 -> 960 ;
961 [label="entropy = 0.0\nsamples = 1\nvalue = [1, 0]"] ;
959 -> 961 ;
962 [label="quiz_0 <= 0.5\nentropy = 0.285\nsamples = 665\nvalue = [632, 33]"] ;
0 -> 962 [labeldistance=2.5, labelangle=-45, headlabel="False"] ;
963 [label="forumng_1 <= 0.5\nentropy = 0.878\nsamples = 84\nvalue = [59, 25]"] ;
962 -> 963 ;
964 [label="acumneg_0 <= 0.5\nentropy = 0.731\nsamples = 44\nvalue = [35, 9]"] ;
963 -> 964 ;
965 [label="oucontent_0 <= 0.5\nentropy = 0.337\nsamples = 16\nvalue = [15, 1]"] ;
964 -> 965 ;
966 [label="entropy = 0.0\nsamples = 9\nvalue = [9, 0]"] ;
965 -> 966 ;
967 [label="url_0 <= 0.5\nentropy = 0.592\nsamples = 7\nvalue = [6, 1]"] ;
965 -> 967 ;
968 [label="entropy = 0.0\nsamples = 5\nvalue = [5, 0]"] ;
967 -> 968 ;
969 [label="entropy = 1.0\nsamples = 2\nvalue = [1, 1]"] ;
967 -> 969 ;
970 [label="subpage_2 <= 0.5\nentropy = 0.863\nsamples = 28\nvalue = [20, 8]"] ;
964 -> 970 ;
971 [label="url_1 <= 0.5\nentropy = 0.826\nsamples = 27\nvalue = [20, 7]"] ;
970 -> 971 ;
972 [label="oucontent_1 <= 0.5\nentropy = 0.949\nsamples = 19\nvalue = [12, 7]"] ;
971 -> 972 ;
973 [label="homepage_1 <= 0.5\nentropy = 0.985\nsamples = 7\nvalue = [3, 4]"] ;
972 -> 973 ;
974 [label="url_2 <= 0.5\nentropy = 0.918\nsamples = 6\nvalue = [2, 4]"] ;
973 -> 974 ;
975 [label="entropy = 0.971\nsamples = 5\nvalue = [2, 3]"] ;
974 -> 975 ;
976 [label="entropy = 0.0\nsamples = 1\nvalue = [0, 1]"] ;
974 -> 976 ;
977 [label="entropy = 0.0\nsamples = 1\nvalue = [1, 0]"] ;
973 -> 977 ;
978 [label="resource_1 <= 0.5\nentropy = 0.811\nsamples = 12\nvalue = [9, 3]"] ;
972 -> 978 ;
979 [label="subpage_1 <= 0.5\nentropy = 0.503\nsamples = 9\nvalue = [8, 1]"] ;
978 -> 979 ;
980 [label="entropy = 0.0\nsamples = 7\nvalue = [7, 0]"] ;
979 -> 980 ;
981 [label="resource_2 <= 0.5\nentropy = 1.0\nsamples = 2\nvalue = [1, 1]"] ;
979 -> 981 ;
982 [label="entropy = 0.0\nsamples = 1\nvalue = [0, 1]"] ;
981 -> 982 ;
983 [label="entropy = 0.0\nsamples = 1\nvalue = [1, 0]"] ;
981 -> 983 ;
984 [label="subpage_1 <= 0.5\nentropy = 0.918\nsamples = 3\nvalue = [1, 2]"] ;
978 -> 984 ;
985 [label="entropy = 0.0\nsamples = 1\nvalue = [0, 1]"] ;
984 -> 985 ;
986 [label="entropy = 1.0\nsamples = 2\nvalue = [1, 1]"] ;
984 -> 986 ;
987 [label="entropy = 0.0\nsamples = 8\nvalue = [8, 0]"] ;
971 -> 987 ;
988 [label="entropy = 0.0\nsamples = 1\nvalue = [0, 1]"] ;
970 -> 988 ;
989 [label="resource_0 <= 0.5\nentropy = 0.971\nsamples = 40\nvalue = [24, 16]"] ;
963 -> 989 ;
990 [label="url_2 <= 0.5\nentropy = 0.863\nsamples = 7\nvalue = [2, 5]"] ;
989 -> 990 ;
991 [label="acumneg_1 <= 0.5\nentropy = 0.65\nsamples = 6\nvalue = [1, 5]"] ;
990 -> 991 ;
992 [label="entropy = 0.0\nsamples = 4\nvalue = [0, 4]"] ;
991 -> 992 ;
993 [label="subpage_0 <= 0.5\nentropy = 1.0\nsamples = 2\nvalue = [1, 1]"] ;
991 -> 993 ;
994 [label="entropy = 0.0\nsamples = 1\nvalue = [0, 1]"] ;
993 -> 994 ;
995 [label="entropy = 0.0\nsamples = 1\nvalue = [1, 0]"] ;
993 -> 995 ;
996 [label="entropy = 0.0\nsamples = 1\nvalue = [1, 0]"] ;
990 -> 996 ;
997 [label="oucontent_1 <= 0.5\nentropy = 0.918\nsamples = 33\nvalue = [22, 11]"] ;
989 -> 997 ;
998 [label="url_0 <= 0.5\nentropy = 0.755\nsamples = 23\nvalue = [18, 5]"] ;
997 -> 998 ;
999 [label="entropy = 0.0\nsamples = 7\nvalue = [7, 0]"] ;
998 -> 999 ;
1000 [label="acumneg_0 <= 0.5\nentropy = 0.896\nsamples = 16\nvalue = [11, 5]"] ;
998 -> 1000 ;
1001 [label="entropy = 0.0\nsamples = 6\nvalue = [6, 0]"] ;
1000 -> 1001 ;
1002 [label="entropy = 1.0\nsamples = 10\nvalue = [5, 5]"] ;
1000 -> 1002 ;
1003 [label="homepage_0 <= 0.5\nentropy = 0.971\nsamples = 10\nvalue = [4, 6]"] ;
997 -> 1003 ;
1004 [label="entropy = 0.0\nsamples = 2\nvalue = [0, 2]"] ;
1003 -> 1004 ;
1005 [label="acumneg_1 <= 0.5\nentropy = 1.0\nsamples = 8\nvalue = [4, 4]"] ;
1003 -> 1005 ;
1006 [label="url_1 <= 0.5\nentropy = 0.918\nsamples = 6\nvalue = [2, 4]"] ;
1005 -> 1006 ;
1007 [label="entropy = 1.0\nsamples = 4\nvalue = [2, 2]"] ;
1006 -> 1007 ;
1008 [label="entropy = 0.0\nsamples = 2\nvalue = [0, 2]"] ;
1006 -> 1008 ;
1009 [label="entropy = 0.0\nsamples = 2\nvalue = [2, 0]"] ;
1005 -> 1009 ;
1010 [label="homepage_1 <= 0.5\nentropy = 0.105\nsamples = 581\nvalue = [573, 8]"] ;
962 -> 1010 ;
1011 [label="acumneg_0 <= 0.5\nentropy = 0.067\nsamples = 499\nvalue = [495, 4]"] ;
1010 -> 1011 ;
1012 [label="entropy = 0.0\nsamples = 252\nvalue = [252, 0]"] ;
1011 -> 1012 ;
1013 [label="subpage_2 <= 0.5\nentropy = 0.12\nsamples = 247\nvalue = [243, 4]"] ;
1011 -> 1013 ;
1014 [label="subpage_1 <= 0.5\nentropy = 0.096\nsamples = 244\nvalue = [241, 3]"] ;
1013 -> 1014 ;
1015 [label="resource_0 <= 0.5\nentropy = 0.114\nsamples = 197\nvalue = [194, 3]"] ;
1014 -> 1015 ;
1016 [label="entropy = 0.0\nsamples = 24\nvalue = [24, 0]"] ;
1015 -> 1016 ;
1017 [label="url_1 <= 0.5\nentropy = 0.126\nsamples = 173\nvalue = [170, 3]"] ;
1015 -> 1017 ;
1018 [label="oucontent_0 <= 0.5\nentropy = 0.106\nsamples = 143\nvalue = [141, 2]"] ;
1017 -> 1018 ;
1019 [label="entropy = 0.0\nsamples = 35\nvalue = [35, 0]"] ;
1018 -> 1019 ;
1020 [label="forumng_0 <= 0.5\nentropy = 0.133\nsamples = 108\nvalue = [106, 2]"] ;
1018 -> 1020 ;
1021 [label="entropy = 0.0\nsamples = 26\nvalue = [26, 0]"] ;
1020 -> 1021 ;
1022 [label="url_2 <= 0.5\nentropy = 0.165\nsamples = 82\nvalue = [80, 2]"] ;
1020 -> 1022 ;
1023 [label="entropy = 0.174\nsamples = 77\nvalue = [75, 2]"] ;
1022 -> 1023 ;
1024 [label="entropy = 0.0\nsamples = 5\nvalue = [5, 0]"] ;
1022 -> 1024 ;
1025 [label="oucontent_0 <= 0.5\nentropy = 0.211\nsamples = 30\nvalue = [29, 1]"] ;
1017 -> 1025 ;
1026 [label="forumng_2 <= 0.5\nentropy = 0.811\nsamples = 4\nvalue = [3, 1]"] ;
1025 -> 1026 ;
1027 [label="entropy = 0.918\nsamples = 3\nvalue = [2, 1]"] ;
1026 -> 1027 ;
1028 [label="entropy = 0.0\nsamples = 1\nvalue = [1, 0]"] ;
1026 -> 1028 ;
1029 [label="entropy = 0.0\nsamples = 26\nvalue = [26, 0]"] ;
1025 -> 1029 ;
1030 [label="entropy = 0.0\nsamples = 47\nvalue = [47, 0]"] ;
1014 -> 1030 ;
1031 [label="url_1 <= 0.5\nentropy = 0.918\nsamples = 3\nvalue = [2, 1]"] ;
1013 -> 1031 ;
1032 [label="forumng_1 <= 0.5\nentropy = 1.0\nsamples = 2\nvalue = [1, 1]"] ;
1031 -> 1032 ;
1033 [label="entropy = 0.0\nsamples = 1\nvalue = [0, 1]"] ;
1032 -> 1033 ;
1034 [label="entropy = 0.0\nsamples = 1\nvalue = [1, 0]"] ;
1032 -> 1034 ;
1035 [label="entropy = 0.0\nsamples = 1\nvalue = [1, 0]"] ;
1031 -> 1035 ;
1036 [label="dataplus <= 0.5\nentropy = 0.281\nsamples = 82\nvalue = [78, 4]"] ;
1010 -> 1036 ;
1037 [label="resource_0 <= 0.5\nentropy = 0.229\nsamples = 81\nvalue = [78, 3]"] ;
1036 -> 1037 ;
1038 [label="entropy = 0.0\nsamples = 49\nvalue = [49, 0]"] ;
1037 -> 1038 ;
1039 [label="subpage_2 <= 0.5\nentropy = 0.449\nsamples = 32\nvalue = [29, 3]"] ;
1037 -> 1039 ;
1040 [label="url_3 <= 0.5\nentropy = 0.61\nsamples = 20\nvalue = [17, 3]"] ;
1039 -> 1040 ;
1041 [label="acumneg_0 <= 0.5\nentropy = 0.485\nsamples = 19\nvalue = [17, 2]"] ;
1040 -> 1041 ;
1042 [label="url_0 <= 0.5\nentropy = 0.337\nsamples = 16\nvalue = [15, 1]"] ;
1041 -> 1042 ;
1043 [label="entropy = 0.0\nsamples = 11\nvalue = [11, 0]"] ;
1042 -> 1043 ;
1044 [label="subpage_0 <= 0.5\nentropy = 0.722\nsamples = 5\nvalue = [4, 1]"] ;
1042 -> 1044 ;
1045 [label="acumneg_2 <= 0.5\nentropy = 1.0\nsamples = 2\nvalue = [1, 1]"] ;
1044 -> 1045 ;
1046 [label="entropy = 0.0\nsamples = 1\nvalue = [1, 0]"] ;
1045 -> 1046 ;
1047 [label="entropy = 0.0\nsamples = 1\nvalue = [0, 1]"] ;
1045 -> 1047 ;
1048 [label="entropy = 0.0\nsamples = 3\nvalue = [3, 0]"] ;
1044 -> 1048 ;
1049 [label="forumng_2 <= 0.5\nentropy = 0.918\nsamples = 3\nvalue = [2, 1]"] ;
1041 -> 1049 ;
1050 [label="entropy = 0.0\nsamples = 2\nvalue = [2, 0]"] ;
1049 -> 1050 ;
1051 [label="entropy = 0.0\nsamples = 1\nvalue = [0, 1]"] ;
1049 -> 1051 ;
1052 [label="entropy = 0.0\nsamples = 1\nvalue = [0, 1]"] ;
1040 -> 1052 ;
1053 [label="entropy = 0.0\nsamples = 12\nvalue = [12, 0]"] ;
1039 -> 1053 ;
1054 [label="entropy = 0.0\nsamples = 1\nvalue = [0, 1]"] ;
1036 -> 1054 ;
}