digraph Tree {
node [shape=box] ;
0 [label="acumg_0 <= 0.5\nentropy = 1.0\nsamples = 3200\nvalue = [1622, 1578]"] ;
1 [label="acumg_1 <= 0.5\nentropy = 0.969\nsamples = 2575\nvalue = [1020, 1555]"] ;
0 -> 1 [labeldistance=2.5, labelangle=45, headlabel="True"] ;
2 [label="acumg_4 <= 0.5\nentropy = 0.879\nsamples = 1875\nvalue = [559, 1316]"] ;
1 -> 2 ;
3 [label="page_1 <= 0.5\nentropy = 0.947\nsamples = 1326\nvalue = [485, 841]"] ;
2 -> 3 ;
4 [label="url_1 <= 0.5\nentropy = 0.908\nsamples = 1117\nvalue = [361, 756]"] ;
3 -> 4 ;
5 [label="url_2 <= 0.5\nentropy = 0.862\nsamples = 940\nvalue = [268, 672]"] ;
4 -> 5 ;
6 [label="acumg_3 <= 0.5\nentropy = 0.799\nsamples = 697\nvalue = [169, 528]"] ;
5 -> 6 ;
7 [label="url_0 <= 0.5\nentropy = 0.879\nsamples = 366\nvalue = [109, 257]"] ;
6 -> 7 ;
8 [label="subpage_0 <= 0.5\nentropy = 0.94\nsamples = 233\nvalue = [83, 150]"] ;
7 -> 8 ;
9 [label="forumng_3 <= 0.5\nentropy = 0.91\nsamples = 209\nvalue = [68, 141]"] ;
8 -> 9 ;
10 [label="ouwiki_0 <= 0.5\nentropy = 0.958\nsamples = 116\nvalue = [44, 72]"] ;
9 -> 10 ;
11 [label="subpage_3 <= 0.5\nentropy = 0.637\nsamples = 31\nvalue = [5, 26]"] ;
10 -> 11 ;
12 [label="homepage_3 <= 0.5\nentropy = 0.831\nsamples = 19\nvalue = [5, 14]"] ;
11 -> 12 ;
13 [label="resource_0 <= 0.5\nentropy = 0.672\nsamples = 17\nvalue = [3, 14]"] ;
12 -> 13 ;
14 [label="subpage_2 <= 0.5\nentropy = 0.811\nsamples = 12\nvalue = [3, 9]"] ;
13 -> 14 ;
15 [label="quiz_1 <= 0.5\nentropy = 0.503\nsamples = 9\nvalue = [1, 8]"] ;
14 -> 15 ;
16 [label="entropy = 0.0\nsamples = 8\nvalue = [0, 8]"] ;
15 -> 16 ;
17 [label="entropy = 0.0\nsamples = 1\nvalue = [1, 0]"] ;
15 -> 17 ;
18 [label="quiz_2 <= 0.5\nentropy = 0.918\nsamples = 3\nvalue = [2, 1]"] ;
14 -> 18 ;
19 [label="entropy = 0.0\nsamples = 1\nvalue = [0, 1]"] ;
18 -> 19 ;
20 [label="entropy = 0.0\nsamples = 2\nvalue = [2, 0]"] ;
18 -> 20 ;
21 [label="entropy = 0.0\nsamples = 5\nvalue = [0, 5]"] ;
13 -> 21 ;
22 [label="entropy = 0.0\nsamples = 2\nvalue = [2, 0]"] ;
12 -> 22 ;
23 [label="entropy = 0.0\nsamples = 12\nvalue = [0, 12]"] ;
11 -> 23 ;
24 [label="oucollaborate <= 0.5\nentropy = 0.995\nsamples = 85\nvalue = [39, 46]"] ;
10 -> 24 ;
25 [label="resource_3 <= 0.5\nentropy = 0.98\nsamples = 79\nvalue = [33, 46]"] ;
24 -> 25 ;
26 [label="glossary_0 <= 0.5\nentropy = 0.933\nsamples = 63\nvalue = [22, 41]"] ;
25 -> 26 ;
27 [label="entropy = 0.0\nsamples = 6\nvalue = [0, 6]"] ;
26 -> 27 ;
28 [label="acumneg_3 <= 0.5\nentropy = 0.962\nsamples = 57\nvalue = [22, 35]"] ;
26 -> 28 ;
29 [label="quiz_3 <= 0.5\nentropy = 0.918\nsamples = 48\nvalue = [16, 32]"] ;
28 -> 29 ;
30 [label="acumneg_2 <= 0.5\nentropy = 0.903\nsamples = 47\nvalue = [15, 32]"] ;
29 -> 30 ;
31 [label="oucontent_1 <= 0.5\nentropy = 0.811\nsamples = 32\nvalue = [8, 24]"] ;
30 -> 31 ;
32 [label="entropy = 0.0\nsamples = 8\nvalue = [0, 8]"] ;
31 -> 32 ;
33 [label="entropy = 0.918\nsamples = 24\nvalue = [8, 16]"] ;
31 -> 33 ;
34 [label="forumng_4 <= 0.5\nentropy = 0.997\nsamples = 15\nvalue = [7, 8]"] ;
30 -> 34 ;
35 [label="entropy = 0.98\nsamples = 12\nvalue = [7, 5]"] ;
34 -> 35 ;
36 [label="entropy = 0.0\nsamples = 3\nvalue = [0, 3]"] ;
34 -> 36 ;
37 [label="entropy = 0.0\nsamples = 1\nvalue = [1, 0]"] ;
29 -> 37 ;
38 [label="resource_1 <= 0.5\nentropy = 0.918\nsamples = 9\nvalue = [6, 3]"] ;
28 -> 38 ;
39 [label="url_3 <= 0.5\nentropy = 1.0\nsamples = 6\nvalue = [3, 3]"] ;
38 -> 39 ;
40 [label="entropy = 0.0\nsamples = 2\nvalue = [0, 2]"] ;
39 -> 40 ;
41 [label="quiz_0 <= 0.5\nentropy = 0.811\nsamples = 4\nvalue = [3, 1]"] ;
39 -> 41 ;
42 [label="entropy = 0.0\nsamples = 3\nvalue = [3, 0]"] ;
41 -> 42 ;
43 [label="entropy = 0.0\nsamples = 1\nvalue = [0, 1]"] ;
41 -> 43 ;
44 [label="entropy = 0.0\nsamples = 3\nvalue = [3, 0]"] ;
38 -> 44 ;
45 [label="quiz_3 <= 0.5\nentropy = 0.896\nsamples = 16\nvalue = [11, 5]"] ;
25 -> 45 ;
46 [label="forumng_4 <= 0.5\nentropy = 0.837\nsamples = 15\nvalue = [11, 4]"] ;
45 -> 46 ;
47 [label="acumneg_2 <= 0.5\nentropy = 0.65\nsamples = 12\nvalue = [10, 2]"] ;
46 -> 47 ;
48 [label="quiz_1 <= 0.5\nentropy = 0.439\nsamples = 11\nvalue = [10, 1]"] ;
47 -> 48 ;
49 [label="forumng_2 <= 0.5\nentropy = 0.811\nsamples = 4\nvalue = [3, 1]"] ;
48 -> 49 ;
50 [label="entropy = 0.0\nsamples = 3\nvalue = [3, 0]"] ;
49 -> 50 ;
51 [label="entropy = 0.0\nsamples = 1\nvalue = [0, 1]"] ;
49 -> 51 ;
52 [label="entropy = 0.0\nsamples = 7\nvalue = [7, 0]"] ;
48 -> 52 ;
53 [label="entropy = 0.0\nsamples = 1\nvalue = [0, 1]"] ;
47 -> 53 ;
54 [label="oucontent_0 <= 0.5\nentropy = 0.918\nsamples = 3\nvalue = [1, 2]"] ;
46 -> 54 ;
55 [label="entropy = 0.0\nsamples = 2\nvalue = [0, 2]"] ;
54 -> 55 ;
56 [label="entropy = 0.0\nsamples = 1\nvalue = [1, 0]"] ;
54 -> 56 ;
57 [label="entropy = 0.0\nsamples = 1\nvalue = [0, 1]"] ;
45 -> 57 ;
58 [label="entropy = 0.0\nsamples = 6\nvalue = [6, 0]"] ;
24 -> 58 ;
59 [label="acumneg_4 <= 0.5\nentropy = 0.824\nsamples = 93\nvalue = [24, 69]"] ;
9 -> 59 ;
60 [label="resource_2 <= 0.5\nentropy = 0.732\nsamples = 78\nvalue = [16, 62]"] ;
59 -> 60 ;
61 [label="oucontent_0 <= 0.5\nentropy = 0.798\nsamples = 62\nvalue = [15, 47]"] ;
60 -> 61 ;
62 [label="acumneg_2 <= 0.5\nentropy = 0.736\nsamples = 58\nvalue = [12, 46]"] ;
61 -> 62 ;
63 [label="homepage_2 <= 0.5\nentropy = 0.811\nsamples = 44\nvalue = [11, 33]"] ;
62 -> 63 ;
64 [label="subpage_4 <= 0.5\nentropy = 0.625\nsamples = 32\nvalue = [5, 27]"] ;
63 -> 64 ;
65 [label="oucontent_3 <= 0.5\nentropy = 0.738\nsamples = 24\nvalue = [5, 19]"] ;
64 -> 65 ;
66 [label="acumneg_1 <= 0.5\nentropy = 0.667\nsamples = 23\nvalue = [4, 19]"] ;
65 -> 66 ;
67 [label="entropy = 0.764\nsamples = 18\nvalue = [4, 14]"] ;
66 -> 67 ;
68 [label="entropy = 0.0\nsamples = 5\nvalue = [0, 5]"] ;
66 -> 68 ;
69 [label="entropy = 0.0\nsamples = 1\nvalue = [1, 0]"] ;
65 -> 69 ;
70 [label="entropy = 0.0\nsamples = 8\nvalue = [0, 8]"] ;
64 -> 70 ;
71 [label="subpage_4 <= 0.5\nentropy = 1.0\nsamples = 12\nvalue = [6, 6]"] ;
63 -> 71 ;
72 [label="quiz_2 <= 0.5\nentropy = 0.971\nsamples = 10\nvalue = [4, 6]"] ;
71 -> 72 ;
73 [label="resource_4 <= 0.5\nentropy = 0.918\nsamples = 6\nvalue = [4, 2]"] ;
72 -> 73 ;
74 [label="entropy = 0.722\nsamples = 5\nvalue = [4, 1]"] ;
73 -> 74 ;
75 [label="entropy = 0.0\nsamples = 1\nvalue = [0, 1]"] ;
73 -> 75 ;
76 [label="entropy = 0.0\nsamples = 4\nvalue = [0, 4]"] ;
72 -> 76 ;
77 [label="entropy = 0.0\nsamples = 2\nvalue = [2, 0]"] ;
71 -> 77 ;
78 [label="subpage_2 <= 0.5\nentropy = 0.371\nsamples = 14\nvalue = [1, 13]"] ;
62 -> 78 ;
79 [label="entropy = 0.0\nsamples = 12\nvalue = [0, 12]"] ;
78 -> 79 ;
80 [label="quiz_0 <= 0.5\nentropy = 1.0\nsamples = 2\nvalue = [1, 1]"] ;
78 -> 80 ;
81 [label="entropy = 0.0\nsamples = 1\nvalue = [1, 0]"] ;
80 -> 81 ;
82 [label="entropy = 0.0\nsamples = 1\nvalue = [0, 1]"] ;
80 -> 82 ;
83 [label="url_3 <= 0.5\nentropy = 0.811\nsamples = 4\nvalue = [3, 1]"] ;
61 -> 83 ;
84 [label="entropy = 0.0\nsamples = 1\nvalue = [0, 1]"] ;
83 -> 84 ;
85 [label="entropy = 0.0\nsamples = 3\nvalue = [3, 0]"] ;
83 -> 85 ;
86 [label="subpage_4 <= 0.5\nentropy = 0.337\nsamples = 16\nvalue = [1, 15]"] ;
60 -> 86 ;
87 [label="entropy = 0.0\nsamples = 15\nvalue = [0, 15]"] ;
86 -> 87 ;
88 [label="entropy = 0.0\nsamples = 1\nvalue = [1, 0]"] ;
86 -> 88 ;
89 [label="subpage_3 <= 0.5\nentropy = 0.997\nsamples = 15\nvalue = [8, 7]"] ;
59 -> 89 ;
90 [label="oucollaborate <= 0.5\nentropy = 0.881\nsamples = 10\nvalue = [3, 7]"] ;
89 -> 90 ;
91 [label="subpage_2 <= 0.5\nentropy = 0.971\nsamples = 5\nvalue = [3, 2]"] ;
90 -> 91 ;
92 [label="entropy = 0.0\nsamples = 3\nvalue = [3, 0]"] ;
91 -> 92 ;
93 [label="entropy = 0.0\nsamples = 2\nvalue = [0, 2]"] ;
91 -> 93 ;
94 [label="entropy = 0.0\nsamples = 5\nvalue = [0, 5]"] ;
90 -> 94 ;
95 [label="entropy = 0.0\nsamples = 5\nvalue = [5, 0]"] ;
89 -> 95 ;
96 [label="quiz_2 <= 0.5\nentropy = 0.954\nsamples = 24\nvalue = [15, 9]"] ;
8 -> 96 ;
97 [label="oucontent_4 <= 0.5\nentropy = 0.89\nsamples = 13\nvalue = [4, 9]"] ;
96 -> 97 ;
98 [label="forumng_4 <= 0.5\nentropy = 0.684\nsamples = 11\nvalue = [2, 9]"] ;
97 -> 98 ;
99 [label="acumneg_3 <= 0.5\nentropy = 0.469\nsamples = 10\nvalue = [1, 9]"] ;
98 -> 99 ;
100 [label="entropy = 0.0\nsamples = 9\nvalue = [0, 9]"] ;
99 -> 100 ;
101 [label="entropy = 0.0\nsamples = 1\nvalue = [1, 0]"] ;
99 -> 101 ;
102 [label="entropy = 0.0\nsamples = 1\nvalue = [1, 0]"] ;
98 -> 102 ;
103 [label="entropy = 0.0\nsamples = 2\nvalue = [2, 0]"] ;
97 -> 103 ;
104 [label="entropy = 0.0\nsamples = 11\nvalue = [11, 0]"] ;
96 -> 104 ;
105 [label="oucontent_3 <= 0.5\nentropy = 0.713\nsamples = 133\nvalue = [26, 107]"] ;
7 -> 105 ;
106 [label="forumng_0 <= 0.5\nentropy = 0.971\nsamples = 50\nvalue = [20, 30]"] ;
105 -> 106 ;
107 [label="resource_3 <= 0.5\nentropy = 0.91\nsamples = 43\nvalue = [14, 29]"] ;
106 -> 107 ;
108 [label="oucontent_1 <= 0.5\nentropy = 0.605\nsamples = 27\nvalue = [4, 23]"] ;
107 -> 108 ;
109 [label="acumneg_3 <= 0.5\nentropy = 0.402\nsamples = 25\nvalue = [2, 23]"] ;
108 -> 109 ;
110 [label="entropy = 0.0\nsamples = 20\nvalue = [0, 20]"] ;
109 -> 110 ;
111 [label="homepage_3 <= 0.5\nentropy = 0.971\nsamples = 5\nvalue = [2, 3]"] ;
109 -> 111 ;
112 [label="entropy = 0.0\nsamples = 2\nvalue = [2, 0]"] ;
111 -> 112 ;
113 [label="entropy = 0.0\nsamples = 3\nvalue = [0, 3]"] ;
111 -> 113 ;
114 [label="entropy = 0.0\nsamples = 2\nvalue = [2, 0]"] ;
108 -> 114 ;
115 [label="forumng_1 <= 0.5\nentropy = 0.954\nsamples = 16\nvalue = [10, 6]"] ;
107 -> 115 ;
116 [label="quiz_3 <= 0.5\nentropy = 0.65\nsamples = 12\nvalue = [10, 2]"] ;
115 -> 116 ;
117 [label="acumneg_3 <= 0.5\nentropy = 0.439\nsamples = 11\nvalue = [10, 1]"] ;
116 -> 117 ;
118 [label="entropy = 0.0\nsamples = 10\nvalue = [10, 0]"] ;
117 -> 118 ;
119 [label="entropy = 0.0\nsamples = 1\nvalue = [0, 1]"] ;
117 -> 119 ;
120 [label="entropy = 0.0\nsamples = 1\nvalue = [0, 1]"] ;
116 -> 120 ;
121 [label="entropy = 0.0\nsamples = 4\nvalue = [0, 4]"] ;
115 -> 121 ;
122 [label="folder <= 0.5\nentropy = 0.592\nsamples = 7\nvalue = [6, 1]"] ;
106 -> 122 ;
123 [label="entropy = 0.0\nsamples = 6\nvalue = [6, 0]"] ;
122 -> 123 ;
124 [label="entropy = 0.0\nsamples = 1\nvalue = [0, 1]"] ;
122 -> 124 ;
125 [label="homepage_1 <= 0.5\nentropy = 0.374\nsamples = 83\nvalue = [6, 77]"] ;
105 -> 125 ;
126 [label="entropy = 0.0\nsamples = 59\nvalue = [0, 59]"] ;
125 -> 126 ;
127 [label="acumneg_3 <= 0.5\nentropy = 0.811\nsamples = 24\nvalue = [6, 18]"] ;
125 -> 127 ;
128 [label="quiz_0 <= 0.5\nentropy = 0.755\nsamples = 23\nvalue = [5, 18]"] ;
127 -> 128 ;
129 [label="resource_1 <= 0.5\nentropy = 0.684\nsamples = 22\nvalue = [4, 18]"] ;
128 -> 129 ;
130 [label="glossary_0 <= 0.5\nentropy = 0.787\nsamples = 17\nvalue = [4, 13]"] ;
129 -> 130 ;
131 [label="subpage_2 <= 0.5\nentropy = 0.544\nsamples = 8\nvalue = [1, 7]"] ;
130 -> 131 ;
132 [label="entropy = 0.0\nsamples = 7\nvalue = [0, 7]"] ;
131 -> 132 ;
133 [label="entropy = 0.0\nsamples = 1\nvalue = [1, 0]"] ;
131 -> 133 ;
134 [label="forumng_1 <= 0.5\nentropy = 0.918\nsamples = 9\nvalue = [3, 6]"] ;
130 -> 134 ;
135 [label="entropy = 0.0\nsamples = 4\nvalue = [0, 4]"] ;
134 -> 135 ;
136 [label="quiz_2 <= 0.5\nentropy = 0.971\nsamples = 5\nvalue = [3, 2]"] ;
134 -> 136 ;
137 [label="entropy = 0.0\nsamples = 2\nvalue = [2, 0]"] ;
136 -> 137 ;
138 [label="resource_0 <= 0.5\nentropy = 0.918\nsamples = 3\nvalue = [1, 2]"] ;
136 -> 138 ;
139 [label="entropy = 0.0\nsamples = 2\nvalue = [0, 2]"] ;
138 -> 139 ;
140 [label="entropy = 0.0\nsamples = 1\nvalue = [1, 0]"] ;
138 -> 140 ;
141 [label="entropy = 0.0\nsamples = 5\nvalue = [0, 5]"] ;
129 -> 141 ;
142 [label="entropy = 0.0\nsamples = 1\nvalue = [1, 0]"] ;
128 -> 142 ;
143 [label="entropy = 0.0\nsamples = 1\nvalue = [1, 0]"] ;
127 -> 143 ;
144 [label="homepage_1 <= 0.5\nentropy = 0.683\nsamples = 331\nvalue = [60, 271]"] ;
6 -> 144 ;
145 [label="forumng_3 <= 0.5\nentropy = 0.652\nsamples = 322\nvalue = [54, 268]"] ;
144 -> 145 ;
146 [label="ouwiki_1 <= 0.5\nentropy = 0.516\nsamples = 208\nvalue = [24, 184]"] ;
145 -> 146 ;
147 [label="resource_1 <= 0.5\nentropy = 0.701\nsamples = 100\nvalue = [19, 81]"] ;
146 -> 147 ;
148 [label="subpage_4 <= 0.5\nentropy = 0.556\nsamples = 85\nvalue = [11, 74]"] ;
147 -> 148 ;
149 [label="resource_2 <= 0.5\nentropy = 0.452\nsamples = 74\nvalue = [7, 67]"] ;
148 -> 149 ;
150 [label="acumneg_4 <= 0.5\nentropy = 0.297\nsamples = 57\nvalue = [3, 54]"] ;
149 -> 150 ;
151 [label="acumneg_2 <= 0.5\nentropy = 0.144\nsamples = 49\nvalue = [1, 48]"] ;
150 -> 151 ;
152 [label="entropy = 0.0\nsamples = 41\nvalue = [0, 41]"] ;
151 -> 152 ;
153 [label="quiz_2 <= 0.5\nentropy = 0.544\nsamples = 8\nvalue = [1, 7]"] ;
151 -> 153 ;
154 [label="entropy = 0.0\nsamples = 5\nvalue = [0, 5]"] ;
153 -> 154 ;
155 [label="oucontent_3 <= 0.5\nentropy = 0.918\nsamples = 3\nvalue = [1, 2]"] ;
153 -> 155 ;
156 [label="entropy = 0.0\nsamples = 2\nvalue = [0, 2]"] ;
155 -> 156 ;
157 [label="entropy = 0.0\nsamples = 1\nvalue = [1, 0]"] ;
155 -> 157 ;
158 [label="resource_3 <= 0.5\nentropy = 0.811\nsamples = 8\nvalue = [2, 6]"] ;
150 -> 158 ;
159 [label="entropy = 0.0\nsamples = 5\nvalue = [0, 5]"] ;
158 -> 159 ;
160 [label="glossary_1 <= 0.5\nentropy = 0.918\nsamples = 3\nvalue = [2, 1]"] ;
158 -> 160 ;
161 [label="entropy = 0.0\nsamples = 2\nvalue = [2, 0]"] ;
160 -> 161 ;
162 [label="entropy = 0.0\nsamples = 1\nvalue = [0, 1]"] ;
160 -> 162 ;
163 [label="subpage_1 <= 0.5\nentropy = 0.787\nsamples = 17\nvalue = [4, 13]"] ;
149 -> 163 ;
164 [label="oucontent_2 <= 0.5\nentropy = 0.971\nsamples = 10\nvalue = [4, 6]"] ;
163 -> 164 ;
165 [label="url_4 <= 0.5\nentropy = 0.985\nsamples = 7\nvalue = [4, 3]"] ;
164 -> 165 ;
166 [label="acumneg_0 <= 0.5\nentropy = 0.811\nsamples = 4\nvalue = [1, 3]"] ;
165 -> 166 ;
167 [label="entropy = 0.0\nsamples = 3\nvalue = [0, 3]"] ;
166 -> 167 ;
168 [label="entropy = 0.0\nsamples = 1\nvalue = [1, 0]"] ;
166 -> 168 ;
169 [label="entropy = 0.0\nsamples = 3\nvalue = [3, 0]"] ;
165 -> 169 ;
170 [label="entropy = 0.0\nsamples = 3\nvalue = [0, 3]"] ;
164 -> 170 ;
171 [label="entropy = 0.0\nsamples = 7\nvalue = [0, 7]"] ;
163 -> 171 ;
172 [label="acumneg_3 <= 0.5\nentropy = 0.946\nsamples = 11\nvalue = [4, 7]"] ;
148 -> 172 ;
173 [label="oucontent_3 <= 0.5\nentropy = 0.918\nsamples = 6\nvalue = [4, 2]"] ;
172 -> 173 ;
174 [label="entropy = 0.0\nsamples = 2\nvalue = [0, 2]"] ;
173 -> 174 ;
175 [label="entropy = 0.0\nsamples = 4\nvalue = [4, 0]"] ;
173 -> 175 ;
176 [label="entropy = 0.0\nsamples = 5\nvalue = [0, 5]"] ;
172 -> 176 ;
177 [label="subpage_2 <= 0.5\nentropy = 0.997\nsamples = 15\nvalue = [8, 7]"] ;
147 -> 177 ;
178 [label="homepage_3 <= 0.5\nentropy = 0.764\nsamples = 9\nvalue = [7, 2]"] ;
177 -> 178 ;
179 [label="folder <= 0.5\nentropy = 0.918\nsamples = 3\nvalue = [1, 2]"] ;
178 -> 179 ;
180 [label="entropy = 0.0\nsamples = 2\nvalue = [0, 2]"] ;
179 -> 180 ;
181 [label="entropy = 0.0\nsamples = 1\nvalue = [1, 0]"] ;
179 -> 181 ;
182 [label="entropy = 0.0\nsamples = 6\nvalue = [6, 0]"] ;
178 -> 182 ;
183 [label="forumng_2 <= 0.5\nentropy = 0.65\nsamples = 6\nvalue = [1, 5]"] ;
177 -> 183 ;
184 [label="entropy = 0.0\nsamples = 5\nvalue = [0, 5]"] ;
183 -> 184 ;
185 [label="entropy = 0.0\nsamples = 1\nvalue = [1, 0]"] ;
183 -> 185 ;
186 [label="subpage_3 <= 0.5\nentropy = 0.27\nsamples = 108\nvalue = [5, 103]"] ;
146 -> 186 ;
187 [label="oucontent_1 <= 0.5\nentropy = 0.084\nsamples = 95\nvalue = [1, 94]"] ;
186 -> 187 ;
188 [label="entropy = 0.0\nsamples = 90\nvalue = [0, 90]"] ;
187 -> 188 ;
189 [label="url_4 <= 0.5\nentropy = 0.722\nsamples = 5\nvalue = [1, 4]"] ;
187 -> 189 ;
190 [label="entropy = 0.0\nsamples = 1\nvalue = [1, 0]"] ;
189 -> 190 ;
191 [label="entropy = 0.0\nsamples = 4\nvalue = [0, 4]"] ;
189 -> 191 ;
192 [label="oucontent_3 <= 0.5\nentropy = 0.89\nsamples = 13\nvalue = [4, 9]"] ;
186 -> 192 ;
193 [label="homepage_4 <= 0.5\nentropy = 0.469\nsamples = 10\nvalue = [1, 9]"] ;
192 -> 193 ;
194 [label="entropy = 0.0\nsamples = 9\nvalue = [0, 9]"] ;
193 -> 194 ;
195 [label="entropy = 0.0\nsamples = 1\nvalue = [1, 0]"] ;
193 -> 195 ;
196 [label="entropy = 0.0\nsamples = 3\nvalue = [3, 0]"] ;
192 -> 196 ;
197 [label="homepage_4 <= 0.5\nentropy = 0.831\nsamples = 114\nvalue = [30, 84]"] ;
145 -> 197 ;
198 [label="glossary_1 <= 0.5\nentropy = 0.661\nsamples = 70\nvalue = [12, 58]"] ;
197 -> 198 ;
199 [label="acumneg_3 <= 0.5\nentropy = 0.757\nsamples = 55\nvalue = [12, 43]"] ;
198 -> 199 ;
200 [label="resource_4 <= 0.5\nentropy = 0.888\nsamples = 36\nvalue = [11, 25]"] ;
199 -> 200 ;
201 [label="ouwiki_1 <= 0.5\nentropy = 0.722\nsamples = 25\nvalue = [5, 20]"] ;
200 -> 201 ;
202 [label="quiz_1 <= 0.5\nentropy = 1.0\nsamples = 6\nvalue = [3, 3]"] ;
201 -> 202 ;
203 [label="resource_3 <= 0.5\nentropy = 0.811\nsamples = 4\nvalue = [3, 1]"] ;
202 -> 203 ;
204 [label="entropy = 0.0\nsamples = 3\nvalue = [3, 0]"] ;
203 -> 204 ;
205 [label="entropy = 0.0\nsamples = 1\nvalue = [0, 1]"] ;
203 -> 205 ;
206 [label="entropy = 0.0\nsamples = 2\nvalue = [0, 2]"] ;
202 -> 206 ;
207 [label="resource_1 <= 0.5\nentropy = 0.485\nsamples = 19\nvalue = [2, 17]"] ;
201 -> 207 ;
208 [label="entropy = 0.0\nsamples = 12\nvalue = [0, 12]"] ;
207 -> 208 ;
209 [label="acumneg_1 <= 0.5\nentropy = 0.863\nsamples = 7\nvalue = [2, 5]"] ;
207 -> 209 ;
210 [label="oucollaborate <= 0.5\nentropy = 0.65\nsamples = 6\nvalue = [1, 5]"] ;
209 -> 210 ;
211 [label="entropy = 0.0\nsamples = 5\nvalue = [0, 5]"] ;
210 -> 211 ;
212 [label="entropy = 0.0\nsamples = 1\nvalue = [1, 0]"] ;
210 -> 212 ;
213 [label="entropy = 0.0\nsamples = 1\nvalue = [1, 0]"] ;
209 -> 213 ;
214 [label="oucollaborate <= 0.5\nentropy = 0.994\nsamples = 11\nvalue = [6, 5]"] ;
200 -> 214 ;
215 [label="oucontent_3 <= 0.5\nentropy = 0.65\nsamples = 6\nvalue = [5, 1]"] ;
214 -> 215 ;
216 [label="entropy = 0.0\nsamples = 5\nvalue = [5, 0]"] ;
215 -> 216 ;
217 [label="entropy = 0.0\nsamples = 1\nvalue = [0, 1]"] ;
215 -> 217 ;
218 [label="subpage_2 <= 0.5\nentropy = 0.722\nsamples = 5\nvalue = [1, 4]"] ;
214 -> 218 ;
219 [label="entropy = 0.0\nsamples = 4\nvalue = [0, 4]"] ;
218 -> 219 ;
220 [label="entropy = 0.0\nsamples = 1\nvalue = [1, 0]"] ;
218 -> 220 ;
221 [label="oucollaborate <= 0.5\nentropy = 0.297\nsamples = 19\nvalue = [1, 18]"] ;
199 -> 221 ;
222 [label="entropy = 0.0\nsamples = 14\nvalue = [0, 14]"] ;
221 -> 222 ;
223 [label="oucontent_3 <= 0.5\nentropy = 0.722\nsamples = 5\nvalue = [1, 4]"] ;
221 -> 223 ;
224 [label="entropy = 0.0\nsamples = 4\nvalue = [0, 4]"] ;
223 -> 224 ;
225 [label="entropy = 0.0\nsamples = 1\nvalue = [1, 0]"] ;
223 -> 225 ;
226 [label="entropy = 0.0\nsamples = 15\nvalue = [0, 15]"] ;
198 -> 226 ;
227 [label="url_4 <= 0.5\nentropy = 0.976\nsamples = 44\nvalue = [18, 26]"] ;
197 -> 227 ;
228 [label="oucontent_3 <= 0.5\nentropy = 0.881\nsamples = 20\nvalue = [14, 6]"] ;
227 -> 228 ;
229 [label="resource_3 <= 0.5\nentropy = 0.991\nsamples = 9\nvalue = [4, 5]"] ;
228 -> 229 ;
230 [label="acumneg_3 <= 0.5\nentropy = 0.863\nsamples = 7\nvalue = [2, 5]"] ;
229 -> 230 ;
231 [label="glossary_1 <= 0.5\nentropy = 0.65\nsamples = 6\nvalue = [1, 5]"] ;
230 -> 231 ;
232 [label="entropy = 0.0\nsamples = 4\nvalue = [0, 4]"] ;
231 -> 232 ;
233 [label="resource_4 <= 0.5\nentropy = 1.0\nsamples = 2\nvalue = [1, 1]"] ;
231 -> 233 ;
234 [label="entropy = 0.0\nsamples = 1\nvalue = [0, 1]"] ;
233 -> 234 ;
235 [label="entropy = 0.0\nsamples = 1\nvalue = [1, 0]"] ;
233 -> 235 ;
236 [label="entropy = 0.0\nsamples = 1\nvalue = [1, 0]"] ;
230 -> 236 ;
237 [label="entropy = 0.0\nsamples = 2\nvalue = [2, 0]"] ;
229 -> 237 ;
238 [label="acumneg_4 <= 0.5\nentropy = 0.439\nsamples = 11\nvalue = [10, 1]"] ;
228 -> 238 ;
239 [label="entropy = 0.0\nsamples = 6\nvalue = [6, 0]"] ;
238 -> 239 ;
240 [label="entropy = 0.722\nsamples = 5\nvalue = [4, 1]"] ;
238 -> 240 ;
241 [label="resource_2 <= 0.5\nentropy = 0.65\nsamples = 24\nvalue = [4, 20]"] ;
227 -> 241 ;
242 [label="oucontent_2 <= 0.5\nentropy = 0.439\nsamples = 22\nvalue = [2, 20]"] ;
241 -> 242 ;
243 [label="glossary_1 <= 0.5\nentropy = 0.592\nsamples = 14\nvalue = [2, 12]"] ;
242 -> 243 ;
244 [label="acumneg_0 <= 0.5\nentropy = 0.764\nsamples = 9\nvalue = [2, 7]"] ;
243 -> 244 ;
245 [label="oucollaborate <= 0.5\nentropy = 0.918\nsamples = 6\nvalue = [2, 4]"] ;
244 -> 245 ;
246 [label="entropy = 0.0\nsamples = 1\nvalue = [0, 1]"] ;
245 -> 246 ;
247 [label="resource_3 <= 0.5\nentropy = 0.971\nsamples = 5\nvalue = [2, 3]"] ;
245 -> 247 ;
248 [label="acumneg_4 <= 0.5\nentropy = 0.811\nsamples = 4\nvalue = [1, 3]"] ;
247 -> 248 ;
249 [label="entropy = 0.0\nsamples = 2\nvalue = [0, 2]"] ;
248 -> 249 ;
250 [label="entropy = 1.0\nsamples = 2\nvalue = [1, 1]"] ;
248 -> 250 ;
251 [label="entropy = 0.0\nsamples = 1\nvalue = [1, 0]"] ;
247 -> 251 ;
252 [label="entropy = 0.0\nsamples = 3\nvalue = [0, 3]"] ;
244 -> 252 ;
253 [label="entropy = 0.0\nsamples = 5\nvalue = [0, 5]"] ;
243 -> 253 ;
254 [label="entropy = 0.0\nsamples = 8\nvalue = [0, 8]"] ;
242 -> 254 ;
255 [label="entropy = 0.0\nsamples = 2\nvalue = [2, 0]"] ;
241 -> 255 ;
256 [label="subpage_1 <= 0.5\nentropy = 0.918\nsamples = 9\nvalue = [6, 3]"] ;
144 -> 256 ;
257 [label="entropy = 0.0\nsamples = 3\nvalue = [0, 3]"] ;
256 -> 257 ;
258 [label="entropy = 0.0\nsamples = 6\nvalue = [6, 0]"] ;
256 -> 258 ;
259 [label="resource_0 <= 0.5\nentropy = 0.975\nsamples = 243\nvalue = [99, 144]"] ;
5 -> 259 ;
260 [label="folder <= 0.5\nentropy = 0.963\nsamples = 235\nvalue = [91, 144]"] ;
259 -> 260 ;
261 [label="oucontent_3 <= 0.5\nentropy = 0.972\nsamples = 224\nvalue = [90, 134]"] ;
260 -> 261 ;
262 [label="subpage_4 <= 0.5\nentropy = 0.93\nsamples = 168\nvalue = [58, 110]"] ;
261 -> 262 ;
263 [label="oucontent_0 <= 0.5\nentropy = 0.956\nsamples = 154\nvalue = [58, 96]"] ;
262 -> 263 ;
264 [label="homepage_1 <= 0.5\nentropy = 0.91\nsamples = 117\nvalue = [38, 79]"] ;
263 -> 264 ;
265 [label="acumneg_0 <= 0.5\nentropy = 0.868\nsamples = 107\nvalue = [31, 76]"] ;
264 -> 265 ;
266 [label="resource_4 <= 0.5\nentropy = 0.9\nsamples = 95\nvalue = [30, 65]"] ;
265 -> 266 ;
267 [label="acumneg_2 <= 0.5\nentropy = 0.959\nsamples = 55\nvalue = [21, 34]"] ;
266 -> 267 ;
268 [label="homepage_0 <= 0.5\nentropy = 0.989\nsamples = 41\nvalue = [18, 23]"] ;
267 -> 268 ;
269 [label="homepage_4 <= 0.5\nentropy = 0.996\nsamples = 39\nvalue = [18, 21]"] ;
268 -> 269 ;
270 [label="quiz_3 <= 0.5\nentropy = 0.999\nsamples = 37\nvalue = [18, 19]"] ;
269 -> 270 ;
271 [label="entropy = 0.983\nsamples = 26\nvalue = [11, 15]"] ;
270 -> 271 ;
272 [label="entropy = 0.946\nsamples = 11\nvalue = [7, 4]"] ;
270 -> 272 ;
273 [label="entropy = 0.0\nsamples = 2\nvalue = [0, 2]"] ;
269 -> 273 ;
274 [label="entropy = 0.0\nsamples = 2\nvalue = [0, 2]"] ;
268 -> 274 ;
275 [label="quiz_0 <= 0.5\nentropy = 0.75\nsamples = 14\nvalue = [3, 11]"] ;
267 -> 275 ;
276 [label="forumng_4 <= 0.5\nentropy = 0.985\nsamples = 7\nvalue = [3, 4]"] ;
275 -> 276 ;
277 [label="homepage_2 <= 0.5\nentropy = 0.722\nsamples = 5\nvalue = [1, 4]"] ;
276 -> 277 ;
278 [label="entropy = 0.0\nsamples = 1\nvalue = [1, 0]"] ;
277 -> 278 ;
279 [label="entropy = 0.0\nsamples = 4\nvalue = [0, 4]"] ;
277 -> 279 ;
280 [label="entropy = 0.0\nsamples = 2\nvalue = [2, 0]"] ;
276 -> 280 ;
281 [label="entropy = 0.0\nsamples = 7\nvalue = [0, 7]"] ;
275 -> 281 ;
282 [label="oucontent_2 <= 0.5\nentropy = 0.769\nsamples = 40\nvalue = [9, 31]"] ;
266 -> 282 ;
283 [label="acumneg_4 <= 0.5\nentropy = 0.414\nsamples = 24\nvalue = [2, 22]"] ;
282 -> 283 ;
284 [label="entropy = 0.0\nsamples = 20\nvalue = [0, 20]"] ;
283 -> 284 ;
285 [label="glossary_0 <= 0.5\nentropy = 1.0\nsamples = 4\nvalue = [2, 2]"] ;
283 -> 285 ;
286 [label="entropy = 0.0\nsamples = 2\nvalue = [2, 0]"] ;
285 -> 286 ;
287 [label="entropy = 0.0\nsamples = 2\nvalue = [0, 2]"] ;
285 -> 287 ;
288 [label="forumng_3 <= 0.5\nentropy = 0.989\nsamples = 16\nvalue = [7, 9]"] ;
282 -> 288 ;
289 [label="forumng_2 <= 0.5\nentropy = 0.764\nsamples = 9\nvalue = [2, 7]"] ;
288 -> 289 ;
290 [label="entropy = 0.0\nsamples = 6\nvalue = [0, 6]"] ;
289 -> 290 ;
291 [label="acumg_2 <= 0.5\nentropy = 0.918\nsamples = 3\nvalue = [2, 1]"] ;
289 -> 291 ;
292 [label="entropy = 0.0\nsamples = 1\nvalue = [0, 1]"] ;
291 -> 292 ;
293 [label="entropy = 0.0\nsamples = 2\nvalue = [2, 0]"] ;
291 -> 293 ;
294 [label="acumneg_3 <= 0.5\nentropy = 0.863\nsamples = 7\nvalue = [5, 2]"] ;
288 -> 294 ;
295 [label="quiz_3 <= 0.5\nentropy = 1.0\nsamples = 4\nvalue = [2, 2]"] ;
294 -> 295 ;
296 [label="entropy = 0.918\nsamples = 3\nvalue = [1, 2]"] ;
295 -> 296 ;
297 [label="entropy = 0.0\nsamples = 1\nvalue = [1, 0]"] ;
295 -> 297 ;
298 [label="entropy = 0.0\nsamples = 3\nvalue = [3, 0]"] ;
294 -> 298 ;
299 [label="quiz_2 <= 0.5\nentropy = 0.414\nsamples = 12\nvalue = [1, 11]"] ;
265 -> 299 ;
300 [label="entropy = 0.0\nsamples = 9\nvalue = [0, 9]"] ;
299 -> 300 ;
301 [label="homepage_3 <= 0.5\nentropy = 0.918\nsamples = 3\nvalue = [1, 2]"] ;
299 -> 301 ;
302 [label="entropy = 0.0\nsamples = 1\nvalue = [1, 0]"] ;
301 -> 302 ;
303 [label="entropy = 0.0\nsamples = 2\nvalue = [0, 2]"] ;
301 -> 303 ;
304 [label="subpage_3 <= 0.5\nentropy = 0.881\nsamples = 10\nvalue = [7, 3]"] ;
264 -> 304 ;
305 [label="entropy = 0.0\nsamples = 6\nvalue = [6, 0]"] ;
304 -> 305 ;
306 [label="acumg_3 <= 0.5\nentropy = 0.811\nsamples = 4\nvalue = [1, 3]"] ;
304 -> 306 ;
307 [label="entropy = 0.0\nsamples = 3\nvalue = [0, 3]"] ;
306 -> 307 ;
308 [label="entropy = 0.0\nsamples = 1\nvalue = [1, 0]"] ;
306 -> 308 ;
309 [label="acumneg_1 <= 0.5\nentropy = 0.995\nsamples = 37\nvalue = [20, 17]"] ;
263 -> 309 ;
310 [label="quiz_3 <= 0.5\nentropy = 0.954\nsamples = 24\nvalue = [9, 15]"] ;
309 -> 310 ;
311 [label="forumng_2 <= 0.5\nentropy = 0.881\nsamples = 10\nvalue = [7, 3]"] ;
310 -> 311 ;
312 [label="resource_1 <= 0.5\nentropy = 0.764\nsamples = 9\nvalue = [7, 2]"] ;
311 -> 312 ;
313 [label="acumneg_2 <= 0.5\nentropy = 0.544\nsamples = 8\nvalue = [7, 1]"] ;
312 -> 313 ;
314 [label="entropy = 0.0\nsamples = 5\nvalue = [5, 0]"] ;
313 -> 314 ;
315 [label="subpage_2 <= 0.5\nentropy = 0.918\nsamples = 3\nvalue = [2, 1]"] ;
313 -> 315 ;
316 [label="entropy = 0.0\nsamples = 2\nvalue = [2, 0]"] ;
315 -> 316 ;
317 [label="entropy = 0.0\nsamples = 1\nvalue = [0, 1]"] ;
315 -> 317 ;
318 [label="entropy = 0.0\nsamples = 1\nvalue = [0, 1]"] ;
312 -> 318 ;
319 [label="entropy = 0.0\nsamples = 1\nvalue = [0, 1]"] ;
311 -> 319 ;
320 [label="forumng_3 <= 0.5\nentropy = 0.592\nsamples = 14\nvalue = [2, 12]"] ;
310 -> 320 ;
321 [label="acumneg_2 <= 0.5\nentropy = 0.391\nsamples = 13\nvalue = [1, 12]"] ;
320 -> 321 ;
322 [label="entropy = 0.0\nsamples = 9\nvalue = [0, 9]"] ;
321 -> 322 ;
323 [label="resource_4 <= 0.5\nentropy = 0.811\nsamples = 4\nvalue = [1, 3]"] ;
321 -> 323 ;
324 [label="entropy = 0.0\nsamples = 3\nvalue = [0, 3]"] ;
323 -> 324 ;
325 [label="entropy = 0.0\nsamples = 1\nvalue = [1, 0]"] ;
323 -> 325 ;
326 [label="entropy = 0.0\nsamples = 1\nvalue = [1, 0]"] ;
320 -> 326 ;
327 [label="subpage_2 <= 0.5\nentropy = 0.619\nsamples = 13\nvalue = [11, 2]"] ;
309 -> 327 ;
328 [label="entropy = 0.0\nsamples = 9\nvalue = [9, 0]"] ;
327 -> 328 ;
329 [label="acumg_3 <= 0.5\nentropy = 1.0\nsamples = 4\nvalue = [2, 2]"] ;
327 -> 329 ;
330 [label="entropy = 0.0\nsamples = 2\nvalue = [0, 2]"] ;
329 -> 330 ;
331 [label="entropy = 0.0\nsamples = 2\nvalue = [2, 0]"] ;
329 -> 331 ;
332 [label="entropy = 0.0\nsamples = 14\nvalue = [0, 14]"] ;
262 -> 332 ;
333 [label="forumng_3 <= 0.5\nentropy = 0.985\nsamples = 56\nvalue = [32, 24]"] ;
261 -> 333 ;
334 [label="subpage_0 <= 0.5\nentropy = 0.91\nsamples = 43\nvalue = [29, 14]"] ;
333 -> 334 ;
335 [label="subpage_3 <= 0.5\nentropy = 0.872\nsamples = 41\nvalue = [29, 12]"] ;
334 -> 335 ;
336 [label="forumng_1 <= 0.5\nentropy = 0.61\nsamples = 20\nvalue = [17, 3]"] ;
335 -> 336 ;
337 [label="entropy = 0.0\nsamples = 12\nvalue = [12, 0]"] ;
336 -> 337 ;
338 [label="acumneg_3 <= 0.5\nentropy = 0.954\nsamples = 8\nvalue = [5, 3]"] ;
336 -> 338 ;
339 [label="acumneg_0 <= 0.5\nentropy = 0.811\nsamples = 4\nvalue = [1, 3]"] ;
338 -> 339 ;
340 [label="entropy = 0.0\nsamples = 3\nvalue = [0, 3]"] ;
339 -> 340 ;
341 [label="entropy = 0.0\nsamples = 1\nvalue = [1, 0]"] ;
339 -> 341 ;
342 [label="entropy = 0.0\nsamples = 4\nvalue = [4, 0]"] ;
338 -> 342 ;
343 [label="forumng_1 <= 0.5\nentropy = 0.985\nsamples = 21\nvalue = [12, 9]"] ;
335 -> 343 ;
344 [label="acumneg_3 <= 0.5\nentropy = 0.989\nsamples = 16\nvalue = [7, 9]"] ;
343 -> 344 ;
345 [label="quiz_3 <= 0.5\nentropy = 0.764\nsamples = 9\nvalue = [2, 7]"] ;
344 -> 345 ;
346 [label="entropy = 0.0\nsamples = 5\nvalue = [0, 5]"] ;
345 -> 346 ;
347 [label="resource_4 <= 0.5\nentropy = 1.0\nsamples = 4\nvalue = [2, 2]"] ;
345 -> 347 ;
348 [label="entropy = 0.0\nsamples = 2\nvalue = [0, 2]"] ;
347 -> 348 ;
349 [label="entropy = 0.0\nsamples = 2\nvalue = [2, 0]"] ;
347 -> 349 ;
350 [label="ouwiki_0 <= 0.5\nentropy = 0.863\nsamples = 7\nvalue = [5, 2]"] ;
344 -> 350 ;
351 [label="resource_4 <= 0.5\nentropy = 1.0\nsamples = 4\nvalue = [2, 2]"] ;
350 -> 351 ;
352 [label="entropy = 0.0\nsamples = 2\nvalue = [0, 2]"] ;
351 -> 352 ;
353 [label="entropy = 0.0\nsamples = 2\nvalue = [2, 0]"] ;
351 -> 353 ;
354 [label="entropy = 0.0\nsamples = 3\nvalue = [3, 0]"] ;
350 -> 354 ;
355 [label="entropy = 0.0\nsamples = 5\nvalue = [5, 0]"] ;
343 -> 355 ;
356 [label="entropy = 0.0\nsamples = 2\nvalue = [0, 2]"] ;
334 -> 356 ;
357 [label="acumneg_0 <= 0.5\nentropy = 0.779\nsamples = 13\nvalue = [3, 10]"] ;
333 -> 357 ;
358 [label="subpage_2 <= 0.5\nentropy = 0.439\nsamples = 11\nvalue = [1, 10]"] ;
357 -> 358 ;
359 [label="entropy = 0.0\nsamples = 10\nvalue = [0, 10]"] ;
358 -> 359 ;
360 [label="entropy = 0.0\nsamples = 1\nvalue = [1, 0]"] ;
358 -> 360 ;
361 [label="entropy = 0.0\nsamples = 2\nvalue = [2, 0]"] ;
357 -> 361 ;
362 [label="oucontent_2 <= 0.5\nentropy = 0.439\nsamples = 11\nvalue = [1, 10]"] ;
260 -> 362 ;
363 [label="entropy = 0.0\nsamples = 10\nvalue = [0, 10]"] ;
362 -> 363 ;
364 [label="entropy = 0.0\nsamples = 1\nvalue = [1, 0]"] ;
362 -> 364 ;
365 [label="entropy = 0.0\nsamples = 8\nvalue = [8, 0]"] ;
259 -> 365 ;
366 [label="resource_0 <= 0.5\nentropy = 0.998\nsamples = 177\nvalue = [93, 84]"] ;
4 -> 366 ;
367 [label="forumng_0 <= 0.5\nentropy = 1.0\nsamples = 166\nvalue = [82, 84]"] ;
366 -> 367 ;
368 [label="resource_4 <= 0.5\nentropy = 0.988\nsamples = 131\nvalue = [57, 74]"] ;
367 -> 368 ;
369 [label="subpage_0 <= 0.5\nentropy = 1.0\nsamples = 103\nvalue = [51, 52]"] ;
368 -> 369 ;
370 [label="ouwiki_1 <= 0.5\nentropy = 0.999\nsamples = 100\nvalue = [48, 52]"] ;
369 -> 370 ;
371 [label="quiz_0 <= 0.5\nentropy = 0.998\nsamples = 87\nvalue = [46, 41]"] ;
370 -> 371 ;
372 [label="oucontent_2 <= 0.5\nentropy = 0.999\nsamples = 79\nvalue = [38, 41]"] ;
371 -> 372 ;
373 [label="acumneg_1 <= 0.5\nentropy = 0.971\nsamples = 60\nvalue = [24, 36]"] ;
372 -> 373 ;
374 [label="homepage_2 <= 0.5\nentropy = 0.863\nsamples = 35\nvalue = [10, 25]"] ;
373 -> 374 ;
375 [label="acumneg_2 <= 0.5\nentropy = 0.65\nsamples = 18\nvalue = [3, 15]"] ;
374 -> 375 ;
376 [label="quiz_2 <= 0.5\nentropy = 0.391\nsamples = 13\nvalue = [1, 12]"] ;
375 -> 376 ;
377 [label="entropy = 0.0\nsamples = 9\nvalue = [0, 9]"] ;
376 -> 377 ;
378 [label="oucontent_0 <= 0.5\nentropy = 0.811\nsamples = 4\nvalue = [1, 3]"] ;
376 -> 378 ;
379 [label="entropy = 1.0\nsamples = 2\nvalue = [1, 1]"] ;
378 -> 379 ;
380 [label="entropy = 0.0\nsamples = 2\nvalue = [0, 2]"] ;
378 -> 380 ;
381 [label="resource_1 <= 0.5\nentropy = 0.971\nsamples = 5\nvalue = [2, 3]"] ;
375 -> 381 ;
382 [label="oucollaborate <= 0.5\nentropy = 0.918\nsamples = 3\nvalue = [2, 1]"] ;
381 -> 382 ;
383 [label="entropy = 0.0\nsamples = 2\nvalue = [2, 0]"] ;
382 -> 383 ;
384 [label="entropy = 0.0\nsamples = 1\nvalue = [0, 1]"] ;
382 -> 384 ;
385 [label="entropy = 0.0\nsamples = 2\nvalue = [0, 2]"] ;
381 -> 385 ;
386 [label="oucontent_0 <= 0.5\nentropy = 0.977\nsamples = 17\nvalue = [7, 10]"] ;
374 -> 386 ;
387 [label="forumng_3 <= 0.5\nentropy = 0.996\nsamples = 13\nvalue = [7, 6]"] ;
386 -> 387 ;
388 [label="acumg_2 <= 0.5\nentropy = 0.946\nsamples = 11\nvalue = [7, 4]"] ;
387 -> 388 ;
389 [label="forumng_1 <= 0.5\nentropy = 0.985\nsamples = 7\nvalue = [3, 4]"] ;
388 -> 389 ;
390 [label="entropy = 0.0\nsamples = 2\nvalue = [2, 0]"] ;
389 -> 390 ;
391 [label="entropy = 0.722\nsamples = 5\nvalue = [1, 4]"] ;
389 -> 391 ;
392 [label="entropy = 0.0\nsamples = 4\nvalue = [4, 0]"] ;
388 -> 392 ;
393 [label="entropy = 0.0\nsamples = 2\nvalue = [0, 2]"] ;
387 -> 393 ;
394 [label="entropy = 0.0\nsamples = 4\nvalue = [0, 4]"] ;
386 -> 394 ;
395 [label="resource_3 <= 0.5\nentropy = 0.99\nsamples = 25\nvalue = [14, 11]"] ;
373 -> 395 ;
396 [label="oucontent_0 <= 0.5\nentropy = 0.592\nsamples = 14\nvalue = [12, 2]"] ;
395 -> 396 ;
397 [label="forumng_2 <= 0.5\nentropy = 0.971\nsamples = 5\nvalue = [3, 2]"] ;
396 -> 397 ;
398 [label="entropy = 0.0\nsamples = 2\nvalue = [0, 2]"] ;
397 -> 398 ;
399 [label="entropy = 0.0\nsamples = 3\nvalue = [3, 0]"] ;
397 -> 399 ;
400 [label="entropy = 0.0\nsamples = 9\nvalue = [9, 0]"] ;
396 -> 400 ;
401 [label="forumng_1 <= 0.5\nentropy = 0.684\nsamples = 11\nvalue = [2, 9]"] ;
395 -> 401 ;
402 [label="entropy = 0.0\nsamples = 9\nvalue = [0, 9]"] ;
401 -> 402 ;
403 [label="entropy = 0.0\nsamples = 2\nvalue = [2, 0]"] ;
401 -> 403 ;
404 [label="acumneg_1 <= 0.5\nentropy = 0.831\nsamples = 19\nvalue = [14, 5]"] ;
372 -> 404 ;
405 [label="forumng_3 <= 0.5\nentropy = 0.592\nsamples = 14\nvalue = [12, 2]"] ;
404 -> 405 ;
406 [label="entropy = 0.0\nsamples = 10\nvalue = [10, 0]"] ;
405 -> 406 ;
407 [label="resource_2 <= 0.5\nentropy = 1.0\nsamples = 4\nvalue = [2, 2]"] ;
405 -> 407 ;
408 [label="entropy = 0.918\nsamples = 3\nvalue = [2, 1]"] ;
407 -> 408 ;
409 [label="entropy = 0.0\nsamples = 1\nvalue = [0, 1]"] ;
407 -> 409 ;
410 [label="subpage_3 <= 0.5\nentropy = 0.971\nsamples = 5\nvalue = [2, 3]"] ;
404 -> 410 ;
411 [label="homepage_2 <= 0.5\nentropy = 0.918\nsamples = 3\nvalue = [2, 1]"] ;
410 -> 411 ;
412 [label="entropy = 0.0\nsamples = 1\nvalue = [0, 1]"] ;
411 -> 412 ;
413 [label="entropy = 0.0\nsamples = 2\nvalue = [2, 0]"] ;
411 -> 413 ;
414 [label="entropy = 0.0\nsamples = 2\nvalue = [0, 2]"] ;
410 -> 414 ;
415 [label="entropy = 0.0\nsamples = 8\nvalue = [8, 0]"] ;
371 -> 415 ;
416 [label="acumneg_2 <= 0.5\nentropy = 0.619\nsamples = 13\nvalue = [2, 11]"] ;
370 -> 416 ;
417 [label="entropy = 0.0\nsamples = 8\nvalue = [0, 8]"] ;
416 -> 417 ;
418 [label="forumng_3 <= 0.5\nentropy = 0.971\nsamples = 5\nvalue = [2, 3]"] ;
416 -> 418 ;
419 [label="entropy = 0.0\nsamples = 3\nvalue = [0, 3]"] ;
418 -> 419 ;
420 [label="entropy = 0.0\nsamples = 2\nvalue = [2, 0]"] ;
418 -> 420 ;
421 [label="entropy = 0.0\nsamples = 3\nvalue = [3, 0]"] ;
369 -> 421 ;
422 [label="forumng_1 <= 0.5\nentropy = 0.75\nsamples = 28\nvalue = [6, 22]"] ;
368 -> 422 ;
423 [label="acumneg_2 <= 0.5\nentropy = 0.485\nsamples = 19\nvalue = [2, 17]"] ;
422 -> 423 ;
424 [label="homepage_4 <= 0.5\nentropy = 0.722\nsamples = 10\nvalue = [2, 8]"] ;
423 -> 424 ;
425 [label="forumng_2 <= 0.5\nentropy = 0.503\nsamples = 9\nvalue = [1, 8]"] ;
424 -> 425 ;
426 [label="entropy = 0.0\nsamples = 7\nvalue = [0, 7]"] ;
425 -> 426 ;
427 [label="acumneg_1 <= 0.5\nentropy = 1.0\nsamples = 2\nvalue = [1, 1]"] ;
425 -> 427 ;
428 [label="entropy = 0.0\nsamples = 1\nvalue = [1, 0]"] ;
427 -> 428 ;
429 [label="entropy = 0.0\nsamples = 1\nvalue = [0, 1]"] ;
427 -> 429 ;
430 [label="entropy = 0.0\nsamples = 1\nvalue = [1, 0]"] ;
424 -> 430 ;
431 [label="entropy = 0.0\nsamples = 9\nvalue = [0, 9]"] ;
423 -> 431 ;
432 [label="acumg_3 <= 0.5\nentropy = 0.991\nsamples = 9\nvalue = [4, 5]"] ;
422 -> 432 ;
433 [label="oucontent_2 <= 0.5\nentropy = 0.985\nsamples = 7\nvalue = [4, 3]"] ;
432 -> 433 ;
434 [label="oucontent_0 <= 0.5\nentropy = 0.918\nsamples = 6\nvalue = [4, 2]"] ;
433 -> 434 ;
435 [label="acumneg_0 <= 0.5\nentropy = 0.722\nsamples = 5\nvalue = [4, 1]"] ;
434 -> 435 ;
436 [label="entropy = 0.0\nsamples = 3\nvalue = [3, 0]"] ;
435 -> 436 ;
437 [label="subpage_3 <= 0.5\nentropy = 1.0\nsamples = 2\nvalue = [1, 1]"] ;
435 -> 437 ;
438 [label="entropy = 0.0\nsamples = 1\nvalue = [1, 0]"] ;
437 -> 438 ;
439 [label="entropy = 0.0\nsamples = 1\nvalue = [0, 1]"] ;
437 -> 439 ;
440 [label="entropy = 0.0\nsamples = 1\nvalue = [0, 1]"] ;
434 -> 440 ;
441 [label="entropy = 0.0\nsamples = 1\nvalue = [0, 1]"] ;
433 -> 441 ;
442 [label="entropy = 0.0\nsamples = 2\nvalue = [0, 2]"] ;
432 -> 442 ;
443 [label="acumneg_0 <= 0.5\nentropy = 0.863\nsamples = 35\nvalue = [25, 10]"] ;
367 -> 443 ;
444 [label="quiz_3 <= 0.5\nentropy = 0.559\nsamples = 23\nvalue = [20, 3]"] ;
443 -> 444 ;
445 [label="entropy = 0.0\nsamples = 9\nvalue = [9, 0]"] ;
444 -> 445 ;
446 [label="resource_4 <= 0.5\nentropy = 0.75\nsamples = 14\nvalue = [11, 3]"] ;
444 -> 446 ;
447 [label="subpage_2 <= 0.5\nentropy = 0.439\nsamples = 11\nvalue = [10, 1]"] ;
446 -> 447 ;
448 [label="entropy = 0.0\nsamples = 9\nvalue = [9, 0]"] ;
447 -> 448 ;
449 [label="resource_3 <= 0.5\nentropy = 1.0\nsamples = 2\nvalue = [1, 1]"] ;
447 -> 449 ;
450 [label="entropy = 0.0\nsamples = 1\nvalue = [1, 0]"] ;
449 -> 450 ;
451 [label="entropy = 0.0\nsamples = 1\nvalue = [0, 1]"] ;
449 -> 451 ;
452 [label="oucontent_3 <= 0.5\nentropy = 0.918\nsamples = 3\nvalue = [1, 2]"] ;
446 -> 452 ;
453 [label="entropy = 0.0\nsamples = 2\nvalue = [0, 2]"] ;
452 -> 453 ;
454 [label="entropy = 0.0\nsamples = 1\nvalue = [1, 0]"] ;
452 -> 454 ;
455 [label="resource_4 <= 0.5\nentropy = 0.98\nsamples = 12\nvalue = [5, 7]"] ;
443 -> 455 ;
456 [label="oucontent_0 <= 0.5\nentropy = 0.881\nsamples = 10\nvalue = [3, 7]"] ;
455 -> 456 ;
457 [label="entropy = 0.0\nsamples = 4\nvalue = [0, 4]"] ;
456 -> 457 ;
458 [label="quiz_2 <= 0.5\nentropy = 1.0\nsamples = 6\nvalue = [3, 3]"] ;
456 -> 458 ;
459 [label="entropy = 0.971\nsamples = 5\nvalue = [3, 2]"] ;
458 -> 459 ;
460 [label="entropy = 0.0\nsamples = 1\nvalue = [0, 1]"] ;
458 -> 460 ;
461 [label="entropy = 0.0\nsamples = 2\nvalue = [2, 0]"] ;
455 -> 461 ;
462 [label="entropy = 0.0\nsamples = 11\nvalue = [11, 0]"] ;
366 -> 462 ;
463 [label="quiz_3 <= 0.5\nentropy = 0.975\nsamples = 209\nvalue = [124, 85]"] ;
3 -> 463 ;
464 [label="oucontent_3 <= 0.5\nentropy = 0.678\nsamples = 95\nvalue = [78, 17]"] ;
463 -> 464 ;
465 [label="quiz_2 <= 0.5\nentropy = 0.974\nsamples = 42\nvalue = [25, 17]"] ;
464 -> 465 ;
466 [label="entropy = 0.0\nsamples = 18\nvalue = [18, 0]"] ;
465 -> 466 ;
467 [label="homepage_4 <= 0.5\nentropy = 0.871\nsamples = 24\nvalue = [7, 17]"] ;
465 -> 467 ;
468 [label="resource_4 <= 0.5\nentropy = 0.702\nsamples = 21\nvalue = [4, 17]"] ;
467 -> 468 ;
469 [label="forumng_3 <= 0.5\nentropy = 0.971\nsamples = 10\nvalue = [4, 6]"] ;
468 -> 469 ;
470 [label="subpage_1 <= 0.5\nentropy = 0.592\nsamples = 7\nvalue = [1, 6]"] ;
469 -> 470 ;
471 [label="entropy = 0.0\nsamples = 6\nvalue = [0, 6]"] ;
470 -> 471 ;
472 [label="entropy = 0.0\nsamples = 1\nvalue = [1, 0]"] ;
470 -> 472 ;
473 [label="entropy = 0.0\nsamples = 3\nvalue = [3, 0]"] ;
469 -> 473 ;
474 [label="entropy = 0.0\nsamples = 11\nvalue = [0, 11]"] ;
468 -> 474 ;
475 [label="entropy = 0.0\nsamples = 3\nvalue = [3, 0]"] ;
467 -> 475 ;
476 [label="entropy = 0.0\nsamples = 53\nvalue = [53, 0]"] ;
464 -> 476 ;
477 [label="oucontent_1 <= 0.5\nentropy = 0.973\nsamples = 114\nvalue = [46, 68]"] ;
463 -> 477 ;
478 [label="homepage_3 <= 0.5\nentropy = 0.997\nsamples = 98\nvalue = [46, 52]"] ;
477 -> 478 ;
479 [label="homepage_4 <= 0.5\nentropy = 0.971\nsamples = 55\nvalue = [33, 22]"] ;
478 -> 479 ;
480 [label="subpage_2 <= 0.5\nentropy = 0.947\nsamples = 52\nvalue = [33, 19]"] ;
479 -> 480 ;
481 [label="homepage_1 <= 0.5\nentropy = 0.911\nsamples = 49\nvalue = [33, 16]"] ;
480 -> 481 ;
482 [label="acumneg_4 <= 0.5\nentropy = 0.965\nsamples = 41\nvalue = [25, 16]"] ;
481 -> 482 ;
483 [label="folder <= 0.5\nentropy = 0.987\nsamples = 37\nvalue = [21, 16]"] ;
482 -> 483 ;
484 [label="oucollaborate <= 0.5\nentropy = 0.65\nsamples = 6\nvalue = [1, 5]"] ;
483 -> 484 ;
485 [label="entropy = 0.0\nsamples = 5\nvalue = [0, 5]"] ;
484 -> 485 ;
486 [label="entropy = 0.0\nsamples = 1\nvalue = [1, 0]"] ;
484 -> 486 ;
487 [label="acumneg_2 <= 0.5\nentropy = 0.938\nsamples = 31\nvalue = [20, 11]"] ;
483 -> 487 ;
488 [label="forumng_1 <= 0.5\nentropy = 0.894\nsamples = 29\nvalue = [20, 9]"] ;
487 -> 488 ;
489 [label="oucontent_4 <= 0.5\nentropy = 0.863\nsamples = 28\nvalue = [20, 8]"] ;
488 -> 489 ;
490 [label="oucollaborate <= 0.5\nentropy = 0.826\nsamples = 27\nvalue = [20, 7]"] ;
489 -> 490 ;
491 [label="glossary_0 <= 0.5\nentropy = 0.738\nsamples = 24\nvalue = [19, 5]"] ;
490 -> 491 ;
492 [label="entropy = 0.0\nsamples = 3\nvalue = [3, 0]"] ;
491 -> 492 ;
493 [label="forumng_3 <= 0.5\nentropy = 0.792\nsamples = 21\nvalue = [16, 5]"] ;
491 -> 493 ;
494 [label="entropy = 0.619\nsamples = 13\nvalue = [11, 2]"] ;
493 -> 494 ;
495 [label="entropy = 0.954\nsamples = 8\nvalue = [5, 3]"] ;
493 -> 495 ;
496 [label="forumng_2 <= 0.5\nentropy = 0.918\nsamples = 3\nvalue = [1, 2]"] ;
490 -> 496 ;
497 [label="entropy = 0.0\nsamples = 1\nvalue = [1, 0]"] ;
496 -> 497 ;
498 [label="entropy = 0.0\nsamples = 2\nvalue = [0, 2]"] ;
496 -> 498 ;
499 [label="entropy = 0.0\nsamples = 1\nvalue = [0, 1]"] ;
489 -> 499 ;
500 [label="entropy = 0.0\nsamples = 1\nvalue = [0, 1]"] ;
488 -> 500 ;
501 [label="entropy = 0.0\nsamples = 2\nvalue = [0, 2]"] ;
487 -> 501 ;
502 [label="entropy = 0.0\nsamples = 4\nvalue = [4, 0]"] ;
482 -> 502 ;
503 [label="entropy = 0.0\nsamples = 8\nvalue = [8, 0]"] ;
481 -> 503 ;
504 [label="entropy = 0.0\nsamples = 3\nvalue = [0, 3]"] ;
480 -> 504 ;
505 [label="entropy = 0.0\nsamples = 3\nvalue = [0, 3]"] ;
479 -> 505 ;
506 [label="forumng_4 <= 0.5\nentropy = 0.884\nsamples = 43\nvalue = [13, 30]"] ;
478 -> 506 ;
507 [label="url_2 <= 0.5\nentropy = 0.779\nsamples = 39\nvalue = [9, 30]"] ;
506 -> 507 ;
508 [label="oucontent_4 <= 0.5\nentropy = 0.297\nsamples = 19\nvalue = [1, 18]"] ;
507 -> 508 ;
509 [label="entropy = 0.0\nsamples = 14\nvalue = [0, 14]"] ;
508 -> 509 ;
510 [label="subpage_3 <= 0.5\nentropy = 0.722\nsamples = 5\nvalue = [1, 4]"] ;
508 -> 510 ;
511 [label="entropy = 0.0\nsamples = 1\nvalue = [1, 0]"] ;
510 -> 511 ;
512 [label="entropy = 0.0\nsamples = 4\nvalue = [0, 4]"] ;
510 -> 512 ;
513 [label="subpage_3 <= 0.5\nentropy = 0.971\nsamples = 20\nvalue = [8, 12]"] ;
507 -> 513 ;
514 [label="entropy = 0.0\nsamples = 3\nvalue = [3, 0]"] ;
513 -> 514 ;
515 [label="forumng_2 <= 0.5\nentropy = 0.874\nsamples = 17\nvalue = [5, 12]"] ;
513 -> 515 ;
516 [label="forumng_0 <= 0.5\nentropy = 1.0\nsamples = 10\nvalue = [5, 5]"] ;
515 -> 516 ;
517 [label="acumneg_1 <= 0.5\nentropy = 0.954\nsamples = 8\nvalue = [5, 3]"] ;
516 -> 517 ;
518 [label="oucontent_4 <= 0.5\nentropy = 0.65\nsamples = 6\nvalue = [5, 1]"] ;
517 -> 518 ;
519 [label="entropy = 0.0\nsamples = 4\nvalue = [4, 0]"] ;
518 -> 519 ;
520 [label="entropy = 1.0\nsamples = 2\nvalue = [1, 1]"] ;
518 -> 520 ;
521 [label="entropy = 0.0\nsamples = 2\nvalue = [0, 2]"] ;
517 -> 521 ;
522 [label="entropy = 0.0\nsamples = 2\nvalue = [0, 2]"] ;
516 -> 522 ;
523 [label="entropy = 0.0\nsamples = 7\nvalue = [0, 7]"] ;
515 -> 523 ;
524 [label="entropy = 0.0\nsamples = 4\nvalue = [4, 0]"] ;
506 -> 524 ;
525 [label="entropy = 0.0\nsamples = 16\nvalue = [0, 16]"] ;
477 -> 525 ;
526 [label="acumneg_3 <= 0.5\nentropy = 0.57\nsamples = 549\nvalue = [74, 475]"] ;
2 -> 526 ;
527 [label="forumng_4 <= 0.5\nentropy = 0.647\nsamples = 429\nvalue = [71, 358]"] ;
526 -> 527 ;
528 [label="forumng_3 <= 0.5\nentropy = 0.807\nsamples = 202\nvalue = [50, 152]"] ;
527 -> 528 ;
529 [label="url_3 <= 0.5\nentropy = 0.933\nsamples = 89\nvalue = [31, 58]"] ;
528 -> 529 ;
530 [label="subpage_4 <= 0.5\nentropy = 0.999\nsamples = 52\nvalue = [25, 27]"] ;
529 -> 530 ;
531 [label="oucollaborate <= 0.5\nentropy = 0.863\nsamples = 28\nvalue = [8, 20]"] ;
530 -> 531 ;
532 [label="ouwiki_1 <= 0.5\nentropy = 0.971\nsamples = 20\nvalue = [8, 12]"] ;
531 -> 532 ;
533 [label="resource_1 <= 0.5\nentropy = 0.811\nsamples = 16\nvalue = [4, 12]"] ;
532 -> 533 ;
534 [label="forumng_0 <= 0.5\nentropy = 0.391\nsamples = 13\nvalue = [1, 12]"] ;
533 -> 534 ;
535 [label="entropy = 0.0\nsamples = 10\nvalue = [0, 10]"] ;
534 -> 535 ;
536 [label="url_1 <= 0.5\nentropy = 0.918\nsamples = 3\nvalue = [1, 2]"] ;
534 -> 536 ;
537 [label="entropy = 0.0\nsamples = 1\nvalue = [1, 0]"] ;
536 -> 537 ;
538 [label="entropy = 0.0\nsamples = 2\nvalue = [0, 2]"] ;
536 -> 538 ;
539 [label="entropy = 0.0\nsamples = 3\nvalue = [3, 0]"] ;
533 -> 539 ;
540 [label="entropy = 0.0\nsamples = 4\nvalue = [4, 0]"] ;
532 -> 540 ;
541 [label="entropy = 0.0\nsamples = 8\nvalue = [0, 8]"] ;
531 -> 541 ;
542 [label="acumneg_1 <= 0.5\nentropy = 0.871\nsamples = 24\nvalue = [17, 7]"] ;
530 -> 542 ;
543 [label="forumng_0 <= 0.5\nentropy = 0.702\nsamples = 21\nvalue = [17, 4]"] ;
542 -> 543 ;
544 [label="oucontent_4 <= 0.5\nentropy = 0.61\nsamples = 20\nvalue = [17, 3]"] ;
543 -> 544 ;
545 [label="entropy = 0.0\nsamples = 7\nvalue = [7, 0]"] ;
544 -> 545 ;
546 [label="resource_3 <= 0.5\nentropy = 0.779\nsamples = 13\nvalue = [10, 3]"] ;
544 -> 546 ;
547 [label="entropy = 0.0\nsamples = 2\nvalue = [0, 2]"] ;
546 -> 547 ;
548 [label="oucollaborate <= 0.5\nentropy = 0.439\nsamples = 11\nvalue = [10, 1]"] ;
546 -> 548 ;
549 [label="entropy = 0.0\nsamples = 8\nvalue = [8, 0]"] ;
548 -> 549 ;
550 [label="acumneg_4 <= 0.5\nentropy = 0.918\nsamples = 3\nvalue = [2, 1]"] ;
548 -> 550 ;
551 [label="entropy = 0.0\nsamples = 2\nvalue = [2, 0]"] ;
550 -> 551 ;
552 [label="entropy = 0.0\nsamples = 1\nvalue = [0, 1]"] ;
550 -> 552 ;
553 [label="entropy = 0.0\nsamples = 1\nvalue = [0, 1]"] ;
543 -> 553 ;
554 [label="entropy = 0.0\nsamples = 3\nvalue = [0, 3]"] ;
542 -> 554 ;
555 [label="page_0 <= 0.5\nentropy = 0.639\nsamples = 37\nvalue = [6, 31]"] ;
529 -> 555 ;
556 [label="dataplus <= 0.5\nentropy = 0.811\nsamples = 24\nvalue = [6, 18]"] ;
555 -> 556 ;
557 [label="subpage_4 <= 0.5\nentropy = 0.954\nsamples = 16\nvalue = [6, 10]"] ;
556 -> 557 ;
558 [label="entropy = 0.0\nsamples = 4\nvalue = [0, 4]"] ;
557 -> 558 ;
559 [label="oucontent_1 <= 0.5\nentropy = 1.0\nsamples = 12\nvalue = [6, 6]"] ;
557 -> 559 ;
560 [label="acumneg_0 <= 0.5\nentropy = 0.994\nsamples = 11\nvalue = [6, 5]"] ;
559 -> 560 ;
561 [label="oucontent_3 <= 0.5\nentropy = 0.918\nsamples = 6\nvalue = [2, 4]"] ;
560 -> 561 ;
562 [label="entropy = 0.0\nsamples = 3\nvalue = [0, 3]"] ;
561 -> 562 ;
563 [label="oucollaborate <= 0.5\nentropy = 0.918\nsamples = 3\nvalue = [2, 1]"] ;
561 -> 563 ;
564 [label="entropy = 0.0\nsamples = 1\nvalue = [0, 1]"] ;
563 -> 564 ;
565 [label="entropy = 0.0\nsamples = 2\nvalue = [2, 0]"] ;
563 -> 565 ;
566 [label="oucollaborate <= 0.5\nentropy = 0.722\nsamples = 5\nvalue = [4, 1]"] ;
560 -> 566 ;
567 [label="entropy = 0.0\nsamples = 4\nvalue = [4, 0]"] ;
566 -> 567 ;
568 [label="entropy = 0.0\nsamples = 1\nvalue = [0, 1]"] ;
566 -> 568 ;
569 [label="entropy = 0.0\nsamples = 1\nvalue = [0, 1]"] ;
559 -> 569 ;
570 [label="entropy = 0.0\nsamples = 8\nvalue = [0, 8]"] ;
556 -> 570 ;
571 [label="entropy = 0.0\nsamples = 13\nvalue = [0, 13]"] ;
555 -> 571 ;
572 [label="dataplus <= 0.5\nentropy = 0.653\nsamples = 113\nvalue = [19, 94]"] ;
528 -> 572 ;
573 [label="quiz_3 <= 0.5\nentropy = 0.8\nsamples = 74\nvalue = [18, 56]"] ;
572 -> 573 ;
574 [label="entropy = 0.0\nsamples = 17\nvalue = [0, 17]"] ;
573 -> 574 ;
575 [label="oucollaborate <= 0.5\nentropy = 0.9\nsamples = 57\nvalue = [18, 39]"] ;
573 -> 575 ;
576 [label="acumneg_4 <= 0.5\nentropy = 0.579\nsamples = 29\nvalue = [4, 25]"] ;
575 -> 576 ;
577 [label="subpage_4 <= 0.5\nentropy = 0.764\nsamples = 18\nvalue = [4, 14]"] ;
576 -> 577 ;
578 [label="entropy = 0.0\nsamples = 9\nvalue = [0, 9]"] ;
577 -> 578 ;
579 [label="resource_2 <= 0.5\nentropy = 0.991\nsamples = 9\nvalue = [4, 5]"] ;
577 -> 579 ;
580 [label="glossary_1 <= 0.5\nentropy = 0.811\nsamples = 4\nvalue = [3, 1]"] ;
579 -> 580 ;
581 [label="entropy = 0.0\nsamples = 3\nvalue = [3, 0]"] ;
580 -> 581 ;
582 [label="entropy = 0.0\nsamples = 1\nvalue = [0, 1]"] ;
580 -> 582 ;
583 [label="url_4 <= 0.5\nentropy = 0.722\nsamples = 5\nvalue = [1, 4]"] ;
579 -> 583 ;
584 [label="entropy = 0.0\nsamples = 3\nvalue = [0, 3]"] ;
583 -> 584 ;
585 [label="acumneg_2 <= 0.5\nentropy = 1.0\nsamples = 2\nvalue = [1, 1]"] ;
583 -> 585 ;
586 [label="entropy = 0.0\nsamples = 1\nvalue = [1, 0]"] ;
585 -> 586 ;
587 [label="entropy = 0.0\nsamples = 1\nvalue = [0, 1]"] ;
585 -> 587 ;
588 [label="entropy = 0.0\nsamples = 11\nvalue = [0, 11]"] ;
576 -> 588 ;
589 [label="folder <= 0.5\nentropy = 1.0\nsamples = 28\nvalue = [14, 14]"] ;
575 -> 589 ;
590 [label="oucontent_4 <= 0.5\nentropy = 0.684\nsamples = 11\nvalue = [9, 2]"] ;
589 -> 590 ;
591 [label="entropy = 0.0\nsamples = 2\nvalue = [0, 2]"] ;
590 -> 591 ;
592 [label="entropy = 0.0\nsamples = 9\nvalue = [9, 0]"] ;
590 -> 592 ;
593 [label="url_3 <= 0.5\nentropy = 0.874\nsamples = 17\nvalue = [5, 12]"] ;
589 -> 593 ;
594 [label="entropy = 0.0\nsamples = 9\nvalue = [0, 9]"] ;
593 -> 594 ;
595 [label="acumneg_0 <= 0.5\nentropy = 0.954\nsamples = 8\nvalue = [5, 3]"] ;
593 -> 595 ;
596 [label="resource_2 <= 0.5\nentropy = 0.65\nsamples = 6\nvalue = [5, 1]"] ;
595 -> 596 ;
597 [label="entropy = 0.0\nsamples = 4\nvalue = [4, 0]"] ;
596 -> 597 ;
598 [label="ouwiki_1 <= 0.5\nentropy = 1.0\nsamples = 2\nvalue = [1, 1]"] ;
596 -> 598 ;
599 [label="entropy = 0.0\nsamples = 1\nvalue = [0, 1]"] ;
598 -> 599 ;
600 [label="entropy = 0.0\nsamples = 1\nvalue = [1, 0]"] ;
598 -> 600 ;
601 [label="entropy = 0.0\nsamples = 2\nvalue = [0, 2]"] ;
595 -> 601 ;
602 [label="acumneg_0 <= 0.5\nentropy = 0.172\nsamples = 39\nvalue = [1, 38]"] ;
572 -> 602 ;
603 [label="entropy = 0.0\nsamples = 34\nvalue = [0, 34]"] ;
602 -> 603 ;
604 [label="resource_4 <= 0.5\nentropy = 0.722\nsamples = 5\nvalue = [1, 4]"] ;
602 -> 604 ;
605 [label="entropy = 0.0\nsamples = 4\nvalue = [0, 4]"] ;
604 -> 605 ;
606 [label="entropy = 0.0\nsamples = 1\nvalue = [1, 0]"] ;
604 -> 606 ;
607 [label="quiz_0 <= 0.5\nentropy = 0.445\nsamples = 227\nvalue = [21, 206]"] ;
527 -> 607 ;
608 [label="ouwiki_1 <= 0.5\nentropy = 0.493\nsamples = 195\nvalue = [21, 174]"] ;
607 -> 608 ;
609 [label="url_3 <= 0.5\nentropy = 0.342\nsamples = 110\nvalue = [7, 103]"] ;
608 -> 609 ;
610 [label="resource_3 <= 0.5\nentropy = 0.509\nsamples = 62\nvalue = [7, 55]"] ;
609 -> 610 ;
611 [label="homepage_4 <= 0.5\nentropy = 0.632\nsamples = 44\nvalue = [7, 37]"] ;
610 -> 611 ;
612 [label="subpage_3 <= 0.5\nentropy = 1.0\nsamples = 6\nvalue = [3, 3]"] ;
611 -> 612 ;
613 [label="url_4 <= 0.5\nentropy = 0.811\nsamples = 4\nvalue = [1, 3]"] ;
612 -> 613 ;
614 [label="entropy = 0.0\nsamples = 3\nvalue = [0, 3]"] ;
613 -> 614 ;
615 [label="entropy = 0.0\nsamples = 1\nvalue = [1, 0]"] ;
613 -> 615 ;
616 [label="entropy = 0.0\nsamples = 2\nvalue = [2, 0]"] ;
612 -> 616 ;
617 [label="subpage_2 <= 0.5\nentropy = 0.485\nsamples = 38\nvalue = [4, 34]"] ;
611 -> 617 ;
618 [label="dataplus <= 0.5\nentropy = 0.323\nsamples = 34\nvalue = [2, 32]"] ;
617 -> 618 ;
619 [label="entropy = 0.0\nsamples = 30\nvalue = [0, 30]"] ;
618 -> 619 ;
620 [label="acumneg_4 <= 0.5\nentropy = 1.0\nsamples = 4\nvalue = [2, 2]"] ;
618 -> 620 ;
621 [label="entropy = 0.0\nsamples = 2\nvalue = [2, 0]"] ;
620 -> 621 ;
622 [label="entropy = 0.0\nsamples = 2\nvalue = [0, 2]"] ;
620 -> 622 ;
623 [label="glossary_1 <= 0.5\nentropy = 1.0\nsamples = 4\nvalue = [2, 2]"] ;
617 -> 623 ;
624 [label="entropy = 0.0\nsamples = 2\nvalue = [2, 0]"] ;
623 -> 624 ;
625 [label="entropy = 0.0\nsamples = 2\nvalue = [0, 2]"] ;
623 -> 625 ;
626 [label="entropy = 0.0\nsamples = 18\nvalue = [0, 18]"] ;
610 -> 626 ;
627 [label="entropy = 0.0\nsamples = 48\nvalue = [0, 48]"] ;
609 -> 627 ;
628 [label="folder <= 0.5\nentropy = 0.645\nsamples = 85\nvalue = [14, 71]"] ;
608 -> 628 ;
629 [label="quiz_3 <= 0.5\nentropy = 0.904\nsamples = 25\nvalue = [8, 17]"] ;
628 -> 629 ;
630 [label="resource_3 <= 0.5\nentropy = 0.503\nsamples = 18\nvalue = [2, 16]"] ;
629 -> 630 ;
631 [label="entropy = 0.0\nsamples = 14\nvalue = [0, 14]"] ;
630 -> 631 ;
632 [label="oucollaborate <= 0.5\nentropy = 1.0\nsamples = 4\nvalue = [2, 2]"] ;
630 -> 632 ;
633 [label="entropy = 0.0\nsamples = 2\nvalue = [0, 2]"] ;
632 -> 633 ;
634 [label="entropy = 0.0\nsamples = 2\nvalue = [2, 0]"] ;
632 -> 634 ;
635 [label="glossary_1 <= 0.5\nentropy = 0.592\nsamples = 7\nvalue = [6, 1]"] ;
629 -> 635 ;
636 [label="entropy = 0.0\nsamples = 6\nvalue = [6, 0]"] ;
635 -> 636 ;
637 [label="entropy = 0.0\nsamples = 1\nvalue = [0, 1]"] ;
635 -> 637 ;
638 [label="resource_3 <= 0.5\nentropy = 0.469\nsamples = 60\nvalue = [6, 54]"] ;
628 -> 638 ;
639 [label="page_0 <= 0.5\nentropy = 0.592\nsamples = 42\nvalue = [6, 36]"] ;
638 -> 639 ;
640 [label="oucontent_4 <= 0.5\nentropy = 0.629\nsamples = 38\nvalue = [6, 32]"] ;
639 -> 640 ;
641 [label="entropy = 0.0\nsamples = 2\nvalue = [0, 2]"] ;
640 -> 641 ;
642 [label="url_3 <= 0.5\nentropy = 0.65\nsamples = 36\nvalue = [6, 30]"] ;
640 -> 642 ;
643 [label="homepage_4 <= 0.5\nentropy = 0.559\nsamples = 23\nvalue = [3, 20]"] ;
642 -> 643 ;
644 [label="entropy = 0.0\nsamples = 1\nvalue = [1, 0]"] ;
643 -> 644 ;
645 [label="oucollaborate <= 0.5\nentropy = 0.439\nsamples = 22\nvalue = [2, 20]"] ;
643 -> 645 ;
646 [label="entropy = 0.0\nsamples = 7\nvalue = [0, 7]"] ;
645 -> 646 ;
647 [label="glossary_0 <= 0.5\nentropy = 0.567\nsamples = 15\nvalue = [2, 13]"] ;
645 -> 647 ;
648 [label="entropy = 0.0\nsamples = 5\nvalue = [0, 5]"] ;
647 -> 648 ;
649 [label="resource_4 <= 0.5\nentropy = 0.722\nsamples = 10\nvalue = [2, 8]"] ;
647 -> 649 ;
650 [label="entropy = 0.0\nsamples = 2\nvalue = [0, 2]"] ;
649 -> 650 ;
651 [label="entropy = 0.811\nsamples = 8\nvalue = [2, 6]"] ;
649 -> 651 ;
652 [label="homepage_3 <= 0.5\nentropy = 0.779\nsamples = 13\nvalue = [3, 10]"] ;
642 -> 652 ;
653 [label="acumneg_1 <= 0.5\nentropy = 0.845\nsamples = 11\nvalue = [3, 8]"] ;
652 -> 653 ;
654 [label="oucollaborate <= 0.5\nentropy = 0.881\nsamples = 10\nvalue = [3, 7]"] ;
653 -> 654 ;
655 [label="dataplus <= 0.5\nentropy = 0.971\nsamples = 5\nvalue = [2, 3]"] ;
654 -> 655 ;
656 [label="entropy = 0.0\nsamples = 2\nvalue = [0, 2]"] ;
655 -> 656 ;
657 [label="acumneg_4 <= 0.5\nentropy = 0.918\nsamples = 3\nvalue = [2, 1]"] ;
655 -> 657 ;
658 [label="entropy = 0.0\nsamples = 1\nvalue = [0, 1]"] ;
657 -> 658 ;
659 [label="entropy = 0.0\nsamples = 2\nvalue = [2, 0]"] ;
657 -> 659 ;
660 [label="dataplus <= 0.5\nentropy = 0.722\nsamples = 5\nvalue = [1, 4]"] ;
654 -> 660 ;
661 [label="entropy = 0.0\nsamples = 1\nvalue = [1, 0]"] ;
660 -> 661 ;
662 [label="entropy = 0.0\nsamples = 4\nvalue = [0, 4]"] ;
660 -> 662 ;
663 [label="entropy = 0.0\nsamples = 1\nvalue = [0, 1]"] ;
653 -> 663 ;
664 [label="entropy = 0.0\nsamples = 2\nvalue = [0, 2]"] ;
652 -> 664 ;
665 [label="entropy = 0.0\nsamples = 4\nvalue = [0, 4]"] ;
639 -> 665 ;
666 [label="entropy = 0.0\nsamples = 18\nvalue = [0, 18]"] ;
638 -> 666 ;
667 [label="entropy = 0.0\nsamples = 32\nvalue = [0, 32]"] ;
607 -> 667 ;
668 [label="resource_2 <= 0.5\nentropy = 0.169\nsamples = 120\nvalue = [3, 117]"] ;
526 -> 668 ;
669 [label="entropy = 0.0\nsamples = 74\nvalue = [0, 74]"] ;
668 -> 669 ;
670 [label="forumng_4 <= 0.5\nentropy = 0.348\nsamples = 46\nvalue = [3, 43]"] ;
668 -> 670 ;
671 [label="entropy = 0.0\nsamples = 29\nvalue = [0, 29]"] ;
670 -> 671 ;
672 [label="dataplus <= 0.5\nentropy = 0.672\nsamples = 17\nvalue = [3, 14]"] ;
670 -> 672 ;
673 [label="oucollaborate <= 0.5\nentropy = 0.811\nsamples = 12\nvalue = [3, 9]"] ;
672 -> 673 ;
674 [label="url_3 <= 0.5\nentropy = 0.503\nsamples = 9\nvalue = [1, 8]"] ;
673 -> 674 ;
675 [label="entropy = 0.0\nsamples = 7\nvalue = [0, 7]"] ;
674 -> 675 ;
676 [label="quiz_2 <= 0.5\nentropy = 1.0\nsamples = 2\nvalue = [1, 1]"] ;
674 -> 676 ;
677 [label="entropy = 0.0\nsamples = 1\nvalue = [1, 0]"] ;
676 -> 677 ;
678 [label="entropy = 0.0\nsamples = 1\nvalue = [0, 1]"] ;
676 -> 678 ;
679 [label="homepage_4 <= 0.5\nentropy = 0.918\nsamples = 3\nvalue = [2, 1]"] ;
673 -> 679 ;
680 [label="entropy = 0.0\nsamples = 1\nvalue = [0, 1]"] ;
679 -> 680 ;
681 [label="entropy = 0.0\nsamples = 2\nvalue = [2, 0]"] ;
679 -> 681 ;
682 [label="entropy = 0.0\nsamples = 5\nvalue = [0, 5]"] ;
672 -> 682 ;
683 [label="quiz_1 <= 0.5\nentropy = 0.926\nsamples = 700\nvalue = [461, 239]"] ;
1 -> 683 ;
684 [label="quiz_2 <= 0.5\nentropy = 0.738\nsamples = 375\nvalue = [297, 78]"] ;
683 -> 684 ;
685 [label="ouwiki_1 <= 0.5\nentropy = 0.603\nsamples = 231\nvalue = [197, 34]"] ;
684 -> 685 ;
686 [label="resource_0 <= 0.5\nentropy = 0.49\nsamples = 206\nvalue = [184, 22]"] ;
685 -> 686 ;
687 [label="page_1 <= 0.5\nentropy = 0.567\nsamples = 165\nvalue = [143, 22]"] ;
686 -> 687 ;
688 [label="subpage_0 <= 0.5\nentropy = 0.63\nsamples = 139\nvalue = [117, 22]"] ;
687 -> 688 ;
689 [label="forumng_3 <= 0.5\nentropy = 0.662\nsamples = 128\nvalue = [106, 22]"] ;
688 -> 689 ;
690 [label="glossary_0 <= 0.5\nentropy = 0.681\nsamples = 122\nvalue = [100, 22]"] ;
689 -> 690 ;
691 [label="resource_4 <= 0.5\nentropy = 0.985\nsamples = 7\nvalue = [4, 3]"] ;
690 -> 691 ;
692 [label="url_1 <= 0.5\nentropy = 0.971\nsamples = 5\nvalue = [2, 3]"] ;
691 -> 692 ;
693 [label="entropy = 0.0\nsamples = 3\nvalue = [0, 3]"] ;
692 -> 693 ;
694 [label="entropy = 0.0\nsamples = 2\nvalue = [2, 0]"] ;
692 -> 694 ;
695 [label="entropy = 0.0\nsamples = 2\nvalue = [2, 0]"] ;
691 -> 695 ;
696 [label="oucontent_2 <= 0.5\nentropy = 0.647\nsamples = 115\nvalue = [96, 19]"] ;
690 -> 696 ;
697 [label="forumng_1 <= 0.5\nentropy = 0.482\nsamples = 48\nvalue = [43, 5]"] ;
696 -> 697 ;
698 [label="resource_1 <= 0.5\nentropy = 0.65\nsamples = 30\nvalue = [25, 5]"] ;
697 -> 698 ;
699 [label="oucontent_1 <= 0.5\nentropy = 0.918\nsamples = 12\nvalue = [8, 4]"] ;
698 -> 699 ;
700 [label="entropy = 0.0\nsamples = 2\nvalue = [0, 2]"] ;
699 -> 700 ;
701 [label="subpage_1 <= 0.5\nentropy = 0.722\nsamples = 10\nvalue = [8, 2]"] ;
699 -> 701 ;
702 [label="oucollaborate <= 0.5\nentropy = 0.503\nsamples = 9\nvalue = [8, 1]"] ;
701 -> 702 ;
703 [label="entropy = 0.0\nsamples = 8\nvalue = [8, 0]"] ;
702 -> 703 ;
704 [label="entropy = 0.0\nsamples = 1\nvalue = [0, 1]"] ;
702 -> 704 ;
705 [label="entropy = 0.0\nsamples = 1\nvalue = [0, 1]"] ;
701 -> 705 ;
706 [label="forumng_0 <= 0.5\nentropy = 0.31\nsamples = 18\nvalue = [17, 1]"] ;
698 -> 706 ;
707 [label="entropy = 0.0\nsamples = 9\nvalue = [9, 0]"] ;
706 -> 707 ;
708 [label="oucollaborate <= 0.5\nentropy = 0.503\nsamples = 9\nvalue = [8, 1]"] ;
706 -> 708 ;
709 [label="url_1 <= 0.5\nentropy = 0.811\nsamples = 4\nvalue = [3, 1]"] ;
708 -> 709 ;
710 [label="entropy = 0.0\nsamples = 3\nvalue = [3, 0]"] ;
709 -> 710 ;
711 [label="entropy = 0.0\nsamples = 1\nvalue = [0, 1]"] ;
709 -> 711 ;
712 [label="entropy = 0.0\nsamples = 5\nvalue = [5, 0]"] ;
708 -> 712 ;
713 [label="entropy = 0.0\nsamples = 18\nvalue = [18, 0]"] ;
697 -> 713 ;
714 [label="oucollaborate <= 0.5\nentropy = 0.739\nsamples = 67\nvalue = [53, 14]"] ;
696 -> 714 ;
715 [label="subpage_1 <= 0.5\nentropy = 0.681\nsamples = 61\nvalue = [50, 11]"] ;
714 -> 715 ;
716 [label="homepage_1 <= 0.5\nentropy = 0.777\nsamples = 48\nvalue = [37, 11]"] ;
715 -> 716 ;
717 [label="acumneg_2 <= 0.5\nentropy = 0.61\nsamples = 20\nvalue = [17, 3]"] ;
716 -> 717 ;
718 [label="resource_2 <= 0.5\nentropy = 0.811\nsamples = 12\nvalue = [9, 3]"] ;
717 -> 718 ;
719 [label="url_0 <= 0.5\nentropy = 0.469\nsamples = 10\nvalue = [9, 1]"] ;
718 -> 719 ;
720 [label="entropy = 0.0\nsamples = 7\nvalue = [7, 0]"] ;
719 -> 720 ;
721 [label="acumneg_0 <= 0.5\nentropy = 0.918\nsamples = 3\nvalue = [2, 1]"] ;
719 -> 721 ;
722 [label="entropy = 0.0\nsamples = 1\nvalue = [0, 1]"] ;
721 -> 722 ;
723 [label="entropy = 0.0\nsamples = 2\nvalue = [2, 0]"] ;
721 -> 723 ;
724 [label="entropy = 0.0\nsamples = 2\nvalue = [0, 2]"] ;
718 -> 724 ;
725 [label="entropy = 0.0\nsamples = 8\nvalue = [8, 0]"] ;
717 -> 725 ;
726 [label="subpage_2 <= 0.5\nentropy = 0.863\nsamples = 28\nvalue = [20, 8]"] ;
716 -> 726 ;
727 [label="url_2 <= 0.5\nentropy = 0.971\nsamples = 5\nvalue = [2, 3]"] ;
726 -> 727 ;
728 [label="entropy = 0.0\nsamples = 3\nvalue = [0, 3]"] ;
727 -> 728 ;
729 [label="entropy = 0.0\nsamples = 2\nvalue = [2, 0]"] ;
727 -> 729 ;
730 [label="url_1 <= 0.5\nentropy = 0.755\nsamples = 23\nvalue = [18, 5]"] ;
726 -> 730 ;
731 [label="resource_3 <= 0.5\nentropy = 0.94\nsamples = 14\nvalue = [9, 5]"] ;
730 -> 731 ;
732 [label="acumneg_1 <= 0.5\nentropy = 0.89\nsamples = 13\nvalue = [9, 4]"] ;
731 -> 732 ;
733 [label="entropy = 0.991\nsamples = 9\nvalue = [5, 4]"] ;
732 -> 733 ;
734 [label="entropy = 0.0\nsamples = 4\nvalue = [4, 0]"] ;
732 -> 734 ;
735 [label="entropy = 0.0\nsamples = 1\nvalue = [0, 1]"] ;
731 -> 735 ;
736 [label="entropy = 0.0\nsamples = 9\nvalue = [9, 0]"] ;
730 -> 736 ;
737 [label="entropy = 0.0\nsamples = 13\nvalue = [13, 0]"] ;
715 -> 737 ;
738 [label="subpage_1 <= 0.5\nentropy = 1.0\nsamples = 6\nvalue = [3, 3]"] ;
714 -> 738 ;
739 [label="entropy = 0.0\nsamples = 3\nvalue = [3, 0]"] ;
738 -> 739 ;
740 [label="entropy = 0.0\nsamples = 3\nvalue = [0, 3]"] ;
738 -> 740 ;
741 [label="entropy = 0.0\nsamples = 6\nvalue = [6, 0]"] ;
689 -> 741 ;
742 [label="entropy = 0.0\nsamples = 11\nvalue = [11, 0]"] ;
688 -> 742 ;
743 [label="entropy = 0.0\nsamples = 26\nvalue = [26, 0]"] ;
687 -> 743 ;
744 [label="entropy = 0.0\nsamples = 41\nvalue = [41, 0]"] ;
686 -> 744 ;
745 [label="oucollaborate <= 0.5\nentropy = 0.999\nsamples = 25\nvalue = [13, 12]"] ;
685 -> 745 ;
746 [label="acumneg_1 <= 0.5\nentropy = 0.811\nsamples = 16\nvalue = [12, 4]"] ;
745 -> 746 ;
747 [label="url_1 <= 0.5\nentropy = 0.619\nsamples = 13\nvalue = [11, 2]"] ;
746 -> 747 ;
748 [label="acumneg_0 <= 0.5\nentropy = 0.971\nsamples = 5\nvalue = [3, 2]"] ;
747 -> 748 ;
749 [label="entropy = 0.0\nsamples = 2\nvalue = [2, 0]"] ;
748 -> 749 ;
750 [label="forumng_1 <= 0.5\nentropy = 0.918\nsamples = 3\nvalue = [1, 2]"] ;
748 -> 750 ;
751 [label="entropy = 0.0\nsamples = 1\nvalue = [1, 0]"] ;
750 -> 751 ;
752 [label="entropy = 0.0\nsamples = 2\nvalue = [0, 2]"] ;
750 -> 752 ;
753 [label="entropy = 0.0\nsamples = 8\nvalue = [8, 0]"] ;
747 -> 753 ;
754 [label="forumng_2 <= 0.5\nentropy = 0.918\nsamples = 3\nvalue = [1, 2]"] ;
746 -> 754 ;
755 [label="entropy = 0.0\nsamples = 1\nvalue = [1, 0]"] ;
754 -> 755 ;
756 [label="entropy = 0.0\nsamples = 2\nvalue = [0, 2]"] ;
754 -> 756 ;
757 [label="homepage_1 <= 0.5\nentropy = 0.503\nsamples = 9\nvalue = [1, 8]"] ;
745 -> 757 ;
758 [label="acumneg_2 <= 0.5\nentropy = 0.918\nsamples = 3\nvalue = [1, 2]"] ;
757 -> 758 ;
759 [label="entropy = 0.0\nsamples = 2\nvalue = [0, 2]"] ;
758 -> 759 ;
760 [label="entropy = 0.0\nsamples = 1\nvalue = [1, 0]"] ;
758 -> 760 ;
761 [label="entropy = 0.0\nsamples = 6\nvalue = [0, 6]"] ;
757 -> 761 ;
762 [label="url_1 <= 0.5\nentropy = 0.888\nsamples = 144\nvalue = [100, 44]"] ;
684 -> 762 ;
763 [label="oucontent_2 <= 0.5\nentropy = 0.997\nsamples = 81\nvalue = [43, 38]"] ;
762 -> 763 ;
764 [label="forumng_2 <= 0.5\nentropy = 0.924\nsamples = 53\nvalue = [35, 18]"] ;
763 -> 764 ;
765 [label="acumneg_1 <= 0.5\nentropy = 0.828\nsamples = 46\nvalue = [34, 12]"] ;
764 -> 765 ;
766 [label="url_3 <= 0.5\nentropy = 0.602\nsamples = 34\nvalue = [29, 5]"] ;
765 -> 766 ;
767 [label="homepage_1 <= 0.5\nentropy = 0.533\nsamples = 33\nvalue = [29, 4]"] ;
766 -> 767 ;
768 [label="entropy = 0.0\nsamples = 9\nvalue = [9, 0]"] ;
767 -> 768 ;
769 [label="resource_0 <= 0.5\nentropy = 0.65\nsamples = 24\nvalue = [20, 4]"] ;
767 -> 769 ;
770 [label="subpage_0 <= 0.5\nentropy = 0.559\nsamples = 23\nvalue = [20, 3]"] ;
769 -> 770 ;
771 [label="forumng_1 <= 0.5\nentropy = 0.65\nsamples = 18\nvalue = [15, 3]"] ;
770 -> 771 ;
772 [label="subpage_1 <= 0.5\nentropy = 0.918\nsamples = 6\nvalue = [4, 2]"] ;
771 -> 772 ;
773 [label="subpage_3 <= 0.5\nentropy = 0.722\nsamples = 5\nvalue = [4, 1]"] ;
772 -> 773 ;
774 [label="acumneg_0 <= 0.5\nentropy = 0.918\nsamples = 3\nvalue = [2, 1]"] ;
773 -> 774 ;
775 [label="entropy = 0.0\nsamples = 1\nvalue = [1, 0]"] ;
774 -> 775 ;
776 [label="entropy = 1.0\nsamples = 2\nvalue = [1, 1]"] ;
774 -> 776 ;
777 [label="entropy = 0.0\nsamples = 2\nvalue = [2, 0]"] ;
773 -> 777 ;
778 [label="entropy = 0.0\nsamples = 1\nvalue = [0, 1]"] ;
772 -> 778 ;
779 [label="oucontent_1 <= 0.5\nentropy = 0.414\nsamples = 12\nvalue = [11, 1]"] ;
771 -> 779 ;
780 [label="resource_1 <= 0.5\nentropy = 0.65\nsamples = 6\nvalue = [5, 1]"] ;
779 -> 780 ;
781 [label="entropy = 0.0\nsamples = 3\nvalue = [3, 0]"] ;
780 -> 781 ;
782 [label="acumneg_2 <= 0.5\nentropy = 0.918\nsamples = 3\nvalue = [2, 1]"] ;
780 -> 782 ;
783 [label="entropy = 0.0\nsamples = 2\nvalue = [2, 0]"] ;
782 -> 783 ;
784 [label="entropy = 0.0\nsamples = 1\nvalue = [0, 1]"] ;
782 -> 784 ;
785 [label="entropy = 0.0\nsamples = 6\nvalue = [6, 0]"] ;
779 -> 785 ;
786 [label="entropy = 0.0\nsamples = 5\nvalue = [5, 0]"] ;
770 -> 786 ;
787 [label="entropy = 0.0\nsamples = 1\nvalue = [0, 1]"] ;
769 -> 787 ;
788 [label="entropy = 0.0\nsamples = 1\nvalue = [0, 1]"] ;
766 -> 788 ;
789 [label="subpage_1 <= 0.5\nentropy = 0.98\nsamples = 12\nvalue = [5, 7]"] ;
765 -> 789 ;
790 [label="homepage_2 <= 0.5\nentropy = 0.65\nsamples = 6\nvalue = [5, 1]"] ;
789 -> 790 ;
791 [label="entropy = 0.0\nsamples = 5\nvalue = [5, 0]"] ;
790 -> 791 ;
792 [label="entropy = 0.0\nsamples = 1\nvalue = [0, 1]"] ;
790 -> 792 ;
793 [label="entropy = 0.0\nsamples = 6\nvalue = [0, 6]"] ;
789 -> 793 ;
794 [label="page_0 <= 0.5\nentropy = 0.592\nsamples = 7\nvalue = [1, 6]"] ;
764 -> 794 ;
795 [label="entropy = 0.0\nsamples = 1\nvalue = [1, 0]"] ;
794 -> 795 ;
796 [label="entropy = 0.0\nsamples = 6\nvalue = [0, 6]"] ;
794 -> 796 ;
797 [label="subpage_2 <= 0.5\nentropy = 0.863\nsamples = 28\nvalue = [8, 20]"] ;
763 -> 797 ;
798 [label="url_3 <= 0.5\nentropy = 0.722\nsamples = 25\nvalue = [5, 20]"] ;
797 -> 798 ;
799 [label="forumng_0 <= 0.5\nentropy = 0.559\nsamples = 23\nvalue = [3, 20]"] ;
798 -> 799 ;
800 [label="entropy = 0.0\nsamples = 14\nvalue = [0, 14]"] ;
799 -> 800 ;
801 [label="resource_2 <= 0.5\nentropy = 0.918\nsamples = 9\nvalue = [3, 6]"] ;
799 -> 801 ;
802 [label="acumneg_2 <= 0.5\nentropy = 0.592\nsamples = 7\nvalue = [1, 6]"] ;
801 -> 802 ;
803 [label="entropy = 0.0\nsamples = 5\nvalue = [0, 5]"] ;
802 -> 803 ;
804 [label="resource_1 <= 0.5\nentropy = 1.0\nsamples = 2\nvalue = [1, 1]"] ;
802 -> 804 ;
805 [label="entropy = 0.0\nsamples = 1\nvalue = [1, 0]"] ;
804 -> 805 ;
806 [label="entropy = 0.0\nsamples = 1\nvalue = [0, 1]"] ;
804 -> 806 ;
807 [label="entropy = 0.0\nsamples = 2\nvalue = [2, 0]"] ;
801 -> 807 ;
808 [label="entropy = 0.0\nsamples = 2\nvalue = [2, 0]"] ;
798 -> 808 ;
809 [label="entropy = 0.0\nsamples = 3\nvalue = [3, 0]"] ;
797 -> 809 ;
810 [label="resource_2 <= 0.5\nentropy = 0.454\nsamples = 63\nvalue = [57, 6]"] ;
762 -> 810 ;
811 [label="acumneg_1 <= 0.5\nentropy = 0.169\nsamples = 40\nvalue = [39, 1]"] ;
810 -> 811 ;
812 [label="entropy = 0.0\nsamples = 29\nvalue = [29, 0]"] ;
811 -> 812 ;
813 [label="oucontent_0 <= 0.5\nentropy = 0.439\nsamples = 11\nvalue = [10, 1]"] ;
811 -> 813 ;
814 [label="forumng_0 <= 0.5\nentropy = 0.918\nsamples = 3\nvalue = [2, 1]"] ;
813 -> 814 ;
815 [label="entropy = 0.0\nsamples = 1\nvalue = [0, 1]"] ;
814 -> 815 ;
816 [label="entropy = 0.0\nsamples = 2\nvalue = [2, 0]"] ;
814 -> 816 ;
817 [label="entropy = 0.0\nsamples = 8\nvalue = [8, 0]"] ;
813 -> 817 ;
818 [label="subpage_1 <= 0.5\nentropy = 0.755\nsamples = 23\nvalue = [18, 5]"] ;
810 -> 818 ;
819 [label="forumng_1 <= 0.5\nentropy = 0.994\nsamples = 11\nvalue = [6, 5]"] ;
818 -> 819 ;
820 [label="acumneg_2 <= 0.5\nentropy = 0.954\nsamples = 8\nvalue = [3, 5]"] ;
819 -> 820 ;
821 [label="acumneg_0 <= 0.5\nentropy = 1.0\nsamples = 6\nvalue = [3, 3]"] ;
820 -> 821 ;
822 [label="subpage_3 <= 0.5\nentropy = 0.811\nsamples = 4\nvalue = [3, 1]"] ;
821 -> 822 ;
823 [label="entropy = 0.0\nsamples = 3\nvalue = [3, 0]"] ;
822 -> 823 ;
824 [label="entropy = 0.0\nsamples = 1\nvalue = [0, 1]"] ;
822 -> 824 ;
825 [label="entropy = 0.0\nsamples = 2\nvalue = [0, 2]"] ;
821 -> 825 ;
826 [label="entropy = 0.0\nsamples = 2\nvalue = [0, 2]"] ;
820 -> 826 ;
827 [label="entropy = 0.0\nsamples = 3\nvalue = [3, 0]"] ;
819 -> 827 ;
828 [label="entropy = 0.0\nsamples = 12\nvalue = [12, 0]"] ;
818 -> 828 ;
829 [label="page_0 <= 0.5\nentropy = 1.0\nsamples = 325\nvalue = [164, 161]"] ;
683 -> 829 ;
830 [label="entropy = 0.0\nsamples = 17\nvalue = [17, 0]"] ;
829 -> 830 ;
831 [label="oucontent_1 <= 0.5\nentropy = 0.999\nsamples = 308\nvalue = [147, 161]"] ;
829 -> 831 ;
832 [label="url_0 <= 0.5\nentropy = 0.984\nsamples = 169\nvalue = [97, 72]"] ;
831 -> 832 ;
833 [label="resource_2 <= 0.5\nentropy = 0.886\nsamples = 102\nvalue = [71, 31]"] ;
832 -> 833 ;
834 [label="acumneg_2 <= 0.5\nentropy = 0.771\nsamples = 84\nvalue = [65, 19]"] ;
833 -> 834 ;
835 [label="forumng_1 <= 0.5\nentropy = 0.907\nsamples = 59\nvalue = [40, 19]"] ;
834 -> 835 ;
836 [label="acumneg_3 <= 0.5\nentropy = 0.985\nsamples = 35\nvalue = [20, 15]"] ;
835 -> 836 ;
837 [label="url_4 <= 0.5\nentropy = 0.996\nsamples = 26\nvalue = [12, 14]"] ;
836 -> 837 ;
838 [label="acumneg_4 <= 0.5\nentropy = 0.99\nsamples = 25\nvalue = [11, 14]"] ;
837 -> 838 ;
839 [label="forumng_3 <= 0.5\nentropy = 0.98\nsamples = 24\nvalue = [10, 14]"] ;
838 -> 839 ;
840 [label="oucontent_2 <= 0.5\nentropy = 0.994\nsamples = 22\nvalue = [10, 12]"] ;
839 -> 840 ;
841 [label="resource_1 <= 0.5\nentropy = 0.985\nsamples = 21\nvalue = [9, 12]"] ;
840 -> 841 ;
842 [label="acumneg_0 <= 0.5\nentropy = 0.964\nsamples = 18\nvalue = [7, 11]"] ;
841 -> 842 ;
843 [label="entropy = 0.0\nsamples = 2\nvalue = [0, 2]"] ;
842 -> 843 ;
844 [label="subpage_2 <= 0.5\nentropy = 0.989\nsamples = 16\nvalue = [7, 9]"] ;
842 -> 844 ;
845 [label="url_3 <= 0.5\nentropy = 0.971\nsamples = 15\nvalue = [6, 9]"] ;
844 -> 845 ;
846 [label="entropy = 0.996\nsamples = 13\nvalue = [6, 7]"] ;
845 -> 846 ;
847 [label="entropy = 0.0\nsamples = 2\nvalue = [0, 2]"] ;
845 -> 847 ;
848 [label="entropy = 0.0\nsamples = 1\nvalue = [1, 0]"] ;
844 -> 848 ;
849 [label="subpage_0 <= 0.5\nentropy = 0.918\nsamples = 3\nvalue = [2, 1]"] ;
841 -> 849 ;
850 [label="entropy = 0.0\nsamples = 2\nvalue = [2, 0]"] ;
849 -> 850 ;
851 [label="entropy = 0.0\nsamples = 1\nvalue = [0, 1]"] ;
849 -> 851 ;
852 [label="entropy = 0.0\nsamples = 1\nvalue = [1, 0]"] ;
840 -> 852 ;
853 [label="entropy = 0.0\nsamples = 2\nvalue = [0, 2]"] ;
839 -> 853 ;
854 [label="entropy = 0.0\nsamples = 1\nvalue = [1, 0]"] ;
838 -> 854 ;
855 [label="entropy = 0.0\nsamples = 1\nvalue = [1, 0]"] ;
837 -> 855 ;
856 [label="glossary_0 <= 0.5\nentropy = 0.503\nsamples = 9\nvalue = [8, 1]"] ;
836 -> 856 ;
857 [label="entropy = 0.0\nsamples = 1\nvalue = [0, 1]"] ;
856 -> 857 ;
858 [label="entropy = 0.0\nsamples = 8\nvalue = [8, 0]"] ;
856 -> 858 ;
859 [label="homepage_1 <= 0.5\nentropy = 0.65\nsamples = 24\nvalue = [20, 4]"] ;
835 -> 859 ;
860 [label="oucontent_2 <= 0.5\nentropy = 0.971\nsamples = 5\nvalue = [2, 3]"] ;
859 -> 860 ;
861 [label="entropy = 0.0\nsamples = 2\nvalue = [2, 0]"] ;
860 -> 861 ;
862 [label="entropy = 0.0\nsamples = 3\nvalue = [0, 3]"] ;
860 -> 862 ;
863 [label="acumneg_1 <= 0.5\nentropy = 0.297\nsamples = 19\nvalue = [18, 1]"] ;
859 -> 863 ;
864 [label="entropy = 0.0\nsamples = 16\nvalue = [16, 0]"] ;
863 -> 864 ;
865 [label="resource_3 <= 0.5\nentropy = 0.918\nsamples = 3\nvalue = [2, 1]"] ;
863 -> 865 ;
866 [label="entropy = 0.0\nsamples = 1\nvalue = [0, 1]"] ;
865 -> 866 ;
867 [label="entropy = 0.0\nsamples = 2\nvalue = [2, 0]"] ;
865 -> 867 ;
868 [label="entropy = 0.0\nsamples = 25\nvalue = [25, 0]"] ;
834 -> 868 ;
869 [label="subpage_1 <= 0.5\nentropy = 0.918\nsamples = 18\nvalue = [6, 12]"] ;
833 -> 869 ;
870 [label="entropy = 0.0\nsamples = 8\nvalue = [0, 8]"] ;
869 -> 870 ;
871 [label="acumneg_0 <= 0.5\nentropy = 0.971\nsamples = 10\nvalue = [6, 4]"] ;
869 -> 871 ;
872 [label="url_3 <= 0.5\nentropy = 0.811\nsamples = 8\nvalue = [6, 2]"] ;
871 -> 872 ;
873 [label="entropy = 0.0\nsamples = 5\nvalue = [5, 0]"] ;
872 -> 873 ;
874 [label="forumng_0 <= 0.5\nentropy = 0.918\nsamples = 3\nvalue = [1, 2]"] ;
872 -> 874 ;
875 [label="entropy = 0.0\nsamples = 2\nvalue = [0, 2]"] ;
874 -> 875 ;
876 [label="entropy = 0.0\nsamples = 1\nvalue = [1, 0]"] ;
874 -> 876 ;
877 [label="entropy = 0.0\nsamples = 2\nvalue = [0, 2]"] ;
871 -> 877 ;
878 [label="homepage_0 <= 0.5\nentropy = 0.964\nsamples = 67\nvalue = [26, 41]"] ;
832 -> 878 ;
879 [label="resource_4 <= 0.5\nentropy = 0.942\nsamples = 64\nvalue = [23, 41]"] ;
878 -> 879 ;
880 [label="glossary_0 <= 0.5\nentropy = 0.924\nsamples = 62\nvalue = [21, 41]"] ;
879 -> 880 ;
881 [label="resource_3 <= 0.5\nentropy = 0.592\nsamples = 14\nvalue = [2, 12]"] ;
880 -> 881 ;
882 [label="forumng_2 <= 0.5\nentropy = 0.764\nsamples = 9\nvalue = [2, 7]"] ;
881 -> 882 ;
883 [label="subpage_0 <= 0.5\nentropy = 0.971\nsamples = 5\nvalue = [2, 3]"] ;
882 -> 883 ;
884 [label="forumng_0 <= 0.5\nentropy = 0.811\nsamples = 4\nvalue = [1, 3]"] ;
883 -> 884 ;
885 [label="entropy = 0.918\nsamples = 3\nvalue = [1, 2]"] ;
884 -> 885 ;
886 [label="entropy = 0.0\nsamples = 1\nvalue = [0, 1]"] ;
884 -> 886 ;
887 [label="entropy = 0.0\nsamples = 1\nvalue = [1, 0]"] ;
883 -> 887 ;
888 [label="entropy = 0.0\nsamples = 4\nvalue = [0, 4]"] ;
882 -> 888 ;
889 [label="entropy = 0.0\nsamples = 5\nvalue = [0, 5]"] ;
881 -> 889 ;
890 [label="resource_3 <= 0.5\nentropy = 0.968\nsamples = 48\nvalue = [19, 29]"] ;
880 -> 890 ;
891 [label="oucontent_0 <= 0.5\nentropy = 0.9\nsamples = 38\nvalue = [12, 26]"] ;
890 -> 891 ;
892 [label="acumneg_3 <= 0.5\nentropy = 0.928\nsamples = 35\nvalue = [12, 23]"] ;
891 -> 892 ;
893 [label="acumneg_4 <= 0.5\nentropy = 0.908\nsamples = 34\nvalue = [11, 23]"] ;
892 -> 893 ;
894 [label="homepage_1 <= 0.5\nentropy = 0.885\nsamples = 33\nvalue = [10, 23]"] ;
893 -> 894 ;
895 [label="entropy = 0.0\nsamples = 4\nvalue = [0, 4]"] ;
894 -> 895 ;
896 [label="subpage_2 <= 0.5\nentropy = 0.929\nsamples = 29\nvalue = [10, 19]"] ;
894 -> 896 ;
897 [label="resource_1 <= 0.5\nentropy = 0.951\nsamples = 27\nvalue = [10, 17]"] ;
896 -> 897 ;
898 [label="acumneg_1 <= 0.5\nentropy = 1.0\nsamples = 12\nvalue = [6, 6]"] ;
897 -> 898 ;
899 [label="subpage_1 <= 0.5\nentropy = 0.918\nsamples = 9\nvalue = [6, 3]"] ;
898 -> 899 ;
900 [label="entropy = 0.985\nsamples = 7\nvalue = [4, 3]"] ;
899 -> 900 ;
901 [label="entropy = 0.0\nsamples = 2\nvalue = [2, 0]"] ;
899 -> 901 ;
902 [label="entropy = 0.0\nsamples = 3\nvalue = [0, 3]"] ;
898 -> 902 ;
903 [label="acumneg_1 <= 0.5\nentropy = 0.837\nsamples = 15\nvalue = [4, 11]"] ;
897 -> 903 ;
904 [label="subpage_1 <= 0.5\nentropy = 0.684\nsamples = 11\nvalue = [2, 9]"] ;
903 -> 904 ;
905 [label="entropy = 0.971\nsamples = 5\nvalue = [2, 3]"] ;
904 -> 905 ;
906 [label="entropy = 0.0\nsamples = 6\nvalue = [0, 6]"] ;
904 -> 906 ;
907 [label="subpage_0 <= 0.5\nentropy = 1.0\nsamples = 4\nvalue = [2, 2]"] ;
903 -> 907 ;
908 [label="entropy = 0.918\nsamples = 3\nvalue = [2, 1]"] ;
907 -> 908 ;
909 [label="entropy = 0.0\nsamples = 1\nvalue = [0, 1]"] ;
907 -> 909 ;
910 [label="entropy = 0.0\nsamples = 2\nvalue = [0, 2]"] ;
896 -> 910 ;
911 [label="entropy = 0.0\nsamples = 1\nvalue = [1, 0]"] ;
893 -> 911 ;
912 [label="entropy = 0.0\nsamples = 1\nvalue = [1, 0]"] ;
892 -> 912 ;
913 [label="entropy = 0.0\nsamples = 3\nvalue = [0, 3]"] ;
891 -> 913 ;
914 [label="forumng_1 <= 0.5\nentropy = 0.881\nsamples = 10\nvalue = [7, 3]"] ;
890 -> 914 ;
915 [label="subpage_0 <= 0.5\nentropy = 0.764\nsamples = 9\nvalue = [7, 2]"] ;
914 -> 915 ;
916 [label="acumneg_3 <= 0.5\nentropy = 0.918\nsamples = 6\nvalue = [4, 2]"] ;
915 -> 916 ;
917 [label="homepage_1 <= 0.5\nentropy = 0.722\nsamples = 5\nvalue = [4, 1]"] ;
916 -> 917 ;
918 [label="entropy = 0.0\nsamples = 2\nvalue = [2, 0]"] ;
917 -> 918 ;
919 [label="acumneg_0 <= 0.5\nentropy = 0.918\nsamples = 3\nvalue = [2, 1]"] ;
917 -> 919 ;
920 [label="entropy = 1.0\nsamples = 2\nvalue = [1, 1]"] ;
919 -> 920 ;
921 [label="entropy = 0.0\nsamples = 1\nvalue = [1, 0]"] ;
919 -> 921 ;
922 [label="entropy = 0.0\nsamples = 1\nvalue = [0, 1]"] ;
916 -> 922 ;
923 [label="entropy = 0.0\nsamples = 3\nvalue = [3, 0]"] ;
915 -> 923 ;
924 [label="entropy = 0.0\nsamples = 1\nvalue = [0, 1]"] ;
914 -> 924 ;
925 [label="entropy = 0.0\nsamples = 2\nvalue = [2, 0]"] ;
879 -> 925 ;
926 [label="entropy = 0.0\nsamples = 3\nvalue = [3, 0]"] ;
878 -> 926 ;
927 [label="resource_2 <= 0.5\nentropy = 0.942\nsamples = 139\nvalue = [50, 89]"] ;
831 -> 927 ;
928 [label="oucollaborate <= 0.5\nentropy = 0.848\nsamples = 102\nvalue = [28, 74]"] ;
927 -> 928 ;
929 [label="url_4 <= 0.5\nentropy = 0.803\nsamples = 98\nvalue = [24, 74]"] ;
928 -> 929 ;
930 [label="resource_0 <= 0.5\nentropy = 0.828\nsamples = 92\nvalue = [24, 68]"] ;
929 -> 930 ;
931 [label="forumng_1 <= 0.5\nentropy = 0.762\nsamples = 77\nvalue = [17, 60]"] ;
930 -> 931 ;
932 [label="acumneg_0 <= 0.5\nentropy = 0.615\nsamples = 46\nvalue = [7, 39]"] ;
931 -> 932 ;
933 [label="subpage_2 <= 0.5\nentropy = 0.779\nsamples = 26\nvalue = [6, 20]"] ;
932 -> 933 ;
934 [label="url_2 <= 0.5\nentropy = 0.523\nsamples = 17\nvalue = [2, 15]"] ;
933 -> 934 ;
935 [label="entropy = 0.0\nsamples = 12\nvalue = [0, 12]"] ;
934 -> 935 ;
936 [label="forumng_0 <= 0.5\nentropy = 0.971\nsamples = 5\nvalue = [2, 3]"] ;
934 -> 936 ;
937 [label="entropy = 0.0\nsamples = 3\nvalue = [0, 3]"] ;
936 -> 937 ;
938 [label="entropy = 0.0\nsamples = 2\nvalue = [2, 0]"] ;
936 -> 938 ;
939 [label="homepage_1 <= 0.5\nentropy = 0.991\nsamples = 9\nvalue = [4, 5]"] ;
933 -> 939 ;
940 [label="entropy = 0.0\nsamples = 3\nvalue = [3, 0]"] ;
939 -> 940 ;
941 [label="url_2 <= 0.5\nentropy = 0.65\nsamples = 6\nvalue = [1, 5]"] ;
939 -> 941 ;
942 [label="resource_4 <= 0.5\nentropy = 0.918\nsamples = 3\nvalue = [1, 2]"] ;
941 -> 942 ;
943 [label="glossary_0 <= 0.5\nentropy = 1.0\nsamples = 2\nvalue = [1, 1]"] ;
942 -> 943 ;
944 [label="entropy = 0.0\nsamples = 1\nvalue = [0, 1]"] ;
943 -> 944 ;
945 [label="entropy = 0.0\nsamples = 1\nvalue = [1, 0]"] ;
943 -> 945 ;
946 [label="entropy = 0.0\nsamples = 1\nvalue = [0, 1]"] ;
942 -> 946 ;
947 [label="entropy = 0.0\nsamples = 3\nvalue = [0, 3]"] ;
941 -> 947 ;
948 [label="url_1 <= 0.5\nentropy = 0.286\nsamples = 20\nvalue = [1, 19]"] ;
932 -> 948 ;
949 [label="entropy = 0.0\nsamples = 15\nvalue = [0, 15]"] ;
948 -> 949 ;
950 [label="homepage_0 <= 0.5\nentropy = 0.722\nsamples = 5\nvalue = [1, 4]"] ;
948 -> 950 ;
951 [label="entropy = 0.0\nsamples = 4\nvalue = [0, 4]"] ;
950 -> 951 ;
952 [label="entropy = 0.0\nsamples = 1\nvalue = [1, 0]"] ;
950 -> 952 ;
953 [label="acumneg_1 <= 0.5\nentropy = 0.907\nsamples = 31\nvalue = [10, 21]"] ;
931 -> 953 ;
954 [label="glossary_1 <= 0.5\nentropy = 0.998\nsamples = 17\nvalue = [9, 8]"] ;
953 -> 954 ;
955 [label="resource_3 <= 0.5\nentropy = 0.997\nsamples = 15\nvalue = [7, 8]"] ;
954 -> 955 ;
956 [label="url_2 <= 0.5\nentropy = 0.996\nsamples = 13\nvalue = [7, 6]"] ;
955 -> 956 ;
957 [label="subpage_2 <= 0.5\nentropy = 0.98\nsamples = 12\nvalue = [7, 5]"] ;
956 -> 957 ;
958 [label="url_3 <= 0.5\nentropy = 0.994\nsamples = 11\nvalue = [6, 5]"] ;
957 -> 958 ;
959 [label="acumneg_2 <= 0.5\nentropy = 0.918\nsamples = 9\nvalue = [6, 3]"] ;
958 -> 959 ;
960 [label="subpage_0 <= 0.5\nentropy = 0.811\nsamples = 8\nvalue = [6, 2]"] ;
959 -> 960 ;
961 [label="entropy = 0.918\nsamples = 6\nvalue = [4, 2]"] ;
960 -> 961 ;
962 [label="entropy = 0.0\nsamples = 2\nvalue = [2, 0]"] ;
960 -> 962 ;
963 [label="entropy = 0.0\nsamples = 1\nvalue = [0, 1]"] ;
959 -> 963 ;
964 [label="entropy = 0.0\nsamples = 2\nvalue = [0, 2]"] ;
958 -> 964 ;
965 [label="entropy = 0.0\nsamples = 1\nvalue = [1, 0]"] ;
957 -> 965 ;
966 [label="entropy = 0.0\nsamples = 1\nvalue = [0, 1]"] ;
956 -> 966 ;
967 [label="entropy = 0.0\nsamples = 2\nvalue = [0, 2]"] ;
955 -> 967 ;
968 [label="entropy = 0.0\nsamples = 2\nvalue = [2, 0]"] ;
954 -> 968 ;
969 [label="subpage_2 <= 0.5\nentropy = 0.371\nsamples = 14\nvalue = [1, 13]"] ;
953 -> 969 ;
970 [label="entropy = 0.0\nsamples = 13\nvalue = [0, 13]"] ;
969 -> 970 ;
971 [label="entropy = 0.0\nsamples = 1\nvalue = [1, 0]"] ;
969 -> 971 ;
972 [label="forumng_0 <= 0.5\nentropy = 0.997\nsamples = 15\nvalue = [7, 8]"] ;
930 -> 972 ;
973 [label="url_1 <= 0.5\nentropy = 0.845\nsamples = 11\nvalue = [3, 8]"] ;
972 -> 973 ;
974 [label="forumng_1 <= 0.5\nentropy = 0.954\nsamples = 8\nvalue = [3, 5]"] ;
973 -> 974 ;
975 [label="acumneg_3 <= 0.5\nentropy = 1.0\nsamples = 6\nvalue = [3, 3]"] ;
974 -> 975 ;
976 [label="homepage_0 <= 0.5\nentropy = 0.971\nsamples = 5\nvalue = [3, 2]"] ;
975 -> 976 ;
977 [label="acumneg_0 <= 0.5\nentropy = 0.811\nsamples = 4\nvalue = [3, 1]"] ;
976 -> 977 ;
978 [label="entropy = 0.0\nsamples = 1\nvalue = [1, 0]"] ;
977 -> 978 ;
979 [label="entropy = 0.918\nsamples = 3\nvalue = [2, 1]"] ;
977 -> 979 ;
980 [label="entropy = 0.0\nsamples = 1\nvalue = [0, 1]"] ;
976 -> 980 ;
981 [label="entropy = 0.0\nsamples = 1\nvalue = [0, 1]"] ;
975 -> 981 ;
982 [label="entropy = 0.0\nsamples = 2\nvalue = [0, 2]"] ;
974 -> 982 ;
983 [label="entropy = 0.0\nsamples = 3\nvalue = [0, 3]"] ;
973 -> 983 ;
984 [label="entropy = 0.0\nsamples = 4\nvalue = [4, 0]"] ;
972 -> 984 ;
985 [label="entropy = 0.0\nsamples = 6\nvalue = [0, 6]"] ;
929 -> 985 ;
986 [label="entropy = 0.0\nsamples = 4\nvalue = [4, 0]"] ;
928 -> 986 ;
987 [label="glossary_0 <= 0.5\nentropy = 0.974\nsamples = 37\nvalue = [22, 15]"] ;
927 -> 987 ;
988 [label="entropy = 0.0\nsamples = 4\nvalue = [0, 4]"] ;
987 -> 988 ;
989 [label="subpage_0 <= 0.5\nentropy = 0.918\nsamples = 33\nvalue = [22, 11]"] ;
987 -> 989 ;
990 [label="homepage_2 <= 0.5\nentropy = 0.869\nsamples = 31\nvalue = [22, 9]"] ;
989 -> 990 ;
991 [label="acumneg_1 <= 0.5\nentropy = 0.722\nsamples = 25\nvalue = [20, 5]"] ;
990 -> 991 ;
992 [label="forumng_0 <= 0.5\nentropy = 0.469\nsamples = 20\nvalue = [18, 2]"] ;
991 -> 992 ;
993 [label="url_2 <= 0.5\nentropy = 0.684\nsamples = 11\nvalue = [9, 2]"] ;
992 -> 993 ;
994 [label="subpage_2 <= 0.5\nentropy = 0.811\nsamples = 8\nvalue = [6, 2]"] ;
993 -> 994 ;
995 [label="acumneg_2 <= 0.5\nentropy = 0.592\nsamples = 7\nvalue = [6, 1]"] ;
994 -> 995 ;
996 [label="entropy = 1.0\nsamples = 2\nvalue = [1, 1]"] ;
995 -> 996 ;
997 [label="entropy = 0.0\nsamples = 5\nvalue = [5, 0]"] ;
995 -> 997 ;
998 [label="entropy = 0.0\nsamples = 1\nvalue = [0, 1]"] ;
994 -> 998 ;
999 [label="entropy = 0.0\nsamples = 3\nvalue = [3, 0]"] ;
993 -> 999 ;
1000 [label="entropy = 0.0\nsamples = 9\nvalue = [9, 0]"] ;
992 -> 1000 ;
1001 [label="subpage_2 <= 0.5\nentropy = 0.971\nsamples = 5\nvalue = [2, 3]"] ;
991 -> 1001 ;
1002 [label="url_3 <= 0.5\nentropy = 1.0\nsamples = 4\nvalue = [2, 2]"] ;
1001 -> 1002 ;
1003 [label="url_0 <= 0.5\nentropy = 0.918\nsamples = 3\nvalue = [2, 1]"] ;
1002 -> 1003 ;
1004 [label="entropy = 0.0\nsamples = 1\nvalue = [1, 0]"] ;
1003 -> 1004 ;
1005 [label="forumng_1 <= 0.5\nentropy = 1.0\nsamples = 2\nvalue = [1, 1]"] ;
1003 -> 1005 ;
1006 [label="entropy = 0.0\nsamples = 1\nvalue = [1, 0]"] ;
1005 -> 1006 ;
1007 [label="entropy = 0.0\nsamples = 1\nvalue = [0, 1]"] ;
1005 -> 1007 ;
1008 [label="entropy = 0.0\nsamples = 1\nvalue = [0, 1]"] ;
1002 -> 1008 ;
1009 [label="entropy = 0.0\nsamples = 1\nvalue = [0, 1]"] ;
1001 -> 1009 ;
1010 [label="forumng_2 <= 0.5\nentropy = 0.918\nsamples = 6\nvalue = [2, 4]"] ;
990 -> 1010 ;
1011 [label="entropy = 0.0\nsamples = 2\nvalue = [0, 2]"] ;
1010 -> 1011 ;
1012 [label="acumneg_2 <= 0.5\nentropy = 1.0\nsamples = 4\nvalue = [2, 2]"] ;
1010 -> 1012 ;
1013 [label="entropy = 0.0\nsamples = 1\nvalue = [0, 1]"] ;
1012 -> 1013 ;
1014 [label="entropy = 0.918\nsamples = 3\nvalue = [2, 1]"] ;
1012 -> 1014 ;
1015 [label="entropy = 0.0\nsamples = 2\nvalue = [0, 2]"] ;
989 -> 1015 ;
1016 [label="quiz_1 <= 0.5\nentropy = 0.227\nsamples = 625\nvalue = [602, 23]"] ;
0 -> 1016 [labeldistance=2.5, labelangle=-45, headlabel="False"] ;
1017 [label="resource_1 <= 0.5\nentropy = 0.053\nsamples = 502\nvalue = [499, 3]"] ;
1016 -> 1017 ;
1018 [label="url_2 <= 0.5\nentropy = 0.026\nsamples = 388\nvalue = [387, 1]"] ;
1017 -> 1018 ;
1019 [label="entropy = 0.0\nsamples = 375\nvalue = [375, 0]"] ;
1018 -> 1019 ;
1020 [label="acumneg_1 <= 0.5\nentropy = 0.391\nsamples = 13\nvalue = [12, 1]"] ;
1018 -> 1020 ;
1021 [label="entropy = 0.0\nsamples = 6\nvalue = [6, 0]"] ;
1020 -> 1021 ;
1022 [label="forumng_1 <= 0.5\nentropy = 0.592\nsamples = 7\nvalue = [6, 1]"] ;
1020 -> 1022 ;
1023 [label="resource_2 <= 0.5\nentropy = 0.811\nsamples = 4\nvalue = [3, 1]"] ;
1022 -> 1023 ;
1024 [label="entropy = 1.0\nsamples = 2\nvalue = [1, 1]"] ;
1023 -> 1024 ;
1025 [label="entropy = 0.0\nsamples = 2\nvalue = [2, 0]"] ;
1023 -> 1025 ;
1026 [label="entropy = 0.0\nsamples = 3\nvalue = [3, 0]"] ;
1022 -> 1026 ;
1027 [label="acumneg_0 <= 0.5\nentropy = 0.127\nsamples = 114\nvalue = [112, 2]"] ;
1017 -> 1027 ;
1028 [label="entropy = 0.0\nsamples = 61\nvalue = [61, 0]"] ;
1027 -> 1028 ;
1029 [label="oucontent_1 <= 0.5\nentropy = 0.232\nsamples = 53\nvalue = [51, 2]"] ;
1027 -> 1029 ;
1030 [label="entropy = 0.0\nsamples = 27\nvalue = [27, 0]"] ;
1029 -> 1030 ;
1031 [label="forumng_1 <= 0.5\nentropy = 0.391\nsamples = 26\nvalue = [24, 2]"] ;
1029 -> 1031 ;
1032 [label="glossary_0 <= 0.5\nentropy = 0.485\nsamples = 19\nvalue = [17, 2]"] ;
1031 -> 1032 ;
1033 [label="entropy = 0.0\nsamples = 3\nvalue = [3, 0]"] ;
1032 -> 1033 ;
1034 [label="subpage_0 <= 0.5\nentropy = 0.544\nsamples = 16\nvalue = [14, 2]"] ;
1032 -> 1034 ;
1035 [label="entropy = 0.0\nsamples = 2\nvalue = [2, 0]"] ;
1034 -> 1035 ;
1036 [label="homepage_1 <= 0.5\nentropy = 0.592\nsamples = 14\nvalue = [12, 2]"] ;
1034 -> 1036 ;
1037 [label="entropy = 0.619\nsamples = 13\nvalue = [11, 2]"] ;
1036 -> 1037 ;
1038 [label="entropy = 0.0\nsamples = 1\nvalue = [1, 0]"] ;
1036 -> 1038 ;
1039 [label="entropy = 0.0\nsamples = 7\nvalue = [7, 0]"] ;
1031 -> 1039 ;
1040 [label="subpage_0 <= 0.5\nentropy = 0.64\nsamples = 123\nvalue = [103, 20]"] ;
1016 -> 1040 ;
1041 [label="acumneg_2 <= 0.5\nentropy = 0.206\nsamples = 31\nvalue = [30, 1]"] ;
1040 -> 1041 ;
1042 [label="entropy = 0.0\nsamples = 25\nvalue = [25, 0]"] ;
1041 -> 1042 ;
1043 [label="oucontent_0 <= 0.5\nentropy = 0.65\nsamples = 6\nvalue = [5, 1]"] ;
1041 -> 1043 ;
1044 [label="entropy = 0.0\nsamples = 3\nvalue = [3, 0]"] ;
1043 -> 1044 ;
1045 [label="homepage_1 <= 0.5\nentropy = 0.918\nsamples = 3\nvalue = [2, 1]"] ;
1043 -> 1045 ;
1046 [label="entropy = 0.0\nsamples = 2\nvalue = [2, 0]"] ;
1045 -> 1046 ;
1047 [label="entropy = 0.0\nsamples = 1\nvalue = [0, 1]"] ;
1045 -> 1047 ;
1048 [label="acumneg_2 <= 0.5\nentropy = 0.735\nsamples = 92\nvalue = [73, 19]"] ;
1040 -> 1048 ;
1049 [label="url_1 <= 0.5\nentropy = 0.781\nsamples = 82\nvalue = [63, 19]"] ;
1048 -> 1049 ;
1050 [label="resource_2 <= 0.5\nentropy = 0.879\nsamples = 57\nvalue = [40, 17]"] ;
1049 -> 1050 ;
1051 [label="homepage_1 <= 0.5\nentropy = 0.863\nsamples = 56\nvalue = [40, 16]"] ;
1050 -> 1051 ;
1052 [label="url_2 <= 0.5\nentropy = 0.903\nsamples = 47\nvalue = [32, 15]"] ;
1051 -> 1052 ;
1053 [label="resource_1 <= 0.5\nentropy = 0.887\nsamples = 46\nvalue = [32, 14]"] ;
1052 -> 1053 ;
1054 [label="acumneg_0 <= 0.5\nentropy = 0.831\nsamples = 38\nvalue = [28, 10]"] ;
1053 -> 1054 ;
1055 [label="forumng_1 <= 0.5\nentropy = 0.439\nsamples = 11\nvalue = [10, 1]"] ;
1054 -> 1055 ;
1056 [label="entropy = 0.0\nsamples = 10\nvalue = [10, 0]"] ;
1055 -> 1056 ;
1057 [label="entropy = 0.0\nsamples = 1\nvalue = [0, 1]"] ;
1055 -> 1057 ;
1058 [label="oucollaborate <= 0.5\nentropy = 0.918\nsamples = 27\nvalue = [18, 9]"] ;
1054 -> 1058 ;
1059 [label="oucontent_0 <= 0.5\nentropy = 0.931\nsamples = 26\nvalue = [17, 9]"] ;
1058 -> 1059 ;
1060 [label="forumng_0 <= 0.5\nentropy = 0.811\nsamples = 8\nvalue = [6, 2]"] ;
1059 -> 1060 ;
1061 [label="entropy = 0.0\nsamples = 1\nvalue = [0, 1]"] ;
1060 -> 1061 ;
1062 [label="entropy = 0.592\nsamples = 7\nvalue = [6, 1]"] ;
1060 -> 1062 ;
1063 [label="forumng_0 <= 0.5\nentropy = 0.964\nsamples = 18\nvalue = [11, 7]"] ;
1059 -> 1063 ;
1064 [label="entropy = 0.0\nsamples = 3\nvalue = [3, 0]"] ;
1063 -> 1064 ;
1065 [label="entropy = 0.997\nsamples = 15\nvalue = [8, 7]"] ;
1063 -> 1065 ;
1066 [label="entropy = 0.0\nsamples = 1\nvalue = [1, 0]"] ;
1058 -> 1066 ;
1067 [label="acumneg_0 <= 0.5\nentropy = 1.0\nsamples = 8\nvalue = [4, 4]"] ;
1053 -> 1067 ;
1068 [label="entropy = 0.0\nsamples = 2\nvalue = [0, 2]"] ;
1067 -> 1068 ;
1069 [label="oucontent_1 <= 0.5\nentropy = 0.918\nsamples = 6\nvalue = [4, 2]"] ;
1067 -> 1069 ;
1070 [label="forumng_0 <= 0.5\nentropy = 0.722\nsamples = 5\nvalue = [4, 1]"] ;
1069 -> 1070 ;
1071 [label="entropy = 0.918\nsamples = 3\nvalue = [2, 1]"] ;
1070 -> 1071 ;
1072 [label="entropy = 0.0\nsamples = 2\nvalue = [2, 0]"] ;
1070 -> 1072 ;
1073 [label="entropy = 0.0\nsamples = 1\nvalue = [0, 1]"] ;
1069 -> 1073 ;
1074 [label="entropy = 0.0\nsamples = 1\nvalue = [0, 1]"] ;
1052 -> 1074 ;
1075 [label="resource_0 <= 0.5\nentropy = 0.503\nsamples = 9\nvalue = [8, 1]"] ;
1051 -> 1075 ;
1076 [label="entropy = 0.0\nsamples = 5\nvalue = [5, 0]"] ;
1075 -> 1076 ;
1077 [label="url_0 <= 0.5\nentropy = 0.811\nsamples = 4\nvalue = [3, 1]"] ;
1075 -> 1077 ;
1078 [label="entropy = 0.0\nsamples = 3\nvalue = [3, 0]"] ;
1077 -> 1078 ;
1079 [label="entropy = 0.0\nsamples = 1\nvalue = [0, 1]"] ;
1077 -> 1079 ;
1080 [label="entropy = 0.0\nsamples = 1\nvalue = [0, 1]"] ;
1050 -> 1080 ;
1081 [label="resource_0 <= 0.5\nentropy = 0.402\nsamples = 25\nvalue = [23, 2]"] ;
1049 -> 1081 ;
1082 [label="entropy = 0.0\nsamples = 8\nvalue = [8, 0]"] ;
1081 -> 1082 ;
1083 [label="homepage_1 <= 0.5\nentropy = 0.523\nsamples = 17\nvalue = [15, 2]"] ;
1081 -> 1083 ;
1084 [label="oucontent_1 <= 0.5\nentropy = 0.371\nsamples = 14\nvalue = [13, 1]"] ;
1083 -> 1084 ;
1085 [label="acumneg_0 <= 0.5\nentropy = 0.439\nsamples = 11\nvalue = [10, 1]"] ;
1084 -> 1085 ;
1086 [label="entropy = 0.0\nsamples = 1\nvalue = [1, 0]"] ;
1085 -> 1086 ;
1087 [label="entropy = 0.469\nsamples = 10\nvalue = [9, 1]"] ;
1085 -> 1087 ;
1088 [label="entropy = 0.0\nsamples = 3\nvalue = [3, 0]"] ;
1084 -> 1088 ;
1089 [label="forumng_0 <= 0.5\nentropy = 0.918\nsamples = 3\nvalue = [2, 1]"] ;
1083 -> 1089 ;
1090 [label="entropy = 0.0\nsamples = 2\nvalue = [2, 0]"] ;
1089 -> 1090 ;
1091 [label="entropy = 0.0\nsamples = 1\nvalue = [0, 1]"] ;
1089 -> 1091 ;
1092 [label="entropy = 0.0\nsamples = 10\nvalue = [10, 0]"] ;
1048 -> 1092 ;
}