digraph Tree {
node [shape=box] ;
0 [label="acumg_0 <= 0.5\nentropy = 0.938\nsamples = 2614\nvalue = [928, 1686]"] ;
1 [label="acumg_1 <= 0.5\nentropy = 0.877\nsamples = 2367\nvalue = [702, 1665]"] ;
0 -> 1 [labeldistance=2.5, labelangle=45, headlabel="True"] ;
2 [label="dataplus <= 0.5\nentropy = 0.774\nsamples = 1925\nvalue = [438, 1487]"] ;
1 -> 2 ;
3 [label="page_0 <= 0.5\nentropy = 0.853\nsamples = 1445\nvalue = [402, 1043]"] ;
2 -> 3 ;
4 [label="quiz_2 <= 0.5\nentropy = 0.999\nsamples = 374\nvalue = [179, 195]"] ;
3 -> 4 ;
5 [label="acumg_2 <= 0.5\nentropy = 0.973\nsamples = 322\nvalue = [130, 192]"] ;
4 -> 5 ;
6 [label="entropy = 0.923\nsamples = 287\nvalue = [97, 190]"] ;
5 -> 6 ;
7 [label="entropy = 0.316\nsamples = 35\nvalue = [33, 2]"] ;
5 -> 7 ;
8 [label="homepage_3 <= 0.5\nentropy = 0.318\nsamples = 52\nvalue = [49, 3]"] ;
4 -> 8 ;
9 [label="entropy = 0.491\nsamples = 28\nvalue = [25, 3]"] ;
8 -> 9 ;
10 [label="entropy = 0.0\nsamples = 24\nvalue = [24, 0]"] ;
8 -> 10 ;
11 [label="forumng_4 <= 0.5\nentropy = 0.738\nsamples = 1071\nvalue = [223, 848]"] ;
3 -> 11 ;
12 [label="homepage_1 <= 0.5\nentropy = 0.843\nsamples = 554\nvalue = [150, 404]"] ;
11 -> 12 ;
13 [label="entropy = 0.807\nsamples = 510\nvalue = [126, 384]"] ;
12 -> 13 ;
14 [label="entropy = 0.994\nsamples = 44\nvalue = [24, 20]"] ;
12 -> 14 ;
15 [label="resource_0 <= 0.5\nentropy = 0.587\nsamples = 517\nvalue = [73, 444]"] ;
11 -> 15 ;
16 [label="entropy = 0.563\nsamples = 507\nvalue = [67, 440]"] ;
15 -> 16 ;
17 [label="entropy = 0.971\nsamples = 10\nvalue = [6, 4]"] ;
15 -> 17 ;
18 [label="quiz_3 <= 0.5\nentropy = 0.384\nsamples = 480\nvalue = [36, 444]"] ;
2 -> 18 ;
19 [label="url_3 <= 0.5\nentropy = 1.0\nsamples = 6\nvalue = [3, 3]"] ;
18 -> 19 ;
20 [label="entropy = 0.0\nsamples = 2\nvalue = [2, 0]"] ;
19 -> 20 ;
21 [label="acumg_3 <= 0.5\nentropy = 0.811\nsamples = 4\nvalue = [1, 3]"] ;
19 -> 21 ;
22 [label="entropy = 0.0\nsamples = 3\nvalue = [0, 3]"] ;
21 -> 22 ;
23 [label="entropy = 0.0\nsamples = 1\nvalue = [1, 0]"] ;
21 -> 23 ;
24 [label="acumneg_2 <= 0.5\nentropy = 0.365\nsamples = 474\nvalue = [33, 441]"] ;
18 -> 24 ;
25 [label="forumng_4 <= 0.5\nentropy = 0.333\nsamples = 439\nvalue = [27, 412]"] ;
24 -> 25 ;
26 [label="entropy = 0.471\nsamples = 159\nvalue = [16, 143]"] ;
25 -> 26 ;
27 [label="entropy = 0.239\nsamples = 280\nvalue = [11, 269]"] ;
25 -> 27 ;
28 [label="resource_3 <= 0.5\nentropy = 0.661\nsamples = 35\nvalue = [6, 29]"] ;
24 -> 28 ;
29 [label="entropy = 0.9\nsamples = 19\nvalue = [6, 13]"] ;
28 -> 29 ;
30 [label="entropy = 0.0\nsamples = 16\nvalue = [0, 16]"] ;
28 -> 30 ;
31 [label="quiz_0 <= 0.5\nentropy = 0.973\nsamples = 442\nvalue = [264, 178]"] ;
1 -> 31 ;
32 [label="oucontent_0 <= 0.5\nentropy = 0.96\nsamples = 266\nvalue = [102, 164]"] ;
31 -> 32 ;
33 [label="entropy = 0.0\nsamples = 16\nvalue = [16, 0]"] ;
32 -> 33 ;
34 [label="forumng_2 <= 0.5\nentropy = 0.929\nsamples = 250\nvalue = [86, 164]"] ;
32 -> 34 ;
35 [label="subpage_1 <= 0.5\nentropy = 0.851\nsamples = 130\nvalue = [36, 94]"] ;
34 -> 35 ;
36 [label="entropy = 0.947\nsamples = 74\nvalue = [27, 47]"] ;
35 -> 36 ;
37 [label="entropy = 0.636\nsamples = 56\nvalue = [9, 47]"] ;
35 -> 37 ;
38 [label="subpage_3 <= 0.5\nentropy = 0.98\nsamples = 120\nvalue = [50, 70]"] ;
34 -> 38 ;
39 [label="entropy = 0.985\nsamples = 117\nvalue = [50, 67]"] ;
38 -> 39 ;
40 [label="entropy = 0.0\nsamples = 3\nvalue = [0, 3]"] ;
38 -> 40 ;
41 [label="ouwiki_0 <= 0.5\nentropy = 0.401\nsamples = 176\nvalue = [162, 14]"] ;
31 -> 41 ;
42 [label="forumng_1 <= 0.5\nentropy = 0.863\nsamples = 21\nvalue = [15, 6]"] ;
41 -> 42 ;
43 [label="resource_2 <= 0.5\nentropy = 0.991\nsamples = 9\nvalue = [4, 5]"] ;
42 -> 43 ;
44 [label="entropy = 0.722\nsamples = 5\nvalue = [4, 1]"] ;
43 -> 44 ;
45 [label="entropy = 0.0\nsamples = 4\nvalue = [0, 4]"] ;
43 -> 45 ;
46 [label="glossary_1 <= 0.5\nentropy = 0.414\nsamples = 12\nvalue = [11, 1]"] ;
42 -> 46 ;
47 [label="entropy = 0.0\nsamples = 11\nvalue = [11, 0]"] ;
46 -> 47 ;
48 [label="entropy = 0.0\nsamples = 1\nvalue = [0, 1]"] ;
46 -> 48 ;
49 [label="resource_3 <= 0.5\nentropy = 0.293\nsamples = 155\nvalue = [147, 8]"] ;
41 -> 49 ;
50 [label="homepage_3 <= 0.5\nentropy = 0.194\nsamples = 134\nvalue = [130, 4]"] ;
49 -> 50 ;
51 [label="entropy = 0.156\nsamples = 133\nvalue = [130, 3]"] ;
50 -> 51 ;
52 [label="entropy = 0.0\nsamples = 1\nvalue = [0, 1]"] ;
50 -> 52 ;
53 [label="subpage_3 <= 0.5\nentropy = 0.702\nsamples = 21\nvalue = [17, 4]"] ;
49 -> 53 ;
54 [label="entropy = 0.89\nsamples = 13\nvalue = [9, 4]"] ;
53 -> 54 ;
55 [label="entropy = 0.0\nsamples = 8\nvalue = [8, 0]"] ;
53 -> 55 ;
56 [label="quiz_1 <= 0.5\nentropy = 0.42\nsamples = 247\nvalue = [226, 21]"] ;
0 -> 56 [labeldistance=2.5, labelangle=-45, headlabel="False"] ;
57 [label="forumng_0 <= 0.5\nentropy = 0.136\nsamples = 210\nvalue = [206, 4]"] ;
56 -> 57 ;
58 [label="oucontent_0 <= 0.5\nentropy = 0.221\nsamples = 113\nvalue = [109, 4]"] ;
57 -> 58 ;
59 [label="entropy = 0.0\nsamples = 34\nvalue = [34, 0]"] ;
58 -> 59 ;
60 [label="forumng_1 <= 0.5\nentropy = 0.289\nsamples = 79\nvalue = [75, 4]"] ;
58 -> 60 ;
61 [label="acumneg_1 <= 0.5\nentropy = 0.567\nsamples = 15\nvalue = [13, 2]"] ;
60 -> 61 ;
62 [label="entropy = 0.0\nsamples = 10\nvalue = [10, 0]"] ;
61 -> 62 ;
63 [label="entropy = 0.971\nsamples = 5\nvalue = [3, 2]"] ;
61 -> 63 ;
64 [label="acumneg_0 <= 0.5\nentropy = 0.201\nsamples = 64\nvalue = [62, 2]"] ;
60 -> 64 ;
65 [label="entropy = 0.0\nsamples = 33\nvalue = [33, 0]"] ;
64 -> 65 ;
66 [label="entropy = 0.345\nsamples = 31\nvalue = [29, 2]"] ;
64 -> 66 ;
67 [label="entropy = 0.0\nsamples = 97\nvalue = [97, 0]"] ;
57 -> 67 ;
68 [label="homepage_1 <= 0.5\nentropy = 0.995\nsamples = 37\nvalue = [20, 17]"] ;
56 -> 68 ;
69 [label="resource_0 <= 0.5\nentropy = 0.963\nsamples = 31\nvalue = [19, 12]"] ;
68 -> 69 ;
70 [label="forumng_1 <= 0.5\nentropy = 0.994\nsamples = 11\nvalue = [5, 6]"] ;
69 -> 70 ;
71 [label="entropy = 0.0\nsamples = 2\nvalue = [0, 2]"] ;
70 -> 71 ;
72 [label="acumneg_2 <= 0.5\nentropy = 0.991\nsamples = 9\nvalue = [5, 4]"] ;
70 -> 72 ;
73 [label="entropy = 1.0\nsamples = 8\nvalue = [4, 4]"] ;
72 -> 73 ;
74 [label="entropy = 0.0\nsamples = 1\nvalue = [1, 0]"] ;
72 -> 74 ;
75 [label="forumng_2 <= 0.5\nentropy = 0.881\nsamples = 20\nvalue = [14, 6]"] ;
69 -> 75 ;
76 [label="acumneg_0 <= 0.5\nentropy = 0.937\nsamples = 17\nvalue = [11, 6]"] ;
75 -> 76 ;
77 [label="entropy = 0.971\nsamples = 5\nvalue = [2, 3]"] ;
76 -> 77 ;
78 [label="entropy = 0.811\nsamples = 12\nvalue = [9, 3]"] ;
76 -> 78 ;
79 [label="entropy = 0.0\nsamples = 3\nvalue = [3, 0]"] ;
75 -> 79 ;
80 [label="resource_0 <= 0.5\nentropy = 0.65\nsamples = 6\nvalue = [1, 5]"] ;
68 -> 80 ;
81 [label="entropy = 0.0\nsamples = 3\nvalue = [0, 3]"] ;
80 -> 81 ;
82 [label="subpage_0 <= 0.5\nentropy = 0.918\nsamples = 3\nvalue = [1, 2]"] ;
80 -> 82 ;
83 [label="entropy = 0.0\nsamples = 1\nvalue = [1, 0]"] ;
82 -> 83 ;
84 [label="entropy = 0.0\nsamples = 2\nvalue = [0, 2]"] ;
82 -> 84 ;
}