digraph Tree {
node [shape=box] ;
0 [label="acumg_0 <= 0.5\nentropy = 0.938\nsamples = 2614\nvalue = [928, 1686]"] ;
1 [label="acumg_1 <= 0.5\nentropy = 0.877\nsamples = 2367\nvalue = [702, 1665]"] ;
0 -> 1 [labeldistance=2.5, labelangle=45, headlabel="True"] ;
2 [label="dataplus <= 0.5\nentropy = 0.774\nsamples = 1925\nvalue = [438, 1487]"] ;
1 -> 2 ;
3 [label="page_0 <= 0.5\nentropy = 0.853\nsamples = 1445\nvalue = [402, 1043]"] ;
2 -> 3 ;
4 [label="quiz_2 <= 0.5\nentropy = 0.999\nsamples = 374\nvalue = [179, 195]"] ;
3 -> 4 ;
5 [label="acumg_2 <= 0.5\nentropy = 0.973\nsamples = 322\nvalue = [130, 192]"] ;
4 -> 5 ;
6 [label="quiz_1 <= 0.5\nentropy = 0.923\nsamples = 287\nvalue = [97, 190]"] ;
5 -> 6 ;
7 [label="url_2 <= 0.5\nentropy = 0.906\nsamples = 280\nvalue = [90, 190]"] ;
6 -> 7 ;
8 [label="homepage_4 <= 0.5\nentropy = 0.875\nsamples = 258\nvalue = [76, 182]"] ;
7 -> 8 ;
9 [label="quiz_0 <= 0.5\nentropy = 0.952\nsamples = 113\nvalue = [42, 71]"] ;
8 -> 9 ;
10 [label="url_1 <= 0.5\nentropy = 0.908\nsamples = 99\nvalue = [32, 67]"] ;
9 -> 10 ;
11 [label="entropy = 0.879\nsamples = 94\nvalue = [28, 66]"] ;
10 -> 11 ;
12 [label="entropy = 0.722\nsamples = 5\nvalue = [4, 1]"] ;
10 -> 12 ;
13 [label="resource_4 <= 0.5\nentropy = 0.863\nsamples = 14\nvalue = [10, 4]"] ;
9 -> 13 ;
14 [label="entropy = 0.0\nsamples = 8\nvalue = [8, 0]"] ;
13 -> 14 ;
15 [label="entropy = 0.918\nsamples = 6\nvalue = [2, 4]"] ;
13 -> 15 ;
16 [label="oucontent_4 <= 0.5\nentropy = 0.786\nsamples = 145\nvalue = [34, 111]"] ;
8 -> 16 ;
17 [label="glossary_0 <= 0.5\nentropy = 0.599\nsamples = 48\nvalue = [7, 41]"] ;
16 -> 17 ;
18 [label="entropy = 0.25\nsamples = 24\nvalue = [1, 23]"] ;
17 -> 18 ;
19 [label="entropy = 0.811\nsamples = 24\nvalue = [6, 18]"] ;
17 -> 19 ;
20 [label="ouwiki_1 <= 0.5\nentropy = 0.853\nsamples = 97\nvalue = [27, 70]"] ;
16 -> 20 ;
21 [label="entropy = 0.634\nsamples = 50\nvalue = [8, 42]"] ;
20 -> 21 ;
22 [label="entropy = 0.973\nsamples = 47\nvalue = [19, 28]"] ;
20 -> 22 ;
23 [label="acumg_3 <= 0.5\nentropy = 0.946\nsamples = 22\nvalue = [14, 8]"] ;
7 -> 23 ;
24 [label="acumneg_3 <= 0.5\nentropy = 0.863\nsamples = 7\nvalue = [2, 5]"] ;
23 -> 24 ;
25 [label="entropy = 0.0\nsamples = 4\nvalue = [0, 4]"] ;
24 -> 25 ;
26 [label="forumng_4 <= 0.5\nentropy = 0.918\nsamples = 3\nvalue = [2, 1]"] ;
24 -> 26 ;
27 [label="entropy = 0.0\nsamples = 2\nvalue = [2, 0]"] ;
26 -> 27 ;
28 [label="entropy = 0.0\nsamples = 1\nvalue = [0, 1]"] ;
26 -> 28 ;
29 [label="resource_3 <= 0.5\nentropy = 0.722\nsamples = 15\nvalue = [12, 3]"] ;
23 -> 29 ;
30 [label="entropy = 0.0\nsamples = 9\nvalue = [9, 0]"] ;
29 -> 30 ;
31 [label="homepage_2 <= 0.5\nentropy = 1.0\nsamples = 6\nvalue = [3, 3]"] ;
29 -> 31 ;
32 [label="entropy = 0.0\nsamples = 3\nvalue = [3, 0]"] ;
31 -> 32 ;
33 [label="entropy = 0.0\nsamples = 3\nvalue = [0, 3]"] ;
31 -> 33 ;
34 [label="entropy = 0.0\nsamples = 7\nvalue = [7, 0]"] ;
6 -> 34 ;
35 [label="ouwiki_0 <= 0.5\nentropy = 0.316\nsamples = 35\nvalue = [33, 2]"] ;
5 -> 35 ;
36 [label="oucontent_3 <= 0.5\nentropy = 1.0\nsamples = 4\nvalue = [2, 2]"] ;
35 -> 36 ;
37 [label="entropy = 0.0\nsamples = 2\nvalue = [0, 2]"] ;
36 -> 37 ;
38 [label="entropy = 0.0\nsamples = 2\nvalue = [2, 0]"] ;
36 -> 38 ;
39 [label="entropy = 0.0\nsamples = 31\nvalue = [31, 0]"] ;
35 -> 39 ;
40 [label="homepage_3 <= 0.5\nentropy = 0.318\nsamples = 52\nvalue = [49, 3]"] ;
4 -> 40 ;
41 [label="acumneg_1 <= 0.5\nentropy = 0.491\nsamples = 28\nvalue = [25, 3]"] ;
40 -> 41 ;
42 [label="acumg_4 <= 0.5\nentropy = 0.381\nsamples = 27\nvalue = [25, 2]"] ;
41 -> 42 ;
43 [label="entropy = 0.0\nsamples = 18\nvalue = [18, 0]"] ;
42 -> 43 ;
44 [label="resource_4 <= 0.5\nentropy = 0.764\nsamples = 9\nvalue = [7, 2]"] ;
42 -> 44 ;
45 [label="subpage_4 <= 0.5\nentropy = 0.863\nsamples = 7\nvalue = [5, 2]"] ;
44 -> 45 ;
46 [label="entropy = 0.0\nsamples = 1\nvalue = [1, 0]"] ;
45 -> 46 ;
47 [label="homepage_2 <= 0.5\nentropy = 0.918\nsamples = 6\nvalue = [4, 2]"] ;
45 -> 47 ;
48 [label="entropy = 0.971\nsamples = 5\nvalue = [3, 2]"] ;
47 -> 48 ;
49 [label="entropy = 0.0\nsamples = 1\nvalue = [1, 0]"] ;
47 -> 49 ;
50 [label="entropy = 0.0\nsamples = 2\nvalue = [2, 0]"] ;
44 -> 50 ;
51 [label="entropy = 0.0\nsamples = 1\nvalue = [0, 1]"] ;
41 -> 51 ;
52 [label="entropy = 0.0\nsamples = 24\nvalue = [24, 0]"] ;
40 -> 52 ;
53 [label="forumng_4 <= 0.5\nentropy = 0.738\nsamples = 1071\nvalue = [223, 848]"] ;
3 -> 53 ;
54 [label="homepage_1 <= 0.5\nentropy = 0.843\nsamples = 554\nvalue = [150, 404]"] ;
53 -> 54 ;
55 [label="quiz_0 <= 0.5\nentropy = 0.807\nsamples = 510\nvalue = [126, 384]"] ;
54 -> 55 ;
56 [label="homepage_3 <= 0.5\nentropy = 0.669\nsamples = 223\nvalue = [39, 184]"] ;
55 -> 56 ;
57 [label="resource_0 <= 0.5\nentropy = 0.808\nsamples = 129\nvalue = [32, 97]"] ;
56 -> 57 ;
58 [label="acumg_4 <= 0.5\nentropy = 0.824\nsamples = 124\nvalue = [32, 92]"] ;
57 -> 58 ;
59 [label="homepage_4 <= 0.5\nentropy = 0.797\nsamples = 116\nvalue = [28, 88]"] ;
58 -> 59 ;
60 [label="entropy = 0.822\nsamples = 109\nvalue = [28, 81]"] ;
59 -> 60 ;
61 [label="entropy = 0.0\nsamples = 7\nvalue = [0, 7]"] ;
59 -> 61 ;
62 [label="acumneg_2 <= 0.5\nentropy = 1.0\nsamples = 8\nvalue = [4, 4]"] ;
58 -> 62 ;
63 [label="entropy = 0.918\nsamples = 6\nvalue = [4, 2]"] ;
62 -> 63 ;
64 [label="entropy = 0.0\nsamples = 2\nvalue = [0, 2]"] ;
62 -> 64 ;
65 [label="entropy = 0.0\nsamples = 5\nvalue = [0, 5]"] ;
57 -> 65 ;
66 [label="resource_3 <= 0.5\nentropy = 0.382\nsamples = 94\nvalue = [7, 87]"] ;
56 -> 66 ;
67 [label="subpage_1 <= 0.5\nentropy = 0.503\nsamples = 63\nvalue = [7, 56]"] ;
66 -> 67 ;
68 [label="forumng_1 <= 0.5\nentropy = 0.376\nsamples = 55\nvalue = [4, 51]"] ;
67 -> 68 ;
69 [label="entropy = 0.31\nsamples = 54\nvalue = [3, 51]"] ;
68 -> 69 ;
70 [label="entropy = 0.0\nsamples = 1\nvalue = [1, 0]"] ;
68 -> 70 ;
71 [label="acumneg_2 <= 0.5\nentropy = 0.954\nsamples = 8\nvalue = [3, 5]"] ;
67 -> 71 ;
72 [label="entropy = 0.811\nsamples = 4\nvalue = [3, 1]"] ;
71 -> 72 ;
73 [label="entropy = 0.0\nsamples = 4\nvalue = [0, 4]"] ;
71 -> 73 ;
74 [label="entropy = 0.0\nsamples = 31\nvalue = [0, 31]"] ;
66 -> 74 ;
75 [label="resource_4 <= 0.5\nentropy = 0.885\nsamples = 287\nvalue = [87, 200]"] ;
55 -> 75 ;
76 [label="resource_3 <= 0.5\nentropy = 0.992\nsamples = 125\nvalue = [56, 69]"] ;
75 -> 76 ;
77 [label="oucontent_1 <= 0.5\nentropy = 0.845\nsamples = 22\nvalue = [16, 6]"] ;
76 -> 77 ;
78 [label="glossary_1 <= 0.5\nentropy = 0.65\nsamples = 18\nvalue = [15, 3]"] ;
77 -> 78 ;
79 [label="entropy = 0.523\nsamples = 17\nvalue = [15, 2]"] ;
78 -> 79 ;
80 [label="entropy = 0.0\nsamples = 1\nvalue = [0, 1]"] ;
78 -> 80 ;
81 [label="homepage_2 <= 0.5\nentropy = 0.811\nsamples = 4\nvalue = [1, 3]"] ;
77 -> 81 ;
82 [label="entropy = 1.0\nsamples = 2\nvalue = [1, 1]"] ;
81 -> 82 ;
83 [label="entropy = 0.0\nsamples = 2\nvalue = [0, 2]"] ;
81 -> 83 ;
84 [label="subpage_3 <= 0.5\nentropy = 0.964\nsamples = 103\nvalue = [40, 63]"] ;
76 -> 84 ;
85 [label="forumng_1 <= 0.5\nentropy = 0.758\nsamples = 32\nvalue = [7, 25]"] ;
84 -> 85 ;
86 [label="entropy = 0.65\nsamples = 30\nvalue = [5, 25]"] ;
85 -> 86 ;
87 [label="entropy = 0.0\nsamples = 2\nvalue = [2, 0]"] ;
85 -> 87 ;
88 [label="acumneg_1 <= 0.5\nentropy = 0.996\nsamples = 71\nvalue = [33, 38]"] ;
84 -> 88 ;
89 [label="entropy = 0.992\nsamples = 56\nvalue = [31, 25]"] ;
88 -> 89 ;
90 [label="entropy = 0.567\nsamples = 15\nvalue = [2, 13]"] ;
88 -> 90 ;
91 [label="subpage_2 <= 0.5\nentropy = 0.704\nsamples = 162\nvalue = [31, 131]"] ;
75 -> 91 ;
92 [label="homepage_3 <= 0.5\nentropy = 0.683\nsamples = 160\nvalue = [29, 131]"] ;
91 -> 92 ;
93 [label="ouelluminate <= 0.5\nentropy = 0.79\nsamples = 76\nvalue = [18, 58]"] ;
92 -> 93 ;
94 [label="entropy = 0.439\nsamples = 11\nvalue = [1, 10]"] ;
93 -> 94 ;
95 [label="entropy = 0.829\nsamples = 65\nvalue = [17, 48]"] ;
93 -> 95 ;
96 [label="ouwiki_0 <= 0.5\nentropy = 0.56\nsamples = 84\nvalue = [11, 73]"] ;
92 -> 96 ;
97 [label="entropy = 0.503\nsamples = 81\nvalue = [9, 72]"] ;
96 -> 97 ;
98 [label="entropy = 0.918\nsamples = 3\nvalue = [2, 1]"] ;
96 -> 98 ;
99 [label="entropy = 0.0\nsamples = 2\nvalue = [2, 0]"] ;
91 -> 99 ;
100 [label="forumng_3 <= 0.5\nentropy = 0.994\nsamples = 44\nvalue = [24, 20]"] ;
54 -> 100 ;
101 [label="ouelluminate <= 0.5\nentropy = 0.738\nsamples = 24\nvalue = [19, 5]"] ;
100 -> 101 ;
102 [label="subpage_4 <= 0.5\nentropy = 0.353\nsamples = 15\nvalue = [14, 1]"] ;
101 -> 102 ;
103 [label="entropy = 0.0\nsamples = 14\nvalue = [14, 0]"] ;
102 -> 103 ;
104 [label="entropy = 0.0\nsamples = 1\nvalue = [0, 1]"] ;
102 -> 104 ;
105 [label="oucontent_2 <= 0.5\nentropy = 0.991\nsamples = 9\nvalue = [5, 4]"] ;
101 -> 105 ;
106 [label="ouwiki_1 <= 0.5\nentropy = 0.65\nsamples = 6\nvalue = [5, 1]"] ;
105 -> 106 ;
107 [label="entropy = 0.0\nsamples = 5\nvalue = [5, 0]"] ;
106 -> 107 ;
108 [label="entropy = 0.0\nsamples = 1\nvalue = [0, 1]"] ;
106 -> 108 ;
109 [label="entropy = 0.0\nsamples = 3\nvalue = [0, 3]"] ;
105 -> 109 ;
110 [label="acumneg_0 <= 0.5\nentropy = 0.811\nsamples = 20\nvalue = [5, 15]"] ;
100 -> 110 ;
111 [label="entropy = 0.0\nsamples = 7\nvalue = [0, 7]"] ;
110 -> 111 ;
112 [label="quiz_1 <= 0.5\nentropy = 0.961\nsamples = 13\nvalue = [5, 8]"] ;
110 -> 112 ;
113 [label="entropy = 0.0\nsamples = 2\nvalue = [2, 0]"] ;
112 -> 113 ;
114 [label="resource_1 <= 0.5\nentropy = 0.845\nsamples = 11\nvalue = [3, 8]"] ;
112 -> 114 ;
115 [label="subpage_3 <= 0.5\nentropy = 0.954\nsamples = 8\nvalue = [3, 5]"] ;
114 -> 115 ;
116 [label="entropy = 1.0\nsamples = 6\nvalue = [3, 3]"] ;
115 -> 116 ;
117 [label="entropy = 0.0\nsamples = 2\nvalue = [0, 2]"] ;
115 -> 117 ;
118 [label="entropy = 0.0\nsamples = 3\nvalue = [0, 3]"] ;
114 -> 118 ;
119 [label="resource_0 <= 0.5\nentropy = 0.587\nsamples = 517\nvalue = [73, 444]"] ;
53 -> 119 ;
120 [label="oucontent_3 <= 0.5\nentropy = 0.563\nsamples = 507\nvalue = [67, 440]"] ;
119 -> 120 ;
121 [label="resource_1 <= 0.5\nentropy = 0.518\nsamples = 431\nvalue = [50, 381]"] ;
120 -> 121 ;
122 [label="acumneg_3 <= 0.5\nentropy = 0.464\nsamples = 376\nvalue = [37, 339]"] ;
121 -> 122 ;
123 [label="acumg_2 <= 0.5\nentropy = 0.524\nsamples = 271\nvalue = [32, 239]"] ;
122 -> 123 ;
124 [label="acumneg_1 <= 0.5\nentropy = 0.472\nsamples = 228\nvalue = [23, 205]"] ;
123 -> 124 ;
125 [label="entropy = 0.421\nsamples = 199\nvalue = [17, 182]"] ;
124 -> 125 ;
126 [label="entropy = 0.736\nsamples = 29\nvalue = [6, 23]"] ;
124 -> 126 ;
127 [label="quiz_0 <= 0.5\nentropy = 0.74\nsamples = 43\nvalue = [9, 34]"] ;
123 -> 127 ;
128 [label="entropy = 0.61\nsamples = 40\nvalue = [6, 34]"] ;
127 -> 128 ;
129 [label="entropy = 0.0\nsamples = 3\nvalue = [3, 0]"] ;
127 -> 129 ;
130 [label="subpage_2 <= 0.5\nentropy = 0.276\nsamples = 105\nvalue = [5, 100]"] ;
122 -> 130 ;
131 [label="homepage_3 <= 0.5\nentropy = 0.357\nsamples = 74\nvalue = [5, 69]"] ;
130 -> 131 ;
132 [label="entropy = 0.156\nsamples = 44\nvalue = [1, 43]"] ;
131 -> 132 ;
133 [label="entropy = 0.567\nsamples = 30\nvalue = [4, 26]"] ;
131 -> 133 ;
134 [label="entropy = 0.0\nsamples = 31\nvalue = [0, 31]"] ;
130 -> 134 ;
135 [label="acumneg_0 <= 0.5\nentropy = 0.789\nsamples = 55\nvalue = [13, 42]"] ;
121 -> 135 ;
136 [label="acumg_4 <= 0.5\nentropy = 0.575\nsamples = 44\nvalue = [6, 38]"] ;
135 -> 136 ;
137 [label="subpage_2 <= 0.5\nentropy = 0.469\nsamples = 40\nvalue = [4, 36]"] ;
136 -> 137 ;
138 [label="entropy = 0.229\nsamples = 27\nvalue = [1, 26]"] ;
137 -> 138 ;
139 [label="entropy = 0.779\nsamples = 13\nvalue = [3, 10]"] ;
137 -> 139 ;
140 [label="subpage_2 <= 0.5\nentropy = 1.0\nsamples = 4\nvalue = [2, 2]"] ;
136 -> 140 ;
141 [label="entropy = 0.0\nsamples = 2\nvalue = [2, 0]"] ;
140 -> 141 ;
142 [label="entropy = 0.0\nsamples = 2\nvalue = [0, 2]"] ;
140 -> 142 ;
143 [label="subpage_1 <= 0.5\nentropy = 0.946\nsamples = 11\nvalue = [7, 4]"] ;
135 -> 143 ;
144 [label="glossary_0 <= 0.5\nentropy = 0.722\nsamples = 5\nvalue = [1, 4]"] ;
143 -> 144 ;
145 [label="entropy = 1.0\nsamples = 2\nvalue = [1, 1]"] ;
144 -> 145 ;
146 [label="entropy = 0.0\nsamples = 3\nvalue = [0, 3]"] ;
144 -> 146 ;
147 [label="entropy = 0.0\nsamples = 6\nvalue = [6, 0]"] ;
143 -> 147 ;
148 [label="url_4 <= 0.5\nentropy = 0.767\nsamples = 76\nvalue = [17, 59]"] ;
120 -> 148 ;
149 [label="entropy = 0.0\nsamples = 3\nvalue = [3, 0]"] ;
148 -> 149 ;
150 [label="acumg_4 <= 0.5\nentropy = 0.705\nsamples = 73\nvalue = [14, 59]"] ;
148 -> 150 ;
151 [label="ouelluminate <= 0.5\nentropy = 0.863\nsamples = 21\nvalue = [6, 15]"] ;
150 -> 151 ;
152 [label="entropy = 0.0\nsamples = 1\nvalue = [1, 0]"] ;
151 -> 152 ;
153 [label="resource_3 <= 0.5\nentropy = 0.811\nsamples = 20\nvalue = [5, 15]"] ;
151 -> 153 ;
154 [label="entropy = 0.852\nsamples = 18\nvalue = [5, 13]"] ;
153 -> 154 ;
155 [label="entropy = 0.0\nsamples = 2\nvalue = [0, 2]"] ;
153 -> 155 ;
156 [label="resource_4 <= 0.5\nentropy = 0.619\nsamples = 52\nvalue = [8, 44]"] ;
150 -> 156 ;
157 [label="entropy = 0.0\nsamples = 1\nvalue = [1, 0]"] ;
156 -> 157 ;
158 [label="acumneg_4 <= 0.5\nentropy = 0.577\nsamples = 51\nvalue = [7, 44]"] ;
156 -> 158 ;
159 [label="entropy = 0.0\nsamples = 13\nvalue = [0, 13]"] ;
158 -> 159 ;
160 [label="entropy = 0.689\nsamples = 38\nvalue = [7, 31]"] ;
158 -> 160 ;
161 [label="quiz_1 <= 0.5\nentropy = 0.971\nsamples = 10\nvalue = [6, 4]"] ;
119 -> 161 ;
162 [label="entropy = 0.0\nsamples = 4\nvalue = [4, 0]"] ;
161 -> 162 ;
163 [label="url_1 <= 0.5\nentropy = 0.918\nsamples = 6\nvalue = [2, 4]"] ;
161 -> 163 ;
164 [label="homepage_4 <= 0.5\nentropy = 0.918\nsamples = 3\nvalue = [2, 1]"] ;
163 -> 164 ;
165 [label="entropy = 0.0\nsamples = 2\nvalue = [2, 0]"] ;
164 -> 165 ;
166 [label="entropy = 0.0\nsamples = 1\nvalue = [0, 1]"] ;
164 -> 166 ;
167 [label="entropy = 0.0\nsamples = 3\nvalue = [0, 3]"] ;
163 -> 167 ;
168 [label="quiz_3 <= 0.5\nentropy = 0.384\nsamples = 480\nvalue = [36, 444]"] ;
2 -> 168 ;
169 [label="quiz_2 <= 0.5\nentropy = 1.0\nsamples = 6\nvalue = [3, 3]"] ;
168 -> 169 ;
170 [label="entropy = 0.0\nsamples = 2\nvalue = [2, 0]"] ;
169 -> 170 ;
171 [label="url_4 <= 0.5\nentropy = 0.811\nsamples = 4\nvalue = [1, 3]"] ;
169 -> 171 ;
172 [label="entropy = 0.0\nsamples = 3\nvalue = [0, 3]"] ;
171 -> 172 ;
173 [label="entropy = 0.0\nsamples = 1\nvalue = [1, 0]"] ;
171 -> 173 ;
174 [label="acumneg_2 <= 0.5\nentropy = 0.365\nsamples = 474\nvalue = [33, 441]"] ;
168 -> 174 ;
175 [label="forumng_4 <= 0.5\nentropy = 0.333\nsamples = 439\nvalue = [27, 412]"] ;
174 -> 175 ;
176 [label="acumneg_3 <= 0.5\nentropy = 0.471\nsamples = 159\nvalue = [16, 143]"] ;
175 -> 176 ;
177 [label="page_1 <= 0.5\nentropy = 0.537\nsamples = 114\nvalue = [14, 100]"] ;
176 -> 177 ;
178 [label="entropy = 0.0\nsamples = 11\nvalue = [0, 11]"] ;
177 -> 178 ;
179 [label="subpage_4 <= 0.5\nentropy = 0.573\nsamples = 103\nvalue = [14, 89]"] ;
177 -> 179 ;
180 [label="url_2 <= 0.5\nentropy = 0.353\nsamples = 15\nvalue = [1, 14]"] ;
179 -> 180 ;
181 [label="entropy = 0.0\nsamples = 11\nvalue = [0, 11]"] ;
180 -> 181 ;
182 [label="oucontent_4 <= 0.5\nentropy = 0.811\nsamples = 4\nvalue = [1, 3]"] ;
180 -> 182 ;
183 [label="entropy = 0.0\nsamples = 1\nvalue = [1, 0]"] ;
182 -> 183 ;
184 [label="entropy = 0.0\nsamples = 3\nvalue = [0, 3]"] ;
182 -> 184 ;
185 [label="homepage_1 <= 0.5\nentropy = 0.604\nsamples = 88\nvalue = [13, 75]"] ;
179 -> 185 ;
186 [label="oucontent_4 <= 0.5\nentropy = 0.579\nsamples = 87\nvalue = [12, 75]"] ;
185 -> 186 ;
187 [label="entropy = 0.0\nsamples = 3\nvalue = [0, 3]"] ;
186 -> 187 ;
188 [label="entropy = 0.592\nsamples = 84\nvalue = [12, 72]"] ;
186 -> 188 ;
189 [label="entropy = 0.0\nsamples = 1\nvalue = [1, 0]"] ;
185 -> 189 ;
190 [label="url_2 <= 0.5\nentropy = 0.262\nsamples = 45\nvalue = [2, 43]"] ;
176 -> 190 ;
191 [label="resource_4 <= 0.5\nentropy = 0.159\nsamples = 43\nvalue = [1, 42]"] ;
190 -> 191 ;
192 [label="entropy = 0.0\nsamples = 35\nvalue = [0, 35]"] ;
191 -> 192 ;
193 [label="ouwiki_0 <= 0.5\nentropy = 0.544\nsamples = 8\nvalue = [1, 7]"] ;
191 -> 193 ;
194 [label="forumng_3 <= 0.5\nentropy = 0.918\nsamples = 3\nvalue = [1, 2]"] ;
193 -> 194 ;
195 [label="entropy = 0.0\nsamples = 1\nvalue = [0, 1]"] ;
194 -> 195 ;
196 [label="entropy = 1.0\nsamples = 2\nvalue = [1, 1]"] ;
194 -> 196 ;
197 [label="entropy = 0.0\nsamples = 5\nvalue = [0, 5]"] ;
193 -> 197 ;
198 [label="forumng_3 <= 0.5\nentropy = 1.0\nsamples = 2\nvalue = [1, 1]"] ;
190 -> 198 ;
199 [label="entropy = 0.0\nsamples = 1\nvalue = [1, 0]"] ;
198 -> 199 ;
200 [label="entropy = 0.0\nsamples = 1\nvalue = [0, 1]"] ;
198 -> 200 ;
201 [label="glossary_0 <= 0.5\nentropy = 0.239\nsamples = 280\nvalue = [11, 269]"] ;
175 -> 201 ;
202 [label="resource_4 <= 0.5\nentropy = 0.469\nsamples = 30\nvalue = [3, 27]"] ;
201 -> 202 ;
203 [label="entropy = 0.0\nsamples = 11\nvalue = [0, 11]"] ;
202 -> 203 ;
204 [label="acumneg_4 <= 0.5\nentropy = 0.629\nsamples = 19\nvalue = [3, 16]"] ;
202 -> 204 ;
205 [label="entropy = 0.0\nsamples = 4\nvalue = [0, 4]"] ;
204 -> 205 ;
206 [label="ouwiki_1 <= 0.5\nentropy = 0.722\nsamples = 15\nvalue = [3, 12]"] ;
204 -> 206 ;
207 [label="entropy = 0.0\nsamples = 1\nvalue = [0, 1]"] ;
206 -> 207 ;
208 [label="homepage_3 <= 0.5\nentropy = 0.75\nsamples = 14\nvalue = [3, 11]"] ;
206 -> 208 ;
209 [label="entropy = 0.779\nsamples = 13\nvalue = [3, 10]"] ;
208 -> 209 ;
210 [label="entropy = 0.0\nsamples = 1\nvalue = [0, 1]"] ;
208 -> 210 ;
211 [label="acumneg_3 <= 0.5\nentropy = 0.204\nsamples = 250\nvalue = [8, 242]"] ;
201 -> 211 ;
212 [label="url_4 <= 0.5\nentropy = 0.168\nsamples = 201\nvalue = [5, 196]"] ;
211 -> 212 ;
213 [label="entropy = 0.0\nsamples = 26\nvalue = [0, 26]"] ;
212 -> 213 ;
214 [label="acumneg_4 <= 0.5\nentropy = 0.187\nsamples = 175\nvalue = [5, 170]"] ;
212 -> 214 ;
215 [label="entropy = 0.0\nsamples = 15\nvalue = [0, 15]"] ;
214 -> 215 ;
216 [label="resource_2 <= 0.5\nentropy = 0.201\nsamples = 160\nvalue = [5, 155]"] ;
214 -> 216 ;
217 [label="entropy = 0.209\nsamples = 152\nvalue = [5, 147]"] ;
216 -> 217 ;
218 [label="entropy = 0.0\nsamples = 8\nvalue = [0, 8]"] ;
216 -> 218 ;
219 [label="resource_4 <= 0.5\nentropy = 0.332\nsamples = 49\nvalue = [3, 46]"] ;
211 -> 219 ;
220 [label="homepage_3 <= 0.5\nentropy = 0.414\nsamples = 36\nvalue = [3, 33]"] ;
219 -> 220 ;
221 [label="ouwiki_1 <= 0.5\nentropy = 0.337\nsamples = 32\nvalue = [2, 30]"] ;
220 -> 221 ;
222 [label="entropy = 0.0\nsamples = 14\nvalue = [0, 14]"] ;
221 -> 222 ;
223 [label="entropy = 0.503\nsamples = 18\nvalue = [2, 16]"] ;
221 -> 223 ;
224 [label="ouwiki_0 <= 0.5\nentropy = 0.811\nsamples = 4\nvalue = [1, 3]"] ;
220 -> 224 ;
225 [label="entropy = 0.0\nsamples = 3\nvalue = [0, 3]"] ;
224 -> 225 ;
226 [label="entropy = 0.0\nsamples = 1\nvalue = [1, 0]"] ;
224 -> 226 ;
227 [label="entropy = 0.0\nsamples = 13\nvalue = [0, 13]"] ;
219 -> 227 ;
228 [label="resource_3 <= 0.5\nentropy = 0.661\nsamples = 35\nvalue = [6, 29]"] ;
174 -> 228 ;
229 [label="forumng_3 <= 0.5\nentropy = 0.9\nsamples = 19\nvalue = [6, 13]"] ;
228 -> 229 ;
230 [label="resource_2 <= 0.5\nentropy = 0.954\nsamples = 8\nvalue = [5, 3]"] ;
229 -> 230 ;
231 [label="entropy = 0.0\nsamples = 3\nvalue = [3, 0]"] ;
230 -> 231 ;
232 [label="forumng_2 <= 0.5\nentropy = 0.971\nsamples = 5\nvalue = [2, 3]"] ;
230 -> 232 ;
233 [label="homepage_2 <= 0.5\nentropy = 0.811\nsamples = 4\nvalue = [1, 3]"] ;
232 -> 233 ;
234 [label="ouwiki_1 <= 0.5\nentropy = 0.918\nsamples = 3\nvalue = [1, 2]"] ;
233 -> 234 ;
235 [label="entropy = 1.0\nsamples = 2\nvalue = [1, 1]"] ;
234 -> 235 ;
236 [label="entropy = 0.0\nsamples = 1\nvalue = [0, 1]"] ;
234 -> 236 ;
237 [label="entropy = 0.0\nsamples = 1\nvalue = [0, 1]"] ;
233 -> 237 ;
238 [label="entropy = 0.0\nsamples = 1\nvalue = [1, 0]"] ;
232 -> 238 ;
239 [label="oucontent_3 <= 0.5\nentropy = 0.439\nsamples = 11\nvalue = [1, 10]"] ;
229 -> 239 ;
240 [label="entropy = 0.0\nsamples = 10\nvalue = [0, 10]"] ;
239 -> 240 ;
241 [label="entropy = 0.0\nsamples = 1\nvalue = [1, 0]"] ;
239 -> 241 ;
242 [label="entropy = 0.0\nsamples = 16\nvalue = [0, 16]"] ;
228 -> 242 ;
243 [label="quiz_0 <= 0.5\nentropy = 0.973\nsamples = 442\nvalue = [264, 178]"] ;
1 -> 243 ;
244 [label="oucontent_0 <= 0.5\nentropy = 0.96\nsamples = 266\nvalue = [102, 164]"] ;
243 -> 244 ;
245 [label="entropy = 0.0\nsamples = 16\nvalue = [16, 0]"] ;
244 -> 245 ;
246 [label="forumng_2 <= 0.5\nentropy = 0.929\nsamples = 250\nvalue = [86, 164]"] ;
244 -> 246 ;
247 [label="subpage_1 <= 0.5\nentropy = 0.851\nsamples = 130\nvalue = [36, 94]"] ;
246 -> 247 ;
248 [label="homepage_0 <= 0.5\nentropy = 0.947\nsamples = 74\nvalue = [27, 47]"] ;
247 -> 248 ;
249 [label="url_3 <= 0.5\nentropy = 0.908\nsamples = 65\nvalue = [21, 44]"] ;
248 -> 249 ;
250 [label="ouelluminate <= 0.5\nentropy = 0.819\nsamples = 51\nvalue = [13, 38]"] ;
249 -> 250 ;
251 [label="quiz_1 <= 0.5\nentropy = 0.876\nsamples = 44\nvalue = [13, 31]"] ;
250 -> 251 ;
252 [label="entropy = 0.0\nsamples = 4\nvalue = [0, 4]"] ;
251 -> 252 ;
253 [label="forumng_3 <= 0.5\nentropy = 0.91\nsamples = 40\nvalue = [13, 27]"] ;
251 -> 253 ;
254 [label="entropy = 0.65\nsamples = 12\nvalue = [2, 10]"] ;
253 -> 254 ;
255 [label="entropy = 0.967\nsamples = 28\nvalue = [11, 17]"] ;
253 -> 255 ;
256 [label="entropy = 0.0\nsamples = 7\nvalue = [0, 7]"] ;
250 -> 256 ;
257 [label="homepage_2 <= 0.5\nentropy = 0.985\nsamples = 14\nvalue = [8, 6]"] ;
249 -> 257 ;
258 [label="entropy = 0.0\nsamples = 4\nvalue = [4, 0]"] ;
257 -> 258 ;
259 [label="resource_3 <= 0.5\nentropy = 0.971\nsamples = 10\nvalue = [4, 6]"] ;
257 -> 259 ;
260 [label="acumneg_0 <= 0.5\nentropy = 0.985\nsamples = 7\nvalue = [4, 3]"] ;
259 -> 260 ;
261 [label="entropy = 0.918\nsamples = 6\nvalue = [4, 2]"] ;
260 -> 261 ;
262 [label="entropy = 0.0\nsamples = 1\nvalue = [0, 1]"] ;
260 -> 262 ;
263 [label="entropy = 0.0\nsamples = 3\nvalue = [0, 3]"] ;
259 -> 263 ;
264 [label="url_2 <= 0.5\nentropy = 0.918\nsamples = 9\nvalue = [6, 3]"] ;
248 -> 264 ;
265 [label="acumneg_0 <= 0.5\nentropy = 1.0\nsamples = 6\nvalue = [3, 3]"] ;
264 -> 265 ;
266 [label="resource_0 <= 0.5\nentropy = 0.811\nsamples = 4\nvalue = [3, 1]"] ;
265 -> 266 ;
267 [label="entropy = 0.0\nsamples = 2\nvalue = [2, 0]"] ;
266 -> 267 ;
268 [label="glossary_1 <= 0.5\nentropy = 1.0\nsamples = 2\nvalue = [1, 1]"] ;
266 -> 268 ;
269 [label="entropy = 0.0\nsamples = 1\nvalue = [0, 1]"] ;
268 -> 269 ;
270 [label="entropy = 0.0\nsamples = 1\nvalue = [1, 0]"] ;
268 -> 270 ;
271 [label="entropy = 0.0\nsamples = 2\nvalue = [0, 2]"] ;
265 -> 271 ;
272 [label="entropy = 0.0\nsamples = 3\nvalue = [3, 0]"] ;
264 -> 272 ;
273 [label="forumng_1 <= 0.5\nentropy = 0.636\nsamples = 56\nvalue = [9, 47]"] ;
247 -> 273 ;
274 [label="glossary_0 <= 0.5\nentropy = 0.731\nsamples = 44\nvalue = [9, 35]"] ;
273 -> 274 ;
275 [label="entropy = 0.0\nsamples = 8\nvalue = [0, 8]"] ;
274 -> 275 ;
276 [label="resource_0 <= 0.5\nentropy = 0.811\nsamples = 36\nvalue = [9, 27]"] ;
274 -> 276 ;
277 [label="acumneg_3 <= 0.5\nentropy = 0.857\nsamples = 32\nvalue = [9, 23]"] ;
276 -> 277 ;
278 [label="resource_1 <= 0.5\nentropy = 0.795\nsamples = 25\nvalue = [6, 19]"] ;
277 -> 278 ;
279 [label="entropy = 0.0\nsamples = 8\nvalue = [0, 8]"] ;
278 -> 279 ;
280 [label="entropy = 0.937\nsamples = 17\nvalue = [6, 11]"] ;
278 -> 280 ;
281 [label="url_1 <= 0.5\nentropy = 0.985\nsamples = 7\nvalue = [3, 4]"] ;
277 -> 281 ;
282 [label="entropy = 0.971\nsamples = 5\nvalue = [3, 2]"] ;
281 -> 282 ;
283 [label="entropy = 0.0\nsamples = 2\nvalue = [0, 2]"] ;
281 -> 283 ;
284 [label="entropy = 0.0\nsamples = 4\nvalue = [0, 4]"] ;
276 -> 284 ;
285 [label="entropy = 0.0\nsamples = 12\nvalue = [0, 12]"] ;
273 -> 285 ;
286 [label="subpage_3 <= 0.5\nentropy = 0.98\nsamples = 120\nvalue = [50, 70]"] ;
246 -> 286 ;
287 [label="homepage_1 <= 0.5\nentropy = 0.985\nsamples = 117\nvalue = [50, 67]"] ;
286 -> 287 ;
288 [label="quiz_2 <= 0.5\nentropy = 0.918\nsamples = 45\nvalue = [15, 30]"] ;
287 -> 288 ;
289 [label="resource_1 <= 0.5\nentropy = 0.902\nsamples = 44\nvalue = [14, 30]"] ;
288 -> 289 ;
290 [label="homepage_3 <= 0.5\nentropy = 0.967\nsamples = 33\nvalue = [13, 20]"] ;
289 -> 290 ;
291 [label="url_3 <= 0.5\nentropy = 0.938\nsamples = 31\nvalue = [11, 20]"] ;
290 -> 291 ;
292 [label="entropy = 0.998\nsamples = 19\nvalue = [9, 10]"] ;
291 -> 292 ;
293 [label="entropy = 0.65\nsamples = 12\nvalue = [2, 10]"] ;
291 -> 293 ;
294 [label="entropy = 0.0\nsamples = 2\nvalue = [2, 0]"] ;
290 -> 294 ;
295 [label="ouelluminate <= 0.5\nentropy = 0.439\nsamples = 11\nvalue = [1, 10]"] ;
289 -> 295 ;
296 [label="entropy = 0.0\nsamples = 9\nvalue = [0, 9]"] ;
295 -> 296 ;
297 [label="acumneg_3 <= 0.5\nentropy = 1.0\nsamples = 2\nvalue = [1, 1]"] ;
295 -> 297 ;
298 [label="entropy = 0.0\nsamples = 1\nvalue = [0, 1]"] ;
297 -> 298 ;
299 [label="entropy = 0.0\nsamples = 1\nvalue = [1, 0]"] ;
297 -> 299 ;
300 [label="entropy = 0.0\nsamples = 1\nvalue = [1, 0]"] ;
288 -> 300 ;
301 [label="subpage_2 <= 0.5\nentropy = 0.999\nsamples = 72\nvalue = [35, 37]"] ;
287 -> 301 ;
302 [label="url_1 <= 0.5\nentropy = 0.997\nsamples = 58\nvalue = [31, 27]"] ;
301 -> 302 ;
303 [label="glossary_0 <= 0.5\nentropy = 0.958\nsamples = 29\nvalue = [18, 11]"] ;
302 -> 303 ;
304 [label="acumneg_1 <= 0.5\nentropy = 0.764\nsamples = 9\nvalue = [7, 2]"] ;
303 -> 304 ;
305 [label="entropy = 0.0\nsamples = 6\nvalue = [6, 0]"] ;
304 -> 305 ;
306 [label="entropy = 0.918\nsamples = 3\nvalue = [1, 2]"] ;
304 -> 306 ;
307 [label="acumneg_3 <= 0.5\nentropy = 0.993\nsamples = 20\nvalue = [11, 9]"] ;
303 -> 307 ;
308 [label="entropy = 0.964\nsamples = 18\nvalue = [11, 7]"] ;
307 -> 308 ;
309 [label="entropy = 0.0\nsamples = 2\nvalue = [0, 2]"] ;
307 -> 309 ;
310 [label="acumneg_1 <= 0.5\nentropy = 0.992\nsamples = 29\nvalue = [13, 16]"] ;
302 -> 310 ;
311 [label="quiz_2 <= 0.5\nentropy = 0.998\nsamples = 21\nvalue = [11, 10]"] ;
310 -> 311 ;
312 [label="entropy = 0.998\nsamples = 19\nvalue = [9, 10]"] ;
311 -> 312 ;
313 [label="entropy = 0.0\nsamples = 2\nvalue = [2, 0]"] ;
311 -> 313 ;
314 [label="resource_1 <= 0.5\nentropy = 0.811\nsamples = 8\nvalue = [2, 6]"] ;
310 -> 314 ;
315 [label="entropy = 0.0\nsamples = 4\nvalue = [0, 4]"] ;
314 -> 315 ;
316 [label="entropy = 1.0\nsamples = 4\nvalue = [2, 2]"] ;
314 -> 316 ;
317 [label="acumneg_0 <= 0.5\nentropy = 0.863\nsamples = 14\nvalue = [4, 10]"] ;
301 -> 317 ;
318 [label="url_3 <= 0.5\nentropy = 0.503\nsamples = 9\nvalue = [1, 8]"] ;
317 -> 318 ;
319 [label="entropy = 0.0\nsamples = 5\nvalue = [0, 5]"] ;
318 -> 319 ;
320 [label="acumneg_1 <= 0.5\nentropy = 0.811\nsamples = 4\nvalue = [1, 3]"] ;
318 -> 320 ;
321 [label="entropy = 0.0\nsamples = 2\nvalue = [0, 2]"] ;
320 -> 321 ;
322 [label="entropy = 1.0\nsamples = 2\nvalue = [1, 1]"] ;
320 -> 322 ;
323 [label="url_2 <= 0.5\nentropy = 0.971\nsamples = 5\nvalue = [3, 2]"] ;
317 -> 323 ;
324 [label="entropy = 0.0\nsamples = 2\nvalue = [2, 0]"] ;
323 -> 324 ;
325 [label="resource_2 <= 0.5\nentropy = 0.918\nsamples = 3\nvalue = [1, 2]"] ;
323 -> 325 ;
326 [label="entropy = 0.0\nsamples = 1\nvalue = [0, 1]"] ;
325 -> 326 ;
327 [label="entropy = 1.0\nsamples = 2\nvalue = [1, 1]"] ;
325 -> 327 ;
328 [label="entropy = 0.0\nsamples = 3\nvalue = [0, 3]"] ;
286 -> 328 ;
329 [label="ouwiki_0 <= 0.5\nentropy = 0.401\nsamples = 176\nvalue = [162, 14]"] ;
243 -> 329 ;
330 [label="forumng_2 <= 0.5\nentropy = 0.863\nsamples = 21\nvalue = [15, 6]"] ;
329 -> 330 ;
331 [label="glossary_0 <= 0.5\nentropy = 0.414\nsamples = 12\nvalue = [11, 1]"] ;
330 -> 331 ;
332 [label="entropy = 0.0\nsamples = 1\nvalue = [0, 1]"] ;
331 -> 332 ;
333 [label="entropy = 0.0\nsamples = 11\nvalue = [11, 0]"] ;
331 -> 333 ;
334 [label="resource_2 <= 0.5\nentropy = 0.991\nsamples = 9\nvalue = [4, 5]"] ;
330 -> 334 ;
335 [label="url_1 <= 0.5\nentropy = 0.722\nsamples = 5\nvalue = [4, 1]"] ;
334 -> 335 ;
336 [label="entropy = 0.0\nsamples = 4\nvalue = [4, 0]"] ;
335 -> 336 ;
337 [label="entropy = 0.0\nsamples = 1\nvalue = [0, 1]"] ;
335 -> 337 ;
338 [label="entropy = 0.0\nsamples = 4\nvalue = [0, 4]"] ;
334 -> 338 ;
339 [label="resource_3 <= 0.5\nentropy = 0.293\nsamples = 155\nvalue = [147, 8]"] ;
329 -> 339 ;
340 [label="homepage_3 <= 0.5\nentropy = 0.194\nsamples = 134\nvalue = [130, 4]"] ;
339 -> 340 ;
341 [label="oucontent_1 <= 0.5\nentropy = 0.156\nsamples = 133\nvalue = [130, 3]"] ;
340 -> 341 ;
342 [label="entropy = 0.0\nsamples = 104\nvalue = [104, 0]"] ;
341 -> 342 ;
343 [label="forumng_1 <= 0.5\nentropy = 0.48\nsamples = 29\nvalue = [26, 3]"] ;
341 -> 343 ;
344 [label="entropy = 0.0\nsamples = 18\nvalue = [18, 0]"] ;
343 -> 344 ;
345 [label="url_1 <= 0.5\nentropy = 0.845\nsamples = 11\nvalue = [8, 3]"] ;
343 -> 345 ;
346 [label="homepage_2 <= 0.5\nentropy = 0.722\nsamples = 10\nvalue = [8, 2]"] ;
345 -> 346 ;
347 [label="subpage_3 <= 0.5\nentropy = 0.503\nsamples = 9\nvalue = [8, 1]"] ;
346 -> 347 ;
348 [label="entropy = 0.0\nsamples = 7\nvalue = [7, 0]"] ;
347 -> 348 ;
349 [label="entropy = 1.0\nsamples = 2\nvalue = [1, 1]"] ;
347 -> 349 ;
350 [label="entropy = 0.0\nsamples = 1\nvalue = [0, 1]"] ;
346 -> 350 ;
351 [label="entropy = 0.0\nsamples = 1\nvalue = [0, 1]"] ;
345 -> 351 ;
352 [label="entropy = 0.0\nsamples = 1\nvalue = [0, 1]"] ;
340 -> 352 ;
353 [label="subpage_3 <= 0.5\nentropy = 0.702\nsamples = 21\nvalue = [17, 4]"] ;
339 -> 353 ;
354 [label="acumneg_3 <= 0.5\nentropy = 0.89\nsamples = 13\nvalue = [9, 4]"] ;
353 -> 354 ;
355 [label="homepage_2 <= 0.5\nentropy = 0.991\nsamples = 9\nvalue = [5, 4]"] ;
354 -> 355 ;
356 [label="acumneg_0 <= 0.5\nentropy = 0.863\nsamples = 7\nvalue = [5, 2]"] ;
355 -> 356 ;
357 [label="entropy = 0.0\nsamples = 4\nvalue = [4, 0]"] ;
356 -> 357 ;
358 [label="oucontent_2 <= 0.5\nentropy = 0.918\nsamples = 3\nvalue = [1, 2]"] ;
356 -> 358 ;
359 [label="entropy = 0.0\nsamples = 1\nvalue = [0, 1]"] ;
358 -> 359 ;
360 [label="entropy = 1.0\nsamples = 2\nvalue = [1, 1]"] ;
358 -> 360 ;
361 [label="entropy = 0.0\nsamples = 2\nvalue = [0, 2]"] ;
355 -> 361 ;
362 [label="entropy = 0.0\nsamples = 4\nvalue = [4, 0]"] ;
354 -> 362 ;
363 [label="entropy = 0.0\nsamples = 8\nvalue = [8, 0]"] ;
353 -> 363 ;
364 [label="quiz_1 <= 0.5\nentropy = 0.42\nsamples = 247\nvalue = [226, 21]"] ;
0 -> 364 [labeldistance=2.5, labelangle=-45, headlabel="False"] ;
365 [label="forumng_0 <= 0.5\nentropy = 0.136\nsamples = 210\nvalue = [206, 4]"] ;
364 -> 365 ;
366 [label="oucontent_0 <= 0.5\nentropy = 0.221\nsamples = 113\nvalue = [109, 4]"] ;
365 -> 366 ;
367 [label="entropy = 0.0\nsamples = 34\nvalue = [34, 0]"] ;
366 -> 367 ;
368 [label="forumng_1 <= 0.5\nentropy = 0.289\nsamples = 79\nvalue = [75, 4]"] ;
366 -> 368 ;
369 [label="acumneg_1 <= 0.5\nentropy = 0.567\nsamples = 15\nvalue = [13, 2]"] ;
368 -> 369 ;
370 [label="entropy = 0.0\nsamples = 10\nvalue = [10, 0]"] ;
369 -> 370 ;
371 [label="homepage_1 <= 0.5\nentropy = 0.971\nsamples = 5\nvalue = [3, 2]"] ;
369 -> 371 ;
372 [label="subpage_1 <= 0.5\nentropy = 0.811\nsamples = 4\nvalue = [3, 1]"] ;
371 -> 372 ;
373 [label="url_0 <= 0.5\nentropy = 0.918\nsamples = 3\nvalue = [2, 1]"] ;
372 -> 373 ;
374 [label="entropy = 1.0\nsamples = 2\nvalue = [1, 1]"] ;
373 -> 374 ;
375 [label="entropy = 0.0\nsamples = 1\nvalue = [1, 0]"] ;
373 -> 375 ;
376 [label="entropy = 0.0\nsamples = 1\nvalue = [1, 0]"] ;
372 -> 376 ;
377 [label="entropy = 0.0\nsamples = 1\nvalue = [0, 1]"] ;
371 -> 377 ;
378 [label="acumneg_0 <= 0.5\nentropy = 0.201\nsamples = 64\nvalue = [62, 2]"] ;
368 -> 378 ;
379 [label="entropy = 0.0\nsamples = 33\nvalue = [33, 0]"] ;
378 -> 379 ;
380 [label="subpage_0 <= 0.5\nentropy = 0.345\nsamples = 31\nvalue = [29, 2]"] ;
378 -> 380 ;
381 [label="entropy = 0.0\nsamples = 10\nvalue = [10, 0]"] ;
380 -> 381 ;
382 [label="resource_1 <= 0.5\nentropy = 0.454\nsamples = 21\nvalue = [19, 2]"] ;
380 -> 382 ;
383 [label="url_1 <= 0.5\nentropy = 0.337\nsamples = 16\nvalue = [15, 1]"] ;
382 -> 383 ;
384 [label="page_0 <= 0.5\nentropy = 0.65\nsamples = 6\nvalue = [5, 1]"] ;
383 -> 384 ;
385 [label="entropy = 0.0\nsamples = 1\nvalue = [1, 0]"] ;
384 -> 385 ;
386 [label="entropy = 0.722\nsamples = 5\nvalue = [4, 1]"] ;
384 -> 386 ;
387 [label="entropy = 0.0\nsamples = 10\nvalue = [10, 0]"] ;
383 -> 387 ;
388 [label="url_0 <= 0.5\nentropy = 0.722\nsamples = 5\nvalue = [4, 1]"] ;
382 -> 388 ;
389 [label="homepage_0 <= 0.5\nentropy = 0.811\nsamples = 4\nvalue = [3, 1]"] ;
388 -> 389 ;
390 [label="entropy = 0.0\nsamples = 1\nvalue = [1, 0]"] ;
389 -> 390 ;
391 [label="entropy = 0.918\nsamples = 3\nvalue = [2, 1]"] ;
389 -> 391 ;
392 [label="entropy = 0.0\nsamples = 1\nvalue = [1, 0]"] ;
388 -> 392 ;
393 [label="entropy = 0.0\nsamples = 97\nvalue = [97, 0]"] ;
365 -> 393 ;
394 [label="homepage_1 <= 0.5\nentropy = 0.995\nsamples = 37\nvalue = [20, 17]"] ;
364 -> 394 ;
395 [label="resource_0 <= 0.5\nentropy = 0.963\nsamples = 31\nvalue = [19, 12]"] ;
394 -> 395 ;
396 [label="forumng_1 <= 0.5\nentropy = 0.994\nsamples = 11\nvalue = [5, 6]"] ;
395 -> 396 ;
397 [label="entropy = 0.0\nsamples = 2\nvalue = [0, 2]"] ;
396 -> 397 ;
398 [label="acumneg_2 <= 0.5\nentropy = 0.991\nsamples = 9\nvalue = [5, 4]"] ;
396 -> 398 ;
399 [label="subpage_2 <= 0.5\nentropy = 1.0\nsamples = 8\nvalue = [4, 4]"] ;
398 -> 399 ;
400 [label="resource_2 <= 0.5\nentropy = 0.985\nsamples = 7\nvalue = [3, 4]"] ;
399 -> 400 ;
401 [label="ouelluminate <= 0.5\nentropy = 1.0\nsamples = 6\nvalue = [3, 3]"] ;
400 -> 401 ;
402 [label="acumneg_1 <= 0.5\nentropy = 0.971\nsamples = 5\nvalue = [3, 2]"] ;
401 -> 402 ;
403 [label="subpage_0 <= 0.5\nentropy = 1.0\nsamples = 4\nvalue = [2, 2]"] ;
402 -> 403 ;
404 [label="entropy = 0.918\nsamples = 3\nvalue = [2, 1]"] ;
403 -> 404 ;
405 [label="entropy = 0.0\nsamples = 1\nvalue = [0, 1]"] ;
403 -> 405 ;
406 [label="entropy = 0.0\nsamples = 1\nvalue = [1, 0]"] ;
402 -> 406 ;
407 [label="entropy = 0.0\nsamples = 1\nvalue = [0, 1]"] ;
401 -> 407 ;
408 [label="entropy = 0.0\nsamples = 1\nvalue = [0, 1]"] ;
400 -> 408 ;
409 [label="entropy = 0.0\nsamples = 1\nvalue = [1, 0]"] ;
399 -> 409 ;
410 [label="entropy = 0.0\nsamples = 1\nvalue = [1, 0]"] ;
398 -> 410 ;
411 [label="forumng_2 <= 0.5\nentropy = 0.881\nsamples = 20\nvalue = [14, 6]"] ;
395 -> 411 ;
412 [label="acumneg_0 <= 0.5\nentropy = 0.937\nsamples = 17\nvalue = [11, 6]"] ;
411 -> 412 ;
413 [label="forumng_1 <= 0.5\nentropy = 0.971\nsamples = 5\nvalue = [2, 3]"] ;
412 -> 413 ;
414 [label="entropy = 0.0\nsamples = 2\nvalue = [2, 0]"] ;
413 -> 414 ;
415 [label="entropy = 0.0\nsamples = 3\nvalue = [0, 3]"] ;
413 -> 415 ;
416 [label="url_2 <= 0.5\nentropy = 0.811\nsamples = 12\nvalue = [9, 3]"] ;
412 -> 416 ;
417 [label="forumng_1 <= 0.5\nentropy = 0.881\nsamples = 10\nvalue = [7, 3]"] ;
416 -> 417 ;
418 [label="url_1 <= 0.5\nentropy = 1.0\nsamples = 2\nvalue = [1, 1]"] ;
417 -> 418 ;
419 [label="entropy = 0.0\nsamples = 1\nvalue = [0, 1]"] ;
418 -> 419 ;
420 [label="entropy = 0.0\nsamples = 1\nvalue = [1, 0]"] ;
418 -> 420 ;
421 [label="subpage_1 <= 0.5\nentropy = 0.811\nsamples = 8\nvalue = [6, 2]"] ;
417 -> 421 ;
422 [label="url_0 <= 0.5\nentropy = 0.65\nsamples = 6\nvalue = [5, 1]"] ;
421 -> 422 ;
423 [label="entropy = 0.0\nsamples = 2\nvalue = [2, 0]"] ;
422 -> 423 ;
424 [label="entropy = 0.811\nsamples = 4\nvalue = [3, 1]"] ;
422 -> 424 ;
425 [label="url_1 <= 0.5\nentropy = 1.0\nsamples = 2\nvalue = [1, 1]"] ;
421 -> 425 ;
426 [label="entropy = 0.0\nsamples = 1\nvalue = [1, 0]"] ;
425 -> 426 ;
427 [label="entropy = 0.0\nsamples = 1\nvalue = [0, 1]"] ;
425 -> 427 ;
428 [label="entropy = 0.0\nsamples = 2\nvalue = [2, 0]"] ;
416 -> 428 ;
429 [label="entropy = 0.0\nsamples = 3\nvalue = [3, 0]"] ;
411 -> 429 ;
430 [label="subpage_0 <= 0.5\nentropy = 0.65\nsamples = 6\nvalue = [1, 5]"] ;
394 -> 430 ;
431 [label="resource_0 <= 0.5\nentropy = 0.918\nsamples = 3\nvalue = [1, 2]"] ;
430 -> 431 ;
432 [label="entropy = 0.0\nsamples = 2\nvalue = [0, 2]"] ;
431 -> 432 ;
433 [label="entropy = 0.0\nsamples = 1\nvalue = [1, 0]"] ;
431 -> 433 ;
434 [label="entropy = 0.0\nsamples = 3\nvalue = [0, 3]"] ;
430 -> 434 ;
}