digraph Tree {
node [shape=box] ;
0 [label="acumg_0 <= 0.5\nentropy = 1.0\nsamples = 3200\nvalue = [1622, 1578]"] ;
1 [label="acumg_1 <= 0.5\nentropy = 0.965\nsamples = 2535\nvalue = [990, 1545]"] ;
0 -> 1 [labeldistance=2.5, labelangle=45, headlabel="True"] ;
2 [label="acumg_4 <= 0.5\nentropy = 0.878\nsamples = 1875\nvalue = [557, 1318]"] ;
1 -> 2 ;
3 [label="page <= 0.5\nentropy = 0.951\nsamples = 1264\nvalue = [469, 795]"] ;
2 -> 3 ;
4 [label="quiz_0 <= 0.5\nentropy = 0.881\nsamples = 1032\nvalue = [309, 723]"] ;
3 -> 4 ;
5 [label="resource_0 <= 0.5\nentropy = 0.762\nsamples = 611\nvalue = [135, 476]"] ;
4 -> 5 ;
6 [label="oucontent_0 <= 0.5\nentropy = 0.66\nsamples = 491\nvalue = [84, 407]"] ;
5 -> 6 ;
7 [label="subpage_1 <= 0.5\nentropy = 0.619\nsamples = 462\nvalue = [71, 391]"] ;
6 -> 7 ;
8 [label="questionnaire <= 0.5\nentropy = 0.703\nsamples = 283\nvalue = [54, 229]"] ;
7 -> 8 ;
9 [label="subpage_0 <= 0.5\nentropy = 0.691\nsamples = 281\nvalue = [52, 229]"] ;
8 -> 9 ;
10 [label="homepage_1 <= 0.5\nentropy = 0.73\nsamples = 245\nvalue = [50, 195]"] ;
9 -> 10 ;
11 [label="forumng_0 <= 0.5\nentropy = 0.701\nsamples = 237\nvalue = [45, 192]"] ;
10 -> 11 ;
12 [label="acumneg_4 <= 0.5\nentropy = 0.675\nsamples = 231\nvalue = [41, 190]"] ;
11 -> 12 ;
13 [label="ouwiki_1 <= 0.5\nentropy = 0.618\nsamples = 189\nvalue = [29, 160]"] ;
12 -> 13 ;
14 [label="forumng_3 <= 0.5\nentropy = 0.657\nsamples = 171\nvalue = [29, 142]"] ;
13 -> 14 ;
15 [label="dualpane <= 0.5\nentropy = 0.516\nsamples = 104\nvalue = [12, 92]"] ;
14 -> 15 ;
16 [label="homepage_3 <= 0.5\nentropy = 0.463\nsamples = 102\nvalue = [10, 92]"] ;
15 -> 16 ;
17 [label="url_0 <= 0.5\nentropy = 0.604\nsamples = 61\nvalue = [9, 52]"] ;
16 -> 17 ;
18 [label="acumg_3 <= 0.5\nentropy = 0.433\nsamples = 45\nvalue = [4, 41]"] ;
17 -> 18 ;
19 [label="entropy = 0.0\nsamples = 19\nvalue = [0, 19]"] ;
18 -> 19 ;
20 [label="quiz_1 <= 0.5\nentropy = 0.619\nsamples = 26\nvalue = [4, 22]"] ;
18 -> 20 ;
21 [label="entropy = 0.0\nsamples = 8\nvalue = [0, 8]"] ;
20 -> 21 ;
22 [label="entropy = 0.764\nsamples = 18\nvalue = [4, 14]"] ;
20 -> 22 ;
23 [label="quiz_1 <= 0.5\nentropy = 0.896\nsamples = 16\nvalue = [5, 11]"] ;
17 -> 23 ;
24 [label="glossary <= 0.5\nentropy = 0.65\nsamples = 12\nvalue = [2, 10]"] ;
23 -> 24 ;
25 [label="entropy = 1.0\nsamples = 4\nvalue = [2, 2]"] ;
24 -> 25 ;
26 [label="entropy = 0.0\nsamples = 8\nvalue = [0, 8]"] ;
24 -> 26 ;
27 [label="acumneg_3 <= 0.5\nentropy = 0.811\nsamples = 4\nvalue = [3, 1]"] ;
23 -> 27 ;
28 [label="entropy = 0.0\nsamples = 3\nvalue = [3, 0]"] ;
27 -> 28 ;
29 [label="entropy = 0.0\nsamples = 1\nvalue = [0, 1]"] ;
27 -> 29 ;
30 [label="resource_4 <= 0.5\nentropy = 0.165\nsamples = 41\nvalue = [1, 40]"] ;
16 -> 30 ;
31 [label="entropy = 0.0\nsamples = 31\nvalue = [0, 31]"] ;
30 -> 31 ;
32 [label="quiz_1 <= 0.5\nentropy = 0.469\nsamples = 10\nvalue = [1, 9]"] ;
30 -> 32 ;
33 [label="url_0 <= 0.5\nentropy = 1.0\nsamples = 2\nvalue = [1, 1]"] ;
32 -> 33 ;
34 [label="entropy = 0.0\nsamples = 1\nvalue = [1, 0]"] ;
33 -> 34 ;
35 [label="entropy = 0.0\nsamples = 1\nvalue = [0, 1]"] ;
33 -> 35 ;
36 [label="entropy = 0.0\nsamples = 8\nvalue = [0, 8]"] ;
32 -> 36 ;
37 [label="entropy = 0.0\nsamples = 2\nvalue = [2, 0]"] ;
15 -> 37 ;
38 [label="acumneg_0 <= 0.5\nentropy = 0.817\nsamples = 67\nvalue = [17, 50]"] ;
14 -> 38 ;
39 [label="subpage_2 <= 0.5\nentropy = 0.899\nsamples = 54\nvalue = [17, 37]"] ;
38 -> 39 ;
40 [label="acumg_2 <= 0.5\nentropy = 0.998\nsamples = 19\nvalue = [10, 9]"] ;
39 -> 40 ;
41 [label="acumneg_3 <= 0.5\nentropy = 0.592\nsamples = 7\nvalue = [6, 1]"] ;
40 -> 41 ;
42 [label="subpage_3 <= 0.5\nentropy = 1.0\nsamples = 2\nvalue = [1, 1]"] ;
41 -> 42 ;
43 [label="entropy = 0.0\nsamples = 1\nvalue = [0, 1]"] ;
42 -> 43 ;
44 [label="entropy = 0.0\nsamples = 1\nvalue = [1, 0]"] ;
42 -> 44 ;
45 [label="entropy = 0.0\nsamples = 5\nvalue = [5, 0]"] ;
41 -> 45 ;
46 [label="resource_3 <= 0.5\nentropy = 0.918\nsamples = 12\nvalue = [4, 8]"] ;
40 -> 46 ;
47 [label="acumneg_1 <= 0.5\nentropy = 0.544\nsamples = 8\nvalue = [1, 7]"] ;
46 -> 47 ;
48 [label="entropy = 0.0\nsamples = 7\nvalue = [0, 7]"] ;
47 -> 48 ;
49 [label="entropy = 0.0\nsamples = 1\nvalue = [1, 0]"] ;
47 -> 49 ;
50 [label="quiz_2 <= 0.5\nentropy = 0.811\nsamples = 4\nvalue = [3, 1]"] ;
46 -> 50 ;
51 [label="entropy = 0.0\nsamples = 3\nvalue = [3, 0]"] ;
50 -> 51 ;
52 [label="entropy = 0.0\nsamples = 1\nvalue = [0, 1]"] ;
50 -> 52 ;
53 [label="url_2 <= 0.5\nentropy = 0.722\nsamples = 35\nvalue = [7, 28]"] ;
39 -> 53 ;
54 [label="acumneg_1 <= 0.5\nentropy = 0.637\nsamples = 31\nvalue = [5, 26]"] ;
53 -> 54 ;
55 [label="resource_2 <= 0.5\nentropy = 0.439\nsamples = 22\nvalue = [2, 20]"] ;
54 -> 55 ;
56 [label="entropy = 0.764\nsamples = 9\nvalue = [2, 7]"] ;
55 -> 56 ;
57 [label="entropy = 0.0\nsamples = 13\nvalue = [0, 13]"] ;
55 -> 57 ;
58 [label="homepage_2 <= 0.5\nentropy = 0.918\nsamples = 9\nvalue = [3, 6]"] ;
54 -> 58 ;
59 [label="entropy = 1.0\nsamples = 6\nvalue = [3, 3]"] ;
58 -> 59 ;
60 [label="entropy = 0.0\nsamples = 3\nvalue = [0, 3]"] ;
58 -> 60 ;
61 [label="acumneg_3 <= 0.5\nentropy = 1.0\nsamples = 4\nvalue = [2, 2]"] ;
53 -> 61 ;
62 [label="entropy = 0.918\nsamples = 3\nvalue = [2, 1]"] ;
61 -> 62 ;
63 [label="entropy = 0.0\nsamples = 1\nvalue = [0, 1]"] ;
61 -> 63 ;
64 [label="entropy = 0.0\nsamples = 13\nvalue = [0, 13]"] ;
38 -> 64 ;
65 [label="entropy = 0.0\nsamples = 18\nvalue = [0, 18]"] ;
13 -> 65 ;
66 [label="glossary <= 0.5\nentropy = 0.863\nsamples = 42\nvalue = [12, 30]"] ;
12 -> 66 ;
67 [label="ouwiki_0 <= 0.5\nentropy = 1.0\nsamples = 24\nvalue = [12, 12]"] ;
66 -> 67 ;
68 [label="resource_3 <= 0.5\nentropy = 0.722\nsamples = 10\nvalue = [2, 8]"] ;
67 -> 68 ;
69 [label="entropy = 0.0\nsamples = 8\nvalue = [0, 8]"] ;
68 -> 69 ;
70 [label="entropy = 0.0\nsamples = 2\nvalue = [2, 0]"] ;
68 -> 70 ;
71 [label="dualpane <= 0.5\nentropy = 0.863\nsamples = 14\nvalue = [10, 4]"] ;
67 -> 71 ;
72 [label="resource_2 <= 0.5\nentropy = 0.985\nsamples = 7\nvalue = [3, 4]"] ;
71 -> 72 ;
73 [label="quiz_2 <= 0.5\nentropy = 0.722\nsamples = 5\nvalue = [1, 4]"] ;
72 -> 73 ;
74 [label="entropy = 0.0\nsamples = 4\nvalue = [0, 4]"] ;
73 -> 74 ;
75 [label="entropy = 0.0\nsamples = 1\nvalue = [1, 0]"] ;
73 -> 75 ;
76 [label="entropy = 0.0\nsamples = 2\nvalue = [2, 0]"] ;
72 -> 76 ;
77 [label="entropy = 0.0\nsamples = 7\nvalue = [7, 0]"] ;
71 -> 77 ;
78 [label="entropy = 0.0\nsamples = 18\nvalue = [0, 18]"] ;
66 -> 78 ;
79 [label="resource_4 <= 0.5\nentropy = 0.918\nsamples = 6\nvalue = [4, 2]"] ;
11 -> 79 ;
80 [label="entropy = 0.0\nsamples = 1\nvalue = [0, 1]"] ;
79 -> 80 ;
81 [label="homepage_3 <= 0.5\nentropy = 0.722\nsamples = 5\nvalue = [4, 1]"] ;
79 -> 81 ;
82 [label="entropy = 0.0\nsamples = 3\nvalue = [3, 0]"] ;
81 -> 82 ;
83 [label="acumneg_3 <= 0.5\nentropy = 1.0\nsamples = 2\nvalue = [1, 1]"] ;
81 -> 83 ;
84 [label="entropy = 0.0\nsamples = 1\nvalue = [1, 0]"] ;
83 -> 84 ;
85 [label="entropy = 0.0\nsamples = 1\nvalue = [0, 1]"] ;
83 -> 85 ;
86 [label="quiz_3 <= 0.5\nentropy = 0.954\nsamples = 8\nvalue = [5, 3]"] ;
10 -> 86 ;
87 [label="forumng_4 <= 0.5\nentropy = 0.65\nsamples = 6\nvalue = [5, 1]"] ;
86 -> 87 ;
88 [label="entropy = 0.0\nsamples = 5\nvalue = [5, 0]"] ;
87 -> 88 ;
89 [label="entropy = 0.0\nsamples = 1\nvalue = [0, 1]"] ;
87 -> 89 ;
90 [label="entropy = 0.0\nsamples = 2\nvalue = [0, 2]"] ;
86 -> 90 ;
91 [label="url_3 <= 0.5\nentropy = 0.31\nsamples = 36\nvalue = [2, 34]"] ;
9 -> 91 ;
92 [label="entropy = 0.0\nsamples = 31\nvalue = [0, 31]"] ;
91 -> 92 ;
93 [label="forumng_1 <= 0.5\nentropy = 0.971\nsamples = 5\nvalue = [2, 3]"] ;
91 -> 93 ;
94 [label="entropy = 0.0\nsamples = 3\nvalue = [0, 3]"] ;
93 -> 94 ;
95 [label="entropy = 0.0\nsamples = 2\nvalue = [2, 0]"] ;
93 -> 95 ;
96 [label="entropy = 0.0\nsamples = 2\nvalue = [2, 0]"] ;
8 -> 96 ;
97 [label="oucontent_2 <= 0.5\nentropy = 0.453\nsamples = 179\nvalue = [17, 162]"] ;
7 -> 97 ;
98 [label="dualpane <= 0.5\nentropy = 0.35\nsamples = 152\nvalue = [10, 142]"] ;
97 -> 98 ;
99 [label="homepage_2 <= 0.5\nentropy = 0.221\nsamples = 113\nvalue = [4, 109]"] ;
98 -> 99 ;
100 [label="entropy = 0.0\nsamples = 59\nvalue = [0, 59]"] ;
99 -> 100 ;
101 [label="glossary <= 0.5\nentropy = 0.381\nsamples = 54\nvalue = [4, 50]"] ;
99 -> 101 ;
102 [label="entropy = 0.0\nsamples = 22\nvalue = [0, 22]"] ;
101 -> 102 ;
103 [label="forumng_3 <= 0.5\nentropy = 0.544\nsamples = 32\nvalue = [4, 28]"] ;
101 -> 103 ;
104 [label="quiz_1 <= 0.5\nentropy = 0.702\nsamples = 21\nvalue = [4, 17]"] ;
103 -> 104 ;
105 [label="forumng_0 <= 0.5\nentropy = 0.787\nsamples = 17\nvalue = [4, 13]"] ;
104 -> 105 ;
106 [label="acumg_3 <= 0.5\nentropy = 0.863\nsamples = 14\nvalue = [4, 10]"] ;
105 -> 106 ;
107 [label="acumneg_3 <= 0.5\nentropy = 0.918\nsamples = 12\nvalue = [4, 8]"] ;
106 -> 107 ;
108 [label="resource_1 <= 0.5\nentropy = 0.946\nsamples = 11\nvalue = [4, 7]"] ;
107 -> 108 ;
109 [label="resource_3 <= 0.5\nentropy = 0.881\nsamples = 10\nvalue = [3, 7]"] ;
108 -> 109 ;
110 [label="forumng_1 <= 0.5\nentropy = 0.971\nsamples = 5\nvalue = [2, 3]"] ;
109 -> 110 ;
111 [label="entropy = 0.918\nsamples = 3\nvalue = [1, 2]"] ;
110 -> 111 ;
112 [label="entropy = 1.0\nsamples = 2\nvalue = [1, 1]"] ;
110 -> 112 ;
113 [label="forumng_1 <= 0.5\nentropy = 0.722\nsamples = 5\nvalue = [1, 4]"] ;
109 -> 113 ;
114 [label="entropy = 0.918\nsamples = 3\nvalue = [1, 2]"] ;
113 -> 114 ;
115 [label="entropy = 0.0\nsamples = 2\nvalue = [0, 2]"] ;
113 -> 115 ;
116 [label="entropy = 0.0\nsamples = 1\nvalue = [1, 0]"] ;
108 -> 116 ;
117 [label="entropy = 0.0\nsamples = 1\nvalue = [0, 1]"] ;
107 -> 117 ;
118 [label="entropy = 0.0\nsamples = 2\nvalue = [0, 2]"] ;
106 -> 118 ;
119 [label="entropy = 0.0\nsamples = 3\nvalue = [0, 3]"] ;
105 -> 119 ;
120 [label="entropy = 0.0\nsamples = 4\nvalue = [0, 4]"] ;
104 -> 120 ;
121 [label="entropy = 0.0\nsamples = 11\nvalue = [0, 11]"] ;
103 -> 121 ;
122 [label="homepage_3 <= 0.5\nentropy = 0.619\nsamples = 39\nvalue = [6, 33]"] ;
98 -> 122 ;
123 [label="entropy = 0.0\nsamples = 18\nvalue = [0, 18]"] ;
122 -> 123 ;
124 [label="oucontent_4 <= 0.5\nentropy = 0.863\nsamples = 21\nvalue = [6, 15]"] ;
122 -> 124 ;
125 [label="resource_2 <= 0.5\nentropy = 0.991\nsamples = 9\nvalue = [5, 4]"] ;
124 -> 125 ;
126 [label="acumneg_3 <= 0.5\nentropy = 0.863\nsamples = 7\nvalue = [5, 2]"] ;
125 -> 126 ;
127 [label="entropy = 0.0\nsamples = 5\nvalue = [5, 0]"] ;
126 -> 127 ;
128 [label="entropy = 0.0\nsamples = 2\nvalue = [0, 2]"] ;
126 -> 128 ;
129 [label="entropy = 0.0\nsamples = 2\nvalue = [0, 2]"] ;
125 -> 129 ;
130 [label="forumng_4 <= 0.5\nentropy = 0.414\nsamples = 12\nvalue = [1, 11]"] ;
124 -> 130 ;
131 [label="entropy = 0.0\nsamples = 11\nvalue = [0, 11]"] ;
130 -> 131 ;
132 [label="entropy = 0.0\nsamples = 1\nvalue = [1, 0]"] ;
130 -> 132 ;
133 [label="acumneg_1 <= 0.5\nentropy = 0.826\nsamples = 27\nvalue = [7, 20]"] ;
97 -> 133 ;
134 [label="forumng_1 <= 0.5\nentropy = 0.964\nsamples = 18\nvalue = [7, 11]"] ;
133 -> 134 ;
135 [label="homepage_1 <= 0.5\nentropy = 0.75\nsamples = 14\nvalue = [3, 11]"] ;
134 -> 135 ;
136 [label="acumneg_4 <= 0.5\nentropy = 0.619\nsamples = 13\nvalue = [2, 11]"] ;
135 -> 136 ;
137 [label="acumneg_0 <= 0.5\nentropy = 0.414\nsamples = 12\nvalue = [1, 11]"] ;
136 -> 137 ;
138 [label="entropy = 0.0\nsamples = 10\nvalue = [0, 10]"] ;
137 -> 138 ;
139 [label="resource_1 <= 0.5\nentropy = 1.0\nsamples = 2\nvalue = [1, 1]"] ;
137 -> 139 ;
140 [label="entropy = 0.0\nsamples = 1\nvalue = [0, 1]"] ;
139 -> 140 ;
141 [label="entropy = 0.0\nsamples = 1\nvalue = [1, 0]"] ;
139 -> 141 ;
142 [label="entropy = 0.0\nsamples = 1\nvalue = [1, 0]"] ;
136 -> 142 ;
143 [label="entropy = 0.0\nsamples = 1\nvalue = [1, 0]"] ;
135 -> 143 ;
144 [label="entropy = 0.0\nsamples = 4\nvalue = [4, 0]"] ;
134 -> 144 ;
145 [label="entropy = 0.0\nsamples = 9\nvalue = [0, 9]"] ;
133 -> 145 ;
146 [label="acumg_3 <= 0.5\nentropy = 0.992\nsamples = 29\nvalue = [13, 16]"] ;
6 -> 146 ;
147 [label="acumneg_0 <= 0.5\nentropy = 0.988\nsamples = 23\nvalue = [13, 10]"] ;
146 -> 147 ;
148 [label="forumng_4 <= 0.5\nentropy = 0.811\nsamples = 16\nvalue = [12, 4]"] ;
147 -> 148 ;
149 [label="resource_1 <= 0.5\nentropy = 0.89\nsamples = 13\nvalue = [9, 4]"] ;
148 -> 149 ;
150 [label="acumneg_2 <= 0.5\nentropy = 0.684\nsamples = 11\nvalue = [9, 2]"] ;
149 -> 150 ;
151 [label="entropy = 0.0\nsamples = 6\nvalue = [6, 0]"] ;
150 -> 151 ;
152 [label="url_3 <= 0.5\nentropy = 0.971\nsamples = 5\nvalue = [3, 2]"] ;
150 -> 152 ;
153 [label="subpage_3 <= 0.5\nentropy = 0.918\nsamples = 3\nvalue = [1, 2]"] ;
152 -> 153 ;
154 [label="entropy = 1.0\nsamples = 2\nvalue = [1, 1]"] ;
153 -> 154 ;
155 [label="entropy = 0.0\nsamples = 1\nvalue = [0, 1]"] ;
153 -> 155 ;
156 [label="entropy = 0.0\nsamples = 2\nvalue = [2, 0]"] ;
152 -> 156 ;
157 [label="entropy = 0.0\nsamples = 2\nvalue = [0, 2]"] ;
149 -> 157 ;
158 [label="entropy = 0.0\nsamples = 3\nvalue = [3, 0]"] ;
148 -> 158 ;
159 [label="homepage_1 <= 0.5\nentropy = 0.592\nsamples = 7\nvalue = [1, 6]"] ;
147 -> 159 ;
160 [label="entropy = 0.0\nsamples = 6\nvalue = [0, 6]"] ;
159 -> 160 ;
161 [label="entropy = 0.0\nsamples = 1\nvalue = [1, 0]"] ;
159 -> 161 ;
162 [label="entropy = 0.0\nsamples = 6\nvalue = [0, 6]"] ;
146 -> 162 ;
163 [label="ouwiki_0 <= 0.5\nentropy = 0.984\nsamples = 120\nvalue = [51, 69]"] ;
5 -> 163 ;
164 [label="acumneg_1 <= 0.5\nentropy = 0.736\nsamples = 58\nvalue = [12, 46]"] ;
163 -> 164 ;
165 [label="url_2 <= 0.5\nentropy = 0.803\nsamples = 49\nvalue = [12, 37]"] ;
164 -> 165 ;
166 [label="homepage_1 <= 0.5\nentropy = 0.755\nsamples = 46\nvalue = [10, 36]"] ;
165 -> 166 ;
167 [label="acumg_3 <= 0.5\nentropy = 0.821\nsamples = 39\nvalue = [10, 29]"] ;
166 -> 167 ;
168 [label="acumneg_2 <= 0.5\nentropy = 1.0\nsamples = 10\nvalue = [5, 5]"] ;
167 -> 168 ;
169 [label="subpage_0 <= 0.5\nentropy = 0.863\nsamples = 7\nvalue = [2, 5]"] ;
168 -> 169 ;
170 [label="entropy = 0.0\nsamples = 4\nvalue = [0, 4]"] ;
169 -> 170 ;
171 [label="quiz_2 <= 0.5\nentropy = 0.918\nsamples = 3\nvalue = [2, 1]"] ;
169 -> 171 ;
172 [label="forumng_1 <= 0.5\nentropy = 1.0\nsamples = 2\nvalue = [1, 1]"] ;
171 -> 172 ;
173 [label="entropy = 0.0\nsamples = 1\nvalue = [0, 1]"] ;
172 -> 173 ;
174 [label="entropy = 0.0\nsamples = 1\nvalue = [1, 0]"] ;
172 -> 174 ;
175 [label="entropy = 0.0\nsamples = 1\nvalue = [1, 0]"] ;
171 -> 175 ;
176 [label="entropy = 0.0\nsamples = 3\nvalue = [3, 0]"] ;
168 -> 176 ;
177 [label="homepage_3 <= 0.5\nentropy = 0.663\nsamples = 29\nvalue = [5, 24]"] ;
167 -> 177 ;
178 [label="entropy = 0.0\nsamples = 12\nvalue = [0, 12]"] ;
177 -> 178 ;
179 [label="forumng_2 <= 0.5\nentropy = 0.874\nsamples = 17\nvalue = [5, 12]"] ;
177 -> 179 ;
180 [label="subpage_2 <= 0.5\nentropy = 0.961\nsamples = 13\nvalue = [5, 8]"] ;
179 -> 180 ;
181 [label="acumneg_2 <= 0.5\nentropy = 0.845\nsamples = 11\nvalue = [3, 8]"] ;
180 -> 181 ;
182 [label="oucollaborate_0 <= 0.5\nentropy = 0.954\nsamples = 8\nvalue = [3, 5]"] ;
181 -> 182 ;
183 [label="entropy = 0.0\nsamples = 2\nvalue = [0, 2]"] ;
182 -> 183 ;
184 [label="quiz_1 <= 0.5\nentropy = 1.0\nsamples = 6\nvalue = [3, 3]"] ;
182 -> 184 ;
185 [label="subpage_1 <= 0.5\nentropy = 0.811\nsamples = 4\nvalue = [1, 3]"] ;
184 -> 185 ;
186 [label="acumneg_4 <= 0.5\nentropy = 1.0\nsamples = 2\nvalue = [1, 1]"] ;
185 -> 186 ;
187 [label="entropy = 0.0\nsamples = 1\nvalue = [1, 0]"] ;
186 -> 187 ;
188 [label="entropy = 0.0\nsamples = 1\nvalue = [0, 1]"] ;
186 -> 188 ;
189 [label="entropy = 0.0\nsamples = 2\nvalue = [0, 2]"] ;
185 -> 189 ;
190 [label="entropy = 0.0\nsamples = 2\nvalue = [2, 0]"] ;
184 -> 190 ;
191 [label="entropy = 0.0\nsamples = 3\nvalue = [0, 3]"] ;
181 -> 191 ;
192 [label="entropy = 0.0\nsamples = 2\nvalue = [2, 0]"] ;
180 -> 192 ;
193 [label="entropy = 0.0\nsamples = 4\nvalue = [0, 4]"] ;
179 -> 193 ;
194 [label="entropy = 0.0\nsamples = 7\nvalue = [0, 7]"] ;
166 -> 194 ;
195 [label="homepage_1 <= 0.5\nentropy = 0.918\nsamples = 3\nvalue = [2, 1]"] ;
165 -> 195 ;
196 [label="entropy = 0.0\nsamples = 1\nvalue = [0, 1]"] ;
195 -> 196 ;
197 [label="entropy = 0.0\nsamples = 2\nvalue = [2, 0]"] ;
195 -> 197 ;
198 [label="entropy = 0.0\nsamples = 9\nvalue = [0, 9]"] ;
164 -> 198 ;
199 [label="dualpane <= 0.5\nentropy = 0.951\nsamples = 62\nvalue = [39, 23]"] ;
163 -> 199 ;
200 [label="forumng_4 <= 0.5\nentropy = 0.904\nsamples = 25\nvalue = [8, 17]"] ;
199 -> 200 ;
201 [label="entropy = 0.0\nsamples = 13\nvalue = [0, 13]"] ;
200 -> 201 ;
202 [label="acumneg_2 <= 0.5\nentropy = 0.918\nsamples = 12\nvalue = [8, 4]"] ;
200 -> 202 ;
203 [label="subpage_0 <= 0.5\nentropy = 0.503\nsamples = 9\nvalue = [8, 1]"] ;
202 -> 203 ;
204 [label="quiz_2 <= 0.5\nentropy = 0.722\nsamples = 5\nvalue = [4, 1]"] ;
203 -> 204 ;
205 [label="entropy = 0.0\nsamples = 4\nvalue = [4, 0]"] ;
204 -> 205 ;
206 [label="entropy = 0.0\nsamples = 1\nvalue = [0, 1]"] ;
204 -> 206 ;
207 [label="entropy = 0.0\nsamples = 4\nvalue = [4, 0]"] ;
203 -> 207 ;
208 [label="entropy = 0.0\nsamples = 3\nvalue = [0, 3]"] ;
202 -> 208 ;
209 [label="homepage_2 <= 0.5\nentropy = 0.639\nsamples = 37\nvalue = [31, 6]"] ;
199 -> 209 ;
210 [label="oucontent_2 <= 0.5\nentropy = 0.863\nsamples = 21\nvalue = [15, 6]"] ;
209 -> 210 ;
211 [label="url_4 <= 0.5\nentropy = 0.65\nsamples = 18\nvalue = [15, 3]"] ;
210 -> 211 ;
212 [label="forumng_1 <= 0.5\nentropy = 0.353\nsamples = 15\nvalue = [14, 1]"] ;
211 -> 212 ;
213 [label="entropy = 0.0\nsamples = 12\nvalue = [12, 0]"] ;
212 -> 213 ;
214 [label="acumneg_0 <= 0.5\nentropy = 0.918\nsamples = 3\nvalue = [2, 1]"] ;
212 -> 214 ;
215 [label="entropy = 0.0\nsamples = 2\nvalue = [2, 0]"] ;
214 -> 215 ;
216 [label="entropy = 0.0\nsamples = 1\nvalue = [0, 1]"] ;
214 -> 216 ;
217 [label="forumng_0 <= 0.5\nentropy = 0.918\nsamples = 3\nvalue = [1, 2]"] ;
211 -> 217 ;
218 [label="entropy = 0.0\nsamples = 2\nvalue = [0, 2]"] ;
217 -> 218 ;
219 [label="entropy = 0.0\nsamples = 1\nvalue = [1, 0]"] ;
217 -> 219 ;
220 [label="entropy = 0.0\nsamples = 3\nvalue = [0, 3]"] ;
210 -> 220 ;
221 [label="entropy = 0.0\nsamples = 16\nvalue = [16, 0]"] ;
209 -> 221 ;
222 [label="forumng_4 <= 0.5\nentropy = 0.978\nsamples = 421\nvalue = [174, 247]"] ;
4 -> 222 ;
223 [label="homepage_4 <= 0.5\nentropy = 0.996\nsamples = 327\nvalue = [152, 175]"] ;
222 -> 223 ;
224 [label="resource_1 <= 0.5\nentropy = 1.0\nsamples = 297\nvalue = [145, 152]"] ;
223 -> 224 ;
225 [label="oucollaborate_0 <= 0.5\nentropy = 0.999\nsamples = 236\nvalue = [123, 113]"] ;
224 -> 225 ;
226 [label="glossary <= 0.5\nentropy = 0.975\nsamples = 108\nvalue = [44, 64]"] ;
225 -> 226 ;
227 [label="url_2 <= 0.5\nentropy = 1.0\nsamples = 88\nvalue = [43, 45]"] ;
226 -> 227 ;
228 [label="url_0 <= 0.5\nentropy = 0.965\nsamples = 59\nvalue = [23, 36]"] ;
227 -> 228 ;
229 [label="resource_2 <= 0.5\nentropy = 0.984\nsamples = 54\nvalue = [23, 31]"] ;
228 -> 229 ;
230 [label="ouwiki_0 <= 0.5\nentropy = 0.993\nsamples = 51\nvalue = [23, 28]"] ;
229 -> 230 ;
231 [label="acumneg_1 <= 0.5\nentropy = 1.0\nsamples = 44\nvalue = [22, 22]"] ;
230 -> 231 ;
232 [label="acumneg_0 <= 0.5\nentropy = 0.982\nsamples = 38\nvalue = [16, 22]"] ;
231 -> 232 ;
233 [label="oucontent_3 <= 0.5\nentropy = 0.991\nsamples = 36\nvalue = [16, 20]"] ;
232 -> 233 ;
234 [label="acumg_2 <= 0.5\nentropy = 0.918\nsamples = 21\nvalue = [7, 14]"] ;
233 -> 234 ;
235 [label="homepage_2 <= 0.5\nentropy = 0.881\nsamples = 10\nvalue = [7, 3]"] ;
234 -> 235 ;
236 [label="acumneg_2 <= 0.5\nentropy = 0.764\nsamples = 9\nvalue = [7, 2]"] ;
235 -> 236 ;
237 [label="entropy = 0.918\nsamples = 6\nvalue = [4, 2]"] ;
236 -> 237 ;
238 [label="entropy = 0.0\nsamples = 3\nvalue = [3, 0]"] ;
236 -> 238 ;
239 [label="entropy = 0.0\nsamples = 1\nvalue = [0, 1]"] ;
235 -> 239 ;
240 [label="entropy = 0.0\nsamples = 11\nvalue = [0, 11]"] ;
234 -> 240 ;
241 [label="resource_3 <= 0.5\nentropy = 0.971\nsamples = 15\nvalue = [9, 6]"] ;
233 -> 241 ;
242 [label="acumg_3 <= 0.5\nentropy = 0.971\nsamples = 10\nvalue = [4, 6]"] ;
241 -> 242 ;
243 [label="subpage_3 <= 0.5\nentropy = 0.811\nsamples = 4\nvalue = [3, 1]"] ;
242 -> 243 ;
244 [label="entropy = 0.0\nsamples = 1\nvalue = [1, 0]"] ;
243 -> 244 ;
245 [label="entropy = 0.918\nsamples = 3\nvalue = [2, 1]"] ;
243 -> 245 ;
246 [label="url_4 <= 0.5\nentropy = 0.65\nsamples = 6\nvalue = [1, 5]"] ;
242 -> 246 ;
247 [label="entropy = 0.0\nsamples = 3\nvalue = [0, 3]"] ;
246 -> 247 ;
248 [label="entropy = 0.918\nsamples = 3\nvalue = [1, 2]"] ;
246 -> 248 ;
249 [label="entropy = 0.0\nsamples = 5\nvalue = [5, 0]"] ;
241 -> 249 ;
250 [label="entropy = 0.0\nsamples = 2\nvalue = [0, 2]"] ;
232 -> 250 ;
251 [label="entropy = 0.0\nsamples = 6\nvalue = [6, 0]"] ;
231 -> 251 ;
252 [label="forumng_3 <= 0.5\nentropy = 0.592\nsamples = 7\nvalue = [1, 6]"] ;
230 -> 252 ;
253 [label="entropy = 0.0\nsamples = 5\nvalue = [0, 5]"] ;
252 -> 253 ;
254 [label="subpage_4 <= 0.5\nentropy = 1.0\nsamples = 2\nvalue = [1, 1]"] ;
252 -> 254 ;
255 [label="entropy = 0.0\nsamples = 1\nvalue = [1, 0]"] ;
254 -> 255 ;
256 [label="entropy = 0.0\nsamples = 1\nvalue = [0, 1]"] ;
254 -> 256 ;
257 [label="entropy = 0.0\nsamples = 3\nvalue = [0, 3]"] ;
229 -> 257 ;
258 [label="entropy = 0.0\nsamples = 5\nvalue = [0, 5]"] ;
228 -> 258 ;
259 [label="oucontent_3 <= 0.5\nentropy = 0.894\nsamples = 29\nvalue = [20, 9]"] ;
227 -> 259 ;
260 [label="homepage_1 <= 0.5\nentropy = 0.629\nsamples = 19\nvalue = [16, 3]"] ;
259 -> 260 ;
261 [label="resource_4 <= 0.5\nentropy = 0.503\nsamples = 18\nvalue = [16, 2]"] ;
260 -> 261 ;
262 [label="entropy = 0.0\nsamples = 13\nvalue = [13, 0]"] ;
261 -> 262 ;
263 [label="subpage_4 <= 0.5\nentropy = 0.971\nsamples = 5\nvalue = [3, 2]"] ;
261 -> 263 ;
264 [label="entropy = 0.0\nsamples = 1\nvalue = [0, 1]"] ;
263 -> 264 ;
265 [label="acumneg_4 <= 0.5\nentropy = 0.811\nsamples = 4\nvalue = [3, 1]"] ;
263 -> 265 ;
266 [label="entropy = 0.0\nsamples = 3\nvalue = [3, 0]"] ;
265 -> 266 ;
267 [label="entropy = 0.0\nsamples = 1\nvalue = [0, 1]"] ;
265 -> 267 ;
268 [label="entropy = 0.0\nsamples = 1\nvalue = [0, 1]"] ;
260 -> 268 ;
269 [label="acumneg_2 <= 0.5\nentropy = 0.971\nsamples = 10\nvalue = [4, 6]"] ;
259 -> 269 ;
270 [label="subpage_2 <= 0.5\nentropy = 0.65\nsamples = 6\nvalue = [1, 5]"] ;
269 -> 270 ;
271 [label="entropy = 0.0\nsamples = 5\nvalue = [0, 5]"] ;
270 -> 271 ;
272 [label="entropy = 0.0\nsamples = 1\nvalue = [1, 0]"] ;
270 -> 272 ;
273 [label="subpage_3 <= 0.5\nentropy = 0.811\nsamples = 4\nvalue = [3, 1]"] ;
269 -> 273 ;
274 [label="forumng_3 <= 0.5\nentropy = 1.0\nsamples = 2\nvalue = [1, 1]"] ;
273 -> 274 ;
275 [label="entropy = 0.0\nsamples = 1\nvalue = [0, 1]"] ;
274 -> 275 ;
276 [label="entropy = 0.0\nsamples = 1\nvalue = [1, 0]"] ;
274 -> 276 ;
277 [label="entropy = 0.0\nsamples = 2\nvalue = [2, 0]"] ;
273 -> 277 ;
278 [label="acumg_3 <= 0.5\nentropy = 0.286\nsamples = 20\nvalue = [1, 19]"] ;
226 -> 278 ;
279 [label="entropy = 0.0\nsamples = 13\nvalue = [0, 13]"] ;
278 -> 279 ;
280 [label="acumneg_3 <= 0.5\nentropy = 0.592\nsamples = 7\nvalue = [1, 6]"] ;
278 -> 280 ;
281 [label="entropy = 0.0\nsamples = 4\nvalue = [0, 4]"] ;
280 -> 281 ;
282 [label="url_4 <= 0.5\nentropy = 0.918\nsamples = 3\nvalue = [1, 2]"] ;
280 -> 282 ;
283 [label="entropy = 1.0\nsamples = 2\nvalue = [1, 1]"] ;
282 -> 283 ;
284 [label="entropy = 0.0\nsamples = 1\nvalue = [0, 1]"] ;
282 -> 284 ;
285 [label="url_1 <= 0.5\nentropy = 0.96\nsamples = 128\nvalue = [79, 49]"] ;
225 -> 285 ;
286 [label="homepage_1 <= 0.5\nentropy = 0.93\nsamples = 110\nvalue = [72, 38]"] ;
285 -> 286 ;
287 [label="acumneg_2 <= 0.5\nentropy = 0.955\nsamples = 101\nvalue = [63, 38]"] ;
286 -> 287 ;
288 [label="oucontent_1 <= 0.5\nentropy = 0.991\nsamples = 72\nvalue = [40, 32]"] ;
287 -> 288 ;
289 [label="url_4 <= 0.5\nentropy = 0.977\nsamples = 68\nvalue = [40, 28]"] ;
288 -> 289 ;
290 [label="acumneg_1 <= 0.5\nentropy = 0.912\nsamples = 52\nvalue = [35, 17]"] ;
289 -> 290 ;
291 [label="homepage_2 <= 0.5\nentropy = 0.938\nsamples = 48\nvalue = [31, 17]"] ;
290 -> 291 ;
292 [label="acumg_3 <= 0.5\nentropy = 0.999\nsamples = 23\nvalue = [12, 11]"] ;
291 -> 292 ;
293 [label="subpage_2 <= 0.5\nentropy = 0.937\nsamples = 17\nvalue = [6, 11]"] ;
292 -> 293 ;
294 [label="resource_2 <= 0.5\nentropy = 0.65\nsamples = 12\nvalue = [2, 10]"] ;
293 -> 294 ;
295 [label="glossary <= 0.5\nentropy = 0.439\nsamples = 11\nvalue = [1, 10]"] ;
294 -> 295 ;
296 [label="entropy = 0.0\nsamples = 7\nvalue = [0, 7]"] ;
295 -> 296 ;
297 [label="entropy = 0.811\nsamples = 4\nvalue = [1, 3]"] ;
295 -> 297 ;
298 [label="entropy = 0.0\nsamples = 1\nvalue = [1, 0]"] ;
294 -> 298 ;
299 [label="resource_3 <= 0.5\nentropy = 0.722\nsamples = 5\nvalue = [4, 1]"] ;
293 -> 299 ;
300 [label="entropy = 0.0\nsamples = 1\nvalue = [0, 1]"] ;
299 -> 300 ;
301 [label="entropy = 0.0\nsamples = 4\nvalue = [4, 0]"] ;
299 -> 301 ;
302 [label="entropy = 0.0\nsamples = 6\nvalue = [6, 0]"] ;
292 -> 302 ;
303 [label="url_3 <= 0.5\nentropy = 0.795\nsamples = 25\nvalue = [19, 6]"] ;
291 -> 303 ;
304 [label="glossary <= 0.5\nentropy = 0.414\nsamples = 12\nvalue = [11, 1]"] ;
303 -> 304 ;
305 [label="entropy = 0.0\nsamples = 8\nvalue = [8, 0]"] ;
304 -> 305 ;
306 [label="oucontent_2 <= 0.5\nentropy = 0.811\nsamples = 4\nvalue = [3, 1]"] ;
304 -> 306 ;
307 [label="url_2 <= 0.5\nentropy = 1.0\nsamples = 2\nvalue = [1, 1]"] ;
306 -> 307 ;
308 [label="entropy = 0.0\nsamples = 1\nvalue = [1, 0]"] ;
307 -> 308 ;
309 [label="entropy = 0.0\nsamples = 1\nvalue = [0, 1]"] ;
307 -> 309 ;
310 [label="entropy = 0.0\nsamples = 2\nvalue = [2, 0]"] ;
306 -> 310 ;
311 [label="glossary <= 0.5\nentropy = 0.961\nsamples = 13\nvalue = [8, 5]"] ;
303 -> 311 ;
312 [label="acumneg_0 <= 0.5\nentropy = 0.863\nsamples = 7\nvalue = [2, 5]"] ;
311 -> 312 ;
313 [label="entropy = 0.0\nsamples = 5\nvalue = [0, 5]"] ;
312 -> 313 ;
314 [label="entropy = 0.0\nsamples = 2\nvalue = [2, 0]"] ;
312 -> 314 ;
315 [label="entropy = 0.0\nsamples = 6\nvalue = [6, 0]"] ;
311 -> 315 ;
316 [label="entropy = 0.0\nsamples = 4\nvalue = [4, 0]"] ;
290 -> 316 ;
317 [label="forumng_2 <= 0.5\nentropy = 0.896\nsamples = 16\nvalue = [5, 11]"] ;
289 -> 317 ;
318 [label="entropy = 0.0\nsamples = 8\nvalue = [0, 8]"] ;
317 -> 318 ;
319 [label="acumg_3 <= 0.5\nentropy = 0.954\nsamples = 8\nvalue = [5, 3]"] ;
317 -> 319 ;
320 [label="entropy = 0.0\nsamples = 5\nvalue = [5, 0]"] ;
319 -> 320 ;
321 [label="entropy = 0.0\nsamples = 3\nvalue = [0, 3]"] ;
319 -> 321 ;
322 [label="entropy = 0.0\nsamples = 4\nvalue = [0, 4]"] ;
288 -> 322 ;
323 [label="acumg_2 <= 0.5\nentropy = 0.736\nsamples = 29\nvalue = [23, 6]"] ;
287 -> 323 ;
324 [label="entropy = 0.0\nsamples = 14\nvalue = [14, 0]"] ;
323 -> 324 ;
325 [label="oucontent_1 <= 0.5\nentropy = 0.971\nsamples = 15\nvalue = [9, 6]"] ;
323 -> 325 ;
326 [label="glossary <= 0.5\nentropy = 1.0\nsamples = 12\nvalue = [6, 6]"] ;
325 -> 326 ;
327 [label="url_2 <= 0.5\nentropy = 0.971\nsamples = 10\nvalue = [4, 6]"] ;
326 -> 327 ;
328 [label="resource_4 <= 0.5\nentropy = 0.985\nsamples = 7\nvalue = [4, 3]"] ;
327 -> 328 ;
329 [label="ouwiki_1 <= 0.5\nentropy = 0.918\nsamples = 6\nvalue = [4, 2]"] ;
328 -> 329 ;
330 [label="entropy = 0.0\nsamples = 1\nvalue = [1, 0]"] ;
329 -> 330 ;
331 [label="oucontent_3 <= 0.5\nentropy = 0.971\nsamples = 5\nvalue = [3, 2]"] ;
329 -> 331 ;
332 [label="forumng_2 <= 0.5\nentropy = 0.811\nsamples = 4\nvalue = [3, 1]"] ;
331 -> 332 ;
333 [label="entropy = 1.0\nsamples = 2\nvalue = [1, 1]"] ;
332 -> 333 ;
334 [label="entropy = 0.0\nsamples = 2\nvalue = [2, 0]"] ;
332 -> 334 ;
335 [label="entropy = 0.0\nsamples = 1\nvalue = [0, 1]"] ;
331 -> 335 ;
336 [label="entropy = 0.0\nsamples = 1\nvalue = [0, 1]"] ;
328 -> 336 ;
337 [label="entropy = 0.0\nsamples = 3\nvalue = [0, 3]"] ;
327 -> 337 ;
338 [label="entropy = 0.0\nsamples = 2\nvalue = [2, 0]"] ;
326 -> 338 ;
339 [label="entropy = 0.0\nsamples = 3\nvalue = [3, 0]"] ;
325 -> 339 ;
340 [label="entropy = 0.0\nsamples = 9\nvalue = [9, 0]"] ;
286 -> 340 ;
341 [label="acumneg_2 <= 0.5\nentropy = 0.964\nsamples = 18\nvalue = [7, 11]"] ;
285 -> 341 ;
342 [label="ouwiki_1 <= 0.5\nentropy = 0.946\nsamples = 11\nvalue = [7, 4]"] ;
341 -> 342 ;
343 [label="dataplus <= 0.5\nentropy = 0.65\nsamples = 6\nvalue = [5, 1]"] ;
342 -> 343 ;
344 [label="entropy = 0.0\nsamples = 5\nvalue = [5, 0]"] ;
343 -> 344 ;
345 [label="entropy = 0.0\nsamples = 1\nvalue = [0, 1]"] ;
343 -> 345 ;
346 [label="homepage_2 <= 0.5\nentropy = 0.971\nsamples = 5\nvalue = [2, 3]"] ;
342 -> 346 ;
347 [label="entropy = 0.0\nsamples = 2\nvalue = [2, 0]"] ;
346 -> 347 ;
348 [label="entropy = 0.0\nsamples = 3\nvalue = [0, 3]"] ;
346 -> 348 ;
349 [label="entropy = 0.0\nsamples = 7\nvalue = [0, 7]"] ;
341 -> 349 ;
350 [label="oucontent_2 <= 0.5\nentropy = 0.943\nsamples = 61\nvalue = [22, 39]"] ;
224 -> 350 ;
351 [label="oucontent_1 <= 0.5\nentropy = 0.886\nsamples = 56\nvalue = [17, 39]"] ;
350 -> 351 ;
352 [label="glossary <= 0.5\nentropy = 0.738\nsamples = 48\nvalue = [10, 38]"] ;
351 -> 352 ;
353 [label="acumneg_3 <= 0.5\nentropy = 0.831\nsamples = 38\nvalue = [10, 28]"] ;
352 -> 353 ;
354 [label="acumg_3 <= 0.5\nentropy = 0.663\nsamples = 29\nvalue = [5, 24]"] ;
353 -> 354 ;
355 [label="externalquiz <= 0.5\nentropy = 0.426\nsamples = 23\nvalue = [2, 21]"] ;
354 -> 355 ;
356 [label="entropy = 0.0\nsamples = 20\nvalue = [0, 20]"] ;
355 -> 356 ;
357 [label="acumneg_2 <= 0.5\nentropy = 0.918\nsamples = 3\nvalue = [2, 1]"] ;
355 -> 357 ;
358 [label="entropy = 0.0\nsamples = 1\nvalue = [0, 1]"] ;
357 -> 358 ;
359 [label="entropy = 0.0\nsamples = 2\nvalue = [2, 0]"] ;
357 -> 359 ;
360 [label="url_3 <= 0.5\nentropy = 1.0\nsamples = 6\nvalue = [3, 3]"] ;
354 -> 360 ;
361 [label="url_1 <= 0.5\nentropy = 0.811\nsamples = 4\nvalue = [1, 3]"] ;
360 -> 361 ;
362 [label="entropy = 0.0\nsamples = 3\nvalue = [0, 3]"] ;
361 -> 362 ;
363 [label="entropy = 0.0\nsamples = 1\nvalue = [1, 0]"] ;
361 -> 363 ;
364 [label="entropy = 0.0\nsamples = 2\nvalue = [2, 0]"] ;
360 -> 364 ;
365 [label="forumng_2 <= 0.5\nentropy = 0.991\nsamples = 9\nvalue = [5, 4]"] ;
353 -> 365 ;
366 [label="entropy = 0.0\nsamples = 3\nvalue = [0, 3]"] ;
365 -> 366 ;
367 [label="url_1 <= 0.5\nentropy = 0.65\nsamples = 6\nvalue = [5, 1]"] ;
365 -> 367 ;
368 [label="entropy = 0.0\nsamples = 1\nvalue = [0, 1]"] ;
367 -> 368 ;
369 [label="entropy = 0.0\nsamples = 5\nvalue = [5, 0]"] ;
367 -> 369 ;
370 [label="entropy = 0.0\nsamples = 10\nvalue = [0, 10]"] ;
352 -> 370 ;
371 [label="oucollaborate_0 <= 0.5\nentropy = 0.544\nsamples = 8\nvalue = [7, 1]"] ;
351 -> 371 ;
372 [label="entropy = 0.0\nsamples = 1\nvalue = [0, 1]"] ;
371 -> 372 ;
373 [label="entropy = 0.0\nsamples = 7\nvalue = [7, 0]"] ;
371 -> 373 ;
374 [label="entropy = 0.0\nsamples = 5\nvalue = [5, 0]"] ;
350 -> 374 ;
375 [label="acumg_2 <= 0.5\nentropy = 0.784\nsamples = 30\nvalue = [7, 23]"] ;
223 -> 375 ;
376 [label="acumneg_4 <= 0.5\nentropy = 0.677\nsamples = 28\nvalue = [5, 23]"] ;
375 -> 376 ;
377 [label="ouwiki_1 <= 0.5\nentropy = 0.918\nsamples = 15\nvalue = [5, 10]"] ;
376 -> 377 ;
378 [label="entropy = 0.0\nsamples = 2\nvalue = [2, 0]"] ;
377 -> 378 ;
379 [label="acumneg_3 <= 0.5\nentropy = 0.779\nsamples = 13\nvalue = [3, 10]"] ;
377 -> 379 ;
380 [label="entropy = 0.0\nsamples = 5\nvalue = [0, 5]"] ;
379 -> 380 ;
381 [label="glossary <= 0.5\nentropy = 0.954\nsamples = 8\nvalue = [3, 5]"] ;
379 -> 381 ;
382 [label="resource_4 <= 0.5\nentropy = 0.971\nsamples = 5\nvalue = [3, 2]"] ;
381 -> 382 ;
383 [label="entropy = 0.0\nsamples = 2\nvalue = [2, 0]"] ;
382 -> 383 ;
384 [label="url_4 <= 0.5\nentropy = 0.918\nsamples = 3\nvalue = [1, 2]"] ;
382 -> 384 ;
385 [label="entropy = 0.0\nsamples = 2\nvalue = [0, 2]"] ;
384 -> 385 ;
386 [label="entropy = 0.0\nsamples = 1\nvalue = [1, 0]"] ;
384 -> 386 ;
387 [label="entropy = 0.0\nsamples = 3\nvalue = [0, 3]"] ;
381 -> 387 ;
388 [label="entropy = 0.0\nsamples = 13\nvalue = [0, 13]"] ;
376 -> 388 ;
389 [label="entropy = 0.0\nsamples = 2\nvalue = [2, 0]"] ;
375 -> 389 ;
390 [label="subpage_3 <= 0.5\nentropy = 0.785\nsamples = 94\nvalue = [22, 72]"] ;
222 -> 390 ;
391 [label="acumg_3 <= 0.5\nentropy = 0.863\nsamples = 70\nvalue = [20, 50]"] ;
390 -> 391 ;
392 [label="entropy = 0.0\nsamples = 4\nvalue = [4, 0]"] ;
391 -> 392 ;
393 [label="oucontent_1 <= 0.5\nentropy = 0.799\nsamples = 66\nvalue = [16, 50]"] ;
391 -> 393 ;
394 [label="oucollaborate_0 <= 0.5\nentropy = 0.856\nsamples = 57\nvalue = [16, 41]"] ;
393 -> 394 ;
395 [label="homepage_4 <= 0.5\nentropy = 0.904\nsamples = 50\nvalue = [16, 34]"] ;
394 -> 395 ;
396 [label="resource_3 <= 0.5\nentropy = 0.742\nsamples = 19\nvalue = [4, 15]"] ;
395 -> 396 ;
397 [label="entropy = 0.0\nsamples = 11\nvalue = [0, 11]"] ;
396 -> 397 ;
398 [label="acumneg_4 <= 0.5\nentropy = 1.0\nsamples = 8\nvalue = [4, 4]"] ;
396 -> 398 ;
399 [label="url_4 <= 0.5\nentropy = 0.918\nsamples = 6\nvalue = [2, 4]"] ;
398 -> 399 ;
400 [label="entropy = 0.918\nsamples = 3\nvalue = [2, 1]"] ;
399 -> 400 ;
401 [label="entropy = 0.0\nsamples = 3\nvalue = [0, 3]"] ;
399 -> 401 ;
402 [label="entropy = 0.0\nsamples = 2\nvalue = [2, 0]"] ;
398 -> 402 ;
403 [label="acumneg_2 <= 0.5\nentropy = 0.963\nsamples = 31\nvalue = [12, 19]"] ;
395 -> 403 ;
404 [label="url_4 <= 0.5\nentropy = 0.871\nsamples = 24\nvalue = [7, 17]"] ;
403 -> 404 ;
405 [label="entropy = 0.0\nsamples = 7\nvalue = [0, 7]"] ;
404 -> 405 ;
406 [label="resource_4 <= 0.5\nentropy = 0.977\nsamples = 17\nvalue = [7, 10]"] ;
404 -> 406 ;
407 [label="glossary <= 0.5\nentropy = 0.811\nsamples = 4\nvalue = [3, 1]"] ;
406 -> 407 ;
408 [label="entropy = 0.0\nsamples = 1\nvalue = [0, 1]"] ;
407 -> 408 ;
409 [label="entropy = 0.0\nsamples = 3\nvalue = [3, 0]"] ;
407 -> 409 ;
410 [label="acumneg_3 <= 0.5\nentropy = 0.89\nsamples = 13\nvalue = [4, 9]"] ;
406 -> 410 ;
411 [label="oucontent_2 <= 0.5\nentropy = 0.811\nsamples = 12\nvalue = [3, 9]"] ;
410 -> 411 ;
412 [label="entropy = 0.0\nsamples = 5\nvalue = [0, 5]"] ;
411 -> 412 ;
413 [label="glossary <= 0.5\nentropy = 0.985\nsamples = 7\nvalue = [3, 4]"] ;
411 -> 413 ;
414 [label="entropy = 0.0\nsamples = 1\nvalue = [1, 0]"] ;
413 -> 414 ;
415 [label="entropy = 0.918\nsamples = 6\nvalue = [2, 4]"] ;
413 -> 415 ;
416 [label="entropy = 0.0\nsamples = 1\nvalue = [1, 0]"] ;
410 -> 416 ;
417 [label="resource_4 <= 0.5\nentropy = 0.863\nsamples = 7\nvalue = [5, 2]"] ;
403 -> 417 ;
418 [label="entropy = 0.0\nsamples = 2\nvalue = [0, 2]"] ;
417 -> 418 ;
419 [label="entropy = 0.0\nsamples = 5\nvalue = [5, 0]"] ;
417 -> 419 ;
420 [label="entropy = 0.0\nsamples = 7\nvalue = [0, 7]"] ;
394 -> 420 ;
421 [label="entropy = 0.0\nsamples = 9\nvalue = [0, 9]"] ;
393 -> 421 ;
422 [label="oucollaborate_1 <= 0.5\nentropy = 0.414\nsamples = 24\nvalue = [2, 22]"] ;
390 -> 422 ;
423 [label="resource_2 <= 0.5\nentropy = 0.722\nsamples = 10\nvalue = [2, 8]"] ;
422 -> 423 ;
424 [label="resource_3 <= 0.5\nentropy = 0.503\nsamples = 9\nvalue = [1, 8]"] ;
423 -> 424 ;
425 [label="entropy = 0.0\nsamples = 7\nvalue = [0, 7]"] ;
424 -> 425 ;
426 [label="acumg_2 <= 0.5\nentropy = 1.0\nsamples = 2\nvalue = [1, 1]"] ;
424 -> 426 ;
427 [label="entropy = 0.0\nsamples = 1\nvalue = [1, 0]"] ;
426 -> 427 ;
428 [label="entropy = 0.0\nsamples = 1\nvalue = [0, 1]"] ;
426 -> 428 ;
429 [label="entropy = 0.0\nsamples = 1\nvalue = [1, 0]"] ;
423 -> 429 ;
430 [label="entropy = 0.0\nsamples = 14\nvalue = [0, 14]"] ;
422 -> 430 ;
431 [label="folder <= 0.5\nentropy = 0.894\nsamples = 232\nvalue = [160, 72]"] ;
3 -> 431 ;
432 [label="subpage_1 <= 0.5\nentropy = 0.114\nsamples = 131\nvalue = [129, 2]"] ;
431 -> 432 ;
433 [label="ouwiki_1 <= 0.5\nentropy = 0.065\nsamples = 130\nvalue = [129, 1]"] ;
432 -> 433 ;
434 [label="entropy = 0.0\nsamples = 114\nvalue = [114, 0]"] ;
433 -> 434 ;
435 [label="subpage_2 <= 0.5\nentropy = 0.337\nsamples = 16\nvalue = [15, 1]"] ;
433 -> 435 ;
436 [label="entropy = 0.0\nsamples = 14\nvalue = [14, 0]"] ;
435 -> 436 ;
437 [label="dualpane <= 0.5\nentropy = 1.0\nsamples = 2\nvalue = [1, 1]"] ;
435 -> 437 ;
438 [label="entropy = 0.0\nsamples = 1\nvalue = [1, 0]"] ;
437 -> 438 ;
439 [label="entropy = 0.0\nsamples = 1\nvalue = [0, 1]"] ;
437 -> 439 ;
440 [label="entropy = 0.0\nsamples = 1\nvalue = [0, 1]"] ;
432 -> 440 ;
441 [label="acumg_2 <= 0.5\nentropy = 0.89\nsamples = 101\nvalue = [31, 70]"] ;
431 -> 441 ;
442 [label="oucontent_4 <= 0.5\nentropy = 0.802\nsamples = 90\nvalue = [22, 68]"] ;
441 -> 442 ;
443 [label="url_1 <= 0.5\nentropy = 0.883\nsamples = 73\nvalue = [22, 51]"] ;
442 -> 443 ;
444 [label="homepage_3 <= 0.5\nentropy = 0.938\nsamples = 62\nvalue = [22, 40]"] ;
443 -> 444 ;
445 [label="url_3 <= 0.5\nentropy = 1.0\nsamples = 34\nvalue = [17, 17]"] ;
444 -> 445 ;
446 [label="glossary <= 0.5\nentropy = 0.961\nsamples = 26\nvalue = [16, 10]"] ;
445 -> 446 ;
447 [label="oucollaborate_0 <= 0.5\nentropy = 0.918\nsamples = 24\nvalue = [16, 8]"] ;
446 -> 447 ;
448 [label="entropy = 0.0\nsamples = 3\nvalue = [3, 0]"] ;
447 -> 448 ;
449 [label="acumneg_0 <= 0.5\nentropy = 0.959\nsamples = 21\nvalue = [13, 8]"] ;
447 -> 449 ;
450 [label="resource_2 <= 0.5\nentropy = 0.994\nsamples = 11\nvalue = [5, 6]"] ;
449 -> 450 ;
451 [label="dataplus <= 0.5\nentropy = 0.954\nsamples = 8\nvalue = [5, 3]"] ;
450 -> 451 ;
452 [label="acumneg_3 <= 0.5\nentropy = 1.0\nsamples = 6\nvalue = [3, 3]"] ;
451 -> 452 ;
453 [label="forumng_3 <= 0.5\nentropy = 0.971\nsamples = 5\nvalue = [3, 2]"] ;
452 -> 453 ;
454 [label="entropy = 0.0\nsamples = 1\nvalue = [0, 1]"] ;
453 -> 454 ;
455 [label="acumneg_2 <= 0.5\nentropy = 0.811\nsamples = 4\nvalue = [3, 1]"] ;
453 -> 455 ;
456 [label="entropy = 0.918\nsamples = 3\nvalue = [2, 1]"] ;
455 -> 456 ;
457 [label="entropy = 0.0\nsamples = 1\nvalue = [1, 0]"] ;
455 -> 457 ;
458 [label="entropy = 0.0\nsamples = 1\nvalue = [0, 1]"] ;
452 -> 458 ;
459 [label="entropy = 0.0\nsamples = 2\nvalue = [2, 0]"] ;
451 -> 459 ;
460 [label="entropy = 0.0\nsamples = 3\nvalue = [0, 3]"] ;
450 -> 460 ;
461 [label="resource_1 <= 0.5\nentropy = 0.722\nsamples = 10\nvalue = [8, 2]"] ;
449 -> 461 ;
462 [label="forumng_1 <= 0.5\nentropy = 0.918\nsamples = 6\nvalue = [4, 2]"] ;
461 -> 462 ;
463 [label="forumng_3 <= 0.5\nentropy = 0.722\nsamples = 5\nvalue = [4, 1]"] ;
462 -> 463 ;
464 [label="questionnaire <= 0.5\nentropy = 0.918\nsamples = 3\nvalue = [2, 1]"] ;
463 -> 464 ;
465 [label="entropy = 0.0\nsamples = 2\nvalue = [2, 0]"] ;
464 -> 465 ;
466 [label="entropy = 0.0\nsamples = 1\nvalue = [0, 1]"] ;
464 -> 466 ;
467 [label="entropy = 0.0\nsamples = 2\nvalue = [2, 0]"] ;
463 -> 467 ;
468 [label="entropy = 0.0\nsamples = 1\nvalue = [0, 1]"] ;
462 -> 468 ;
469 [label="entropy = 0.0\nsamples = 4\nvalue = [4, 0]"] ;
461 -> 469 ;
470 [label="entropy = 0.0\nsamples = 2\nvalue = [0, 2]"] ;
446 -> 470 ;
471 [label="quiz_3 <= 0.5\nentropy = 0.544\nsamples = 8\nvalue = [1, 7]"] ;
445 -> 471 ;
472 [label="entropy = 0.0\nsamples = 1\nvalue = [1, 0]"] ;
471 -> 472 ;
473 [label="entropy = 0.0\nsamples = 7\nvalue = [0, 7]"] ;
471 -> 473 ;
474 [label="url_2 <= 0.5\nentropy = 0.677\nsamples = 28\nvalue = [5, 23]"] ;
444 -> 474 ;
475 [label="forumng_3 <= 0.5\nentropy = 0.98\nsamples = 12\nvalue = [5, 7]"] ;
474 -> 475 ;
476 [label="resource_2 <= 0.5\nentropy = 0.863\nsamples = 7\nvalue = [5, 2]"] ;
475 -> 476 ;
477 [label="entropy = 0.0\nsamples = 5\nvalue = [5, 0]"] ;
476 -> 477 ;
478 [label="entropy = 0.0\nsamples = 2\nvalue = [0, 2]"] ;
476 -> 478 ;
479 [label="entropy = 0.0\nsamples = 5\nvalue = [0, 5]"] ;
475 -> 479 ;
480 [label="entropy = 0.0\nsamples = 16\nvalue = [0, 16]"] ;
474 -> 480 ;
481 [label="entropy = 0.0\nsamples = 11\nvalue = [0, 11]"] ;
443 -> 481 ;
482 [label="entropy = 0.0\nsamples = 17\nvalue = [0, 17]"] ;
442 -> 482 ;
483 [label="forumng_2 <= 0.5\nentropy = 0.684\nsamples = 11\nvalue = [9, 2]"] ;
441 -> 483 ;
484 [label="entropy = 0.0\nsamples = 9\nvalue = [9, 0]"] ;
483 -> 484 ;
485 [label="entropy = 0.0\nsamples = 2\nvalue = [0, 2]"] ;
483 -> 485 ;
486 [label="dataplus <= 0.5\nentropy = 0.595\nsamples = 611\nvalue = [88, 523]"] ;
2 -> 486 ;
487 [label="quiz_2 <= 0.5\nentropy = 0.748\nsamples = 342\nvalue = [73, 269]"] ;
486 -> 487 ;
488 [label="oucontent_0 <= 0.5\nentropy = 0.869\nsamples = 238\nvalue = [69, 169]"] ;
487 -> 488 ;
489 [label="url_3 <= 0.5\nentropy = 0.857\nsamples = 235\nvalue = [66, 169]"] ;
488 -> 489 ;
490 [label="subpage_1 <= 0.5\nentropy = 0.747\nsamples = 122\nvalue = [26, 96]"] ;
489 -> 490 ;
491 [label="acumneg_4 <= 0.5\nentropy = 0.697\nsamples = 117\nvalue = [22, 95]"] ;
490 -> 491 ;
492 [label="oucollaborate_0 <= 0.5\nentropy = 0.491\nsamples = 56\nvalue = [6, 50]"] ;
491 -> 492 ;
493 [label="entropy = 0.0\nsamples = 25\nvalue = [0, 25]"] ;
492 -> 493 ;
494 [label="url_2 <= 0.5\nentropy = 0.709\nsamples = 31\nvalue = [6, 25]"] ;
492 -> 494 ;
495 [label="resource_3 <= 0.5\nentropy = 0.937\nsamples = 17\nvalue = [6, 11]"] ;
494 -> 495 ;
496 [label="homepage_4 <= 0.5\nentropy = 0.994\nsamples = 11\nvalue = [6, 5]"] ;
495 -> 496 ;
497 [label="entropy = 0.0\nsamples = 2\nvalue = [0, 2]"] ;
496 -> 497 ;
498 [label="folder <= 0.5\nentropy = 0.918\nsamples = 9\nvalue = [6, 3]"] ;
496 -> 498 ;
499 [label="subpage_3 <= 0.5\nentropy = 1.0\nsamples = 6\nvalue = [3, 3]"] ;
498 -> 499 ;
500 [label="entropy = 0.0\nsamples = 3\nvalue = [0, 3]"] ;
499 -> 500 ;
501 [label="entropy = 0.0\nsamples = 3\nvalue = [3, 0]"] ;
499 -> 501 ;
502 [label="entropy = 0.0\nsamples = 3\nvalue = [3, 0]"] ;
498 -> 502 ;
503 [label="entropy = 0.0\nsamples = 6\nvalue = [0, 6]"] ;
495 -> 503 ;
504 [label="entropy = 0.0\nsamples = 14\nvalue = [0, 14]"] ;
494 -> 504 ;
505 [label="oucontent_4 <= 0.5\nentropy = 0.83\nsamples = 61\nvalue = [16, 45]"] ;
491 -> 505 ;
506 [label="glossary <= 0.5\nentropy = 0.602\nsamples = 34\nvalue = [5, 29]"] ;
505 -> 506 ;
507 [label="entropy = 0.0\nsamples = 14\nvalue = [0, 14]"] ;
506 -> 507 ;
508 [label="url_2 <= 0.5\nentropy = 0.811\nsamples = 20\nvalue = [5, 15]"] ;
506 -> 508 ;
509 [label="oucontent_3 <= 0.5\nentropy = 0.742\nsamples = 19\nvalue = [4, 15]"] ;
508 -> 509 ;
510 [label="forumng_3 <= 0.5\nentropy = 0.544\nsamples = 16\nvalue = [2, 14]"] ;
509 -> 510 ;
511 [label="homepage_4 <= 0.5\nentropy = 0.592\nsamples = 14\nvalue = [2, 12]"] ;
510 -> 511 ;
512 [label="entropy = 0.0\nsamples = 2\nvalue = [0, 2]"] ;
511 -> 512 ;
513 [label="oucollaborate_1 <= 0.5\nentropy = 0.65\nsamples = 12\nvalue = [2, 10]"] ;
511 -> 513 ;
514 [label="entropy = 0.0\nsamples = 2\nvalue = [0, 2]"] ;
513 -> 514 ;
515 [label="entropy = 0.722\nsamples = 10\nvalue = [2, 8]"] ;
513 -> 515 ;
516 [label="entropy = 0.0\nsamples = 2\nvalue = [0, 2]"] ;
510 -> 516 ;
517 [label="entropy = 0.918\nsamples = 3\nvalue = [2, 1]"] ;
509 -> 517 ;
518 [label="entropy = 0.0\nsamples = 1\nvalue = [1, 0]"] ;
508 -> 518 ;
519 [label="questionnaire <= 0.5\nentropy = 0.975\nsamples = 27\nvalue = [11, 16]"] ;
505 -> 519 ;
520 [label="resource_3 <= 0.5\nentropy = 0.961\nsamples = 13\nvalue = [8, 5]"] ;
519 -> 520 ;
521 [label="folder <= 0.5\nentropy = 0.918\nsamples = 6\nvalue = [2, 4]"] ;
520 -> 521 ;
522 [label="forumng_3 <= 0.5\nentropy = 0.971\nsamples = 5\nvalue = [2, 3]"] ;
521 -> 522 ;
523 [label="entropy = 1.0\nsamples = 4\nvalue = [2, 2]"] ;
522 -> 523 ;
524 [label="entropy = 0.0\nsamples = 1\nvalue = [0, 1]"] ;
522 -> 524 ;
525 [label="entropy = 0.0\nsamples = 1\nvalue = [0, 1]"] ;
521 -> 525 ;
526 [label="oucollaborate_1 <= 0.5\nentropy = 0.592\nsamples = 7\nvalue = [6, 1]"] ;
520 -> 526 ;
527 [label="dualpane <= 0.5\nentropy = 0.811\nsamples = 4\nvalue = [3, 1]"] ;
526 -> 527 ;
528 [label="entropy = 0.0\nsamples = 3\nvalue = [3, 0]"] ;
527 -> 528 ;
529 [label="entropy = 0.0\nsamples = 1\nvalue = [0, 1]"] ;
527 -> 529 ;
530 [label="entropy = 0.0\nsamples = 3\nvalue = [3, 0]"] ;
526 -> 530 ;
531 [label="folder <= 0.5\nentropy = 0.75\nsamples = 14\nvalue = [3, 11]"] ;
519 -> 531 ;
532 [label="entropy = 0.0\nsamples = 1\nvalue = [1, 0]"] ;
531 -> 532 ;
533 [label="oucollaborate_1 <= 0.5\nentropy = 0.619\nsamples = 13\nvalue = [2, 11]"] ;
531 -> 533 ;
534 [label="entropy = 0.0\nsamples = 4\nvalue = [0, 4]"] ;
533 -> 534 ;
535 [label="dualpane <= 0.5\nentropy = 0.764\nsamples = 9\nvalue = [2, 7]"] ;
533 -> 535 ;
536 [label="entropy = 0.0\nsamples = 3\nvalue = [0, 3]"] ;
535 -> 536 ;
537 [label="resource_3 <= 0.5\nentropy = 0.918\nsamples = 6\nvalue = [2, 4]"] ;
535 -> 537 ;
538 [label="entropy = 0.0\nsamples = 2\nvalue = [0, 2]"] ;
537 -> 538 ;
539 [label="ouwiki_1 <= 0.5\nentropy = 1.0\nsamples = 4\nvalue = [2, 2]"] ;
537 -> 539 ;
540 [label="entropy = 0.0\nsamples = 1\nvalue = [1, 0]"] ;
539 -> 540 ;
541 [label="glossary <= 0.5\nentropy = 0.918\nsamples = 3\nvalue = [1, 2]"] ;
539 -> 541 ;
542 [label="entropy = 0.0\nsamples = 1\nvalue = [0, 1]"] ;
541 -> 542 ;
543 [label="entropy = 1.0\nsamples = 2\nvalue = [1, 1]"] ;
541 -> 543 ;
544 [label="resource_2 <= 0.5\nentropy = 0.722\nsamples = 5\nvalue = [4, 1]"] ;
490 -> 544 ;
545 [label="entropy = 0.0\nsamples = 4\nvalue = [4, 0]"] ;
544 -> 545 ;
546 [label="entropy = 0.0\nsamples = 1\nvalue = [0, 1]"] ;
544 -> 546 ;
547 [label="subpage_4 <= 0.5\nentropy = 0.938\nsamples = 113\nvalue = [40, 73]"] ;
489 -> 547 ;
548 [label="acumneg_3 <= 0.5\nentropy = 0.65\nsamples = 24\nvalue = [4, 20]"] ;
547 -> 548 ;
549 [label="entropy = 0.0\nsamples = 16\nvalue = [0, 16]"] ;
548 -> 549 ;
550 [label="quiz_1 <= 0.5\nentropy = 1.0\nsamples = 8\nvalue = [4, 4]"] ;
548 -> 550 ;
551 [label="questionnaire <= 0.5\nentropy = 0.918\nsamples = 6\nvalue = [4, 2]"] ;
550 -> 551 ;
552 [label="oucontent_3 <= 0.5\nentropy = 0.722\nsamples = 5\nvalue = [4, 1]"] ;
551 -> 552 ;
553 [label="entropy = 0.0\nsamples = 4\nvalue = [4, 0]"] ;
552 -> 553 ;
554 [label="entropy = 0.0\nsamples = 1\nvalue = [0, 1]"] ;
552 -> 554 ;
555 [label="entropy = 0.0\nsamples = 1\nvalue = [0, 1]"] ;
551 -> 555 ;
556 [label="entropy = 0.0\nsamples = 2\nvalue = [0, 2]"] ;
550 -> 556 ;
557 [label="page <= 0.5\nentropy = 0.974\nsamples = 89\nvalue = [36, 53]"] ;
547 -> 557 ;
558 [label="entropy = 0.0\nsamples = 7\nvalue = [0, 7]"] ;
557 -> 558 ;
559 [label="folder <= 0.5\nentropy = 0.989\nsamples = 82\nvalue = [36, 46]"] ;
557 -> 559 ;
560 [label="entropy = 0.0\nsamples = 8\nvalue = [8, 0]"] ;
559 -> 560 ;
561 [label="questionnaire <= 0.5\nentropy = 0.957\nsamples = 74\nvalue = [28, 46]"] ;
559 -> 561 ;
562 [label="oucontent_3 <= 0.5\nentropy = 0.954\nsamples = 32\nvalue = [20, 12]"] ;
561 -> 562 ;
563 [label="homepage_3 <= 0.5\nentropy = 0.828\nsamples = 23\nvalue = [17, 6]"] ;
562 -> 563 ;
564 [label="acumneg_1 <= 0.5\nentropy = 0.985\nsamples = 7\nvalue = [3, 4]"] ;
563 -> 564 ;
565 [label="glossary <= 0.5\nentropy = 0.722\nsamples = 5\nvalue = [1, 4]"] ;
564 -> 565 ;
566 [label="entropy = 0.0\nsamples = 4\nvalue = [0, 4]"] ;
565 -> 566 ;
567 [label="entropy = 0.0\nsamples = 1\nvalue = [1, 0]"] ;
565 -> 567 ;
568 [label="entropy = 0.0\nsamples = 2\nvalue = [2, 0]"] ;
564 -> 568 ;
569 [label="acumneg_1 <= 0.5\nentropy = 0.544\nsamples = 16\nvalue = [14, 2]"] ;
563 -> 569 ;
570 [label="acumneg_4 <= 0.5\nentropy = 0.353\nsamples = 15\nvalue = [14, 1]"] ;
569 -> 570 ;
571 [label="entropy = 0.0\nsamples = 11\nvalue = [11, 0]"] ;
570 -> 571 ;
572 [label="ouwiki_1 <= 0.5\nentropy = 0.811\nsamples = 4\nvalue = [3, 1]"] ;
570 -> 572 ;
573 [label="entropy = 0.0\nsamples = 1\nvalue = [0, 1]"] ;
572 -> 573 ;
574 [label="entropy = 0.0\nsamples = 3\nvalue = [3, 0]"] ;
572 -> 574 ;
575 [label="entropy = 0.0\nsamples = 1\nvalue = [0, 1]"] ;
569 -> 575 ;
576 [label="forumng_4 <= 0.5\nentropy = 0.918\nsamples = 9\nvalue = [3, 6]"] ;
562 -> 576 ;
577 [label="entropy = 0.0\nsamples = 5\nvalue = [0, 5]"] ;
576 -> 577 ;
578 [label="homepage_4 <= 0.5\nentropy = 0.811\nsamples = 4\nvalue = [3, 1]"] ;
576 -> 578 ;
579 [label="entropy = 0.0\nsamples = 1\nvalue = [0, 1]"] ;
578 -> 579 ;
580 [label="entropy = 0.0\nsamples = 3\nvalue = [3, 0]"] ;
578 -> 580 ;
581 [label="oucollaborate_1 <= 0.5\nentropy = 0.702\nsamples = 42\nvalue = [8, 34]"] ;
561 -> 581 ;
582 [label="oucontent_4 <= 0.5\nentropy = 0.235\nsamples = 26\nvalue = [1, 25]"] ;
581 -> 582 ;
583 [label="entropy = 0.0\nsamples = 1\nvalue = [1, 0]"] ;
582 -> 583 ;
584 [label="entropy = 0.0\nsamples = 25\nvalue = [0, 25]"] ;
582 -> 584 ;
585 [label="resource_2 <= 0.5\nentropy = 0.989\nsamples = 16\nvalue = [7, 9]"] ;
581 -> 585 ;
586 [label="homepage_4 <= 0.5\nentropy = 0.89\nsamples = 13\nvalue = [4, 9]"] ;
585 -> 586 ;
587 [label="entropy = 0.0\nsamples = 3\nvalue = [0, 3]"] ;
586 -> 587 ;
588 [label="ouwiki_0 <= 0.5\nentropy = 0.971\nsamples = 10\nvalue = [4, 6]"] ;
586 -> 588 ;
589 [label="entropy = 0.0\nsamples = 2\nvalue = [0, 2]"] ;
588 -> 589 ;
590 [label="forumng_3 <= 0.5\nentropy = 1.0\nsamples = 8\nvalue = [4, 4]"] ;
588 -> 590 ;
591 [label="entropy = 0.811\nsamples = 4\nvalue = [3, 1]"] ;
590 -> 591 ;
592 [label="dualpane <= 0.5\nentropy = 0.811\nsamples = 4\nvalue = [1, 3]"] ;
590 -> 592 ;
593 [label="entropy = 0.0\nsamples = 1\nvalue = [1, 0]"] ;
592 -> 593 ;
594 [label="entropy = 0.0\nsamples = 3\nvalue = [0, 3]"] ;
592 -> 594 ;
595 [label="entropy = 0.0\nsamples = 3\nvalue = [3, 0]"] ;
585 -> 595 ;
596 [label="entropy = 0.0\nsamples = 3\nvalue = [3, 0]"] ;
488 -> 596 ;
597 [label="questionnaire <= 0.5\nentropy = 0.235\nsamples = 104\nvalue = [4, 100]"] ;
487 -> 597 ;
598 [label="entropy = 0.0\nsamples = 100\nvalue = [0, 100]"] ;
597 -> 598 ;
599 [label="entropy = 0.0\nsamples = 4\nvalue = [4, 0]"] ;
597 -> 599 ;
600 [label="ouwiki_1 <= 0.5\nentropy = 0.31\nsamples = 269\nvalue = [15, 254]"] ;
486 -> 600 ;
601 [label="resource_1 <= 0.5\nentropy = 0.062\nsamples = 138\nvalue = [1, 137]"] ;
600 -> 601 ;
602 [label="entropy = 0.0\nsamples = 131\nvalue = [0, 131]"] ;
601 -> 602 ;
603 [label="url_4 <= 0.5\nentropy = 0.592\nsamples = 7\nvalue = [1, 6]"] ;
601 -> 603 ;
604 [label="entropy = 0.0\nsamples = 4\nvalue = [0, 4]"] ;
603 -> 604 ;
605 [label="glossary <= 0.5\nentropy = 0.918\nsamples = 3\nvalue = [1, 2]"] ;
603 -> 605 ;
606 [label="entropy = 0.0\nsamples = 1\nvalue = [1, 0]"] ;
605 -> 606 ;
607 [label="entropy = 0.0\nsamples = 2\nvalue = [0, 2]"] ;
605 -> 607 ;
608 [label="folder <= 0.5\nentropy = 0.49\nsamples = 131\nvalue = [14, 117]"] ;
600 -> 608 ;
609 [label="entropy = 0.0\nsamples = 3\nvalue = [3, 0]"] ;
608 -> 609 ;
610 [label="acumneg_1 <= 0.5\nentropy = 0.423\nsamples = 128\nvalue = [11, 117]"] ;
608 -> 610 ;
611 [label="acumneg_2 <= 0.5\nentropy = 0.347\nsamples = 123\nvalue = [8, 115]"] ;
610 -> 611 ;
612 [label="resource_2 <= 0.5\nentropy = 0.374\nsamples = 111\nvalue = [8, 103]"] ;
611 -> 612 ;
613 [label="forumng_4 <= 0.5\nentropy = 0.394\nsamples = 103\nvalue = [8, 95]"] ;
612 -> 613 ;
614 [label="oucollaborate_1 <= 0.5\nentropy = 0.222\nsamples = 28\nvalue = [1, 27]"] ;
613 -> 614 ;
615 [label="resource_3 <= 0.5\nentropy = 0.439\nsamples = 11\nvalue = [1, 10]"] ;
614 -> 615 ;
616 [label="url_4 <= 0.5\nentropy = 0.811\nsamples = 4\nvalue = [1, 3]"] ;
615 -> 616 ;
617 [label="entropy = 0.0\nsamples = 1\nvalue = [0, 1]"] ;
616 -> 617 ;
618 [label="acumneg_3 <= 0.5\nentropy = 0.918\nsamples = 3\nvalue = [1, 2]"] ;
616 -> 618 ;
619 [label="glossary <= 0.5\nentropy = 1.0\nsamples = 2\nvalue = [1, 1]"] ;
618 -> 619 ;
620 [label="entropy = 0.0\nsamples = 1\nvalue = [1, 0]"] ;
619 -> 620 ;
621 [label="entropy = 0.0\nsamples = 1\nvalue = [0, 1]"] ;
619 -> 621 ;
622 [label="entropy = 0.0\nsamples = 1\nvalue = [0, 1]"] ;
618 -> 622 ;
623 [label="entropy = 0.0\nsamples = 7\nvalue = [0, 7]"] ;
615 -> 623 ;
624 [label="entropy = 0.0\nsamples = 17\nvalue = [0, 17]"] ;
614 -> 624 ;
625 [label="url_4 <= 0.5\nentropy = 0.447\nsamples = 75\nvalue = [7, 68]"] ;
613 -> 625 ;
626 [label="acumneg_4 <= 0.5\nentropy = 0.811\nsamples = 8\nvalue = [2, 6]"] ;
625 -> 626 ;
627 [label="glossary <= 0.5\nentropy = 0.918\nsamples = 3\nvalue = [2, 1]"] ;
626 -> 627 ;
628 [label="entropy = 0.0\nsamples = 2\nvalue = [2, 0]"] ;
627 -> 628 ;
629 [label="entropy = 0.0\nsamples = 1\nvalue = [0, 1]"] ;
627 -> 629 ;
630 [label="entropy = 0.0\nsamples = 5\nvalue = [0, 5]"] ;
626 -> 630 ;
631 [label="acumneg_4 <= 0.5\nentropy = 0.383\nsamples = 67\nvalue = [5, 62]"] ;
625 -> 631 ;
632 [label="entropy = 0.0\nsamples = 13\nvalue = [0, 13]"] ;
631 -> 632 ;
633 [label="glossary <= 0.5\nentropy = 0.445\nsamples = 54\nvalue = [5, 49]"] ;
631 -> 633 ;
634 [label="resource_4 <= 0.5\nentropy = 0.378\nsamples = 41\nvalue = [3, 38]"] ;
633 -> 634 ;
635 [label="oucollaborate_1 <= 0.5\nentropy = 0.485\nsamples = 19\nvalue = [2, 17]"] ;
634 -> 635 ;
636 [label="entropy = 0.0\nsamples = 7\nvalue = [0, 7]"] ;
635 -> 636 ;
637 [label="entropy = 0.65\nsamples = 12\nvalue = [2, 10]"] ;
635 -> 637 ;
638 [label="oucollaborate_1 <= 0.5\nentropy = 0.267\nsamples = 22\nvalue = [1, 21]"] ;
634 -> 638 ;
639 [label="entropy = 0.503\nsamples = 9\nvalue = [1, 8]"] ;
638 -> 639 ;
640 [label="entropy = 0.0\nsamples = 13\nvalue = [0, 13]"] ;
638 -> 640 ;
641 [label="resource_3 <= 0.5\nentropy = 0.619\nsamples = 13\nvalue = [2, 11]"] ;
633 -> 641 ;
642 [label="oucollaborate_0 <= 0.5\nentropy = 0.684\nsamples = 11\nvalue = [2, 9]"] ;
641 -> 642 ;
643 [label="entropy = 0.722\nsamples = 10\nvalue = [2, 8]"] ;
642 -> 643 ;
644 [label="entropy = 0.0\nsamples = 1\nvalue = [0, 1]"] ;
642 -> 644 ;
645 [label="entropy = 0.0\nsamples = 2\nvalue = [0, 2]"] ;
641 -> 645 ;
646 [label="entropy = 0.0\nsamples = 8\nvalue = [0, 8]"] ;
612 -> 646 ;
647 [label="entropy = 0.0\nsamples = 12\nvalue = [0, 12]"] ;
611 -> 647 ;
648 [label="resource_4 <= 0.5\nentropy = 0.971\nsamples = 5\nvalue = [3, 2]"] ;
610 -> 648 ;
649 [label="entropy = 0.0\nsamples = 3\nvalue = [3, 0]"] ;
648 -> 649 ;
650 [label="entropy = 0.0\nsamples = 2\nvalue = [0, 2]"] ;
648 -> 650 ;
651 [label="page <= 0.5\nentropy = 0.929\nsamples = 660\nvalue = [433, 227]"] ;
1 -> 651 ;
652 [label="quiz_0 <= 0.5\nentropy = 0.972\nsamples = 566\nvalue = [339, 227]"] ;
651 -> 652 ;
653 [label="dualpane <= 0.5\nentropy = 0.999\nsamples = 365\nvalue = [175, 190]"] ;
652 -> 653 ;
654 [label="oucontent_0 <= 0.5\nentropy = 0.99\nsamples = 337\nvalue = [149, 188]"] ;
653 -> 654 ;
655 [label="homepage_0 <= 0.5\nentropy = 0.947\nsamples = 246\nvalue = [90, 156]"] ;
654 -> 655 ;
656 [label="forumng_3 <= 0.5\nentropy = 0.915\nsamples = 221\nvalue = [73, 148]"] ;
655 -> 656 ;
657 [label="glossary <= 0.5\nentropy = 0.888\nsamples = 206\nvalue = [63, 143]"] ;
656 -> 657 ;
658 [label="resource_3 <= 0.5\nentropy = 0.949\nsamples = 147\nvalue = [54, 93]"] ;
657 -> 658 ;
659 [label="oucontent_1 <= 0.5\nentropy = 0.97\nsamples = 133\nvalue = [53, 80]"] ;
658 -> 659 ;
660 [label="subpage_2 <= 0.5\nentropy = 0.859\nsamples = 46\nvalue = [13, 33]"] ;
659 -> 660 ;
661 [label="resource_1 <= 0.5\nentropy = 0.782\nsamples = 43\nvalue = [10, 33]"] ;
660 -> 661 ;
662 [label="quiz_2 <= 0.5\nentropy = 0.904\nsamples = 25\nvalue = [8, 17]"] ;
661 -> 662 ;
663 [label="forumng_2 <= 0.5\nentropy = 0.996\nsamples = 13\nvalue = [6, 7]"] ;
662 -> 663 ;
664 [label="oucontent_3 <= 0.5\nentropy = 0.918\nsamples = 9\nvalue = [3, 6]"] ;
663 -> 664 ;
665 [label="resource_0 <= 0.5\nentropy = 0.65\nsamples = 6\nvalue = [1, 5]"] ;
664 -> 665 ;
666 [label="entropy = 0.0\nsamples = 4\nvalue = [0, 4]"] ;
665 -> 666 ;
667 [label="subpage_0 <= 0.5\nentropy = 1.0\nsamples = 2\nvalue = [1, 1]"] ;
665 -> 667 ;
668 [label="entropy = 0.0\nsamples = 1\nvalue = [1, 0]"] ;
667 -> 668 ;
669 [label="entropy = 0.0\nsamples = 1\nvalue = [0, 1]"] ;
667 -> 669 ;
670 [label="acumneg_2 <= 0.5\nentropy = 0.918\nsamples = 3\nvalue = [2, 1]"] ;
664 -> 670 ;
671 [label="entropy = 0.0\nsamples = 2\nvalue = [2, 0]"] ;
670 -> 671 ;
672 [label="entropy = 0.0\nsamples = 1\nvalue = [0, 1]"] ;
670 -> 672 ;
673 [label="subpage_1 <= 0.5\nentropy = 0.811\nsamples = 4\nvalue = [3, 1]"] ;
663 -> 673 ;
674 [label="entropy = 0.0\nsamples = 1\nvalue = [0, 1]"] ;
673 -> 674 ;
675 [label="entropy = 0.0\nsamples = 3\nvalue = [3, 0]"] ;
673 -> 675 ;
676 [label="acumneg_2 <= 0.5\nentropy = 0.65\nsamples = 12\nvalue = [2, 10]"] ;
662 -> 676 ;
677 [label="entropy = 0.0\nsamples = 8\nvalue = [0, 8]"] ;
676 -> 677 ;
678 [label="forumng_1 <= 0.5\nentropy = 1.0\nsamples = 4\nvalue = [2, 2]"] ;
676 -> 678 ;
679 [label="entropy = 0.0\nsamples = 1\nvalue = [0, 1]"] ;
678 -> 679 ;
680 [label="subpage_1 <= 0.5\nentropy = 0.918\nsamples = 3\nvalue = [2, 1]"] ;
678 -> 680 ;
681 [label="entropy = 0.0\nsamples = 1\nvalue = [0, 1]"] ;
680 -> 681 ;
682 [label="entropy = 0.0\nsamples = 2\nvalue = [2, 0]"] ;
680 -> 682 ;
683 [label="subpage_1 <= 0.5\nentropy = 0.503\nsamples = 18\nvalue = [2, 16]"] ;
661 -> 683 ;
684 [label="quiz_2 <= 0.5\nentropy = 0.65\nsamples = 12\nvalue = [2, 10]"] ;
683 -> 684 ;
685 [label="acumneg_1 <= 0.5\nentropy = 0.811\nsamples = 8\nvalue = [2, 6]"] ;
684 -> 685 ;
686 [label="acumneg_0 <= 0.5\nentropy = 0.592\nsamples = 7\nvalue = [1, 6]"] ;
685 -> 686 ;
687 [label="entropy = 0.0\nsamples = 4\nvalue = [0, 4]"] ;
686 -> 687 ;
688 [label="forumng_1 <= 0.5\nentropy = 0.918\nsamples = 3\nvalue = [1, 2]"] ;
686 -> 688 ;
689 [label="entropy = 1.0\nsamples = 2\nvalue = [1, 1]"] ;
688 -> 689 ;
690 [label="entropy = 0.0\nsamples = 1\nvalue = [0, 1]"] ;
688 -> 690 ;
691 [label="entropy = 0.0\nsamples = 1\nvalue = [1, 0]"] ;
685 -> 691 ;
692 [label="entropy = 0.0\nsamples = 4\nvalue = [0, 4]"] ;
684 -> 692 ;
693 [label="entropy = 0.0\nsamples = 6\nvalue = [0, 6]"] ;
683 -> 693 ;
694 [label="entropy = 0.0\nsamples = 3\nvalue = [3, 0]"] ;
660 -> 694 ;
695 [label="subpage_2 <= 0.5\nentropy = 0.995\nsamples = 87\nvalue = [40, 47]"] ;
659 -> 695 ;
696 [label="homepage_1 <= 0.5\nentropy = 0.996\nsamples = 69\nvalue = [37, 32]"] ;
695 -> 696 ;
697 [label="acumneg_2 <= 0.5\nentropy = 0.544\nsamples = 8\nvalue = [1, 7]"] ;
696 -> 697 ;
698 [label="entropy = 0.0\nsamples = 5\nvalue = [0, 5]"] ;
697 -> 698 ;
699 [label="url_3 <= 0.5\nentropy = 0.918\nsamples = 3\nvalue = [1, 2]"] ;
697 -> 699 ;
700 [label="entropy = 0.0\nsamples = 1\nvalue = [0, 1]"] ;
699 -> 700 ;
701 [label="entropy = 1.0\nsamples = 2\nvalue = [1, 1]"] ;
699 -> 701 ;
702 [label="forumng_0 <= 0.5\nentropy = 0.976\nsamples = 61\nvalue = [36, 25]"] ;
696 -> 702 ;
703 [label="oucollaborate_0 <= 0.5\nentropy = 0.999\nsamples = 46\nvalue = [24, 22]"] ;
702 -> 703 ;
704 [label="entropy = 0.0\nsamples = 2\nvalue = [2, 0]"] ;
703 -> 704 ;
705 [label="acumneg_0 <= 0.5\nentropy = 1.0\nsamples = 44\nvalue = [22, 22]"] ;
703 -> 705 ;
706 [label="quiz_2 <= 0.5\nentropy = 0.971\nsamples = 25\nvalue = [15, 10]"] ;
705 -> 706 ;
707 [label="acumneg_3 <= 0.5\nentropy = 0.932\nsamples = 23\nvalue = [15, 8]"] ;
706 -> 707 ;
708 [label="url_0 <= 0.5\nentropy = 0.902\nsamples = 22\nvalue = [15, 7]"] ;
707 -> 708 ;
709 [label="forumng_2 <= 0.5\nentropy = 0.934\nsamples = 20\nvalue = [13, 7]"] ;
708 -> 709 ;
710 [label="entropy = 0.764\nsamples = 9\nvalue = [7, 2]"] ;
709 -> 710 ;
711 [label="entropy = 0.994\nsamples = 11\nvalue = [6, 5]"] ;
709 -> 711 ;
712 [label="entropy = 0.0\nsamples = 2\nvalue = [2, 0]"] ;
708 -> 712 ;
713 [label="entropy = 0.0\nsamples = 1\nvalue = [0, 1]"] ;
707 -> 713 ;
714 [label="entropy = 0.0\nsamples = 2\nvalue = [0, 2]"] ;
706 -> 714 ;
715 [label="quiz_1 <= 0.5\nentropy = 0.949\nsamples = 19\nvalue = [7, 12]"] ;
705 -> 715 ;
716 [label="entropy = 0.0\nsamples = 2\nvalue = [2, 0]"] ;
715 -> 716 ;
717 [label="resource_2 <= 0.5\nentropy = 0.874\nsamples = 17\nvalue = [5, 12]"] ;
715 -> 717 ;
718 [label="forumng_2 <= 0.5\nentropy = 0.619\nsamples = 13\nvalue = [2, 11]"] ;
717 -> 718 ;
719 [label="entropy = 0.0\nsamples = 9\nvalue = [0, 9]"] ;
718 -> 719 ;
720 [label="url_0 <= 0.5\nentropy = 1.0\nsamples = 4\nvalue = [2, 2]"] ;
718 -> 720 ;
721 [label="entropy = 0.918\nsamples = 3\nvalue = [2, 1]"] ;
720 -> 721 ;
722 [label="entropy = 0.0\nsamples = 1\nvalue = [0, 1]"] ;
720 -> 722 ;
723 [label="forumng_2 <= 0.5\nentropy = 0.811\nsamples = 4\nvalue = [3, 1]"] ;
717 -> 723 ;
724 [label="entropy = 0.0\nsamples = 3\nvalue = [3, 0]"] ;
723 -> 724 ;
725 [label="entropy = 0.0\nsamples = 1\nvalue = [0, 1]"] ;
723 -> 725 ;
726 [label="quiz_2 <= 0.5\nentropy = 0.722\nsamples = 15\nvalue = [12, 3]"] ;
702 -> 726 ;
727 [label="resource_1 <= 0.5\nentropy = 0.881\nsamples = 10\nvalue = [7, 3]"] ;
726 -> 727 ;
728 [label="resource_0 <= 0.5\nentropy = 0.985\nsamples = 7\nvalue = [4, 3]"] ;
727 -> 728 ;
729 [label="acumneg_1 <= 0.5\nentropy = 0.918\nsamples = 3\nvalue = [1, 2]"] ;
728 -> 729 ;
730 [label="entropy = 0.0\nsamples = 1\nvalue = [0, 1]"] ;
729 -> 730 ;
731 [label="entropy = 1.0\nsamples = 2\nvalue = [1, 1]"] ;
729 -> 731 ;
732 [label="entropy = 0.811\nsamples = 4\nvalue = [3, 1]"] ;
728 -> 732 ;
733 [label="entropy = 0.0\nsamples = 3\nvalue = [3, 0]"] ;
727 -> 733 ;
734 [label="entropy = 0.0\nsamples = 5\nvalue = [5, 0]"] ;
726 -> 734 ;
735 [label="homepage_2 <= 0.5\nentropy = 0.65\nsamples = 18\nvalue = [3, 15]"] ;
695 -> 735 ;
736 [label="entropy = 0.0\nsamples = 10\nvalue = [0, 10]"] ;
735 -> 736 ;
737 [label="url_1 <= 0.5\nentropy = 0.954\nsamples = 8\nvalue = [3, 5]"] ;
735 -> 737 ;
738 [label="acumneg_0 <= 0.5\nentropy = 1.0\nsamples = 6\nvalue = [3, 3]"] ;
737 -> 738 ;
739 [label="forumng_2 <= 0.5\nentropy = 0.971\nsamples = 5\nvalue = [3, 2]"] ;
738 -> 739 ;
740 [label="url_4 <= 0.5\nentropy = 0.918\nsamples = 3\nvalue = [1, 2]"] ;
739 -> 740 ;
741 [label="entropy = 0.0\nsamples = 2\nvalue = [0, 2]"] ;
740 -> 741 ;
742 [label="entropy = 0.0\nsamples = 1\nvalue = [1, 0]"] ;
740 -> 742 ;
743 [label="entropy = 0.0\nsamples = 2\nvalue = [2, 0]"] ;
739 -> 743 ;
744 [label="entropy = 0.0\nsamples = 1\nvalue = [0, 1]"] ;
738 -> 744 ;
745 [label="entropy = 0.0\nsamples = 2\nvalue = [0, 2]"] ;
737 -> 745 ;
746 [label="oucontent_2 <= 0.5\nentropy = 0.371\nsamples = 14\nvalue = [1, 13]"] ;
658 -> 746 ;
747 [label="entropy = 0.0\nsamples = 12\nvalue = [0, 12]"] ;
746 -> 747 ;
748 [label="forumng_2 <= 0.5\nentropy = 1.0\nsamples = 2\nvalue = [1, 1]"] ;
746 -> 748 ;
749 [label="entropy = 0.0\nsamples = 1\nvalue = [0, 1]"] ;
748 -> 749 ;
750 [label="entropy = 0.0\nsamples = 1\nvalue = [1, 0]"] ;
748 -> 750 ;
751 [label="url_2 <= 0.5\nentropy = 0.616\nsamples = 59\nvalue = [9, 50]"] ;
657 -> 751 ;
752 [label="url_1 <= 0.5\nentropy = 0.657\nsamples = 53\nvalue = [9, 44]"] ;
751 -> 752 ;
753 [label="quiz_1 <= 0.5\nentropy = 0.696\nsamples = 48\nvalue = [9, 39]"] ;
752 -> 753 ;
754 [label="acumneg_0 <= 0.5\nentropy = 0.454\nsamples = 21\nvalue = [2, 19]"] ;
753 -> 754 ;
755 [label="entropy = 0.0\nsamples = 11\nvalue = [0, 11]"] ;
754 -> 755 ;
756 [label="resource_2 <= 0.5\nentropy = 0.722\nsamples = 10\nvalue = [2, 8]"] ;
754 -> 756 ;
757 [label="oucontent_1 <= 0.5\nentropy = 0.863\nsamples = 7\nvalue = [2, 5]"] ;
756 -> 757 ;
758 [label="forumng_2 <= 0.5\nentropy = 0.971\nsamples = 5\nvalue = [2, 3]"] ;
757 -> 758 ;
759 [label="resource_1 <= 0.5\nentropy = 1.0\nsamples = 4\nvalue = [2, 2]"] ;
758 -> 759 ;
760 [label="entropy = 1.0\nsamples = 2\nvalue = [1, 1]"] ;
759 -> 760 ;
761 [label="entropy = 1.0\nsamples = 2\nvalue = [1, 1]"] ;
759 -> 761 ;
762 [label="entropy = 0.0\nsamples = 1\nvalue = [0, 1]"] ;
758 -> 762 ;
763 [label="entropy = 0.0\nsamples = 2\nvalue = [0, 2]"] ;
757 -> 763 ;
764 [label="entropy = 0.0\nsamples = 3\nvalue = [0, 3]"] ;
756 -> 764 ;
765 [label="acumneg_0 <= 0.5\nentropy = 0.826\nsamples = 27\nvalue = [7, 20]"] ;
753 -> 765 ;
766 [label="resource_1 <= 0.5\nentropy = 0.954\nsamples = 16\nvalue = [6, 10]"] ;
765 -> 766 ;
767 [label="oucontent_2 <= 0.5\nentropy = 0.863\nsamples = 14\nvalue = [4, 10]"] ;
766 -> 767 ;
768 [label="forumng_1 <= 0.5\nentropy = 0.971\nsamples = 10\nvalue = [4, 6]"] ;
767 -> 768 ;
769 [label="homepage_2 <= 0.5\nentropy = 0.811\nsamples = 8\nvalue = [2, 6]"] ;
768 -> 769 ;
770 [label="entropy = 0.0\nsamples = 2\nvalue = [0, 2]"] ;
769 -> 770 ;
771 [label="url_4 <= 0.5\nentropy = 0.918\nsamples = 6\nvalue = [2, 4]"] ;
769 -> 771 ;
772 [label="entropy = 0.0\nsamples = 1\nvalue = [1, 0]"] ;
771 -> 772 ;
773 [label="entropy = 0.722\nsamples = 5\nvalue = [1, 4]"] ;
771 -> 773 ;
774 [label="entropy = 0.0\nsamples = 2\nvalue = [2, 0]"] ;
768 -> 774 ;
775 [label="entropy = 0.0\nsamples = 4\nvalue = [0, 4]"] ;
767 -> 775 ;
776 [label="entropy = 0.0\nsamples = 2\nvalue = [2, 0]"] ;
766 -> 776 ;
777 [label="url_3 <= 0.5\nentropy = 0.439\nsamples = 11\nvalue = [1, 10]"] ;
765 -> 777 ;
778 [label="entropy = 0.0\nsamples = 8\nvalue = [0, 8]"] ;
777 -> 778 ;
779 [label="resource_2 <= 0.5\nentropy = 0.918\nsamples = 3\nvalue = [1, 2]"] ;
777 -> 779 ;
780 [label="entropy = 0.0\nsamples = 1\nvalue = [0, 1]"] ;
779 -> 780 ;
781 [label="entropy = 1.0\nsamples = 2\nvalue = [1, 1]"] ;
779 -> 781 ;
782 [label="entropy = 0.0\nsamples = 5\nvalue = [0, 5]"] ;
752 -> 782 ;
783 [label="entropy = 0.0\nsamples = 6\nvalue = [0, 6]"] ;
751 -> 783 ;
784 [label="oucontent_1 <= 0.5\nentropy = 0.918\nsamples = 15\nvalue = [10, 5]"] ;
656 -> 784 ;
785 [label="entropy = 0.0\nsamples = 4\nvalue = [4, 0]"] ;
784 -> 785 ;
786 [label="resource_1 <= 0.5\nentropy = 0.994\nsamples = 11\nvalue = [6, 5]"] ;
784 -> 786 ;
787 [label="url_3 <= 0.5\nentropy = 0.991\nsamples = 9\nvalue = [4, 5]"] ;
786 -> 787 ;
788 [label="entropy = 0.0\nsamples = 4\nvalue = [0, 4]"] ;
787 -> 788 ;
789 [label="subpage_2 <= 0.5\nentropy = 0.722\nsamples = 5\nvalue = [4, 1]"] ;
787 -> 789 ;
790 [label="entropy = 0.0\nsamples = 1\nvalue = [0, 1]"] ;
789 -> 790 ;
791 [label="entropy = 0.0\nsamples = 4\nvalue = [4, 0]"] ;
789 -> 791 ;
792 [label="entropy = 0.0\nsamples = 2\nvalue = [2, 0]"] ;
786 -> 792 ;
793 [label="subpage_0 <= 0.5\nentropy = 0.904\nsamples = 25\nvalue = [17, 8]"] ;
655 -> 793 ;
794 [label="acumneg_1 <= 0.5\nentropy = 0.998\nsamples = 17\nvalue = [9, 8]"] ;
793 -> 794 ;
795 [label="url_2 <= 0.5\nentropy = 0.764\nsamples = 9\nvalue = [2, 7]"] ;
794 -> 795 ;
796 [label="entropy = 0.0\nsamples = 7\nvalue = [0, 7]"] ;
795 -> 796 ;
797 [label="entropy = 0.0\nsamples = 2\nvalue = [2, 0]"] ;
795 -> 797 ;
798 [label="forumng_2 <= 0.5\nentropy = 0.544\nsamples = 8\nvalue = [7, 1]"] ;
794 -> 798 ;
799 [label="entropy = 0.0\nsamples = 7\nvalue = [7, 0]"] ;
798 -> 799 ;
800 [label="entropy = 0.0\nsamples = 1\nvalue = [0, 1]"] ;
798 -> 800 ;
801 [label="entropy = 0.0\nsamples = 8\nvalue = [8, 0]"] ;
793 -> 801 ;
802 [label="subpage_0 <= 0.5\nentropy = 0.936\nsamples = 91\nvalue = [59, 32]"] ;
654 -> 802 ;
803 [label="acumneg_1 <= 0.5\nentropy = 0.98\nsamples = 67\nvalue = [39, 28]"] ;
802 -> 803 ;
804 [label="resource_4 <= 0.5\nentropy = 0.93\nsamples = 55\nvalue = [36, 19]"] ;
803 -> 804 ;
805 [label="acumneg_4 <= 0.5\nentropy = 0.89\nsamples = 52\nvalue = [36, 16]"] ;
804 -> 805 ;
806 [label="resource_3 <= 0.5\nentropy = 0.855\nsamples = 50\nvalue = [36, 14]"] ;
805 -> 806 ;
807 [label="url_4 <= 0.5\nentropy = 0.946\nsamples = 33\nvalue = [21, 12]"] ;
806 -> 807 ;
808 [label="homepage_0 <= 0.5\nentropy = 0.907\nsamples = 31\nvalue = [21, 10]"] ;
807 -> 808 ;
809 [label="url_0 <= 0.5\nentropy = 0.94\nsamples = 28\nvalue = [18, 10]"] ;
808 -> 809 ;
810 [label="forumng_1 <= 0.5\nentropy = 0.918\nsamples = 27\nvalue = [18, 9]"] ;
809 -> 810 ;
811 [label="quiz_1 <= 0.5\nentropy = 0.831\nsamples = 19\nvalue = [14, 5]"] ;
810 -> 811 ;
812 [label="entropy = 0.0\nsamples = 3\nvalue = [3, 0]"] ;
811 -> 812 ;
813 [label="url_3 <= 0.5\nentropy = 0.896\nsamples = 16\nvalue = [11, 5]"] ;
811 -> 813 ;
814 [label="subpage_1 <= 0.5\nentropy = 0.811\nsamples = 12\nvalue = [9, 3]"] ;
813 -> 814 ;
815 [label="entropy = 0.0\nsamples = 3\nvalue = [3, 0]"] ;
814 -> 815 ;
816 [label="url_1 <= 0.5\nentropy = 0.918\nsamples = 9\nvalue = [6, 3]"] ;
814 -> 816 ;
817 [label="forumng_2 <= 0.5\nentropy = 0.811\nsamples = 8\nvalue = [6, 2]"] ;
816 -> 817 ;
818 [label="entropy = 0.918\nsamples = 3\nvalue = [1, 2]"] ;
817 -> 818 ;
819 [label="entropy = 0.0\nsamples = 5\nvalue = [5, 0]"] ;
817 -> 819 ;
820 [label="entropy = 0.0\nsamples = 1\nvalue = [0, 1]"] ;
816 -> 820 ;
821 [label="subpage_1 <= 0.5\nentropy = 1.0\nsamples = 4\nvalue = [2, 2]"] ;
813 -> 821 ;
822 [label="entropy = 0.0\nsamples = 2\nvalue = [0, 2]"] ;
821 -> 822 ;
823 [label="entropy = 0.0\nsamples = 2\nvalue = [2, 0]"] ;
821 -> 823 ;
824 [label="subpage_1 <= 0.5\nentropy = 1.0\nsamples = 8\nvalue = [4, 4]"] ;
810 -> 824 ;
825 [label="entropy = 0.0\nsamples = 2\nvalue = [2, 0]"] ;
824 -> 825 ;
826 [label="homepage_2 <= 0.5\nentropy = 0.918\nsamples = 6\nvalue = [2, 4]"] ;
824 -> 826 ;
827 [label="acumneg_3 <= 0.5\nentropy = 0.722\nsamples = 5\nvalue = [1, 4]"] ;
826 -> 827 ;
828 [label="entropy = 0.0\nsamples = 4\nvalue = [0, 4]"] ;
827 -> 828 ;
829 [label="entropy = 0.0\nsamples = 1\nvalue = [1, 0]"] ;
827 -> 829 ;
830 [label="entropy = 0.0\nsamples = 1\nvalue = [1, 0]"] ;
826 -> 830 ;
831 [label="entropy = 0.0\nsamples = 1\nvalue = [0, 1]"] ;
809 -> 831 ;
832 [label="entropy = 0.0\nsamples = 3\nvalue = [3, 0]"] ;
808 -> 832 ;
833 [label="entropy = 0.0\nsamples = 2\nvalue = [0, 2]"] ;
807 -> 833 ;
834 [label="forumng_2 <= 0.5\nentropy = 0.523\nsamples = 17\nvalue = [15, 2]"] ;
806 -> 834 ;
835 [label="entropy = 0.0\nsamples = 13\nvalue = [13, 0]"] ;
834 -> 835 ;
836 [label="url_3 <= 0.5\nentropy = 1.0\nsamples = 4\nvalue = [2, 2]"] ;
834 -> 836 ;
837 [label="subpage_1 <= 0.5\nentropy = 0.918\nsamples = 3\nvalue = [2, 1]"] ;
836 -> 837 ;
838 [label="entropy = 0.0\nsamples = 2\nvalue = [2, 0]"] ;
837 -> 838 ;
839 [label="entropy = 0.0\nsamples = 1\nvalue = [0, 1]"] ;
837 -> 839 ;
840 [label="entropy = 0.0\nsamples = 1\nvalue = [0, 1]"] ;
836 -> 840 ;
841 [label="entropy = 0.0\nsamples = 2\nvalue = [0, 2]"] ;
805 -> 841 ;
842 [label="entropy = 0.0\nsamples = 3\nvalue = [0, 3]"] ;
804 -> 842 ;
843 [label="url_4 <= 0.5\nentropy = 0.811\nsamples = 12\nvalue = [3, 9]"] ;
803 -> 843 ;
844 [label="forumng_2 <= 0.5\nentropy = 0.684\nsamples = 11\nvalue = [2, 9]"] ;
843 -> 844 ;
845 [label="entropy = 0.0\nsamples = 5\nvalue = [0, 5]"] ;
844 -> 845 ;
846 [label="resource_1 <= 0.5\nentropy = 0.918\nsamples = 6\nvalue = [2, 4]"] ;
844 -> 846 ;
847 [label="resource_3 <= 0.5\nentropy = 0.722\nsamples = 5\nvalue = [1, 4]"] ;
846 -> 847 ;
848 [label="entropy = 0.0\nsamples = 4\nvalue = [0, 4]"] ;
847 -> 848 ;
849 [label="entropy = 0.0\nsamples = 1\nvalue = [1, 0]"] ;
847 -> 849 ;
850 [label="entropy = 0.0\nsamples = 1\nvalue = [1, 0]"] ;
846 -> 850 ;
851 [label="entropy = 0.0\nsamples = 1\nvalue = [1, 0]"] ;
843 -> 851 ;
852 [label="url_4 <= 0.5\nentropy = 0.65\nsamples = 24\nvalue = [20, 4]"] ;
802 -> 852 ;
853 [label="url_2 <= 0.5\nentropy = 0.559\nsamples = 23\nvalue = [20, 3]"] ;
852 -> 853 ;
854 [label="resource_1 <= 0.5\nentropy = 0.65\nsamples = 18\nvalue = [15, 3]"] ;
853 -> 854 ;
855 [label="homepage_2 <= 0.5\nentropy = 0.523\nsamples = 17\nvalue = [15, 2]"] ;
854 -> 855 ;
856 [label="acumneg_0 <= 0.5\nentropy = 0.353\nsamples = 15\nvalue = [14, 1]"] ;
855 -> 856 ;
857 [label="entropy = 0.0\nsamples = 8\nvalue = [8, 0]"] ;
856 -> 857 ;
858 [label="url_1 <= 0.5\nentropy = 0.592\nsamples = 7\nvalue = [6, 1]"] ;
856 -> 858 ;
859 [label="entropy = 0.0\nsamples = 3\nvalue = [3, 0]"] ;
858 -> 859 ;
860 [label="entropy = 0.811\nsamples = 4\nvalue = [3, 1]"] ;
858 -> 860 ;
861 [label="forumng_1 <= 0.5\nentropy = 1.0\nsamples = 2\nvalue = [1, 1]"] ;
855 -> 861 ;
862 [label="entropy = 0.0\nsamples = 1\nvalue = [0, 1]"] ;
861 -> 862 ;
863 [label="entropy = 0.0\nsamples = 1\nvalue = [1, 0]"] ;
861 -> 863 ;
864 [label="entropy = 0.0\nsamples = 1\nvalue = [0, 1]"] ;
854 -> 864 ;
865 [label="entropy = 0.0\nsamples = 5\nvalue = [5, 0]"] ;
853 -> 865 ;
866 [label="entropy = 0.0\nsamples = 1\nvalue = [0, 1]"] ;
852 -> 866 ;
867 [label="ouwiki_0 <= 0.5\nentropy = 0.371\nsamples = 28\nvalue = [26, 2]"] ;
653 -> 867 ;
868 [label="entropy = 0.0\nsamples = 1\nvalue = [0, 1]"] ;
867 -> 868 ;
869 [label="url_0 <= 0.5\nentropy = 0.229\nsamples = 27\nvalue = [26, 1]"] ;
867 -> 869 ;
870 [label="entropy = 0.0\nsamples = 18\nvalue = [18, 0]"] ;
869 -> 870 ;
871 [label="forumng_1 <= 0.5\nentropy = 0.503\nsamples = 9\nvalue = [8, 1]"] ;
869 -> 871 ;
872 [label="entropy = 0.0\nsamples = 8\nvalue = [8, 0]"] ;
871 -> 872 ;
873 [label="entropy = 0.0\nsamples = 1\nvalue = [0, 1]"] ;
871 -> 873 ;
874 [label="subpage_0 <= 0.5\nentropy = 0.689\nsamples = 201\nvalue = [164, 37]"] ;
652 -> 874 ;
875 [label="resource_3 <= 0.5\nentropy = 0.747\nsamples = 174\nvalue = [137, 37]"] ;
874 -> 875 ;
876 [label="oucontent_0 <= 0.5\nentropy = 0.68\nsamples = 161\nvalue = [132, 29]"] ;
875 -> 876 ;
877 [label="externalquiz <= 0.5\nentropy = 0.736\nsamples = 140\nvalue = [111, 29]"] ;
876 -> 877 ;
878 [label="subpage_3 <= 0.5\nentropy = 0.889\nsamples = 62\nvalue = [43, 19]"] ;
877 -> 878 ;
879 [label="oucollaborate_0 <= 0.5\nentropy = 0.843\nsamples = 59\nvalue = [43, 16]"] ;
878 -> 879 ;
880 [label="entropy = 0.0\nsamples = 2\nvalue = [0, 2]"] ;
879 -> 880 ;
881 [label="forumng_0 <= 0.5\nentropy = 0.804\nsamples = 57\nvalue = [43, 14]"] ;
879 -> 881 ;
882 [label="resource_2 <= 0.5\nentropy = 0.863\nsamples = 49\nvalue = [35, 14]"] ;
881 -> 882 ;
883 [label="url_3 <= 0.5\nentropy = 0.944\nsamples = 36\nvalue = [23, 13]"] ;
882 -> 883 ;
884 [label="glossary <= 0.5\nentropy = 0.885\nsamples = 33\nvalue = [23, 10]"] ;
883 -> 884 ;
885 [label="homepage_2 <= 0.5\nentropy = 0.961\nsamples = 26\nvalue = [16, 10]"] ;
884 -> 885 ;
886 [label="forumng_2 <= 0.5\nentropy = 0.863\nsamples = 21\nvalue = [15, 6]"] ;
885 -> 886 ;
887 [label="acumneg_3 <= 0.5\nentropy = 0.971\nsamples = 15\nvalue = [9, 6]"] ;
886 -> 887 ;
888 [label="dataplus <= 0.5\nentropy = 0.89\nsamples = 13\nvalue = [9, 4]"] ;
887 -> 888 ;
889 [label="resource_0 <= 0.5\nentropy = 0.811\nsamples = 12\nvalue = [9, 3]"] ;
888 -> 889 ;
890 [label="entropy = 0.0\nsamples = 2\nvalue = [2, 0]"] ;
889 -> 890 ;
891 [label="subpage_1 <= 0.5\nentropy = 0.881\nsamples = 10\nvalue = [7, 3]"] ;
889 -> 891 ;
892 [label="entropy = 0.0\nsamples = 2\nvalue = [2, 0]"] ;
891 -> 892 ;
893 [label="entropy = 0.954\nsamples = 8\nvalue = [5, 3]"] ;
891 -> 893 ;
894 [label="entropy = 0.0\nsamples = 1\nvalue = [0, 1]"] ;
888 -> 894 ;
895 [label="entropy = 0.0\nsamples = 2\nvalue = [0, 2]"] ;
887 -> 895 ;
896 [label="entropy = 0.0\nsamples = 6\nvalue = [6, 0]"] ;
886 -> 896 ;
897 [label="acumneg_1 <= 0.5\nentropy = 0.722\nsamples = 5\nvalue = [1, 4]"] ;
885 -> 897 ;
898 [label="entropy = 0.0\nsamples = 4\nvalue = [0, 4]"] ;
897 -> 898 ;
899 [label="entropy = 0.0\nsamples = 1\nvalue = [1, 0]"] ;
897 -> 899 ;
900 [label="entropy = 0.0\nsamples = 7\nvalue = [7, 0]"] ;
884 -> 900 ;
901 [label="entropy = 0.0\nsamples = 3\nvalue = [0, 3]"] ;
883 -> 901 ;
902 [label="oucontent_3 <= 0.5\nentropy = 0.391\nsamples = 13\nvalue = [12, 1]"] ;
882 -> 902 ;
903 [label="entropy = 0.0\nsamples = 12\nvalue = [12, 0]"] ;
902 -> 903 ;
904 [label="entropy = 0.0\nsamples = 1\nvalue = [0, 1]"] ;
902 -> 904 ;
905 [label="entropy = 0.0\nsamples = 8\nvalue = [8, 0]"] ;
881 -> 905 ;
906 [label="entropy = 0.0\nsamples = 3\nvalue = [0, 3]"] ;
878 -> 906 ;
907 [label="resource_4 <= 0.5\nentropy = 0.552\nsamples = 78\nvalue = [68, 10]"] ;
877 -> 907 ;
908 [label="oucontent_2 <= 0.5\nentropy = 0.52\nsamples = 77\nvalue = [68, 9]"] ;
907 -> 908 ;
909 [label="subpage_2 <= 0.5\nentropy = 0.342\nsamples = 47\nvalue = [44, 3]"] ;
908 -> 909 ;
910 [label="entropy = 0.0\nsamples = 26\nvalue = [26, 0]"] ;
909 -> 910 ;
911 [label="acumneg_1 <= 0.5\nentropy = 0.592\nsamples = 21\nvalue = [18, 3]"] ;
909 -> 911 ;
912 [label="url_0 <= 0.5\nentropy = 0.469\nsamples = 20\nvalue = [18, 2]"] ;
911 -> 912 ;
913 [label="entropy = 0.0\nsamples = 16\nvalue = [16, 0]"] ;
912 -> 913 ;
914 [label="acumneg_0 <= 0.5\nentropy = 1.0\nsamples = 4\nvalue = [2, 2]"] ;
912 -> 914 ;
915 [label="entropy = 0.0\nsamples = 2\nvalue = [0, 2]"] ;
914 -> 915 ;
916 [label="entropy = 0.0\nsamples = 2\nvalue = [2, 0]"] ;
914 -> 916 ;
917 [label="entropy = 0.0\nsamples = 1\nvalue = [0, 1]"] ;
911 -> 917 ;
918 [label="resource_1 <= 0.5\nentropy = 0.722\nsamples = 30\nvalue = [24, 6]"] ;
908 -> 918 ;
919 [label="url_3 <= 0.5\nentropy = 0.337\nsamples = 16\nvalue = [15, 1]"] ;
918 -> 919 ;
920 [label="entropy = 0.0\nsamples = 12\nvalue = [12, 0]"] ;
919 -> 920 ;
921 [label="forumng_1 <= 0.5\nentropy = 0.811\nsamples = 4\nvalue = [3, 1]"] ;
919 -> 921 ;
922 [label="entropy = 0.0\nsamples = 3\nvalue = [3, 0]"] ;
921 -> 922 ;
923 [label="entropy = 0.0\nsamples = 1\nvalue = [0, 1]"] ;
921 -> 923 ;
924 [label="acumneg_3 <= 0.5\nentropy = 0.94\nsamples = 14\nvalue = [9, 5]"] ;
918 -> 924 ;
925 [label="acumneg_1 <= 0.5\nentropy = 0.811\nsamples = 12\nvalue = [9, 3]"] ;
924 -> 925 ;
926 [label="forumng_0 <= 0.5\nentropy = 0.503\nsamples = 9\nvalue = [8, 1]"] ;
925 -> 926 ;
927 [label="entropy = 0.0\nsamples = 8\nvalue = [8, 0]"] ;
926 -> 927 ;
928 [label="entropy = 0.0\nsamples = 1\nvalue = [0, 1]"] ;
926 -> 928 ;
929 [label="url_0 <= 0.5\nentropy = 0.918\nsamples = 3\nvalue = [1, 2]"] ;
925 -> 929 ;
930 [label="entropy = 0.0\nsamples = 1\nvalue = [0, 1]"] ;
929 -> 930 ;
931 [label="entropy = 1.0\nsamples = 2\nvalue = [1, 1]"] ;
929 -> 931 ;
932 [label="entropy = 0.0\nsamples = 2\nvalue = [0, 2]"] ;
924 -> 932 ;
933 [label="entropy = 0.0\nsamples = 1\nvalue = [0, 1]"] ;
907 -> 933 ;
934 [label="entropy = 0.0\nsamples = 21\nvalue = [21, 0]"] ;
876 -> 934 ;
935 [label="subpage_2 <= 0.5\nentropy = 0.961\nsamples = 13\nvalue = [5, 8]"] ;
875 -> 935 ;
936 [label="forumng_0 <= 0.5\nentropy = 0.65\nsamples = 6\nvalue = [1, 5]"] ;
935 -> 936 ;
937 [label="entropy = 0.0\nsamples = 5\nvalue = [0, 5]"] ;
936 -> 937 ;
938 [label="entropy = 0.0\nsamples = 1\nvalue = [1, 0]"] ;
936 -> 938 ;
939 [label="acumneg_0 <= 0.5\nentropy = 0.985\nsamples = 7\nvalue = [4, 3]"] ;
935 -> 939 ;
940 [label="url_0 <= 0.5\nentropy = 0.918\nsamples = 6\nvalue = [4, 2]"] ;
939 -> 940 ;
941 [label="homepage_1 <= 0.5\nentropy = 0.722\nsamples = 5\nvalue = [4, 1]"] ;
940 -> 941 ;
942 [label="url_2 <= 0.5\nentropy = 1.0\nsamples = 2\nvalue = [1, 1]"] ;
941 -> 942 ;
943 [label="entropy = 0.0\nsamples = 1\nvalue = [0, 1]"] ;
942 -> 943 ;
944 [label="entropy = 0.0\nsamples = 1\nvalue = [1, 0]"] ;
942 -> 944 ;
945 [label="entropy = 0.0\nsamples = 3\nvalue = [3, 0]"] ;
941 -> 945 ;
946 [label="entropy = 0.0\nsamples = 1\nvalue = [0, 1]"] ;
940 -> 946 ;
947 [label="entropy = 0.0\nsamples = 1\nvalue = [0, 1]"] ;
939 -> 947 ;
948 [label="entropy = 0.0\nsamples = 27\nvalue = [27, 0]"] ;
874 -> 948 ;
949 [label="entropy = 0.0\nsamples = 94\nvalue = [94, 0]"] ;
651 -> 949 ;
950 [label="quiz_0 <= 0.5\nentropy = 0.285\nsamples = 665\nvalue = [632, 33]"] ;
0 -> 950 [labeldistance=2.5, labelangle=-45, headlabel="False"] ;
951 [label="forumng_1 <= 0.5\nentropy = 0.878\nsamples = 84\nvalue = [59, 25]"] ;
950 -> 951 ;
952 [label="acumneg_0 <= 0.5\nentropy = 0.731\nsamples = 44\nvalue = [35, 9]"] ;
951 -> 952 ;
953 [label="oucontent_0 <= 0.5\nentropy = 0.337\nsamples = 16\nvalue = [15, 1]"] ;
952 -> 953 ;
954 [label="entropy = 0.0\nsamples = 9\nvalue = [9, 0]"] ;
953 -> 954 ;
955 [label="url_0 <= 0.5\nentropy = 0.592\nsamples = 7\nvalue = [6, 1]"] ;
953 -> 955 ;
956 [label="entropy = 0.0\nsamples = 5\nvalue = [5, 0]"] ;
955 -> 956 ;
957 [label="entropy = 1.0\nsamples = 2\nvalue = [1, 1]"] ;
955 -> 957 ;
958 [label="subpage_2 <= 0.5\nentropy = 0.863\nsamples = 28\nvalue = [20, 8]"] ;
952 -> 958 ;
959 [label="url_1 <= 0.5\nentropy = 0.826\nsamples = 27\nvalue = [20, 7]"] ;
958 -> 959 ;
960 [label="oucontent_1 <= 0.5\nentropy = 0.949\nsamples = 19\nvalue = [12, 7]"] ;
959 -> 960 ;
961 [label="homepage_1 <= 0.5\nentropy = 0.985\nsamples = 7\nvalue = [3, 4]"] ;
960 -> 961 ;
962 [label="resource_0 <= 0.5\nentropy = 0.918\nsamples = 6\nvalue = [2, 4]"] ;
961 -> 962 ;
963 [label="entropy = 0.0\nsamples = 1\nvalue = [0, 1]"] ;
962 -> 963 ;
964 [label="entropy = 0.971\nsamples = 5\nvalue = [2, 3]"] ;
962 -> 964 ;
965 [label="entropy = 0.0\nsamples = 1\nvalue = [1, 0]"] ;
961 -> 965 ;
966 [label="resource_1 <= 0.5\nentropy = 0.811\nsamples = 12\nvalue = [9, 3]"] ;
960 -> 966 ;
967 [label="subpage_0 <= 0.5\nentropy = 0.503\nsamples = 9\nvalue = [8, 1]"] ;
966 -> 967 ;
968 [label="resource_0 <= 0.5\nentropy = 1.0\nsamples = 2\nvalue = [1, 1]"] ;
967 -> 968 ;
969 [label="entropy = 0.0\nsamples = 1\nvalue = [1, 0]"] ;
968 -> 969 ;
970 [label="entropy = 0.0\nsamples = 1\nvalue = [0, 1]"] ;
968 -> 970 ;
971 [label="entropy = 0.0\nsamples = 7\nvalue = [7, 0]"] ;
967 -> 971 ;
972 [label="subpage_1 <= 0.5\nentropy = 0.918\nsamples = 3\nvalue = [1, 2]"] ;
966 -> 972 ;
973 [label="entropy = 0.0\nsamples = 1\nvalue = [0, 1]"] ;
972 -> 973 ;
974 [label="entropy = 1.0\nsamples = 2\nvalue = [1, 1]"] ;
972 -> 974 ;
975 [label="entropy = 0.0\nsamples = 8\nvalue = [8, 0]"] ;
959 -> 975 ;
976 [label="entropy = 0.0\nsamples = 1\nvalue = [0, 1]"] ;
958 -> 976 ;
977 [label="resource_0 <= 0.5\nentropy = 0.971\nsamples = 40\nvalue = [24, 16]"] ;
951 -> 977 ;
978 [label="url_2 <= 0.5\nentropy = 0.863\nsamples = 7\nvalue = [2, 5]"] ;
977 -> 978 ;
979 [label="acumneg_1 <= 0.5\nentropy = 0.65\nsamples = 6\nvalue = [1, 5]"] ;
978 -> 979 ;
980 [label="entropy = 0.0\nsamples = 4\nvalue = [0, 4]"] ;
979 -> 980 ;
981 [label="subpage_0 <= 0.5\nentropy = 1.0\nsamples = 2\nvalue = [1, 1]"] ;
979 -> 981 ;
982 [label="entropy = 0.0\nsamples = 1\nvalue = [0, 1]"] ;
981 -> 982 ;
983 [label="entropy = 0.0\nsamples = 1\nvalue = [1, 0]"] ;
981 -> 983 ;
984 [label="entropy = 0.0\nsamples = 1\nvalue = [1, 0]"] ;
978 -> 984 ;
985 [label="oucontent_1 <= 0.5\nentropy = 0.918\nsamples = 33\nvalue = [22, 11]"] ;
977 -> 985 ;
986 [label="url_0 <= 0.5\nentropy = 0.755\nsamples = 23\nvalue = [18, 5]"] ;
985 -> 986 ;
987 [label="entropy = 0.0\nsamples = 7\nvalue = [7, 0]"] ;
986 -> 987 ;
988 [label="acumneg_0 <= 0.5\nentropy = 0.896\nsamples = 16\nvalue = [11, 5]"] ;
986 -> 988 ;
989 [label="entropy = 0.0\nsamples = 6\nvalue = [6, 0]"] ;
988 -> 989 ;
990 [label="entropy = 1.0\nsamples = 10\nvalue = [5, 5]"] ;
988 -> 990 ;
991 [label="subpage_1 <= 0.5\nentropy = 0.971\nsamples = 10\nvalue = [4, 6]"] ;
985 -> 991 ;
992 [label="acumneg_1 <= 0.5\nentropy = 1.0\nsamples = 8\nvalue = [4, 4]"] ;
991 -> 992 ;
993 [label="url_0 <= 0.5\nentropy = 0.918\nsamples = 6\nvalue = [2, 4]"] ;
992 -> 993 ;
994 [label="entropy = 0.0\nsamples = 2\nvalue = [0, 2]"] ;
993 -> 994 ;
995 [label="entropy = 1.0\nsamples = 4\nvalue = [2, 2]"] ;
993 -> 995 ;
996 [label="entropy = 0.0\nsamples = 2\nvalue = [2, 0]"] ;
992 -> 996 ;
997 [label="entropy = 0.0\nsamples = 2\nvalue = [0, 2]"] ;
991 -> 997 ;
998 [label="homepage_1 <= 0.5\nentropy = 0.105\nsamples = 581\nvalue = [573, 8]"] ;
950 -> 998 ;
999 [label="acumneg_0 <= 0.5\nentropy = 0.067\nsamples = 499\nvalue = [495, 4]"] ;
998 -> 999 ;
1000 [label="entropy = 0.0\nsamples = 252\nvalue = [252, 0]"] ;
999 -> 1000 ;
1001 [label="subpage_2 <= 0.5\nentropy = 0.12\nsamples = 247\nvalue = [243, 4]"] ;
999 -> 1001 ;
1002 [label="subpage_0 <= 0.5\nentropy = 0.096\nsamples = 244\nvalue = [241, 3]"] ;
1001 -> 1002 ;
1003 [label="entropy = 0.0\nsamples = 47\nvalue = [47, 0]"] ;
1002 -> 1003 ;
1004 [label="resource_0 <= 0.5\nentropy = 0.114\nsamples = 197\nvalue = [194, 3]"] ;
1002 -> 1004 ;
1005 [label="entropy = 0.0\nsamples = 24\nvalue = [24, 0]"] ;
1004 -> 1005 ;
1006 [label="url_1 <= 0.5\nentropy = 0.126\nsamples = 173\nvalue = [170, 3]"] ;
1004 -> 1006 ;
1007 [label="oucontent_0 <= 0.5\nentropy = 0.106\nsamples = 143\nvalue = [141, 2]"] ;
1006 -> 1007 ;
1008 [label="entropy = 0.0\nsamples = 35\nvalue = [35, 0]"] ;
1007 -> 1008 ;
1009 [label="forumng_0 <= 0.5\nentropy = 0.133\nsamples = 108\nvalue = [106, 2]"] ;
1007 -> 1009 ;
1010 [label="entropy = 0.0\nsamples = 26\nvalue = [26, 0]"] ;
1009 -> 1010 ;
1011 [label="url_2 <= 0.5\nentropy = 0.165\nsamples = 82\nvalue = [80, 2]"] ;
1009 -> 1011 ;
1012 [label="page <= 0.5\nentropy = 0.174\nsamples = 77\nvalue = [75, 2]"] ;
1011 -> 1012 ;
1013 [label="glossary <= 0.5\nentropy = 0.179\nsamples = 74\nvalue = [72, 2]"] ;
1012 -> 1013 ;
1014 [label="externalquiz <= 0.5\nentropy = 0.183\nsamples = 72\nvalue = [70, 2]"] ;
1013 -> 1014 ;
1015 [label="entropy = 0.185\nsamples = 71\nvalue = [69, 2]"] ;
1014 -> 1015 ;
1016 [label="entropy = 0.0\nsamples = 1\nvalue = [1, 0]"] ;
1014 -> 1016 ;
1017 [label="entropy = 0.0\nsamples = 2\nvalue = [2, 0]"] ;
1013 -> 1017 ;
1018 [label="entropy = 0.0\nsamples = 3\nvalue = [3, 0]"] ;
1012 -> 1018 ;
1019 [label="entropy = 0.0\nsamples = 5\nvalue = [5, 0]"] ;
1011 -> 1019 ;
1020 [label="oucontent_1 <= 0.5\nentropy = 0.211\nsamples = 30\nvalue = [29, 1]"] ;
1006 -> 1020 ;
1021 [label="entropy = 0.0\nsamples = 26\nvalue = [26, 0]"] ;
1020 -> 1021 ;
1022 [label="forumng_2 <= 0.5\nentropy = 0.811\nsamples = 4\nvalue = [3, 1]"] ;
1020 -> 1022 ;
1023 [label="entropy = 0.918\nsamples = 3\nvalue = [2, 1]"] ;
1022 -> 1023 ;
1024 [label="entropy = 0.0\nsamples = 1\nvalue = [1, 0]"] ;
1022 -> 1024 ;
1025 [label="page <= 0.5\nentropy = 0.918\nsamples = 3\nvalue = [2, 1]"] ;
1001 -> 1025 ;
1026 [label="oucontent_0 <= 0.5\nentropy = 1.0\nsamples = 2\nvalue = [1, 1]"] ;
1025 -> 1026 ;
1027 [label="entropy = 0.0\nsamples = 1\nvalue = [0, 1]"] ;
1026 -> 1027 ;
1028 [label="entropy = 0.0\nsamples = 1\nvalue = [1, 0]"] ;
1026 -> 1028 ;
1029 [label="entropy = 0.0\nsamples = 1\nvalue = [1, 0]"] ;
1025 -> 1029 ;
1030 [label="dataplus <= 0.5\nentropy = 0.281\nsamples = 82\nvalue = [78, 4]"] ;
998 -> 1030 ;
1031 [label="resource_0 <= 0.5\nentropy = 0.229\nsamples = 81\nvalue = [78, 3]"] ;
1030 -> 1031 ;
1032 [label="entropy = 0.0\nsamples = 49\nvalue = [49, 0]"] ;
1031 -> 1032 ;
1033 [label="externalquiz <= 0.5\nentropy = 0.449\nsamples = 32\nvalue = [29, 3]"] ;
1031 -> 1033 ;
1034 [label="url_3 <= 0.5\nentropy = 0.722\nsamples = 15\nvalue = [12, 3]"] ;
1033 -> 1034 ;
1035 [label="url_2 <= 0.5\nentropy = 0.592\nsamples = 14\nvalue = [12, 2]"] ;
1034 -> 1035 ;
1036 [label="page <= 0.5\nentropy = 0.764\nsamples = 9\nvalue = [7, 2]"] ;
1035 -> 1036 ;
1037 [label="forumng_2 <= 0.5\nentropy = 0.918\nsamples = 6\nvalue = [4, 2]"] ;
1036 -> 1037 ;
1038 [label="subpage_1 <= 0.5\nentropy = 0.722\nsamples = 5\nvalue = [4, 1]"] ;
1037 -> 1038 ;
1039 [label="entropy = 0.0\nsamples = 4\nvalue = [4, 0]"] ;
1038 -> 1039 ;
1040 [label="entropy = 0.0\nsamples = 1\nvalue = [0, 1]"] ;
1038 -> 1040 ;
1041 [label="entropy = 0.0\nsamples = 1\nvalue = [0, 1]"] ;
1037 -> 1041 ;
1042 [label="entropy = 0.0\nsamples = 3\nvalue = [3, 0]"] ;
1036 -> 1042 ;
1043 [label="entropy = 0.0\nsamples = 5\nvalue = [5, 0]"] ;
1035 -> 1043 ;
1044 [label="entropy = 0.0\nsamples = 1\nvalue = [0, 1]"] ;
1034 -> 1044 ;
1045 [label="entropy = 0.0\nsamples = 17\nvalue = [17, 0]"] ;
1033 -> 1045 ;
1046 [label="entropy = 0.0\nsamples = 1\nvalue = [0, 1]"] ;
1030 -> 1046 ;
}