digraph Tree {
node [shape=box] ;
0 [label="acumg_0 <= 0.5\nentropy = 1.0\nsamples = 3200\nvalue = [1622, 1578]"] ;
1 [label="acumg_1 <= 0.5\nentropy = 0.969\nsamples = 2575\nvalue = [1020, 1555]"] ;
0 -> 1 [labeldistance=2.5, labelangle=45, headlabel="True"] ;
2 [label="acumg_4 <= 0.5\nentropy = 0.879\nsamples = 1875\nvalue = [559, 1316]"] ;
1 -> 2 ;
3 [label="homepage_1 <= 0.5\nentropy = 0.947\nsamples = 1326\nvalue = [485, 841]"] ;
2 -> 3 ;
4 [label="questionnaire <= 0.5\nentropy = 0.918\nsamples = 1144\nvalue = [381, 763]"] ;
3 -> 4 ;
5 [label="homepage_2 <= 0.5\nentropy = 0.899\nsamples = 1088\nvalue = [343, 745]"] ;
4 -> 5 ;
6 [label="oucontent_0 <= 0.5\nentropy = 0.797\nsamples = 589\nvalue = [142, 447]"] ;
5 -> 6 ;
7 [label="oucontent_3 <= 0.5\nentropy = 0.775\nsamples = 561\nvalue = [128, 433]"] ;
6 -> 7 ;
8 [label="oucollaborate_1 <= 0.5\nentropy = 0.691\nsamples = 378\nvalue = [70, 308]"] ;
7 -> 8 ;
9 [label="quiz_0 <= 0.5\nentropy = 0.768\nsamples = 272\nvalue = [61, 211]"] ;
8 -> 9 ;
10 [label="resource_3 <= 0.5\nentropy = 0.705\nsamples = 245\nvalue = [47, 198]"] ;
9 -> 10 ;
11 [label="forumng_2 <= 0.5\nentropy = 0.594\nsamples = 195\nvalue = [28, 167]"] ;
10 -> 11 ;
12 [label="dualpane <= 0.5\nentropy = 0.672\nsamples = 153\nvalue = [27, 126]"] ;
11 -> 12 ;
13 [label="acumneg_2 <= 0.5\nentropy = 0.639\nsamples = 148\nvalue = [24, 124]"] ;
12 -> 13 ;
14 [label="ouwiki_0 <= 0.5\nentropy = 0.712\nsamples = 118\nvalue = [23, 95]"] ;
13 -> 14 ;
15 [label="entropy = 0.0\nsamples = 10\nvalue = [0, 10]"] ;
14 -> 15 ;
16 [label="url_4 <= 0.5\nentropy = 0.747\nsamples = 108\nvalue = [23, 85]"] ;
14 -> 16 ;
17 [label="oucontent_1 <= 0.5\nentropy = 0.606\nsamples = 74\nvalue = [11, 63]"] ;
16 -> 17 ;
18 [label="forumng_1 <= 0.5\nentropy = 0.824\nsamples = 31\nvalue = [8, 23]"] ;
17 -> 18 ;
19 [label="subpage_3 <= 0.5\nentropy = 0.982\nsamples = 19\nvalue = [8, 11]"] ;
18 -> 19 ;
20 [label="subpage_4 <= 0.5\nentropy = 0.722\nsamples = 10\nvalue = [2, 8]"] ;
19 -> 20 ;
21 [label="resource_1 <= 0.5\nentropy = 0.503\nsamples = 9\nvalue = [1, 8]"] ;
20 -> 21 ;
22 [label="entropy = 0.0\nsamples = 6\nvalue = [0, 6]"] ;
21 -> 22 ;
23 [label="quiz_2 <= 0.5\nentropy = 0.918\nsamples = 3\nvalue = [1, 2]"] ;
21 -> 23 ;
24 [label="entropy = 0.0\nsamples = 1\nvalue = [1, 0]"] ;
23 -> 24 ;
25 [label="entropy = 0.0\nsamples = 2\nvalue = [0, 2]"] ;
23 -> 25 ;
26 [label="entropy = 0.0\nsamples = 1\nvalue = [1, 0]"] ;
20 -> 26 ;
27 [label="quiz_2 <= 0.5\nentropy = 0.918\nsamples = 9\nvalue = [6, 3]"] ;
19 -> 27 ;
28 [label="acumneg_4 <= 0.5\nentropy = 0.918\nsamples = 3\nvalue = [1, 2]"] ;
27 -> 28 ;
29 [label="entropy = 0.0\nsamples = 2\nvalue = [0, 2]"] ;
28 -> 29 ;
30 [label="entropy = 0.0\nsamples = 1\nvalue = [1, 0]"] ;
28 -> 30 ;
31 [label="url_2 <= 0.5\nentropy = 0.65\nsamples = 6\nvalue = [5, 1]"] ;
27 -> 31 ;
32 [label="entropy = 0.0\nsamples = 3\nvalue = [3, 0]"] ;
31 -> 32 ;
33 [label="acumneg_3 <= 0.5\nentropy = 0.918\nsamples = 3\nvalue = [2, 1]"] ;
31 -> 33 ;
34 [label="entropy = 0.0\nsamples = 1\nvalue = [0, 1]"] ;
33 -> 34 ;
35 [label="entropy = 0.0\nsamples = 2\nvalue = [2, 0]"] ;
33 -> 35 ;
36 [label="entropy = 0.0\nsamples = 12\nvalue = [0, 12]"] ;
18 -> 36 ;
37 [label="forumng_1 <= 0.5\nentropy = 0.365\nsamples = 43\nvalue = [3, 40]"] ;
17 -> 37 ;
38 [label="url_0 <= 0.5\nentropy = 0.169\nsamples = 40\nvalue = [1, 39]"] ;
37 -> 38 ;
39 [label="entropy = 0.0\nsamples = 39\nvalue = [0, 39]"] ;
38 -> 39 ;
40 [label="entropy = 0.0\nsamples = 1\nvalue = [1, 0]"] ;
38 -> 40 ;
41 [label="url_3 <= 0.5\nentropy = 0.918\nsamples = 3\nvalue = [2, 1]"] ;
37 -> 41 ;
42 [label="entropy = 0.0\nsamples = 1\nvalue = [0, 1]"] ;
41 -> 42 ;
43 [label="entropy = 0.0\nsamples = 2\nvalue = [2, 0]"] ;
41 -> 43 ;
44 [label="oucontent_2 <= 0.5\nentropy = 0.937\nsamples = 34\nvalue = [12, 22]"] ;
16 -> 44 ;
45 [label="acumneg_4 <= 0.5\nentropy = 0.985\nsamples = 28\nvalue = [12, 16]"] ;
44 -> 45 ;
46 [label="resource_1 <= 0.5\nentropy = 1.0\nsamples = 24\nvalue = [12, 12]"] ;
45 -> 46 ;
47 [label="subpage_1 <= 0.5\nentropy = 0.918\nsamples = 18\nvalue = [6, 12]"] ;
46 -> 47 ;
48 [label="resource_4 <= 0.5\nentropy = 0.971\nsamples = 15\nvalue = [6, 9]"] ;
47 -> 48 ;
49 [label="entropy = 0.0\nsamples = 3\nvalue = [3, 0]"] ;
48 -> 49 ;
50 [label="acumneg_0 <= 0.5\nentropy = 0.811\nsamples = 12\nvalue = [3, 9]"] ;
48 -> 50 ;
51 [label="forumng_1 <= 0.5\nentropy = 0.503\nsamples = 9\nvalue = [1, 8]"] ;
50 -> 51 ;
52 [label="entropy = 0.0\nsamples = 8\nvalue = [0, 8]"] ;
51 -> 52 ;
53 [label="entropy = 0.0\nsamples = 1\nvalue = [1, 0]"] ;
51 -> 53 ;
54 [label="quiz_2 <= 0.5\nentropy = 0.918\nsamples = 3\nvalue = [2, 1]"] ;
50 -> 54 ;
55 [label="entropy = 0.0\nsamples = 1\nvalue = [0, 1]"] ;
54 -> 55 ;
56 [label="entropy = 0.0\nsamples = 2\nvalue = [2, 0]"] ;
54 -> 56 ;
57 [label="entropy = 0.0\nsamples = 3\nvalue = [0, 3]"] ;
47 -> 57 ;
58 [label="entropy = 0.0\nsamples = 6\nvalue = [6, 0]"] ;
46 -> 58 ;
59 [label="entropy = 0.0\nsamples = 4\nvalue = [0, 4]"] ;
45 -> 59 ;
60 [label="entropy = 0.0\nsamples = 6\nvalue = [0, 6]"] ;
44 -> 60 ;
61 [label="folder <= 0.5\nentropy = 0.211\nsamples = 30\nvalue = [1, 29]"] ;
13 -> 61 ;
62 [label="entropy = 0.0\nsamples = 29\nvalue = [0, 29]"] ;
61 -> 62 ;
63 [label="entropy = 0.0\nsamples = 1\nvalue = [1, 0]"] ;
61 -> 63 ;
64 [label="acumneg_1 <= 0.5\nentropy = 0.971\nsamples = 5\nvalue = [3, 2]"] ;
12 -> 64 ;
65 [label="entropy = 0.0\nsamples = 3\nvalue = [3, 0]"] ;
64 -> 65 ;
66 [label="entropy = 0.0\nsamples = 2\nvalue = [0, 2]"] ;
64 -> 66 ;
67 [label="oucontent_2 <= 0.5\nentropy = 0.162\nsamples = 42\nvalue = [1, 41]"] ;
11 -> 67 ;
68 [label="entropy = 0.0\nsamples = 36\nvalue = [0, 36]"] ;
67 -> 68 ;
69 [label="acumg_2 <= 0.5\nentropy = 0.65\nsamples = 6\nvalue = [1, 5]"] ;
67 -> 69 ;
70 [label="entropy = 0.0\nsamples = 4\nvalue = [0, 4]"] ;
69 -> 70 ;
71 [label="acumneg_2 <= 0.5\nentropy = 1.0\nsamples = 2\nvalue = [1, 1]"] ;
69 -> 71 ;
72 [label="entropy = 0.0\nsamples = 1\nvalue = [1, 0]"] ;
71 -> 72 ;
73 [label="entropy = 0.0\nsamples = 1\nvalue = [0, 1]"] ;
71 -> 73 ;
74 [label="url_1 <= 0.5\nentropy = 0.958\nsamples = 50\nvalue = [19, 31]"] ;
10 -> 74 ;
75 [label="acumneg_3 <= 0.5\nentropy = 0.872\nsamples = 41\nvalue = [12, 29]"] ;
74 -> 75 ;
76 [label="acumneg_1 <= 0.5\nentropy = 0.985\nsamples = 28\nvalue = [12, 16]"] ;
75 -> 76 ;
77 [label="homepage_4 <= 0.5\nentropy = 1.0\nsamples = 24\nvalue = [12, 12]"] ;
76 -> 77 ;
78 [label="acumg_3 <= 0.5\nentropy = 0.994\nsamples = 22\nvalue = [12, 10]"] ;
77 -> 78 ;
79 [label="subpage_3 <= 0.5\nentropy = 0.98\nsamples = 12\nvalue = [5, 7]"] ;
78 -> 79 ;
80 [label="acumneg_4 <= 0.5\nentropy = 0.954\nsamples = 8\nvalue = [5, 3]"] ;
79 -> 80 ;
81 [label="forumng_1 <= 0.5\nentropy = 0.722\nsamples = 5\nvalue = [4, 1]"] ;
80 -> 81 ;
82 [label="acumneg_0 <= 0.5\nentropy = 0.811\nsamples = 4\nvalue = [3, 1]"] ;
81 -> 82 ;
83 [label="entropy = 0.0\nsamples = 1\nvalue = [1, 0]"] ;
82 -> 83 ;
84 [label="entropy = 0.918\nsamples = 3\nvalue = [2, 1]"] ;
82 -> 84 ;
85 [label="entropy = 0.0\nsamples = 1\nvalue = [1, 0]"] ;
81 -> 85 ;
86 [label="glossary <= 0.5\nentropy = 0.918\nsamples = 3\nvalue = [1, 2]"] ;
80 -> 86 ;
87 [label="entropy = 0.0\nsamples = 1\nvalue = [1, 0]"] ;
86 -> 87 ;
88 [label="entropy = 0.0\nsamples = 2\nvalue = [0, 2]"] ;
86 -> 88 ;
89 [label="entropy = 0.0\nsamples = 4\nvalue = [0, 4]"] ;
79 -> 89 ;
90 [label="glossary <= 0.5\nentropy = 0.881\nsamples = 10\nvalue = [7, 3]"] ;
78 -> 90 ;
91 [label="folder <= 0.5\nentropy = 0.764\nsamples = 9\nvalue = [7, 2]"] ;
90 -> 91 ;
92 [label="url_3 <= 0.5\nentropy = 0.544\nsamples = 8\nvalue = [7, 1]"] ;
91 -> 92 ;
93 [label="entropy = 0.0\nsamples = 6\nvalue = [6, 0]"] ;
92 -> 93 ;
94 [label="acumneg_2 <= 0.5\nentropy = 1.0\nsamples = 2\nvalue = [1, 1]"] ;
92 -> 94 ;
95 [label="entropy = 0.0\nsamples = 1\nvalue = [1, 0]"] ;
94 -> 95 ;
96 [label="entropy = 0.0\nsamples = 1\nvalue = [0, 1]"] ;
94 -> 96 ;
97 [label="entropy = 0.0\nsamples = 1\nvalue = [0, 1]"] ;
91 -> 97 ;
98 [label="entropy = 0.0\nsamples = 1\nvalue = [0, 1]"] ;
90 -> 98 ;
99 [label="entropy = 0.0\nsamples = 2\nvalue = [0, 2]"] ;
77 -> 99 ;
100 [label="entropy = 0.0\nsamples = 4\nvalue = [0, 4]"] ;
76 -> 100 ;
101 [label="entropy = 0.0\nsamples = 13\nvalue = [0, 13]"] ;
75 -> 101 ;
102 [label="oucontent_2 <= 0.5\nentropy = 0.764\nsamples = 9\nvalue = [7, 2]"] ;
74 -> 102 ;
103 [label="entropy = 0.0\nsamples = 1\nvalue = [0, 1]"] ;
102 -> 103 ;
104 [label="forumng_3 <= 0.5\nentropy = 0.544\nsamples = 8\nvalue = [7, 1]"] ;
102 -> 104 ;
105 [label="entropy = 0.0\nsamples = 5\nvalue = [5, 0]"] ;
104 -> 105 ;
106 [label="page <= 0.5\nentropy = 0.918\nsamples = 3\nvalue = [2, 1]"] ;
104 -> 106 ;
107 [label="entropy = 0.0\nsamples = 1\nvalue = [0, 1]"] ;
106 -> 107 ;
108 [label="entropy = 0.0\nsamples = 2\nvalue = [2, 0]"] ;
106 -> 108 ;
109 [label="acumneg_2 <= 0.5\nentropy = 0.999\nsamples = 27\nvalue = [14, 13]"] ;
9 -> 109 ;
110 [label="url_1 <= 0.5\nentropy = 0.98\nsamples = 24\nvalue = [14, 10]"] ;
109 -> 110 ;
111 [label="acumg_2 <= 0.5\nentropy = 0.918\nsamples = 21\nvalue = [14, 7]"] ;
110 -> 111 ;
112 [label="url_3 <= 0.5\nentropy = 1.0\nsamples = 14\nvalue = [7, 7]"] ;
111 -> 112 ;
113 [label="subpage_3 <= 0.5\nentropy = 0.65\nsamples = 6\nvalue = [1, 5]"] ;
112 -> 113 ;
114 [label="entropy = 0.0\nsamples = 4\nvalue = [0, 4]"] ;
113 -> 114 ;
115 [label="acumneg_4 <= 0.5\nentropy = 1.0\nsamples = 2\nvalue = [1, 1]"] ;
113 -> 115 ;
116 [label="entropy = 0.0\nsamples = 1\nvalue = [0, 1]"] ;
115 -> 116 ;
117 [label="entropy = 0.0\nsamples = 1\nvalue = [1, 0]"] ;
115 -> 117 ;
118 [label="resource_4 <= 0.5\nentropy = 0.811\nsamples = 8\nvalue = [6, 2]"] ;
112 -> 118 ;
119 [label="entropy = 0.0\nsamples = 2\nvalue = [2, 0]"] ;
118 -> 119 ;
120 [label="acumneg_3 <= 0.5\nentropy = 0.918\nsamples = 6\nvalue = [4, 2]"] ;
118 -> 120 ;
121 [label="homepage_3 <= 0.5\nentropy = 0.811\nsamples = 4\nvalue = [3, 1]"] ;
120 -> 121 ;
122 [label="entropy = 0.0\nsamples = 1\nvalue = [0, 1]"] ;
121 -> 122 ;
123 [label="entropy = 0.0\nsamples = 3\nvalue = [3, 0]"] ;
121 -> 123 ;
124 [label="homepage_3 <= 0.5\nentropy = 1.0\nsamples = 2\nvalue = [1, 1]"] ;
120 -> 124 ;
125 [label="entropy = 0.0\nsamples = 1\nvalue = [1, 0]"] ;
124 -> 125 ;
126 [label="entropy = 0.0\nsamples = 1\nvalue = [0, 1]"] ;
124 -> 126 ;
127 [label="entropy = 0.0\nsamples = 7\nvalue = [7, 0]"] ;
111 -> 127 ;
128 [label="entropy = 0.0\nsamples = 3\nvalue = [0, 3]"] ;
110 -> 128 ;
129 [label="entropy = 0.0\nsamples = 3\nvalue = [0, 3]"] ;
109 -> 129 ;
130 [label="oucontent_2 <= 0.5\nentropy = 0.419\nsamples = 106\nvalue = [9, 97]"] ;
8 -> 130 ;
131 [label="entropy = 0.0\nsamples = 34\nvalue = [0, 34]"] ;
130 -> 131 ;
132 [label="resource_2 <= 0.5\nentropy = 0.544\nsamples = 72\nvalue = [9, 63]"] ;
130 -> 132 ;
133 [label="url_4 <= 0.5\nentropy = 0.426\nsamples = 69\nvalue = [6, 63]"] ;
132 -> 133 ;
134 [label="forumng_4 <= 0.5\nentropy = 0.65\nsamples = 36\nvalue = [6, 30]"] ;
133 -> 134 ;
135 [label="glossary <= 0.5\nentropy = 0.75\nsamples = 28\nvalue = [6, 22]"] ;
134 -> 135 ;
136 [label="acumneg_3 <= 0.5\nentropy = 0.575\nsamples = 22\nvalue = [3, 19]"] ;
135 -> 136 ;
137 [label="subpage_3 <= 0.5\nentropy = 0.779\nsamples = 13\nvalue = [3, 10]"] ;
136 -> 137 ;
138 [label="entropy = 0.0\nsamples = 6\nvalue = [0, 6]"] ;
137 -> 138 ;
139 [label="forumng_2 <= 0.5\nentropy = 0.985\nsamples = 7\nvalue = [3, 4]"] ;
137 -> 139 ;
140 [label="url_2 <= 0.5\nentropy = 0.971\nsamples = 5\nvalue = [3, 2]"] ;
139 -> 140 ;
141 [label="acumneg_4 <= 0.5\nentropy = 0.918\nsamples = 3\nvalue = [1, 2]"] ;
140 -> 141 ;
142 [label="entropy = 0.0\nsamples = 2\nvalue = [0, 2]"] ;
141 -> 142 ;
143 [label="entropy = 0.0\nsamples = 1\nvalue = [1, 0]"] ;
141 -> 143 ;
144 [label="entropy = 0.0\nsamples = 2\nvalue = [2, 0]"] ;
140 -> 144 ;
145 [label="entropy = 0.0\nsamples = 2\nvalue = [0, 2]"] ;
139 -> 145 ;
146 [label="entropy = 0.0\nsamples = 9\nvalue = [0, 9]"] ;
136 -> 146 ;
147 [label="forumng_3 <= 0.5\nentropy = 1.0\nsamples = 6\nvalue = [3, 3]"] ;
135 -> 147 ;
148 [label="entropy = 0.0\nsamples = 1\nvalue = [0, 1]"] ;
147 -> 148 ;
149 [label="acumneg_3 <= 0.5\nentropy = 0.971\nsamples = 5\nvalue = [3, 2]"] ;
147 -> 149 ;
150 [label="homepage_4 <= 0.5\nentropy = 0.918\nsamples = 3\nvalue = [1, 2]"] ;
149 -> 150 ;
151 [label="entropy = 0.0\nsamples = 2\nvalue = [0, 2]"] ;
150 -> 151 ;
152 [label="entropy = 0.0\nsamples = 1\nvalue = [1, 0]"] ;
150 -> 152 ;
153 [label="entropy = 0.0\nsamples = 2\nvalue = [2, 0]"] ;
149 -> 153 ;
154 [label="entropy = 0.0\nsamples = 8\nvalue = [0, 8]"] ;
134 -> 154 ;
155 [label="entropy = 0.0\nsamples = 33\nvalue = [0, 33]"] ;
133 -> 155 ;
156 [label="entropy = 0.0\nsamples = 3\nvalue = [3, 0]"] ;
132 -> 156 ;
157 [label="subpage_1 <= 0.5\nentropy = 0.901\nsamples = 183\nvalue = [58, 125]"] ;
7 -> 157 ;
158 [label="subpage_2 <= 0.5\nentropy = 0.937\nsamples = 164\nvalue = [58, 106]"] ;
157 -> 158 ;
159 [label="quiz_2 <= 0.5\nentropy = 0.976\nsamples = 137\nvalue = [56, 81]"] ;
158 -> 159 ;
160 [label="acumg_2 <= 0.5\nentropy = 0.908\nsamples = 105\nvalue = [34, 71]"] ;
159 -> 160 ;
161 [label="resource_4 <= 0.5\nentropy = 0.84\nsamples = 93\nvalue = [25, 68]"] ;
160 -> 161 ;
162 [label="subpage_3 <= 0.5\nentropy = 0.402\nsamples = 25\nvalue = [2, 23]"] ;
161 -> 162 ;
163 [label="url_2 <= 0.5\nentropy = 0.65\nsamples = 12\nvalue = [2, 10]"] ;
162 -> 163 ;
164 [label="homepage_3 <= 0.5\nentropy = 0.439\nsamples = 11\nvalue = [1, 10]"] ;
163 -> 164 ;
165 [label="oucollaborate_1 <= 0.5\nentropy = 0.722\nsamples = 5\nvalue = [1, 4]"] ;
164 -> 165 ;
166 [label="entropy = 0.0\nsamples = 3\nvalue = [0, 3]"] ;
165 -> 166 ;
167 [label="acumneg_2 <= 0.5\nentropy = 1.0\nsamples = 2\nvalue = [1, 1]"] ;
165 -> 167 ;
168 [label="entropy = 0.0\nsamples = 1\nvalue = [0, 1]"] ;
167 -> 168 ;
169 [label="entropy = 0.0\nsamples = 1\nvalue = [1, 0]"] ;
167 -> 169 ;
170 [label="entropy = 0.0\nsamples = 6\nvalue = [0, 6]"] ;
164 -> 170 ;
171 [label="entropy = 0.0\nsamples = 1\nvalue = [1, 0]"] ;
163 -> 171 ;
172 [label="entropy = 0.0\nsamples = 13\nvalue = [0, 13]"] ;
162 -> 172 ;
173 [label="glossary <= 0.5\nentropy = 0.923\nsamples = 68\nvalue = [23, 45]"] ;
161 -> 173 ;
174 [label="acumneg_2 <= 0.5\nentropy = 0.947\nsamples = 63\nvalue = [23, 40]"] ;
173 -> 174 ;
175 [label="forumng_0 <= 0.5\nentropy = 0.981\nsamples = 50\nvalue = [21, 29]"] ;
174 -> 175 ;
176 [label="page <= 0.5\nentropy = 0.96\nsamples = 47\nvalue = [18, 29]"] ;
175 -> 176 ;
177 [label="acumneg_3 <= 0.5\nentropy = 0.999\nsamples = 29\nvalue = [14, 15]"] ;
176 -> 177 ;
178 [label="quiz_3 <= 0.5\nentropy = 0.983\nsamples = 26\nvalue = [11, 15]"] ;
177 -> 178 ;
179 [label="url_3 <= 0.5\nentropy = 0.918\nsamples = 21\nvalue = [7, 14]"] ;
178 -> 179 ;
180 [label="subpage_4 <= 0.5\nentropy = 0.65\nsamples = 12\nvalue = [2, 10]"] ;
179 -> 180 ;
181 [label="entropy = 0.0\nsamples = 6\nvalue = [0, 6]"] ;
180 -> 181 ;
182 [label="url_2 <= 0.5\nentropy = 0.918\nsamples = 6\nvalue = [2, 4]"] ;
180 -> 182 ;
183 [label="forumng_3 <= 0.5\nentropy = 0.722\nsamples = 5\nvalue = [1, 4]"] ;
182 -> 183 ;
184 [label="entropy = 0.0\nsamples = 3\nvalue = [0, 3]"] ;
183 -> 184 ;
185 [label="entropy = 1.0\nsamples = 2\nvalue = [1, 1]"] ;
183 -> 185 ;
186 [label="entropy = 0.0\nsamples = 1\nvalue = [1, 0]"] ;
182 -> 186 ;
187 [label="forumng_4 <= 0.5\nentropy = 0.991\nsamples = 9\nvalue = [5, 4]"] ;
179 -> 187 ;
188 [label="oucollaborate_1 <= 0.5\nentropy = 0.863\nsamples = 7\nvalue = [5, 2]"] ;
187 -> 188 ;
189 [label="homepage_3 <= 0.5\nentropy = 0.918\nsamples = 6\nvalue = [4, 2]"] ;
188 -> 189 ;
190 [label="entropy = 0.722\nsamples = 5\nvalue = [4, 1]"] ;
189 -> 190 ;
191 [label="entropy = 0.0\nsamples = 1\nvalue = [0, 1]"] ;
189 -> 191 ;
192 [label="entropy = 0.0\nsamples = 1\nvalue = [1, 0]"] ;
188 -> 192 ;
193 [label="entropy = 0.0\nsamples = 2\nvalue = [0, 2]"] ;
187 -> 193 ;
194 [label="forumng_1 <= 0.5\nentropy = 0.722\nsamples = 5\nvalue = [4, 1]"] ;
178 -> 194 ;
195 [label="entropy = 0.0\nsamples = 3\nvalue = [3, 0]"] ;
194 -> 195 ;
196 [label="subpage_4 <= 0.5\nentropy = 1.0\nsamples = 2\nvalue = [1, 1]"] ;
194 -> 196 ;
197 [label="entropy = 0.0\nsamples = 1\nvalue = [1, 0]"] ;
196 -> 197 ;
198 [label="entropy = 0.0\nsamples = 1\nvalue = [0, 1]"] ;
196 -> 198 ;
199 [label="entropy = 0.0\nsamples = 3\nvalue = [3, 0]"] ;
177 -> 199 ;
200 [label="forumng_3 <= 0.5\nentropy = 0.764\nsamples = 18\nvalue = [4, 14]"] ;
176 -> 200 ;
201 [label="url_3 <= 0.5\nentropy = 0.991\nsamples = 9\nvalue = [4, 5]"] ;
200 -> 201 ;
202 [label="acumneg_1 <= 0.5\nentropy = 0.918\nsamples = 6\nvalue = [4, 2]"] ;
201 -> 202 ;
203 [label="homepage_4 <= 0.5\nentropy = 0.722\nsamples = 5\nvalue = [4, 1]"] ;
202 -> 203 ;
204 [label="entropy = 0.0\nsamples = 3\nvalue = [3, 0]"] ;
203 -> 204 ;
205 [label="acumneg_4 <= 0.5\nentropy = 1.0\nsamples = 2\nvalue = [1, 1]"] ;
203 -> 205 ;
206 [label="entropy = 0.0\nsamples = 1\nvalue = [0, 1]"] ;
205 -> 206 ;
207 [label="entropy = 0.0\nsamples = 1\nvalue = [1, 0]"] ;
205 -> 207 ;
208 [label="entropy = 0.0\nsamples = 1\nvalue = [0, 1]"] ;
202 -> 208 ;
209 [label="entropy = 0.0\nsamples = 3\nvalue = [0, 3]"] ;
201 -> 209 ;
210 [label="entropy = 0.0\nsamples = 9\nvalue = [0, 9]"] ;
200 -> 210 ;
211 [label="entropy = 0.0\nsamples = 3\nvalue = [3, 0]"] ;
175 -> 211 ;
212 [label="forumng_1 <= 0.5\nentropy = 0.619\nsamples = 13\nvalue = [2, 11]"] ;
174 -> 212 ;
213 [label="entropy = 0.0\nsamples = 11\nvalue = [0, 11]"] ;
212 -> 213 ;
214 [label="entropy = 0.0\nsamples = 2\nvalue = [2, 0]"] ;
212 -> 214 ;
215 [label="entropy = 0.0\nsamples = 5\nvalue = [0, 5]"] ;
173 -> 215 ;
216 [label="subpage_0 <= 0.5\nentropy = 0.811\nsamples = 12\nvalue = [9, 3]"] ;
160 -> 216 ;
217 [label="url_2 <= 0.5\nentropy = 0.469\nsamples = 10\nvalue = [9, 1]"] ;
216 -> 217 ;
218 [label="entropy = 0.0\nsamples = 7\nvalue = [7, 0]"] ;
217 -> 218 ;
219 [label="ouwiki_1 <= 0.5\nentropy = 0.918\nsamples = 3\nvalue = [2, 1]"] ;
217 -> 219 ;
220 [label="entropy = 0.0\nsamples = 2\nvalue = [2, 0]"] ;
219 -> 220 ;
221 [label="entropy = 0.0\nsamples = 1\nvalue = [0, 1]"] ;
219 -> 221 ;
222 [label="entropy = 0.0\nsamples = 2\nvalue = [0, 2]"] ;
216 -> 222 ;
223 [label="resource_3 <= 0.5\nentropy = 0.896\nsamples = 32\nvalue = [22, 10]"] ;
159 -> 223 ;
224 [label="ouwiki_1 <= 0.5\nentropy = 0.691\nsamples = 27\nvalue = [22, 5]"] ;
223 -> 224 ;
225 [label="url_0 <= 0.5\nentropy = 0.276\nsamples = 21\nvalue = [20, 1]"] ;
224 -> 225 ;
226 [label="entropy = 0.0\nsamples = 15\nvalue = [15, 0]"] ;
225 -> 226 ;
227 [label="acumneg_4 <= 0.5\nentropy = 0.65\nsamples = 6\nvalue = [5, 1]"] ;
225 -> 227 ;
228 [label="entropy = 0.0\nsamples = 5\nvalue = [5, 0]"] ;
227 -> 228 ;
229 [label="entropy = 0.0\nsamples = 1\nvalue = [0, 1]"] ;
227 -> 229 ;
230 [label="acumneg_2 <= 0.5\nentropy = 0.918\nsamples = 6\nvalue = [2, 4]"] ;
224 -> 230 ;
231 [label="url_4 <= 0.5\nentropy = 0.918\nsamples = 3\nvalue = [2, 1]"] ;
230 -> 231 ;
232 [label="entropy = 0.0\nsamples = 1\nvalue = [0, 1]"] ;
231 -> 232 ;
233 [label="entropy = 0.0\nsamples = 2\nvalue = [2, 0]"] ;
231 -> 233 ;
234 [label="entropy = 0.0\nsamples = 3\nvalue = [0, 3]"] ;
230 -> 234 ;
235 [label="entropy = 0.0\nsamples = 5\nvalue = [0, 5]"] ;
223 -> 235 ;
236 [label="quiz_0 <= 0.5\nentropy = 0.381\nsamples = 27\nvalue = [2, 25]"] ;
158 -> 236 ;
237 [label="entropy = 0.0\nsamples = 25\nvalue = [0, 25]"] ;
236 -> 237 ;
238 [label="entropy = 0.0\nsamples = 2\nvalue = [2, 0]"] ;
236 -> 238 ;
239 [label="entropy = 0.0\nsamples = 19\nvalue = [0, 19]"] ;
157 -> 239 ;
240 [label="page <= 0.5\nentropy = 1.0\nsamples = 28\nvalue = [14, 14]"] ;
6 -> 240 ;
241 [label="homepage_3 <= 0.5\nentropy = 0.918\nsamples = 18\nvalue = [12, 6]"] ;
240 -> 241 ;
242 [label="entropy = 0.0\nsamples = 2\nvalue = [0, 2]"] ;
241 -> 242 ;
243 [label="url_2 <= 0.5\nentropy = 0.811\nsamples = 16\nvalue = [12, 4]"] ;
241 -> 243 ;
244 [label="forumng_4 <= 0.5\nentropy = 0.946\nsamples = 11\nvalue = [7, 4]"] ;
243 -> 244 ;
245 [label="acumneg_2 <= 0.5\nentropy = 1.0\nsamples = 8\nvalue = [4, 4]"] ;
244 -> 245 ;
246 [label="glossary <= 0.5\nentropy = 0.918\nsamples = 6\nvalue = [2, 4]"] ;
245 -> 246 ;
247 [label="forumng_1 <= 0.5\nentropy = 0.722\nsamples = 5\nvalue = [1, 4]"] ;
246 -> 247 ;
248 [label="entropy = 0.0\nsamples = 3\nvalue = [0, 3]"] ;
247 -> 248 ;
249 [label="quiz_3 <= 0.5\nentropy = 1.0\nsamples = 2\nvalue = [1, 1]"] ;
247 -> 249 ;
250 [label="entropy = 0.0\nsamples = 1\nvalue = [0, 1]"] ;
249 -> 250 ;
251 [label="entropy = 0.0\nsamples = 1\nvalue = [1, 0]"] ;
249 -> 251 ;
252 [label="entropy = 0.0\nsamples = 1\nvalue = [1, 0]"] ;
246 -> 252 ;
253 [label="entropy = 0.0\nsamples = 2\nvalue = [2, 0]"] ;
245 -> 253 ;
254 [label="entropy = 0.0\nsamples = 3\nvalue = [3, 0]"] ;
244 -> 254 ;
255 [label="entropy = 0.0\nsamples = 5\nvalue = [5, 0]"] ;
243 -> 255 ;
256 [label="resource_2 <= 0.5\nentropy = 0.722\nsamples = 10\nvalue = [2, 8]"] ;
240 -> 256 ;
257 [label="entropy = 0.0\nsamples = 8\nvalue = [0, 8]"] ;
256 -> 257 ;
258 [label="entropy = 0.0\nsamples = 2\nvalue = [2, 0]"] ;
256 -> 258 ;
259 [label="url_0 <= 0.5\nentropy = 0.973\nsamples = 499\nvalue = [201, 298]"] ;
5 -> 259 ;
260 [label="ouwiki_1 <= 0.5\nentropy = 0.994\nsamples = 404\nvalue = [184, 220]"] ;
259 -> 260 ;
261 [label="resource_0 <= 0.5\nentropy = 1.0\nsamples = 316\nvalue = [161, 155]"] ;
260 -> 261 ;
262 [label="quiz_0 <= 0.5\nentropy = 0.998\nsamples = 286\nvalue = [136, 150]"] ;
261 -> 262 ;
263 [label="oucontent_3 <= 0.5\nentropy = 0.992\nsamples = 263\nvalue = [118, 145]"] ;
262 -> 263 ;
264 [label="forumng_0 <= 0.5\nentropy = 0.974\nsamples = 197\nvalue = [80, 117]"] ;
263 -> 264 ;
265 [label="folder <= 0.5\nentropy = 0.958\nsamples = 179\nvalue = [68, 111]"] ;
264 -> 265 ;
266 [label="acumneg_2 <= 0.5\nentropy = 0.94\nsamples = 168\nvalue = [60, 108]"] ;
265 -> 266 ;
267 [label="acumg_2 <= 0.5\nentropy = 0.974\nsamples = 131\nvalue = [53, 78]"] ;
266 -> 267 ;
268 [label="forumng_4 <= 0.5\nentropy = 0.736\nsamples = 29\nvalue = [6, 23]"] ;
267 -> 268 ;
269 [label="oucontent_1 <= 0.5\nentropy = 0.881\nsamples = 20\nvalue = [6, 14]"] ;
268 -> 269 ;
270 [label="subpage_2 <= 0.5\nentropy = 0.954\nsamples = 16\nvalue = [6, 10]"] ;
269 -> 270 ;
271 [label="acumneg_4 <= 0.5\nentropy = 0.863\nsamples = 14\nvalue = [4, 10]"] ;
270 -> 271 ;
272 [label="acumneg_1 <= 0.5\nentropy = 0.779\nsamples = 13\nvalue = [3, 10]"] ;
271 -> 272 ;
273 [label="entropy = 0.0\nsamples = 4\nvalue = [0, 4]"] ;
272 -> 273 ;
274 [label="resource_3 <= 0.5\nentropy = 0.918\nsamples = 9\nvalue = [3, 6]"] ;
272 -> 274 ;
275 [label="forumng_2 <= 0.5\nentropy = 0.65\nsamples = 6\nvalue = [1, 5]"] ;
274 -> 275 ;
276 [label="resource_2 <= 0.5\nentropy = 1.0\nsamples = 2\nvalue = [1, 1]"] ;
275 -> 276 ;
277 [label="entropy = 0.0\nsamples = 1\nvalue = [1, 0]"] ;
276 -> 277 ;
278 [label="entropy = 0.0\nsamples = 1\nvalue = [0, 1]"] ;
276 -> 278 ;
279 [label="entropy = 0.0\nsamples = 4\nvalue = [0, 4]"] ;
275 -> 279 ;
280 [label="forumng_1 <= 0.5\nentropy = 0.918\nsamples = 3\nvalue = [2, 1]"] ;
274 -> 280 ;
281 [label="entropy = 0.0\nsamples = 2\nvalue = [2, 0]"] ;
280 -> 281 ;
282 [label="entropy = 0.0\nsamples = 1\nvalue = [0, 1]"] ;
280 -> 282 ;
283 [label="entropy = 0.0\nsamples = 1\nvalue = [1, 0]"] ;
271 -> 283 ;
284 [label="entropy = 0.0\nsamples = 2\nvalue = [2, 0]"] ;
270 -> 284 ;
285 [label="entropy = 0.0\nsamples = 4\nvalue = [0, 4]"] ;
269 -> 285 ;
286 [label="entropy = 0.0\nsamples = 9\nvalue = [0, 9]"] ;
268 -> 286 ;
287 [label="page <= 0.5\nentropy = 0.996\nsamples = 102\nvalue = [47, 55]"] ;
267 -> 287 ;
288 [label="forumng_1 <= 0.5\nentropy = 0.998\nsamples = 80\nvalue = [42, 38]"] ;
287 -> 288 ;
289 [label="subpage_2 <= 0.5\nentropy = 0.994\nsamples = 68\nvalue = [31, 37]"] ;
288 -> 289 ;
290 [label="acumneg_0 <= 0.5\nentropy = 0.964\nsamples = 36\nvalue = [22, 14]"] ;
289 -> 290 ;
291 [label="forumng_3 <= 0.5\nentropy = 0.764\nsamples = 18\nvalue = [14, 4]"] ;
290 -> 291 ;
292 [label="entropy = 0.0\nsamples = 9\nvalue = [9, 0]"] ;
291 -> 292 ;
293 [label="resource_1 <= 0.5\nentropy = 0.991\nsamples = 9\nvalue = [5, 4]"] ;
291 -> 293 ;
294 [label="entropy = 0.0\nsamples = 3\nvalue = [0, 3]"] ;
293 -> 294 ;
295 [label="acumneg_3 <= 0.5\nentropy = 0.65\nsamples = 6\nvalue = [5, 1]"] ;
293 -> 295 ;
296 [label="entropy = 0.0\nsamples = 1\nvalue = [0, 1]"] ;
295 -> 296 ;
297 [label="entropy = 0.0\nsamples = 5\nvalue = [5, 0]"] ;
295 -> 297 ;
298 [label="resource_3 <= 0.5\nentropy = 0.991\nsamples = 18\nvalue = [8, 10]"] ;
290 -> 298 ;
299 [label="subpage_4 <= 0.5\nentropy = 0.863\nsamples = 14\nvalue = [4, 10]"] ;
298 -> 299 ;
300 [label="glossary <= 0.5\nentropy = 0.65\nsamples = 12\nvalue = [2, 10]"] ;
299 -> 300 ;
301 [label="entropy = 0.0\nsamples = 9\nvalue = [0, 9]"] ;
300 -> 301 ;
302 [label="resource_1 <= 0.5\nentropy = 0.918\nsamples = 3\nvalue = [2, 1]"] ;
300 -> 302 ;
303 [label="entropy = 0.0\nsamples = 2\nvalue = [2, 0]"] ;
302 -> 303 ;
304 [label="entropy = 0.0\nsamples = 1\nvalue = [0, 1]"] ;
302 -> 304 ;
305 [label="entropy = 0.0\nsamples = 2\nvalue = [2, 0]"] ;
299 -> 305 ;
306 [label="entropy = 0.0\nsamples = 4\nvalue = [4, 0]"] ;
298 -> 306 ;
307 [label="forumng_2 <= 0.5\nentropy = 0.857\nsamples = 32\nvalue = [9, 23]"] ;
289 -> 307 ;
308 [label="entropy = 0.0\nsamples = 14\nvalue = [0, 14]"] ;
307 -> 308 ;
309 [label="url_3 <= 0.5\nentropy = 1.0\nsamples = 18\nvalue = [9, 9]"] ;
307 -> 309 ;
310 [label="resource_3 <= 0.5\nentropy = 0.94\nsamples = 14\nvalue = [5, 9]"] ;
309 -> 310 ;
311 [label="url_1 <= 0.5\nentropy = 0.863\nsamples = 7\nvalue = [5, 2]"] ;
310 -> 311 ;
312 [label="entropy = 0.0\nsamples = 2\nvalue = [0, 2]"] ;
311 -> 312 ;
313 [label="entropy = 0.0\nsamples = 5\nvalue = [5, 0]"] ;
311 -> 313 ;
314 [label="entropy = 0.0\nsamples = 7\nvalue = [0, 7]"] ;
310 -> 314 ;
315 [label="entropy = 0.0\nsamples = 4\nvalue = [4, 0]"] ;
309 -> 315 ;
316 [label="url_3 <= 0.5\nentropy = 0.414\nsamples = 12\nvalue = [11, 1]"] ;
288 -> 316 ;
317 [label="entropy = 0.0\nsamples = 9\nvalue = [9, 0]"] ;
316 -> 317 ;
318 [label="subpage_1 <= 0.5\nentropy = 0.918\nsamples = 3\nvalue = [2, 1]"] ;
316 -> 318 ;
319 [label="entropy = 1.0\nsamples = 2\nvalue = [1, 1]"] ;
318 -> 319 ;
320 [label="entropy = 0.0\nsamples = 1\nvalue = [1, 0]"] ;
318 -> 320 ;
321 [label="oucontent_0 <= 0.5\nentropy = 0.773\nsamples = 22\nvalue = [5, 17]"] ;
287 -> 321 ;
322 [label="url_2 <= 0.5\nentropy = 1.0\nsamples = 10\nvalue = [5, 5]"] ;
321 -> 322 ;
323 [label="acumneg_0 <= 0.5\nentropy = 0.65\nsamples = 6\nvalue = [5, 1]"] ;
322 -> 323 ;
324 [label="entropy = 0.0\nsamples = 5\nvalue = [5, 0]"] ;
323 -> 324 ;
325 [label="entropy = 0.0\nsamples = 1\nvalue = [0, 1]"] ;
323 -> 325 ;
326 [label="entropy = 0.0\nsamples = 4\nvalue = [0, 4]"] ;
322 -> 326 ;
327 [label="entropy = 0.0\nsamples = 12\nvalue = [0, 12]"] ;
321 -> 327 ;
328 [label="subpage_1 <= 0.5\nentropy = 0.7\nsamples = 37\nvalue = [7, 30]"] ;
266 -> 328 ;
329 [label="forumng_4 <= 0.5\nentropy = 0.784\nsamples = 30\nvalue = [7, 23]"] ;
328 -> 329 ;
330 [label="quiz_2 <= 0.5\nentropy = 0.677\nsamples = 28\nvalue = [5, 23]"] ;
329 -> 330 ;
331 [label="oucontent_0 <= 0.5\nentropy = 0.831\nsamples = 19\nvalue = [5, 14]"] ;
330 -> 331 ;
332 [label="forumng_3 <= 0.5\nentropy = 0.722\nsamples = 15\nvalue = [3, 12]"] ;
331 -> 332 ;
333 [label="url_4 <= 0.5\nentropy = 0.918\nsamples = 9\nvalue = [3, 6]"] ;
332 -> 333 ;
334 [label="resource_3 <= 0.5\nentropy = 0.811\nsamples = 8\nvalue = [2, 6]"] ;
333 -> 334 ;
335 [label="entropy = 0.0\nsamples = 4\nvalue = [0, 4]"] ;
334 -> 335 ;
336 [label="acumg_3 <= 0.5\nentropy = 1.0\nsamples = 4\nvalue = [2, 2]"] ;
334 -> 336 ;
337 [label="entropy = 0.0\nsamples = 1\nvalue = [0, 1]"] ;
336 -> 337 ;
338 [label="forumng_2 <= 0.5\nentropy = 0.918\nsamples = 3\nvalue = [2, 1]"] ;
336 -> 338 ;
339 [label="subpage_2 <= 0.5\nentropy = 1.0\nsamples = 2\nvalue = [1, 1]"] ;
338 -> 339 ;
340 [label="entropy = 0.0\nsamples = 1\nvalue = [0, 1]"] ;
339 -> 340 ;
341 [label="entropy = 0.0\nsamples = 1\nvalue = [1, 0]"] ;
339 -> 341 ;
342 [label="entropy = 0.0\nsamples = 1\nvalue = [1, 0]"] ;
338 -> 342 ;
343 [label="entropy = 0.0\nsamples = 1\nvalue = [1, 0]"] ;
333 -> 343 ;
344 [label="entropy = 0.0\nsamples = 6\nvalue = [0, 6]"] ;
332 -> 344 ;
345 [label="acumg_2 <= 0.5\nentropy = 1.0\nsamples = 4\nvalue = [2, 2]"] ;
331 -> 345 ;
346 [label="entropy = 0.0\nsamples = 2\nvalue = [0, 2]"] ;
345 -> 346 ;
347 [label="entropy = 0.0\nsamples = 2\nvalue = [2, 0]"] ;
345 -> 347 ;
348 [label="entropy = 0.0\nsamples = 9\nvalue = [0, 9]"] ;
330 -> 348 ;
349 [label="entropy = 0.0\nsamples = 2\nvalue = [2, 0]"] ;
329 -> 349 ;
350 [label="entropy = 0.0\nsamples = 7\nvalue = [0, 7]"] ;
328 -> 350 ;
351 [label="resource_2 <= 0.5\nentropy = 0.845\nsamples = 11\nvalue = [8, 3]"] ;
265 -> 351 ;
352 [label="entropy = 0.0\nsamples = 7\nvalue = [7, 0]"] ;
351 -> 352 ;
353 [label="acumneg_0 <= 0.5\nentropy = 0.811\nsamples = 4\nvalue = [1, 3]"] ;
351 -> 353 ;
354 [label="entropy = 0.0\nsamples = 3\nvalue = [0, 3]"] ;
353 -> 354 ;
355 [label="entropy = 0.0\nsamples = 1\nvalue = [1, 0]"] ;
353 -> 355 ;
356 [label="acumneg_0 <= 0.5\nentropy = 0.918\nsamples = 18\nvalue = [12, 6]"] ;
264 -> 356 ;
357 [label="acumneg_2 <= 0.5\nentropy = 0.722\nsamples = 15\nvalue = [12, 3]"] ;
356 -> 357 ;
358 [label="entropy = 0.0\nsamples = 6\nvalue = [6, 0]"] ;
357 -> 358 ;
359 [label="page <= 0.5\nentropy = 0.918\nsamples = 9\nvalue = [6, 3]"] ;
357 -> 359 ;
360 [label="entropy = 0.0\nsamples = 6\nvalue = [6, 0]"] ;
359 -> 360 ;
361 [label="entropy = 0.0\nsamples = 3\nvalue = [0, 3]"] ;
359 -> 361 ;
362 [label="entropy = 0.0\nsamples = 3\nvalue = [0, 3]"] ;
356 -> 362 ;
363 [label="resource_1 <= 0.5\nentropy = 0.983\nsamples = 66\nvalue = [38, 28]"] ;
263 -> 363 ;
364 [label="acumg_2 <= 0.5\nentropy = 0.858\nsamples = 39\nvalue = [28, 11]"] ;
363 -> 364 ;
365 [label="acumneg_2 <= 0.5\nentropy = 0.951\nsamples = 27\nvalue = [17, 10]"] ;
364 -> 365 ;
366 [label="acumneg_3 <= 0.5\nentropy = 0.828\nsamples = 23\nvalue = [17, 6]"] ;
365 -> 366 ;
367 [label="forumng_2 <= 0.5\nentropy = 0.567\nsamples = 15\nvalue = [13, 2]"] ;
366 -> 367 ;
368 [label="entropy = 0.0\nsamples = 10\nvalue = [10, 0]"] ;
367 -> 368 ;
369 [label="url_1 <= 0.5\nentropy = 0.971\nsamples = 5\nvalue = [3, 2]"] ;
367 -> 369 ;
370 [label="acumneg_1 <= 0.5\nentropy = 0.918\nsamples = 3\nvalue = [1, 2]"] ;
369 -> 370 ;
371 [label="entropy = 0.0\nsamples = 1\nvalue = [0, 1]"] ;
370 -> 371 ;
372 [label="resource_3 <= 0.5\nentropy = 1.0\nsamples = 2\nvalue = [1, 1]"] ;
370 -> 372 ;
373 [label="entropy = 0.0\nsamples = 1\nvalue = [0, 1]"] ;
372 -> 373 ;
374 [label="entropy = 0.0\nsamples = 1\nvalue = [1, 0]"] ;
372 -> 374 ;
375 [label="entropy = 0.0\nsamples = 2\nvalue = [2, 0]"] ;
369 -> 375 ;
376 [label="forumng_2 <= 0.5\nentropy = 1.0\nsamples = 8\nvalue = [4, 4]"] ;
366 -> 376 ;
377 [label="resource_2 <= 0.5\nentropy = 0.722\nsamples = 5\nvalue = [1, 4]"] ;
376 -> 377 ;
378 [label="entropy = 0.0\nsamples = 4\nvalue = [0, 4]"] ;
377 -> 378 ;
379 [label="entropy = 0.0\nsamples = 1\nvalue = [1, 0]"] ;
377 -> 379 ;
380 [label="entropy = 0.0\nsamples = 3\nvalue = [3, 0]"] ;
376 -> 380 ;
381 [label="entropy = 0.0\nsamples = 4\nvalue = [0, 4]"] ;
365 -> 381 ;
382 [label="forumng_0 <= 0.5\nentropy = 0.414\nsamples = 12\nvalue = [11, 1]"] ;
364 -> 382 ;
383 [label="entropy = 0.0\nsamples = 9\nvalue = [9, 0]"] ;
382 -> 383 ;
384 [label="subpage_2 <= 0.5\nentropy = 0.918\nsamples = 3\nvalue = [2, 1]"] ;
382 -> 384 ;
385 [label="entropy = 0.0\nsamples = 1\nvalue = [0, 1]"] ;
384 -> 385 ;
386 [label="entropy = 0.0\nsamples = 2\nvalue = [2, 0]"] ;
384 -> 386 ;
387 [label="subpage_3 <= 0.5\nentropy = 0.951\nsamples = 27\nvalue = [10, 17]"] ;
363 -> 387 ;
388 [label="entropy = 0.0\nsamples = 8\nvalue = [0, 8]"] ;
387 -> 388 ;
389 [label="acumg_3 <= 0.5\nentropy = 0.998\nsamples = 19\nvalue = [10, 9]"] ;
387 -> 389 ;
390 [label="entropy = 0.0\nsamples = 3\nvalue = [3, 0]"] ;
389 -> 390 ;
391 [label="forumng_1 <= 0.5\nentropy = 0.989\nsamples = 16\nvalue = [7, 9]"] ;
389 -> 391 ;
392 [label="oucollaborate_0 <= 0.5\nentropy = 0.98\nsamples = 12\nvalue = [7, 5]"] ;
391 -> 392 ;
393 [label="entropy = 0.0\nsamples = 4\nvalue = [0, 4]"] ;
392 -> 393 ;
394 [label="page <= 0.5\nentropy = 0.544\nsamples = 8\nvalue = [7, 1]"] ;
392 -> 394 ;
395 [label="entropy = 0.0\nsamples = 1\nvalue = [0, 1]"] ;
394 -> 395 ;
396 [label="entropy = 0.0\nsamples = 7\nvalue = [7, 0]"] ;
394 -> 396 ;
397 [label="entropy = 0.0\nsamples = 4\nvalue = [0, 4]"] ;
391 -> 397 ;
398 [label="forumng_2 <= 0.5\nentropy = 0.755\nsamples = 23\nvalue = [18, 5]"] ;
262 -> 398 ;
399 [label="entropy = 0.0\nsamples = 12\nvalue = [12, 0]"] ;
398 -> 399 ;
400 [label="oucontent_2 <= 0.5\nentropy = 0.994\nsamples = 11\nvalue = [6, 5]"] ;
398 -> 400 ;
401 [label="subpage_2 <= 0.5\nentropy = 0.722\nsamples = 5\nvalue = [1, 4]"] ;
400 -> 401 ;
402 [label="entropy = 0.0\nsamples = 4\nvalue = [0, 4]"] ;
401 -> 402 ;
403 [label="entropy = 0.0\nsamples = 1\nvalue = [1, 0]"] ;
401 -> 403 ;
404 [label="subpage_4 <= 0.5\nentropy = 0.65\nsamples = 6\nvalue = [5, 1]"] ;
400 -> 404 ;
405 [label="entropy = 0.0\nsamples = 5\nvalue = [5, 0]"] ;
404 -> 405 ;
406 [label="entropy = 0.0\nsamples = 1\nvalue = [0, 1]"] ;
404 -> 406 ;
407 [label="acumneg_2 <= 0.5\nentropy = 0.65\nsamples = 30\nvalue = [25, 5]"] ;
261 -> 407 ;
408 [label="subpage_2 <= 0.5\nentropy = 0.276\nsamples = 21\nvalue = [20, 1]"] ;
407 -> 408 ;
409 [label="entropy = 0.0\nsamples = 18\nvalue = [18, 0]"] ;
408 -> 409 ;
410 [label="url_4 <= 0.5\nentropy = 0.918\nsamples = 3\nvalue = [2, 1]"] ;
408 -> 410 ;
411 [label="entropy = 0.0\nsamples = 2\nvalue = [2, 0]"] ;
410 -> 411 ;
412 [label="entropy = 0.0\nsamples = 1\nvalue = [0, 1]"] ;
410 -> 412 ;
413 [label="url_3 <= 0.5\nentropy = 0.991\nsamples = 9\nvalue = [5, 4]"] ;
407 -> 413 ;
414 [label="entropy = 0.0\nsamples = 4\nvalue = [4, 0]"] ;
413 -> 414 ;
415 [label="forumng_1 <= 0.5\nentropy = 0.722\nsamples = 5\nvalue = [1, 4]"] ;
413 -> 415 ;
416 [label="entropy = 0.0\nsamples = 3\nvalue = [0, 3]"] ;
415 -> 416 ;
417 [label="subpage_1 <= 0.5\nentropy = 1.0\nsamples = 2\nvalue = [1, 1]"] ;
415 -> 417 ;
418 [label="entropy = 0.0\nsamples = 1\nvalue = [0, 1]"] ;
417 -> 418 ;
419 [label="entropy = 0.0\nsamples = 1\nvalue = [1, 0]"] ;
417 -> 419 ;
420 [label="resource_2 <= 0.5\nentropy = 0.829\nsamples = 88\nvalue = [23, 65]"] ;
260 -> 420 ;
421 [label="oucollaborate_0 <= 0.5\nentropy = 0.702\nsamples = 63\nvalue = [12, 51]"] ;
420 -> 421 ;
422 [label="entropy = 0.0\nsamples = 19\nvalue = [0, 19]"] ;
421 -> 422 ;
423 [label="subpage_1 <= 0.5\nentropy = 0.845\nsamples = 44\nvalue = [12, 32]"] ;
421 -> 423 ;
424 [label="resource_3 <= 0.5\nentropy = 0.946\nsamples = 33\nvalue = [12, 21]"] ;
423 -> 424 ;
425 [label="url_2 <= 0.5\nentropy = 0.994\nsamples = 22\nvalue = [10, 12]"] ;
424 -> 425 ;
426 [label="subpage_3 <= 0.5\nentropy = 0.949\nsamples = 19\nvalue = [7, 12]"] ;
425 -> 426 ;
427 [label="url_3 <= 0.5\nentropy = 0.997\nsamples = 15\nvalue = [7, 8]"] ;
426 -> 427 ;
428 [label="acumneg_2 <= 0.5\nentropy = 0.863\nsamples = 7\nvalue = [5, 2]"] ;
427 -> 428 ;
429 [label="acumg_2 <= 0.5\nentropy = 0.918\nsamples = 3\nvalue = [1, 2]"] ;
428 -> 429 ;
430 [label="entropy = 0.0\nsamples = 1\nvalue = [1, 0]"] ;
429 -> 430 ;
431 [label="entropy = 0.0\nsamples = 2\nvalue = [0, 2]"] ;
429 -> 431 ;
432 [label="entropy = 0.0\nsamples = 4\nvalue = [4, 0]"] ;
428 -> 432 ;
433 [label="forumng_1 <= 0.5\nentropy = 0.811\nsamples = 8\nvalue = [2, 6]"] ;
427 -> 433 ;
434 [label="entropy = 0.0\nsamples = 4\nvalue = [0, 4]"] ;
433 -> 434 ;
435 [label="resource_1 <= 0.5\nentropy = 1.0\nsamples = 4\nvalue = [2, 2]"] ;
433 -> 435 ;
436 [label="quiz_0 <= 0.5\nentropy = 0.918\nsamples = 3\nvalue = [2, 1]"] ;
435 -> 436 ;
437 [label="entropy = 0.0\nsamples = 2\nvalue = [2, 0]"] ;
436 -> 437 ;
438 [label="entropy = 0.0\nsamples = 1\nvalue = [0, 1]"] ;
436 -> 438 ;
439 [label="entropy = 0.0\nsamples = 1\nvalue = [0, 1]"] ;
435 -> 439 ;
440 [label="entropy = 0.0\nsamples = 4\nvalue = [0, 4]"] ;
426 -> 440 ;
441 [label="entropy = 0.0\nsamples = 3\nvalue = [3, 0]"] ;
425 -> 441 ;
442 [label="acumneg_4 <= 0.5\nentropy = 0.684\nsamples = 11\nvalue = [2, 9]"] ;
424 -> 442 ;
443 [label="url_3 <= 0.5\nentropy = 0.469\nsamples = 10\nvalue = [1, 9]"] ;
442 -> 443 ;
444 [label="entropy = 0.0\nsamples = 9\nvalue = [0, 9]"] ;
443 -> 444 ;
445 [label="entropy = 0.0\nsamples = 1\nvalue = [1, 0]"] ;
443 -> 445 ;
446 [label="entropy = 0.0\nsamples = 1\nvalue = [1, 0]"] ;
442 -> 446 ;
447 [label="entropy = 0.0\nsamples = 11\nvalue = [0, 11]"] ;
423 -> 447 ;
448 [label="oucontent_4 <= 0.5\nentropy = 0.99\nsamples = 25\nvalue = [11, 14]"] ;
420 -> 448 ;
449 [label="acumneg_3 <= 0.5\nentropy = 0.964\nsamples = 18\nvalue = [11, 7]"] ;
448 -> 449 ;
450 [label="page <= 0.5\nentropy = 1.0\nsamples = 14\nvalue = [7, 7]"] ;
449 -> 450 ;
451 [label="externalquiz <= 0.5\nentropy = 0.946\nsamples = 11\nvalue = [7, 4]"] ;
450 -> 451 ;
452 [label="entropy = 0.0\nsamples = 5\nvalue = [5, 0]"] ;
451 -> 452 ;
453 [label="oucontent_1 <= 0.5\nentropy = 0.918\nsamples = 6\nvalue = [2, 4]"] ;
451 -> 453 ;
454 [label="url_3 <= 0.5\nentropy = 0.971\nsamples = 5\nvalue = [2, 3]"] ;
453 -> 454 ;
455 [label="forumng_2 <= 0.5\nentropy = 0.811\nsamples = 4\nvalue = [1, 3]"] ;
454 -> 455 ;
456 [label="entropy = 0.0\nsamples = 2\nvalue = [0, 2]"] ;
455 -> 456 ;
457 [label="subpage_2 <= 0.5\nentropy = 1.0\nsamples = 2\nvalue = [1, 1]"] ;
455 -> 457 ;
458 [label="entropy = 0.0\nsamples = 1\nvalue = [1, 0]"] ;
457 -> 458 ;
459 [label="entropy = 0.0\nsamples = 1\nvalue = [0, 1]"] ;
457 -> 459 ;
460 [label="entropy = 0.0\nsamples = 1\nvalue = [1, 0]"] ;
454 -> 460 ;
461 [label="entropy = 0.0\nsamples = 1\nvalue = [0, 1]"] ;
453 -> 461 ;
462 [label="entropy = 0.0\nsamples = 3\nvalue = [0, 3]"] ;
450 -> 462 ;
463 [label="entropy = 0.0\nsamples = 4\nvalue = [4, 0]"] ;
449 -> 463 ;
464 [label="entropy = 0.0\nsamples = 7\nvalue = [0, 7]"] ;
448 -> 464 ;
465 [label="subpage_3 <= 0.5\nentropy = 0.678\nsamples = 95\nvalue = [17, 78]"] ;
259 -> 465 ;
466 [label="oucontent_2 <= 0.5\nentropy = 0.495\nsamples = 83\nvalue = [9, 74]"] ;
465 -> 466 ;
467 [label="entropy = 0.0\nsamples = 61\nvalue = [0, 61]"] ;
466 -> 467 ;
468 [label="resource_3 <= 0.5\nentropy = 0.976\nsamples = 22\nvalue = [9, 13]"] ;
466 -> 468 ;
469 [label="acumneg_3 <= 0.5\nentropy = 0.65\nsamples = 12\nvalue = [2, 10]"] ;
468 -> 469 ;
470 [label="entropy = 0.0\nsamples = 10\nvalue = [0, 10]"] ;
469 -> 470 ;
471 [label="entropy = 0.0\nsamples = 2\nvalue = [2, 0]"] ;
469 -> 471 ;
472 [label="quiz_1 <= 0.5\nentropy = 0.881\nsamples = 10\nvalue = [7, 3]"] ;
468 -> 472 ;
473 [label="entropy = 0.0\nsamples = 7\nvalue = [7, 0]"] ;
472 -> 473 ;
474 [label="entropy = 0.0\nsamples = 3\nvalue = [0, 3]"] ;
472 -> 474 ;
475 [label="resource_4 <= 0.5\nentropy = 0.918\nsamples = 12\nvalue = [8, 4]"] ;
465 -> 475 ;
476 [label="quiz_1 <= 0.5\nentropy = 0.722\nsamples = 5\nvalue = [1, 4]"] ;
475 -> 476 ;
477 [label="entropy = 0.0\nsamples = 4\nvalue = [0, 4]"] ;
476 -> 477 ;
478 [label="entropy = 0.0\nsamples = 1\nvalue = [1, 0]"] ;
476 -> 478 ;
479 [label="entropy = 0.0\nsamples = 7\nvalue = [7, 0]"] ;
475 -> 479 ;
480 [label="folder <= 0.5\nentropy = 0.906\nsamples = 56\nvalue = [38, 18]"] ;
4 -> 480 ;
481 [label="quiz_3 <= 0.5\nentropy = 0.353\nsamples = 30\nvalue = [28, 2]"] ;
480 -> 481 ;
482 [label="entropy = 0.0\nsamples = 24\nvalue = [24, 0]"] ;
481 -> 482 ;
483 [label="forumng_3 <= 0.5\nentropy = 0.918\nsamples = 6\nvalue = [4, 2]"] ;
481 -> 483 ;
484 [label="entropy = 0.0\nsamples = 2\nvalue = [0, 2]"] ;
483 -> 484 ;
485 [label="entropy = 0.0\nsamples = 4\nvalue = [4, 0]"] ;
483 -> 485 ;
486 [label="dataplus <= 0.5\nentropy = 0.961\nsamples = 26\nvalue = [10, 16]"] ;
480 -> 486 ;
487 [label="resource_3 <= 0.5\nentropy = 0.998\nsamples = 21\nvalue = [10, 11]"] ;
486 -> 487 ;
488 [label="acumneg_3 <= 0.5\nentropy = 0.937\nsamples = 17\nvalue = [6, 11]"] ;
487 -> 488 ;
489 [label="entropy = 0.0\nsamples = 7\nvalue = [0, 7]"] ;
488 -> 489 ;
490 [label="ouwiki_0 <= 0.5\nentropy = 0.971\nsamples = 10\nvalue = [6, 4]"] ;
488 -> 490 ;
491 [label="entropy = 0.0\nsamples = 2\nvalue = [2, 0]"] ;
490 -> 491 ;
492 [label="oucontent_4 <= 0.5\nentropy = 1.0\nsamples = 8\nvalue = [4, 4]"] ;
490 -> 492 ;
493 [label="resource_2 <= 0.5\nentropy = 0.918\nsamples = 6\nvalue = [4, 2]"] ;
492 -> 493 ;
494 [label="quiz_3 <= 0.5\nentropy = 0.918\nsamples = 3\nvalue = [1, 2]"] ;
493 -> 494 ;
495 [label="entropy = 0.0\nsamples = 1\nvalue = [1, 0]"] ;
494 -> 495 ;
496 [label="entropy = 0.0\nsamples = 2\nvalue = [0, 2]"] ;
494 -> 496 ;
497 [label="entropy = 0.0\nsamples = 3\nvalue = [3, 0]"] ;
493 -> 497 ;
498 [label="entropy = 0.0\nsamples = 2\nvalue = [0, 2]"] ;
492 -> 498 ;
499 [label="entropy = 0.0\nsamples = 4\nvalue = [4, 0]"] ;
487 -> 499 ;
500 [label="entropy = 0.0\nsamples = 5\nvalue = [0, 5]"] ;
486 -> 500 ;
501 [label="questionnaire <= 0.5\nentropy = 0.985\nsamples = 182\nvalue = [104, 78]"] ;
3 -> 501 ;
502 [label="subpage_4 <= 0.5\nentropy = 0.992\nsamples = 174\nvalue = [96, 78]"] ;
501 -> 502 ;
503 [label="acumneg_3 <= 0.5\nentropy = 0.987\nsamples = 169\nvalue = [96, 73]"] ;
502 -> 503 ;
504 [label="acumneg_4 <= 0.5\nentropy = 0.996\nsamples = 151\nvalue = [81, 70]"] ;
503 -> 504 ;
505 [label="glossary <= 0.5\nentropy = 0.999\nsamples = 146\nvalue = [76, 70]"] ;
504 -> 505 ;
506 [label="quiz_3 <= 0.5\nentropy = 0.991\nsamples = 128\nvalue = [71, 57]"] ;
505 -> 506 ;
507 [label="forumng_0 <= 0.5\nentropy = 0.961\nsamples = 91\nvalue = [56, 35]"] ;
506 -> 507 ;
508 [label="page <= 0.5\nentropy = 0.989\nsamples = 80\nvalue = [45, 35]"] ;
507 -> 508 ;
509 [label="resource_1 <= 0.5\nentropy = 0.994\nsamples = 55\nvalue = [25, 30]"] ;
508 -> 509 ;
510 [label="url_2 <= 0.5\nentropy = 0.993\nsamples = 40\nvalue = [22, 18]"] ;
509 -> 510 ;
511 [label="acumg_2 <= 0.5\nentropy = 0.987\nsamples = 30\nvalue = [13, 17]"] ;
510 -> 511 ;
512 [label="entropy = 0.0\nsamples = 3\nvalue = [3, 0]"] ;
511 -> 512 ;
513 [label="ouwiki_0 <= 0.5\nentropy = 0.951\nsamples = 27\nvalue = [10, 17]"] ;
511 -> 513 ;
514 [label="entropy = 0.0\nsamples = 6\nvalue = [0, 6]"] ;
513 -> 514 ;
515 [label="forumng_3 <= 0.5\nentropy = 0.998\nsamples = 21\nvalue = [10, 11]"] ;
513 -> 515 ;
516 [label="resource_4 <= 0.5\nentropy = 0.991\nsamples = 18\nvalue = [10, 8]"] ;
515 -> 516 ;
517 [label="oucontent_3 <= 0.5\nentropy = 0.918\nsamples = 15\nvalue = [10, 5]"] ;
516 -> 517 ;
518 [label="oucontent_0 <= 0.5\nentropy = 0.503\nsamples = 9\nvalue = [8, 1]"] ;
517 -> 518 ;
519 [label="entropy = 0.0\nsamples = 6\nvalue = [6, 0]"] ;
518 -> 519 ;
520 [label="subpage_3 <= 0.5\nentropy = 0.918\nsamples = 3\nvalue = [2, 1]"] ;
518 -> 520 ;
521 [label="entropy = 0.0\nsamples = 1\nvalue = [0, 1]"] ;
520 -> 521 ;
522 [label="entropy = 0.0\nsamples = 2\nvalue = [2, 0]"] ;
520 -> 522 ;
523 [label="resource_0 <= 0.5\nentropy = 0.918\nsamples = 6\nvalue = [2, 4]"] ;
517 -> 523 ;
524 [label="entropy = 0.0\nsamples = 4\nvalue = [0, 4]"] ;
523 -> 524 ;
525 [label="entropy = 0.0\nsamples = 2\nvalue = [2, 0]"] ;
523 -> 525 ;
526 [label="entropy = 0.0\nsamples = 3\nvalue = [0, 3]"] ;
516 -> 526 ;
527 [label="entropy = 0.0\nsamples = 3\nvalue = [0, 3]"] ;
515 -> 527 ;
528 [label="forumng_2 <= 0.5\nentropy = 0.469\nsamples = 10\nvalue = [9, 1]"] ;
510 -> 528 ;
529 [label="entropy = 0.0\nsamples = 6\nvalue = [6, 0]"] ;
528 -> 529 ;
530 [label="acumneg_0 <= 0.5\nentropy = 0.811\nsamples = 4\nvalue = [3, 1]"] ;
528 -> 530 ;
531 [label="entropy = 0.0\nsamples = 3\nvalue = [3, 0]"] ;
530 -> 531 ;
532 [label="entropy = 0.0\nsamples = 1\nvalue = [0, 1]"] ;
530 -> 532 ;
533 [label="acumneg_2 <= 0.5\nentropy = 0.722\nsamples = 15\nvalue = [3, 12]"] ;
509 -> 533 ;
534 [label="entropy = 0.0\nsamples = 9\nvalue = [0, 9]"] ;
533 -> 534 ;
535 [label="url_3 <= 0.5\nentropy = 1.0\nsamples = 6\nvalue = [3, 3]"] ;
533 -> 535 ;
536 [label="url_0 <= 0.5\nentropy = 0.811\nsamples = 4\nvalue = [3, 1]"] ;
535 -> 536 ;
537 [label="entropy = 0.0\nsamples = 3\nvalue = [3, 0]"] ;
536 -> 537 ;
538 [label="entropy = 0.0\nsamples = 1\nvalue = [0, 1]"] ;
536 -> 538 ;
539 [label="entropy = 0.0\nsamples = 2\nvalue = [0, 2]"] ;
535 -> 539 ;
540 [label="quiz_2 <= 0.5\nentropy = 0.722\nsamples = 25\nvalue = [20, 5]"] ;
508 -> 540 ;
541 [label="entropy = 0.0\nsamples = 15\nvalue = [15, 0]"] ;
540 -> 541 ;
542 [label="resource_1 <= 0.5\nentropy = 1.0\nsamples = 10\nvalue = [5, 5]"] ;
540 -> 542 ;
543 [label="oucontent_3 <= 0.5\nentropy = 0.863\nsamples = 7\nvalue = [2, 5]"] ;
542 -> 543 ;
544 [label="entropy = 0.0\nsamples = 5\nvalue = [0, 5]"] ;
543 -> 544 ;
545 [label="entropy = 0.0\nsamples = 2\nvalue = [2, 0]"] ;
543 -> 545 ;
546 [label="entropy = 0.0\nsamples = 3\nvalue = [3, 0]"] ;
542 -> 546 ;
547 [label="entropy = 0.0\nsamples = 11\nvalue = [11, 0]"] ;
507 -> 547 ;
548 [label="page <= 0.5\nentropy = 0.974\nsamples = 37\nvalue = [15, 22]"] ;
506 -> 548 ;
549 [label="oucontent_0 <= 0.5\nentropy = 0.918\nsamples = 15\nvalue = [10, 5]"] ;
548 -> 549 ;
550 [label="acumneg_2 <= 0.5\nentropy = 0.722\nsamples = 5\nvalue = [1, 4]"] ;
549 -> 550 ;
551 [label="entropy = 0.0\nsamples = 4\nvalue = [0, 4]"] ;
550 -> 551 ;
552 [label="entropy = 0.0\nsamples = 1\nvalue = [1, 0]"] ;
550 -> 552 ;
553 [label="url_1 <= 0.5\nentropy = 0.469\nsamples = 10\nvalue = [9, 1]"] ;
549 -> 553 ;
554 [label="acumneg_2 <= 0.5\nentropy = 1.0\nsamples = 2\nvalue = [1, 1]"] ;
553 -> 554 ;
555 [label="entropy = 0.0\nsamples = 1\nvalue = [1, 0]"] ;
554 -> 555 ;
556 [label="entropy = 0.0\nsamples = 1\nvalue = [0, 1]"] ;
554 -> 556 ;
557 [label="entropy = 0.0\nsamples = 8\nvalue = [8, 0]"] ;
553 -> 557 ;
558 [label="oucollaborate_1 <= 0.5\nentropy = 0.773\nsamples = 22\nvalue = [5, 17]"] ;
548 -> 558 ;
559 [label="resource_2 <= 0.5\nentropy = 0.61\nsamples = 20\nvalue = [3, 17]"] ;
558 -> 559 ;
560 [label="oucontent_0 <= 0.5\nentropy = 0.75\nsamples = 14\nvalue = [3, 11]"] ;
559 -> 560 ;
561 [label="url_0 <= 0.5\nentropy = 0.881\nsamples = 10\nvalue = [3, 7]"] ;
560 -> 561 ;
562 [label="acumneg_0 <= 0.5\nentropy = 0.985\nsamples = 7\nvalue = [3, 4]"] ;
561 -> 562 ;
563 [label="acumg_2 <= 0.5\nentropy = 0.918\nsamples = 6\nvalue = [2, 4]"] ;
562 -> 563 ;
564 [label="entropy = 0.0\nsamples = 3\nvalue = [0, 3]"] ;
563 -> 564 ;
565 [label="acumneg_1 <= 0.5\nentropy = 0.918\nsamples = 3\nvalue = [2, 1]"] ;
563 -> 565 ;
566 [label="entropy = 0.0\nsamples = 1\nvalue = [0, 1]"] ;
565 -> 566 ;
567 [label="entropy = 0.0\nsamples = 2\nvalue = [2, 0]"] ;
565 -> 567 ;
568 [label="entropy = 0.0\nsamples = 1\nvalue = [1, 0]"] ;
562 -> 568 ;
569 [label="entropy = 0.0\nsamples = 3\nvalue = [0, 3]"] ;
561 -> 569 ;
570 [label="entropy = 0.0\nsamples = 4\nvalue = [0, 4]"] ;
560 -> 570 ;
571 [label="entropy = 0.0\nsamples = 6\nvalue = [0, 6]"] ;
559 -> 571 ;
572 [label="entropy = 0.0\nsamples = 2\nvalue = [2, 0]"] ;
558 -> 572 ;
573 [label="quiz_0 <= 0.5\nentropy = 0.852\nsamples = 18\nvalue = [5, 13]"] ;
505 -> 573 ;
574 [label="resource_3 <= 0.5\nentropy = 0.696\nsamples = 16\nvalue = [3, 13]"] ;
573 -> 574 ;
575 [label="subpage_2 <= 0.5\nentropy = 0.371\nsamples = 14\nvalue = [1, 13]"] ;
574 -> 575 ;
576 [label="entropy = 0.0\nsamples = 12\nvalue = [0, 12]"] ;
575 -> 576 ;
577 [label="entropy = 1.0\nsamples = 2\nvalue = [1, 1]"] ;
575 -> 577 ;
578 [label="entropy = 0.0\nsamples = 2\nvalue = [2, 0]"] ;
574 -> 578 ;
579 [label="entropy = 0.0\nsamples = 2\nvalue = [2, 0]"] ;
573 -> 579 ;
580 [label="entropy = 0.0\nsamples = 5\nvalue = [5, 0]"] ;
504 -> 580 ;
581 [label="url_4 <= 0.5\nentropy = 0.65\nsamples = 18\nvalue = [15, 3]"] ;
503 -> 581 ;
582 [label="oucontent_0 <= 0.5\nentropy = 0.337\nsamples = 16\nvalue = [15, 1]"] ;
581 -> 582 ;
583 [label="entropy = 0.0\nsamples = 15\nvalue = [15, 0]"] ;
582 -> 583 ;
584 [label="entropy = 0.0\nsamples = 1\nvalue = [0, 1]"] ;
582 -> 584 ;
585 [label="entropy = 0.0\nsamples = 2\nvalue = [0, 2]"] ;
581 -> 585 ;
586 [label="entropy = 0.0\nsamples = 5\nvalue = [0, 5]"] ;
502 -> 586 ;
587 [label="entropy = 0.0\nsamples = 8\nvalue = [8, 0]"] ;
501 -> 587 ;
588 [label="acumneg_3 <= 0.5\nentropy = 0.57\nsamples = 549\nvalue = [74, 475]"] ;
2 -> 588 ;
589 [label="forumng_4 <= 0.5\nentropy = 0.647\nsamples = 429\nvalue = [71, 358]"] ;
588 -> 589 ;
590 [label="forumng_3 <= 0.5\nentropy = 0.807\nsamples = 202\nvalue = [50, 152]"] ;
589 -> 590 ;
591 [label="url_3 <= 0.5\nentropy = 0.933\nsamples = 89\nvalue = [31, 58]"] ;
590 -> 591 ;
592 [label="subpage_4 <= 0.5\nentropy = 0.999\nsamples = 52\nvalue = [25, 27]"] ;
591 -> 592 ;
593 [label="oucollaborate_0 <= 0.5\nentropy = 0.863\nsamples = 28\nvalue = [8, 20]"] ;
592 -> 593 ;
594 [label="entropy = 0.0\nsamples = 8\nvalue = [0, 8]"] ;
593 -> 594 ;
595 [label="url_4 <= 0.5\nentropy = 0.971\nsamples = 20\nvalue = [8, 12]"] ;
593 -> 595 ;
596 [label="resource_1 <= 0.5\nentropy = 0.811\nsamples = 16\nvalue = [4, 12]"] ;
595 -> 596 ;
597 [label="forumng_0 <= 0.5\nentropy = 0.391\nsamples = 13\nvalue = [1, 12]"] ;
596 -> 597 ;
598 [label="entropy = 0.0\nsamples = 10\nvalue = [0, 10]"] ;
597 -> 598 ;
599 [label="url_1 <= 0.5\nentropy = 0.918\nsamples = 3\nvalue = [1, 2]"] ;
597 -> 599 ;
600 [label="entropy = 0.0\nsamples = 1\nvalue = [1, 0]"] ;
599 -> 600 ;
601 [label="entropy = 0.0\nsamples = 2\nvalue = [0, 2]"] ;
599 -> 601 ;
602 [label="entropy = 0.0\nsamples = 3\nvalue = [3, 0]"] ;
596 -> 602 ;
603 [label="entropy = 0.0\nsamples = 4\nvalue = [4, 0]"] ;
595 -> 603 ;
604 [label="acumneg_1 <= 0.5\nentropy = 0.871\nsamples = 24\nvalue = [17, 7]"] ;
592 -> 604 ;
605 [label="forumng_0 <= 0.5\nentropy = 0.702\nsamples = 21\nvalue = [17, 4]"] ;
604 -> 605 ;
606 [label="oucontent_4 <= 0.5\nentropy = 0.61\nsamples = 20\nvalue = [17, 3]"] ;
605 -> 606 ;
607 [label="entropy = 0.0\nsamples = 7\nvalue = [7, 0]"] ;
606 -> 607 ;
608 [label="resource_3 <= 0.5\nentropy = 0.779\nsamples = 13\nvalue = [10, 3]"] ;
606 -> 608 ;
609 [label="entropy = 0.0\nsamples = 2\nvalue = [0, 2]"] ;
608 -> 609 ;
610 [label="oucollaborate_1 <= 0.5\nentropy = 0.439\nsamples = 11\nvalue = [10, 1]"] ;
608 -> 610 ;
611 [label="entropy = 0.0\nsamples = 8\nvalue = [8, 0]"] ;
610 -> 611 ;
612 [label="dataplus <= 0.5\nentropy = 0.918\nsamples = 3\nvalue = [2, 1]"] ;
610 -> 612 ;
613 [label="entropy = 0.0\nsamples = 2\nvalue = [2, 0]"] ;
612 -> 613 ;
614 [label="entropy = 0.0\nsamples = 1\nvalue = [0, 1]"] ;
612 -> 614 ;
615 [label="entropy = 0.0\nsamples = 1\nvalue = [0, 1]"] ;
605 -> 615 ;
616 [label="entropy = 0.0\nsamples = 3\nvalue = [0, 3]"] ;
604 -> 616 ;
617 [label="questionnaire <= 0.5\nentropy = 0.639\nsamples = 37\nvalue = [6, 31]"] ;
591 -> 617 ;
618 [label="acumneg_0 <= 0.5\nentropy = 0.764\nsamples = 27\nvalue = [6, 21]"] ;
617 -> 618 ;
619 [label="oucollaborate_1 <= 0.5\nentropy = 0.485\nsamples = 19\nvalue = [2, 17]"] ;
618 -> 619 ;
620 [label="entropy = 0.0\nsamples = 13\nvalue = [0, 13]"] ;
619 -> 620 ;
621 [label="subpage_4 <= 0.5\nentropy = 0.918\nsamples = 6\nvalue = [2, 4]"] ;
619 -> 621 ;
622 [label="entropy = 0.0\nsamples = 4\nvalue = [0, 4]"] ;
621 -> 622 ;
623 [label="entropy = 0.0\nsamples = 2\nvalue = [2, 0]"] ;
621 -> 623 ;
624 [label="oucollaborate_0 <= 0.5\nentropy = 1.0\nsamples = 8\nvalue = [4, 4]"] ;
618 -> 624 ;
625 [label="entropy = 0.0\nsamples = 4\nvalue = [0, 4]"] ;
624 -> 625 ;
626 [label="entropy = 0.0\nsamples = 4\nvalue = [4, 0]"] ;
624 -> 626 ;
627 [label="entropy = 0.0\nsamples = 10\nvalue = [0, 10]"] ;
617 -> 627 ;
628 [label="dualpane <= 0.5\nentropy = 0.653\nsamples = 113\nvalue = [19, 94]"] ;
590 -> 628 ;
629 [label="questionnaire <= 0.5\nentropy = 0.767\nsamples = 85\nvalue = [19, 66]"] ;
628 -> 629 ;
630 [label="homepage_3 <= 0.5\nentropy = 0.286\nsamples = 40\nvalue = [2, 38]"] ;
629 -> 630 ;
631 [label="entropy = 0.0\nsamples = 23\nvalue = [0, 23]"] ;
630 -> 631 ;
632 [label="subpage_3 <= 0.5\nentropy = 0.523\nsamples = 17\nvalue = [2, 15]"] ;
630 -> 632 ;
633 [label="oucollaborate_0 <= 0.5\nentropy = 0.863\nsamples = 7\nvalue = [2, 5]"] ;
632 -> 633 ;
634 [label="entropy = 0.0\nsamples = 4\nvalue = [0, 4]"] ;
633 -> 634 ;
635 [label="resource_2 <= 0.5\nentropy = 0.918\nsamples = 3\nvalue = [2, 1]"] ;
633 -> 635 ;
636 [label="entropy = 0.0\nsamples = 2\nvalue = [2, 0]"] ;
635 -> 636 ;
637 [label="entropy = 0.0\nsamples = 1\nvalue = [0, 1]"] ;
635 -> 637 ;
638 [label="entropy = 0.0\nsamples = 10\nvalue = [0, 10]"] ;
632 -> 638 ;
639 [label="folder <= 0.5\nentropy = 0.956\nsamples = 45\nvalue = [17, 28]"] ;
629 -> 639 ;
640 [label="entropy = 0.0\nsamples = 10\nvalue = [10, 0]"] ;
639 -> 640 ;
641 [label="url_3 <= 0.5\nentropy = 0.722\nsamples = 35\nvalue = [7, 28]"] ;
639 -> 641 ;
642 [label="acumneg_0 <= 0.5\nentropy = 0.31\nsamples = 18\nvalue = [1, 17]"] ;
641 -> 642 ;
643 [label="entropy = 0.0\nsamples = 17\nvalue = [0, 17]"] ;
642 -> 643 ;
644 [label="entropy = 0.0\nsamples = 1\nvalue = [1, 0]"] ;
642 -> 644 ;
645 [label="acumneg_1 <= 0.5\nentropy = 0.937\nsamples = 17\nvalue = [6, 11]"] ;
641 -> 645 ;
646 [label="acumneg_4 <= 0.5\nentropy = 0.837\nsamples = 15\nvalue = [4, 11]"] ;
645 -> 646 ;
647 [label="resource_4 <= 0.5\nentropy = 0.469\nsamples = 10\nvalue = [1, 9]"] ;
646 -> 647 ;
648 [label="entropy = 0.0\nsamples = 7\nvalue = [0, 7]"] ;
647 -> 648 ;
649 [label="oucollaborate_0 <= 0.5\nentropy = 0.918\nsamples = 3\nvalue = [1, 2]"] ;
647 -> 649 ;
650 [label="entropy = 0.0\nsamples = 2\nvalue = [0, 2]"] ;
649 -> 650 ;
651 [label="entropy = 0.0\nsamples = 1\nvalue = [1, 0]"] ;
649 -> 651 ;
652 [label="oucollaborate_0 <= 0.5\nentropy = 0.971\nsamples = 5\nvalue = [3, 2]"] ;
646 -> 652 ;
653 [label="dataplus <= 0.5\nentropy = 0.811\nsamples = 4\nvalue = [3, 1]"] ;
652 -> 653 ;
654 [label="entropy = 0.0\nsamples = 3\nvalue = [3, 0]"] ;
653 -> 654 ;
655 [label="entropy = 0.0\nsamples = 1\nvalue = [0, 1]"] ;
653 -> 655 ;
656 [label="entropy = 0.0\nsamples = 1\nvalue = [0, 1]"] ;
652 -> 656 ;
657 [label="entropy = 0.0\nsamples = 2\nvalue = [2, 0]"] ;
645 -> 657 ;
658 [label="entropy = 0.0\nsamples = 28\nvalue = [0, 28]"] ;
628 -> 658 ;
659 [label="questionnaire <= 0.5\nentropy = 0.445\nsamples = 227\nvalue = [21, 206]"] ;
589 -> 659 ;
660 [label="subpage_2 <= 0.5\nentropy = 0.268\nsamples = 131\nvalue = [6, 125]"] ;
659 -> 660 ;
661 [label="homepage_4 <= 0.5\nentropy = 0.174\nsamples = 115\nvalue = [3, 112]"] ;
660 -> 661 ;
662 [label="url_3 <= 0.5\nentropy = 0.722\nsamples = 15\nvalue = [3, 12]"] ;
661 -> 662 ;
663 [label="resource_4 <= 0.5\nentropy = 0.985\nsamples = 7\nvalue = [3, 4]"] ;
662 -> 663 ;
664 [label="entropy = 0.0\nsamples = 3\nvalue = [0, 3]"] ;
663 -> 664 ;
665 [label="acumneg_4 <= 0.5\nentropy = 0.811\nsamples = 4\nvalue = [3, 1]"] ;
663 -> 665 ;
666 [label="entropy = 0.0\nsamples = 2\nvalue = [2, 0]"] ;
665 -> 666 ;
667 [label="url_4 <= 0.5\nentropy = 1.0\nsamples = 2\nvalue = [1, 1]"] ;
665 -> 667 ;
668 [label="entropy = 0.0\nsamples = 1\nvalue = [0, 1]"] ;
667 -> 668 ;
669 [label="entropy = 0.0\nsamples = 1\nvalue = [1, 0]"] ;
667 -> 669 ;
670 [label="entropy = 0.0\nsamples = 8\nvalue = [0, 8]"] ;
662 -> 670 ;
671 [label="entropy = 0.0\nsamples = 100\nvalue = [0, 100]"] ;
661 -> 671 ;
672 [label="resource_2 <= 0.5\nentropy = 0.696\nsamples = 16\nvalue = [3, 13]"] ;
660 -> 672 ;
673 [label="url_4 <= 0.5\nentropy = 0.918\nsamples = 9\nvalue = [3, 6]"] ;
672 -> 673 ;
674 [label="entropy = 0.0\nsamples = 4\nvalue = [0, 4]"] ;
673 -> 674 ;
675 [label="resource_1 <= 0.5\nentropy = 0.971\nsamples = 5\nvalue = [3, 2]"] ;
673 -> 675 ;
676 [label="glossary <= 0.5\nentropy = 0.918\nsamples = 3\nvalue = [1, 2]"] ;
675 -> 676 ;
677 [label="resource_4 <= 0.5\nentropy = 1.0\nsamples = 2\nvalue = [1, 1]"] ;
676 -> 677 ;
678 [label="entropy = 0.0\nsamples = 1\nvalue = [1, 0]"] ;
677 -> 678 ;
679 [label="entropy = 0.0\nsamples = 1\nvalue = [0, 1]"] ;
677 -> 679 ;
680 [label="entropy = 0.0\nsamples = 1\nvalue = [0, 1]"] ;
676 -> 680 ;
681 [label="entropy = 0.0\nsamples = 2\nvalue = [2, 0]"] ;
675 -> 681 ;
682 [label="entropy = 0.0\nsamples = 7\nvalue = [0, 7]"] ;
672 -> 682 ;
683 [label="folder <= 0.5\nentropy = 0.625\nsamples = 96\nvalue = [15, 81]"] ;
659 -> 683 ;
684 [label="acumneg_2 <= 0.5\nentropy = 0.544\nsamples = 8\nvalue = [7, 1]"] ;
683 -> 684 ;
685 [label="entropy = 0.0\nsamples = 7\nvalue = [7, 0]"] ;
684 -> 685 ;
686 [label="entropy = 0.0\nsamples = 1\nvalue = [0, 1]"] ;
684 -> 686 ;
687 [label="resource_3 <= 0.5\nentropy = 0.439\nsamples = 88\nvalue = [8, 80]"] ;
683 -> 687 ;
688 [label="acumneg_2 <= 0.5\nentropy = 0.555\nsamples = 62\nvalue = [8, 54]"] ;
687 -> 688 ;
689 [label="ouwiki_0 <= 0.5\nentropy = 0.463\nsamples = 51\nvalue = [5, 46]"] ;
688 -> 689 ;
690 [label="resource_2 <= 0.5\nentropy = 0.592\nsamples = 35\nvalue = [5, 30]"] ;
689 -> 690 ;
691 [label="glossary <= 0.5\nentropy = 0.414\nsamples = 24\nvalue = [2, 22]"] ;
690 -> 691 ;
692 [label="dualpane <= 0.5\nentropy = 0.567\nsamples = 15\nvalue = [2, 13]"] ;
691 -> 692 ;
693 [label="entropy = 0.0\nsamples = 7\nvalue = [0, 7]"] ;
692 -> 693 ;
694 [label="oucollaborate_1 <= 0.5\nentropy = 0.811\nsamples = 8\nvalue = [2, 6]"] ;
692 -> 694 ;
695 [label="entropy = 0.0\nsamples = 1\nvalue = [0, 1]"] ;
694 -> 695 ;
696 [label="entropy = 0.863\nsamples = 7\nvalue = [2, 5]"] ;
694 -> 696 ;
697 [label="entropy = 0.0\nsamples = 9\nvalue = [0, 9]"] ;
691 -> 697 ;
698 [label="oucollaborate_1 <= 0.5\nentropy = 0.845\nsamples = 11\nvalue = [3, 8]"] ;
690 -> 698 ;
699 [label="dualpane <= 0.5\nentropy = 1.0\nsamples = 6\nvalue = [3, 3]"] ;
698 -> 699 ;
700 [label="homepage_4 <= 0.5\nentropy = 0.811\nsamples = 4\nvalue = [1, 3]"] ;
699 -> 700 ;
701 [label="entropy = 0.0\nsamples = 1\nvalue = [1, 0]"] ;
700 -> 701 ;
702 [label="entropy = 0.0\nsamples = 3\nvalue = [0, 3]"] ;
700 -> 702 ;
703 [label="entropy = 0.0\nsamples = 2\nvalue = [2, 0]"] ;
699 -> 703 ;
704 [label="entropy = 0.0\nsamples = 5\nvalue = [0, 5]"] ;
698 -> 704 ;
705 [label="entropy = 0.0\nsamples = 16\nvalue = [0, 16]"] ;
689 -> 705 ;
706 [label="oucollaborate_1 <= 0.5\nentropy = 0.845\nsamples = 11\nvalue = [3, 8]"] ;
688 -> 706 ;
707 [label="entropy = 0.0\nsamples = 4\nvalue = [0, 4]"] ;
706 -> 707 ;
708 [label="url_4 <= 0.5\nentropy = 0.985\nsamples = 7\nvalue = [3, 4]"] ;
706 -> 708 ;
709 [label="resource_2 <= 0.5\nentropy = 0.722\nsamples = 5\nvalue = [1, 4]"] ;
708 -> 709 ;
710 [label="entropy = 0.0\nsamples = 1\nvalue = [1, 0]"] ;
709 -> 710 ;
711 [label="entropy = 0.0\nsamples = 4\nvalue = [0, 4]"] ;
709 -> 711 ;
712 [label="entropy = 0.0\nsamples = 2\nvalue = [2, 0]"] ;
708 -> 712 ;
713 [label="entropy = 0.0\nsamples = 26\nvalue = [0, 26]"] ;
687 -> 713 ;
714 [label="resource_2 <= 0.5\nentropy = 0.169\nsamples = 120\nvalue = [3, 117]"] ;
588 -> 714 ;
715 [label="entropy = 0.0\nsamples = 74\nvalue = [0, 74]"] ;
714 -> 715 ;
716 [label="forumng_4 <= 0.5\nentropy = 0.348\nsamples = 46\nvalue = [3, 43]"] ;
714 -> 716 ;
717 [label="entropy = 0.0\nsamples = 29\nvalue = [0, 29]"] ;
716 -> 717 ;
718 [label="questionnaire <= 0.5\nentropy = 0.672\nsamples = 17\nvalue = [3, 14]"] ;
716 -> 718 ;
719 [label="entropy = 0.0\nsamples = 5\nvalue = [0, 5]"] ;
718 -> 719 ;
720 [label="dataplus <= 0.5\nentropy = 0.811\nsamples = 12\nvalue = [3, 9]"] ;
718 -> 720 ;
721 [label="dualpane <= 0.5\nentropy = 0.985\nsamples = 7\nvalue = [3, 4]"] ;
720 -> 721 ;
722 [label="url_4 <= 0.5\nentropy = 0.722\nsamples = 5\nvalue = [1, 4]"] ;
721 -> 722 ;
723 [label="homepage_3 <= 0.5\nentropy = 1.0\nsamples = 2\nvalue = [1, 1]"] ;
722 -> 723 ;
724 [label="entropy = 0.0\nsamples = 1\nvalue = [1, 0]"] ;
723 -> 724 ;
725 [label="entropy = 0.0\nsamples = 1\nvalue = [0, 1]"] ;
723 -> 725 ;
726 [label="entropy = 0.0\nsamples = 3\nvalue = [0, 3]"] ;
722 -> 726 ;
727 [label="entropy = 0.0\nsamples = 2\nvalue = [2, 0]"] ;
721 -> 727 ;
728 [label="entropy = 0.0\nsamples = 5\nvalue = [0, 5]"] ;
720 -> 728 ;
729 [label="quiz_1 <= 0.5\nentropy = 0.926\nsamples = 700\nvalue = [461, 239]"] ;
1 -> 729 ;
730 [label="glossary <= 0.5\nentropy = 0.738\nsamples = 375\nvalue = [297, 78]"] ;
729 -> 730 ;
731 [label="ouwiki_1 <= 0.5\nentropy = 0.675\nsamples = 338\nvalue = [278, 60]"] ;
730 -> 731 ;
732 [label="quiz_2 <= 0.5\nentropy = 0.618\nsamples = 313\nvalue = [265, 48]"] ;
731 -> 732 ;
733 [label="externalquiz <= 0.5\nentropy = 0.459\nsamples = 186\nvalue = [168, 18]"] ;
732 -> 733 ;
734 [label="resource_2 <= 0.5\nentropy = 0.248\nsamples = 121\nvalue = [116, 5]"] ;
733 -> 734 ;
735 [label="url_1 <= 0.5\nentropy = 0.138\nsamples = 103\nvalue = [101, 2]"] ;
734 -> 735 ;
736 [label="entropy = 0.0\nsamples = 74\nvalue = [74, 0]"] ;
735 -> 736 ;
737 [label="subpage_3 <= 0.5\nentropy = 0.362\nsamples = 29\nvalue = [27, 2]"] ;
735 -> 737 ;
738 [label="homepage_2 <= 0.5\nentropy = 0.222\nsamples = 28\nvalue = [27, 1]"] ;
737 -> 738 ;
739 [label="entropy = 0.0\nsamples = 27\nvalue = [27, 0]"] ;
738 -> 739 ;
740 [label="entropy = 0.0\nsamples = 1\nvalue = [0, 1]"] ;
738 -> 740 ;
741 [label="entropy = 0.0\nsamples = 1\nvalue = [0, 1]"] ;
737 -> 741 ;
742 [label="url_3 <= 0.5\nentropy = 0.65\nsamples = 18\nvalue = [15, 3]"] ;
734 -> 742 ;
743 [label="homepage_0 <= 0.5\nentropy = 0.523\nsamples = 17\nvalue = [15, 2]"] ;
742 -> 743 ;
744 [label="acumneg_2 <= 0.5\nentropy = 0.337\nsamples = 16\nvalue = [15, 1]"] ;
743 -> 744 ;
745 [label="entropy = 0.0\nsamples = 13\nvalue = [13, 0]"] ;
744 -> 745 ;
746 [label="subpage_2 <= 0.5\nentropy = 0.918\nsamples = 3\nvalue = [2, 1]"] ;
744 -> 746 ;
747 [label="entropy = 0.0\nsamples = 2\nvalue = [2, 0]"] ;
746 -> 747 ;
748 [label="entropy = 0.0\nsamples = 1\nvalue = [0, 1]"] ;
746 -> 748 ;
749 [label="entropy = 0.0\nsamples = 1\nvalue = [0, 1]"] ;
743 -> 749 ;
750 [label="entropy = 0.0\nsamples = 1\nvalue = [0, 1]"] ;
742 -> 750 ;
751 [label="homepage_1 <= 0.5\nentropy = 0.722\nsamples = 65\nvalue = [52, 13]"] ;
733 -> 751 ;
752 [label="url_3 <= 0.5\nentropy = 0.391\nsamples = 26\nvalue = [24, 2]"] ;
751 -> 752 ;
753 [label="entropy = 0.0\nsamples = 18\nvalue = [18, 0]"] ;
752 -> 753 ;
754 [label="subpage_3 <= 0.5\nentropy = 0.811\nsamples = 8\nvalue = [6, 2]"] ;
752 -> 754 ;
755 [label="entropy = 0.0\nsamples = 6\nvalue = [6, 0]"] ;
754 -> 755 ;
756 [label="entropy = 0.0\nsamples = 2\nvalue = [0, 2]"] ;
754 -> 756 ;
757 [label="oucontent_1 <= 0.5\nentropy = 0.858\nsamples = 39\nvalue = [28, 11]"] ;
751 -> 757 ;
758 [label="acumneg_0 <= 0.5\nentropy = 0.994\nsamples = 22\nvalue = [12, 10]"] ;
757 -> 758 ;
759 [label="forumng_2 <= 0.5\nentropy = 0.949\nsamples = 19\nvalue = [12, 7]"] ;
758 -> 759 ;
760 [label="resource_1 <= 0.5\nentropy = 0.98\nsamples = 12\nvalue = [5, 7]"] ;
759 -> 760 ;
761 [label="url_2 <= 0.5\nentropy = 0.991\nsamples = 9\nvalue = [5, 4]"] ;
760 -> 761 ;
762 [label="subpage_1 <= 0.5\nentropy = 0.722\nsamples = 5\nvalue = [1, 4]"] ;
761 -> 762 ;
763 [label="entropy = 0.0\nsamples = 4\nvalue = [0, 4]"] ;
762 -> 763 ;
764 [label="entropy = 0.0\nsamples = 1\nvalue = [1, 0]"] ;
762 -> 764 ;
765 [label="entropy = 0.0\nsamples = 4\nvalue = [4, 0]"] ;
761 -> 765 ;
766 [label="entropy = 0.0\nsamples = 3\nvalue = [0, 3]"] ;
760 -> 766 ;
767 [label="entropy = 0.0\nsamples = 7\nvalue = [7, 0]"] ;
759 -> 767 ;
768 [label="entropy = 0.0\nsamples = 3\nvalue = [0, 3]"] ;
758 -> 768 ;
769 [label="url_1 <= 0.5\nentropy = 0.323\nsamples = 17\nvalue = [16, 1]"] ;
757 -> 769 ;
770 [label="entropy = 0.0\nsamples = 9\nvalue = [9, 0]"] ;
769 -> 770 ;
771 [label="oucollaborate_1 <= 0.5\nentropy = 0.544\nsamples = 8\nvalue = [7, 1]"] ;
769 -> 771 ;
772 [label="forumng_0 <= 0.5\nentropy = 0.918\nsamples = 3\nvalue = [2, 1]"] ;
771 -> 772 ;
773 [label="entropy = 0.0\nsamples = 2\nvalue = [2, 0]"] ;
772 -> 773 ;
774 [label="entropy = 0.0\nsamples = 1\nvalue = [0, 1]"] ;
772 -> 774 ;
775 [label="entropy = 0.0\nsamples = 5\nvalue = [5, 0]"] ;
771 -> 775 ;
776 [label="url_1 <= 0.5\nentropy = 0.789\nsamples = 127\nvalue = [97, 30]"] ;
732 -> 776 ;
777 [label="dualpane <= 0.5\nentropy = 0.954\nsamples = 64\nvalue = [40, 24]"] ;
776 -> 777 ;
778 [label="homepage_2 <= 0.5\nentropy = 0.929\nsamples = 61\nvalue = [40, 21]"] ;
777 -> 778 ;
779 [label="resource_1 <= 0.5\nentropy = 0.86\nsamples = 53\nvalue = [38, 15]"] ;
778 -> 779 ;
780 [label="forumng_2 <= 0.5\nentropy = 0.672\nsamples = 34\nvalue = [28, 6]"] ;
779 -> 780 ;
781 [label="page <= 0.5\nentropy = 0.469\nsamples = 30\nvalue = [27, 3]"] ;
780 -> 781 ;
782 [label="resource_0 <= 0.5\nentropy = 0.371\nsamples = 28\nvalue = [26, 2]"] ;
781 -> 782 ;
783 [label="entropy = 0.0\nsamples = 17\nvalue = [17, 0]"] ;
782 -> 783 ;
784 [label="acumneg_1 <= 0.5\nentropy = 0.684\nsamples = 11\nvalue = [9, 2]"] ;
782 -> 784 ;
785 [label="subpage_0 <= 0.5\nentropy = 0.863\nsamples = 7\nvalue = [5, 2]"] ;
784 -> 785 ;
786 [label="entropy = 0.0\nsamples = 1\nvalue = [0, 1]"] ;
785 -> 786 ;
787 [label="homepage_0 <= 0.5\nentropy = 0.65\nsamples = 6\nvalue = [5, 1]"] ;
785 -> 787 ;
788 [label="acumneg_2 <= 0.5\nentropy = 1.0\nsamples = 2\nvalue = [1, 1]"] ;
787 -> 788 ;
789 [label="entropy = 0.0\nsamples = 1\nvalue = [0, 1]"] ;
788 -> 789 ;
790 [label="entropy = 0.0\nsamples = 1\nvalue = [1, 0]"] ;
788 -> 790 ;
791 [label="entropy = 0.0\nsamples = 4\nvalue = [4, 0]"] ;
787 -> 791 ;
792 [label="entropy = 0.0\nsamples = 4\nvalue = [4, 0]"] ;
784 -> 792 ;
793 [label="homepage_1 <= 0.5\nentropy = 1.0\nsamples = 2\nvalue = [1, 1]"] ;
781 -> 793 ;
794 [label="entropy = 0.0\nsamples = 1\nvalue = [1, 0]"] ;
793 -> 794 ;
795 [label="entropy = 0.0\nsamples = 1\nvalue = [0, 1]"] ;
793 -> 795 ;
796 [label="acumneg_1 <= 0.5\nentropy = 0.811\nsamples = 4\nvalue = [1, 3]"] ;
780 -> 796 ;
797 [label="entropy = 0.0\nsamples = 3\nvalue = [0, 3]"] ;
796 -> 797 ;
798 [label="entropy = 0.0\nsamples = 1\nvalue = [1, 0]"] ;
796 -> 798 ;
799 [label="subpage_2 <= 0.5\nentropy = 0.998\nsamples = 19\nvalue = [10, 9]"] ;
779 -> 799 ;
800 [label="acumneg_3 <= 0.5\nentropy = 0.684\nsamples = 11\nvalue = [2, 9]"] ;
799 -> 800 ;
801 [label="entropy = 0.0\nsamples = 9\nvalue = [0, 9]"] ;
800 -> 801 ;
802 [label="entropy = 0.0\nsamples = 2\nvalue = [2, 0]"] ;
800 -> 802 ;
803 [label="entropy = 0.0\nsamples = 8\nvalue = [8, 0]"] ;
799 -> 803 ;
804 [label="acumneg_3 <= 0.5\nentropy = 0.811\nsamples = 8\nvalue = [2, 6]"] ;
778 -> 804 ;
805 [label="entropy = 0.0\nsamples = 5\nvalue = [0, 5]"] ;
804 -> 805 ;
806 [label="subpage_1 <= 0.5\nentropy = 0.918\nsamples = 3\nvalue = [2, 1]"] ;
804 -> 806 ;
807 [label="entropy = 0.0\nsamples = 2\nvalue = [2, 0]"] ;
806 -> 807 ;
808 [label="entropy = 0.0\nsamples = 1\nvalue = [0, 1]"] ;
806 -> 808 ;
809 [label="entropy = 0.0\nsamples = 3\nvalue = [0, 3]"] ;
777 -> 809 ;
810 [label="page <= 0.5\nentropy = 0.454\nsamples = 63\nvalue = [57, 6]"] ;
776 -> 810 ;
811 [label="oucontent_1 <= 0.5\nentropy = 0.225\nsamples = 55\nvalue = [53, 2]"] ;
810 -> 811 ;
812 [label="entropy = 0.0\nsamples = 34\nvalue = [34, 0]"] ;
811 -> 812 ;
813 [label="homepage_1 <= 0.5\nentropy = 0.454\nsamples = 21\nvalue = [19, 2]"] ;
811 -> 813 ;
814 [label="entropy = 0.0\nsamples = 12\nvalue = [12, 0]"] ;
813 -> 814 ;
815 [label="acumneg_3 <= 0.5\nentropy = 0.764\nsamples = 9\nvalue = [7, 2]"] ;
813 -> 815 ;
816 [label="oucollaborate_0 <= 0.5\nentropy = 0.971\nsamples = 5\nvalue = [3, 2]"] ;
815 -> 816 ;
817 [label="entropy = 0.0\nsamples = 2\nvalue = [2, 0]"] ;
816 -> 817 ;
818 [label="resource_0 <= 0.5\nentropy = 0.918\nsamples = 3\nvalue = [1, 2]"] ;
816 -> 818 ;
819 [label="entropy = 0.0\nsamples = 2\nvalue = [0, 2]"] ;
818 -> 819 ;
820 [label="entropy = 0.0\nsamples = 1\nvalue = [1, 0]"] ;
818 -> 820 ;
821 [label="entropy = 0.0\nsamples = 4\nvalue = [4, 0]"] ;
815 -> 821 ;
822 [label="forumng_1 <= 0.5\nentropy = 1.0\nsamples = 8\nvalue = [4, 4]"] ;
810 -> 822 ;
823 [label="acumneg_1 <= 0.5\nentropy = 0.722\nsamples = 5\nvalue = [1, 4]"] ;
822 -> 823 ;
824 [label="entropy = 0.0\nsamples = 3\nvalue = [0, 3]"] ;
823 -> 824 ;
825 [label="subpage_2 <= 0.5\nentropy = 1.0\nsamples = 2\nvalue = [1, 1]"] ;
823 -> 825 ;
826 [label="entropy = 0.0\nsamples = 1\nvalue = [0, 1]"] ;
825 -> 826 ;
827 [label="entropy = 0.0\nsamples = 1\nvalue = [1, 0]"] ;
825 -> 827 ;
828 [label="entropy = 0.0\nsamples = 3\nvalue = [3, 0]"] ;
822 -> 828 ;
829 [label="oucollaborate_0 <= 0.5\nentropy = 0.999\nsamples = 25\nvalue = [13, 12]"] ;
731 -> 829 ;
830 [label="acumneg_2 <= 0.5\nentropy = 0.503\nsamples = 9\nvalue = [1, 8]"] ;
829 -> 830 ;
831 [label="entropy = 0.0\nsamples = 6\nvalue = [0, 6]"] ;
830 -> 831 ;
832 [label="subpage_2 <= 0.5\nentropy = 0.918\nsamples = 3\nvalue = [1, 2]"] ;
830 -> 832 ;
833 [label="entropy = 0.0\nsamples = 1\nvalue = [1, 0]"] ;
832 -> 833 ;
834 [label="entropy = 0.0\nsamples = 2\nvalue = [0, 2]"] ;
832 -> 834 ;
835 [label="url_2 <= 0.5\nentropy = 0.811\nsamples = 16\nvalue = [12, 4]"] ;
829 -> 835 ;
836 [label="acumneg_1 <= 0.5\nentropy = 0.619\nsamples = 13\nvalue = [11, 2]"] ;
835 -> 836 ;
837 [label="url_0 <= 0.5\nentropy = 0.439\nsamples = 11\nvalue = [10, 1]"] ;
836 -> 837 ;
838 [label="entropy = 0.0\nsamples = 10\nvalue = [10, 0]"] ;
837 -> 838 ;
839 [label="entropy = 0.0\nsamples = 1\nvalue = [0, 1]"] ;
837 -> 839 ;
840 [label="url_0 <= 0.5\nentropy = 1.0\nsamples = 2\nvalue = [1, 1]"] ;
836 -> 840 ;
841 [label="entropy = 0.0\nsamples = 1\nvalue = [0, 1]"] ;
840 -> 841 ;
842 [label="entropy = 0.0\nsamples = 1\nvalue = [1, 0]"] ;
840 -> 842 ;
843 [label="oucontent_1 <= 0.5\nentropy = 0.918\nsamples = 3\nvalue = [1, 2]"] ;
835 -> 843 ;
844 [label="entropy = 0.0\nsamples = 2\nvalue = [0, 2]"] ;
843 -> 844 ;
845 [label="entropy = 0.0\nsamples = 1\nvalue = [1, 0]"] ;
843 -> 845 ;
846 [label="quiz_0 <= 0.5\nentropy = 0.999\nsamples = 37\nvalue = [19, 18]"] ;
730 -> 846 ;
847 [label="oucontent_1 <= 0.5\nentropy = 0.672\nsamples = 17\nvalue = [3, 14]"] ;
846 -> 847 ;
848 [label="entropy = 0.0\nsamples = 12\nvalue = [0, 12]"] ;
847 -> 848 ;
849 [label="resource_1 <= 0.5\nentropy = 0.971\nsamples = 5\nvalue = [3, 2]"] ;
847 -> 849 ;
850 [label="entropy = 0.0\nsamples = 2\nvalue = [0, 2]"] ;
849 -> 850 ;
851 [label="entropy = 0.0\nsamples = 3\nvalue = [3, 0]"] ;
849 -> 851 ;
852 [label="forumng_0 <= 0.5\nentropy = 0.722\nsamples = 20\nvalue = [16, 4]"] ;
846 -> 852 ;
853 [label="homepage_2 <= 0.5\nentropy = 0.503\nsamples = 18\nvalue = [16, 2]"] ;
852 -> 853 ;
854 [label="entropy = 0.0\nsamples = 13\nvalue = [13, 0]"] ;
853 -> 854 ;
855 [label="resource_2 <= 0.5\nentropy = 0.971\nsamples = 5\nvalue = [3, 2]"] ;
853 -> 855 ;
856 [label="acumneg_4 <= 0.5\nentropy = 0.918\nsamples = 3\nvalue = [1, 2]"] ;
855 -> 856 ;
857 [label="entropy = 0.0\nsamples = 2\nvalue = [0, 2]"] ;
856 -> 857 ;
858 [label="entropy = 0.0\nsamples = 1\nvalue = [1, 0]"] ;
856 -> 858 ;
859 [label="entropy = 0.0\nsamples = 2\nvalue = [2, 0]"] ;
855 -> 859 ;
860 [label="entropy = 0.0\nsamples = 2\nvalue = [0, 2]"] ;
852 -> 860 ;
861 [label="page <= 0.5\nentropy = 1.0\nsamples = 325\nvalue = [164, 161]"] ;
729 -> 861 ;
862 [label="oucontent_0 <= 0.5\nentropy = 0.996\nsamples = 299\nvalue = [139, 160]"] ;
861 -> 862 ;
863 [label="resource_1 <= 0.5\nentropy = 0.974\nsamples = 227\nvalue = [92, 135]"] ;
862 -> 863 ;
864 [label="homepage_0 <= 0.5\nentropy = 0.999\nsamples = 143\nvalue = [74, 69]"] ;
863 -> 864 ;
865 [label="url_4 <= 0.5\nentropy = 0.999\nsamples = 131\nvalue = [63, 68]"] ;
864 -> 865 ;
866 [label="glossary <= 0.5\nentropy = 1.0\nsamples = 126\nvalue = [63, 63]"] ;
865 -> 866 ;
867 [label="resource_3 <= 0.5\nentropy = 0.992\nsamples = 96\nvalue = [53, 43]"] ;
866 -> 867 ;
868 [label="acumneg_1 <= 0.5\nentropy = 0.966\nsamples = 79\nvalue = [48, 31]"] ;
867 -> 868 ;
869 [label="subpage_0 <= 0.5\nentropy = 0.902\nsamples = 63\nvalue = [43, 20]"] ;
868 -> 869 ;
870 [label="homepage_1 <= 0.5\nentropy = 0.764\nsamples = 36\nvalue = [28, 8]"] ;
869 -> 870 ;
871 [label="url_1 <= 0.5\nentropy = 1.0\nsamples = 8\nvalue = [4, 4]"] ;
870 -> 871 ;
872 [label="forumng_1 <= 0.5\nentropy = 0.918\nsamples = 6\nvalue = [4, 2]"] ;
871 -> 872 ;
873 [label="url_3 <= 0.5\nentropy = 0.722\nsamples = 5\nvalue = [4, 1]"] ;
872 -> 873 ;
874 [label="entropy = 0.0\nsamples = 2\nvalue = [2, 0]"] ;
873 -> 874 ;
875 [label="entropy = 0.918\nsamples = 3\nvalue = [2, 1]"] ;
873 -> 875 ;
876 [label="entropy = 0.0\nsamples = 1\nvalue = [0, 1]"] ;
872 -> 876 ;
877 [label="entropy = 0.0\nsamples = 2\nvalue = [0, 2]"] ;
871 -> 877 ;
878 [label="resource_4 <= 0.5\nentropy = 0.592\nsamples = 28\nvalue = [24, 4]"] ;
870 -> 878 ;
879 [label="acumneg_3 <= 0.5\nentropy = 0.503\nsamples = 27\nvalue = [24, 3]"] ;
878 -> 879 ;
880 [label="subpage_2 <= 0.5\nentropy = 0.575\nsamples = 22\nvalue = [19, 3]"] ;
879 -> 880 ;
881 [label="forumng_2 <= 0.5\nentropy = 0.353\nsamples = 15\nvalue = [14, 1]"] ;
880 -> 881 ;
882 [label="entropy = 0.0\nsamples = 9\nvalue = [9, 0]"] ;
881 -> 882 ;
883 [label="acumneg_2 <= 0.5\nentropy = 0.65\nsamples = 6\nvalue = [5, 1]"] ;
881 -> 883 ;
884 [label="entropy = 1.0\nsamples = 2\nvalue = [1, 1]"] ;
883 -> 884 ;
885 [label="entropy = 0.0\nsamples = 4\nvalue = [4, 0]"] ;
883 -> 885 ;
886 [label="oucontent_2 <= 0.5\nentropy = 0.863\nsamples = 7\nvalue = [5, 2]"] ;
880 -> 886 ;
887 [label="forumng_1 <= 0.5\nentropy = 0.65\nsamples = 6\nvalue = [5, 1]"] ;
886 -> 887 ;
888 [label="entropy = 0.0\nsamples = 5\nvalue = [5, 0]"] ;
887 -> 888 ;
889 [label="entropy = 0.0\nsamples = 1\nvalue = [0, 1]"] ;
887 -> 889 ;
890 [label="entropy = 0.0\nsamples = 1\nvalue = [0, 1]"] ;
886 -> 890 ;
891 [label="entropy = 0.0\nsamples = 5\nvalue = [5, 0]"] ;
879 -> 891 ;
892 [label="entropy = 0.0\nsamples = 1\nvalue = [0, 1]"] ;
878 -> 892 ;
893 [label="oucontent_1 <= 0.5\nentropy = 0.991\nsamples = 27\nvalue = [15, 12]"] ;
869 -> 893 ;
894 [label="url_2 <= 0.5\nentropy = 0.831\nsamples = 19\nvalue = [14, 5]"] ;
893 -> 894 ;
895 [label="url_1 <= 0.5\nentropy = 1.0\nsamples = 10\nvalue = [5, 5]"] ;
894 -> 895 ;
896 [label="oucontent_2 <= 0.5\nentropy = 0.954\nsamples = 8\nvalue = [5, 3]"] ;
895 -> 896 ;
897 [label="entropy = 0.0\nsamples = 3\nvalue = [3, 0]"] ;
896 -> 897 ;
898 [label="entropy = 0.971\nsamples = 5\nvalue = [2, 3]"] ;
896 -> 898 ;
899 [label="entropy = 0.0\nsamples = 2\nvalue = [0, 2]"] ;
895 -> 899 ;
900 [label="entropy = 0.0\nsamples = 9\nvalue = [9, 0]"] ;
894 -> 900 ;
901 [label="url_0 <= 0.5\nentropy = 0.544\nsamples = 8\nvalue = [1, 7]"] ;
893 -> 901 ;
902 [label="entropy = 0.0\nsamples = 6\nvalue = [0, 6]"] ;
901 -> 902 ;
903 [label="forumng_2 <= 0.5\nentropy = 1.0\nsamples = 2\nvalue = [1, 1]"] ;
901 -> 903 ;
904 [label="entropy = 0.0\nsamples = 1\nvalue = [1, 0]"] ;
903 -> 904 ;
905 [label="entropy = 0.0\nsamples = 1\nvalue = [0, 1]"] ;
903 -> 905 ;
906 [label="url_1 <= 0.5\nentropy = 0.896\nsamples = 16\nvalue = [5, 11]"] ;
868 -> 906 ;
907 [label="homepage_2 <= 0.5\nentropy = 0.837\nsamples = 15\nvalue = [4, 11]"] ;
906 -> 907 ;
908 [label="oucontent_3 <= 0.5\nentropy = 0.918\nsamples = 12\nvalue = [4, 8]"] ;
907 -> 908 ;
909 [label="resource_0 <= 0.5\nentropy = 0.946\nsamples = 11\nvalue = [4, 7]"] ;
908 -> 909 ;
910 [label="oucontent_2 <= 0.5\nentropy = 0.971\nsamples = 10\nvalue = [4, 6]"] ;
909 -> 910 ;
911 [label="forumng_0 <= 0.5\nentropy = 0.863\nsamples = 7\nvalue = [2, 5]"] ;
910 -> 911 ;
912 [label="url_3 <= 0.5\nentropy = 0.971\nsamples = 5\nvalue = [2, 3]"] ;
911 -> 912 ;
913 [label="subpage_2 <= 0.5\nentropy = 1.0\nsamples = 4\nvalue = [2, 2]"] ;
912 -> 913 ;
914 [label="forumng_1 <= 0.5\nentropy = 0.918\nsamples = 3\nvalue = [2, 1]"] ;
913 -> 914 ;
915 [label="entropy = 0.0\nsamples = 1\nvalue = [1, 0]"] ;
914 -> 915 ;
916 [label="url_2 <= 0.5\nentropy = 1.0\nsamples = 2\nvalue = [1, 1]"] ;
914 -> 916 ;
917 [label="entropy = 0.0\nsamples = 1\nvalue = [0, 1]"] ;
916 -> 917 ;
918 [label="entropy = 0.0\nsamples = 1\nvalue = [1, 0]"] ;
916 -> 918 ;
919 [label="entropy = 0.0\nsamples = 1\nvalue = [0, 1]"] ;
913 -> 919 ;
920 [label="entropy = 0.0\nsamples = 1\nvalue = [0, 1]"] ;
912 -> 920 ;
921 [label="entropy = 0.0\nsamples = 2\nvalue = [0, 2]"] ;
911 -> 921 ;
922 [label="resource_2 <= 0.5\nentropy = 0.918\nsamples = 3\nvalue = [2, 1]"] ;
910 -> 922 ;
923 [label="entropy = 0.0\nsamples = 2\nvalue = [2, 0]"] ;
922 -> 923 ;
924 [label="entropy = 0.0\nsamples = 1\nvalue = [0, 1]"] ;
922 -> 924 ;
925 [label="entropy = 0.0\nsamples = 1\nvalue = [0, 1]"] ;
909 -> 925 ;
926 [label="entropy = 0.0\nsamples = 1\nvalue = [0, 1]"] ;
908 -> 926 ;
927 [label="entropy = 0.0\nsamples = 3\nvalue = [0, 3]"] ;
907 -> 927 ;
928 [label="entropy = 0.0\nsamples = 1\nvalue = [1, 0]"] ;
906 -> 928 ;
929 [label="url_2 <= 0.5\nentropy = 0.874\nsamples = 17\nvalue = [5, 12]"] ;
867 -> 929 ;
930 [label="acumneg_1 <= 0.5\nentropy = 0.961\nsamples = 13\nvalue = [5, 8]"] ;
929 -> 930 ;
931 [label="url_1 <= 0.5\nentropy = 0.845\nsamples = 11\nvalue = [3, 8]"] ;
930 -> 931 ;
932 [label="forumng_1 <= 0.5\nentropy = 0.954\nsamples = 8\nvalue = [3, 5]"] ;
931 -> 932 ;
933 [label="acumneg_0 <= 0.5\nentropy = 0.971\nsamples = 5\nvalue = [3, 2]"] ;
932 -> 933 ;
934 [label="homepage_2 <= 0.5\nentropy = 0.918\nsamples = 3\nvalue = [2, 1]"] ;
933 -> 934 ;
935 [label="oucontent_1 <= 0.5\nentropy = 1.0\nsamples = 2\nvalue = [1, 1]"] ;
934 -> 935 ;
936 [label="entropy = 0.0\nsamples = 1\nvalue = [0, 1]"] ;
935 -> 936 ;
937 [label="entropy = 0.0\nsamples = 1\nvalue = [1, 0]"] ;
935 -> 937 ;
938 [label="entropy = 0.0\nsamples = 1\nvalue = [1, 0]"] ;
934 -> 938 ;
939 [label="url_3 <= 0.5\nentropy = 1.0\nsamples = 2\nvalue = [1, 1]"] ;
933 -> 939 ;
940 [label="entropy = 0.0\nsamples = 1\nvalue = [1, 0]"] ;
939 -> 940 ;
941 [label="entropy = 0.0\nsamples = 1\nvalue = [0, 1]"] ;
939 -> 941 ;
942 [label="entropy = 0.0\nsamples = 3\nvalue = [0, 3]"] ;
932 -> 942 ;
943 [label="entropy = 0.0\nsamples = 3\nvalue = [0, 3]"] ;
931 -> 943 ;
944 [label="entropy = 0.0\nsamples = 2\nvalue = [2, 0]"] ;
930 -> 944 ;
945 [label="entropy = 0.0\nsamples = 4\nvalue = [0, 4]"] ;
929 -> 945 ;
946 [label="subpage_0 <= 0.5\nentropy = 0.918\nsamples = 30\nvalue = [10, 20]"] ;
866 -> 946 ;
947 [label="acumneg_3 <= 0.5\nentropy = 0.738\nsamples = 24\nvalue = [5, 19]"] ;
946 -> 947 ;
948 [label="url_2 <= 0.5\nentropy = 0.852\nsamples = 18\nvalue = [5, 13]"] ;
947 -> 948 ;
949 [label="oucontent_3 <= 0.5\nentropy = 0.918\nsamples = 15\nvalue = [5, 10]"] ;
948 -> 949 ;
950 [label="forumng_1 <= 0.5\nentropy = 0.961\nsamples = 13\nvalue = [5, 8]"] ;
949 -> 950 ;
951 [label="homepage_1 <= 0.5\nentropy = 0.811\nsamples = 8\nvalue = [2, 6]"] ;
950 -> 951 ;
952 [label="entropy = 0.0\nsamples = 1\nvalue = [1, 0]"] ;
951 -> 952 ;
953 [label="forumng_2 <= 0.5\nentropy = 0.592\nsamples = 7\nvalue = [1, 6]"] ;
951 -> 953 ;
954 [label="entropy = 0.0\nsamples = 5\nvalue = [0, 5]"] ;
953 -> 954 ;
955 [label="url_0 <= 0.5\nentropy = 1.0\nsamples = 2\nvalue = [1, 1]"] ;
953 -> 955 ;
956 [label="entropy = 0.0\nsamples = 1\nvalue = [0, 1]"] ;
955 -> 956 ;
957 [label="entropy = 0.0\nsamples = 1\nvalue = [1, 0]"] ;
955 -> 957 ;
958 [label="acumneg_2 <= 0.5\nentropy = 0.971\nsamples = 5\nvalue = [3, 2]"] ;
950 -> 958 ;
959 [label="entropy = 0.918\nsamples = 3\nvalue = [1, 2]"] ;
958 -> 959 ;
960 [label="entropy = 0.0\nsamples = 2\nvalue = [2, 0]"] ;
958 -> 960 ;
961 [label="entropy = 0.0\nsamples = 2\nvalue = [0, 2]"] ;
949 -> 961 ;
962 [label="entropy = 0.0\nsamples = 3\nvalue = [0, 3]"] ;
948 -> 962 ;
963 [label="entropy = 0.0\nsamples = 6\nvalue = [0, 6]"] ;
947 -> 963 ;
964 [label="resource_2 <= 0.5\nentropy = 0.65\nsamples = 6\nvalue = [5, 1]"] ;
946 -> 964 ;
965 [label="entropy = 0.0\nsamples = 5\nvalue = [5, 0]"] ;
964 -> 965 ;
966 [label="entropy = 0.0\nsamples = 1\nvalue = [0, 1]"] ;
964 -> 966 ;
967 [label="entropy = 0.0\nsamples = 5\nvalue = [0, 5]"] ;
865 -> 967 ;
968 [label="forumng_2 <= 0.5\nentropy = 0.414\nsamples = 12\nvalue = [11, 1]"] ;
864 -> 968 ;
969 [label="entropy = 0.0\nsamples = 11\nvalue = [11, 0]"] ;
968 -> 969 ;
970 [label="entropy = 0.0\nsamples = 1\nvalue = [0, 1]"] ;
968 -> 970 ;
971 [label="oucollaborate_0 <= 0.5\nentropy = 0.75\nsamples = 84\nvalue = [18, 66]"] ;
863 -> 971 ;
972 [label="entropy = 0.0\nsamples = 3\nvalue = [3, 0]"] ;
971 -> 972 ;
973 [label="forumng_2 <= 0.5\nentropy = 0.691\nsamples = 81\nvalue = [15, 66]"] ;
971 -> 973 ;
974 [label="forumng_3 <= 0.5\nentropy = 0.761\nsamples = 68\nvalue = [15, 53]"] ;
973 -> 974 ;
975 [label="acumneg_1 <= 0.5\nentropy = 0.825\nsamples = 58\nvalue = [15, 43]"] ;
974 -> 975 ;
976 [label="oucontent_3 <= 0.5\nentropy = 0.918\nsamples = 36\nvalue = [12, 24]"] ;
975 -> 976 ;
977 [label="subpage_0 <= 0.5\nentropy = 0.946\nsamples = 33\nvalue = [12, 21]"] ;
976 -> 977 ;
978 [label="url_1 <= 0.5\nentropy = 0.855\nsamples = 25\nvalue = [7, 18]"] ;
977 -> 978 ;
979 [label="acumneg_0 <= 0.5\nentropy = 0.65\nsamples = 18\nvalue = [3, 15]"] ;
978 -> 979 ;
980 [label="forumng_1 <= 0.5\nentropy = 0.985\nsamples = 7\nvalue = [3, 4]"] ;
979 -> 980 ;
981 [label="entropy = 0.0\nsamples = 1\nvalue = [1, 0]"] ;
980 -> 981 ;
982 [label="subpage_2 <= 0.5\nentropy = 0.918\nsamples = 6\nvalue = [2, 4]"] ;
980 -> 982 ;
983 [label="glossary <= 0.5\nentropy = 0.722\nsamples = 5\nvalue = [1, 4]"] ;
982 -> 983 ;
984 [label="entropy = 0.0\nsamples = 3\nvalue = [0, 3]"] ;
983 -> 984 ;
985 [label="homepage_2 <= 0.5\nentropy = 1.0\nsamples = 2\nvalue = [1, 1]"] ;
983 -> 985 ;
986 [label="entropy = 0.0\nsamples = 1\nvalue = [1, 0]"] ;
985 -> 986 ;
987 [label="entropy = 0.0\nsamples = 1\nvalue = [0, 1]"] ;
985 -> 987 ;
988 [label="entropy = 0.0\nsamples = 1\nvalue = [1, 0]"] ;
982 -> 988 ;
989 [label="entropy = 0.0\nsamples = 11\nvalue = [0, 11]"] ;
979 -> 989 ;
990 [label="oucontent_2 <= 0.5\nentropy = 0.985\nsamples = 7\nvalue = [4, 3]"] ;
978 -> 990 ;
991 [label="forumng_1 <= 0.5\nentropy = 0.918\nsamples = 6\nvalue = [4, 2]"] ;
990 -> 991 ;
992 [label="entropy = 0.0\nsamples = 1\nvalue = [1, 0]"] ;
991 -> 992 ;
993 [label="acumneg_0 <= 0.5\nentropy = 0.971\nsamples = 5\nvalue = [3, 2]"] ;
991 -> 993 ;
994 [label="entropy = 0.0\nsamples = 1\nvalue = [0, 1]"] ;
993 -> 994 ;
995 [label="entropy = 0.811\nsamples = 4\nvalue = [3, 1]"] ;
993 -> 995 ;
996 [label="entropy = 0.0\nsamples = 1\nvalue = [0, 1]"] ;
990 -> 996 ;
997 [label="url_3 <= 0.5\nentropy = 0.954\nsamples = 8\nvalue = [5, 3]"] ;
977 -> 997 ;
998 [label="homepage_1 <= 0.5\nentropy = 0.65\nsamples = 6\nvalue = [5, 1]"] ;
997 -> 998 ;
999 [label="entropy = 0.0\nsamples = 1\nvalue = [0, 1]"] ;
998 -> 999 ;
1000 [label="entropy = 0.0\nsamples = 5\nvalue = [5, 0]"] ;
998 -> 1000 ;
1001 [label="entropy = 0.0\nsamples = 2\nvalue = [0, 2]"] ;
997 -> 1001 ;
1002 [label="entropy = 0.0\nsamples = 3\nvalue = [0, 3]"] ;
976 -> 1002 ;
1003 [label="forumng_1 <= 0.5\nentropy = 0.575\nsamples = 22\nvalue = [3, 19]"] ;
975 -> 1003 ;
1004 [label="url_2 <= 0.5\nentropy = 0.918\nsamples = 9\nvalue = [3, 6]"] ;
1003 -> 1004 ;
1005 [label="oucontent_2 <= 0.5\nentropy = 0.811\nsamples = 8\nvalue = [2, 6]"] ;
1004 -> 1005 ;
1006 [label="entropy = 0.0\nsamples = 4\nvalue = [0, 4]"] ;
1005 -> 1006 ;
1007 [label="glossary <= 0.5\nentropy = 1.0\nsamples = 4\nvalue = [2, 2]"] ;
1005 -> 1007 ;
1008 [label="entropy = 0.0\nsamples = 2\nvalue = [2, 0]"] ;
1007 -> 1008 ;
1009 [label="entropy = 0.0\nsamples = 2\nvalue = [0, 2]"] ;
1007 -> 1009 ;
1010 [label="entropy = 0.0\nsamples = 1\nvalue = [1, 0]"] ;
1004 -> 1010 ;
1011 [label="entropy = 0.0\nsamples = 13\nvalue = [0, 13]"] ;
1003 -> 1011 ;
1012 [label="entropy = 0.0\nsamples = 10\nvalue = [0, 10]"] ;
974 -> 1012 ;
1013 [label="entropy = 0.0\nsamples = 13\nvalue = [0, 13]"] ;
973 -> 1013 ;
1014 [label="subpage_0 <= 0.5\nentropy = 0.932\nsamples = 72\nvalue = [47, 25]"] ;
862 -> 1014 ;
1015 [label="resource_1 <= 0.5\nentropy = 0.68\nsamples = 50\nvalue = [41, 9]"] ;
1014 -> 1015 ;
1016 [label="url_3 <= 0.5\nentropy = 0.943\nsamples = 25\nvalue = [16, 9]"] ;
1015 -> 1016 ;
1017 [label="acumneg_0 <= 0.5\nentropy = 0.696\nsamples = 16\nvalue = [13, 3]"] ;
1016 -> 1017 ;
1018 [label="entropy = 0.0\nsamples = 13\nvalue = [13, 0]"] ;
1017 -> 1018 ;
1019 [label="entropy = 0.0\nsamples = 3\nvalue = [0, 3]"] ;
1017 -> 1019 ;
1020 [label="forumng_0 <= 0.5\nentropy = 0.918\nsamples = 9\nvalue = [3, 6]"] ;
1016 -> 1020 ;
1021 [label="resource_3 <= 0.5\nentropy = 0.811\nsamples = 8\nvalue = [2, 6]"] ;
1020 -> 1021 ;
1022 [label="entropy = 0.0\nsamples = 2\nvalue = [0, 2]"] ;
1021 -> 1022 ;
1023 [label="forumng_1 <= 0.5\nentropy = 0.918\nsamples = 6\nvalue = [2, 4]"] ;
1021 -> 1023 ;
1024 [label="subpage_3 <= 0.5\nentropy = 0.722\nsamples = 5\nvalue = [1, 4]"] ;
1023 -> 1024 ;
1025 [label="entropy = 0.0\nsamples = 3\nvalue = [0, 3]"] ;
1024 -> 1025 ;
1026 [label="glossary <= 0.5\nentropy = 1.0\nsamples = 2\nvalue = [1, 1]"] ;
1024 -> 1026 ;
1027 [label="entropy = 0.0\nsamples = 1\nvalue = [1, 0]"] ;
1026 -> 1027 ;
1028 [label="entropy = 0.0\nsamples = 1\nvalue = [0, 1]"] ;
1026 -> 1028 ;
1029 [label="entropy = 0.0\nsamples = 1\nvalue = [1, 0]"] ;
1023 -> 1029 ;
1030 [label="entropy = 0.0\nsamples = 1\nvalue = [1, 0]"] ;
1020 -> 1030 ;
1031 [label="entropy = 0.0\nsamples = 25\nvalue = [25, 0]"] ;
1015 -> 1031 ;
1032 [label="resource_2 <= 0.5\nentropy = 0.845\nsamples = 22\nvalue = [6, 16]"] ;
1014 -> 1032 ;
1033 [label="acumneg_2 <= 0.5\nentropy = 0.937\nsamples = 17\nvalue = [6, 11]"] ;
1032 -> 1033 ;
1034 [label="url_1 <= 0.5\nentropy = 0.75\nsamples = 14\nvalue = [3, 11]"] ;
1033 -> 1034 ;
1035 [label="entropy = 0.0\nsamples = 8\nvalue = [0, 8]"] ;
1034 -> 1035 ;
1036 [label="homepage_0 <= 0.5\nentropy = 1.0\nsamples = 6\nvalue = [3, 3]"] ;
1034 -> 1036 ;
1037 [label="glossary <= 0.5\nentropy = 0.811\nsamples = 4\nvalue = [3, 1]"] ;
1036 -> 1037 ;
1038 [label="entropy = 0.918\nsamples = 3\nvalue = [2, 1]"] ;
1037 -> 1038 ;
1039 [label="entropy = 0.0\nsamples = 1\nvalue = [1, 0]"] ;
1037 -> 1039 ;
1040 [label="entropy = 0.0\nsamples = 2\nvalue = [0, 2]"] ;
1036 -> 1040 ;
1041 [label="entropy = 0.0\nsamples = 3\nvalue = [3, 0]"] ;
1033 -> 1041 ;
1042 [label="entropy = 0.0\nsamples = 5\nvalue = [0, 5]"] ;
1032 -> 1042 ;
1043 [label="forumng_0 <= 0.5\nentropy = 0.235\nsamples = 26\nvalue = [25, 1]"] ;
861 -> 1043 ;
1044 [label="entropy = 0.0\nsamples = 25\nvalue = [25, 0]"] ;
1043 -> 1044 ;
1045 [label="entropy = 0.0\nsamples = 1\nvalue = [0, 1]"] ;
1043 -> 1045 ;
1046 [label="quiz_1 <= 0.5\nentropy = 0.227\nsamples = 625\nvalue = [602, 23]"] ;
0 -> 1046 [labeldistance=2.5, labelangle=-45, headlabel="False"] ;
1047 [label="resource_1 <= 0.5\nentropy = 0.053\nsamples = 502\nvalue = [499, 3]"] ;
1046 -> 1047 ;
1048 [label="url_2 <= 0.5\nentropy = 0.026\nsamples = 388\nvalue = [387, 1]"] ;
1047 -> 1048 ;
1049 [label="entropy = 0.0\nsamples = 375\nvalue = [375, 0]"] ;
1048 -> 1049 ;
1050 [label="acumneg_1 <= 0.5\nentropy = 0.391\nsamples = 13\nvalue = [12, 1]"] ;
1048 -> 1050 ;
1051 [label="entropy = 0.0\nsamples = 6\nvalue = [6, 0]"] ;
1050 -> 1051 ;
1052 [label="oucontent_0 <= 0.5\nentropy = 0.592\nsamples = 7\nvalue = [6, 1]"] ;
1050 -> 1052 ;
1053 [label="entropy = 0.0\nsamples = 3\nvalue = [3, 0]"] ;
1052 -> 1053 ;
1054 [label="resource_2 <= 0.5\nentropy = 0.811\nsamples = 4\nvalue = [3, 1]"] ;
1052 -> 1054 ;
1055 [label="entropy = 1.0\nsamples = 2\nvalue = [1, 1]"] ;
1054 -> 1055 ;
1056 [label="entropy = 0.0\nsamples = 2\nvalue = [2, 0]"] ;
1054 -> 1056 ;
1057 [label="acumneg_0 <= 0.5\nentropy = 0.127\nsamples = 114\nvalue = [112, 2]"] ;
1047 -> 1057 ;
1058 [label="entropy = 0.0\nsamples = 61\nvalue = [61, 0]"] ;
1057 -> 1058 ;
1059 [label="oucontent_1 <= 0.5\nentropy = 0.232\nsamples = 53\nvalue = [51, 2]"] ;
1057 -> 1059 ;
1060 [label="entropy = 0.0\nsamples = 27\nvalue = [27, 0]"] ;
1059 -> 1060 ;
1061 [label="forumng_1 <= 0.5\nentropy = 0.391\nsamples = 26\nvalue = [24, 2]"] ;
1059 -> 1061 ;
1062 [label="glossary <= 0.5\nentropy = 0.485\nsamples = 19\nvalue = [17, 2]"] ;
1061 -> 1062 ;
1063 [label="subpage_0 <= 0.5\nentropy = 0.544\nsamples = 16\nvalue = [14, 2]"] ;
1062 -> 1063 ;
1064 [label="entropy = 0.0\nsamples = 2\nvalue = [2, 0]"] ;
1063 -> 1064 ;
1065 [label="homepage_1 <= 0.5\nentropy = 0.592\nsamples = 14\nvalue = [12, 2]"] ;
1063 -> 1065 ;
1066 [label="entropy = 0.619\nsamples = 13\nvalue = [11, 2]"] ;
1065 -> 1066 ;
1067 [label="entropy = 0.0\nsamples = 1\nvalue = [1, 0]"] ;
1065 -> 1067 ;
1068 [label="entropy = 0.0\nsamples = 3\nvalue = [3, 0]"] ;
1062 -> 1068 ;
1069 [label="entropy = 0.0\nsamples = 7\nvalue = [7, 0]"] ;
1061 -> 1069 ;
1070 [label="subpage_0 <= 0.5\nentropy = 0.64\nsamples = 123\nvalue = [103, 20]"] ;
1046 -> 1070 ;
1071 [label="acumneg_2 <= 0.5\nentropy = 0.206\nsamples = 31\nvalue = [30, 1]"] ;
1070 -> 1071 ;
1072 [label="entropy = 0.0\nsamples = 25\nvalue = [25, 0]"] ;
1071 -> 1072 ;
1073 [label="oucontent_0 <= 0.5\nentropy = 0.65\nsamples = 6\nvalue = [5, 1]"] ;
1071 -> 1073 ;
1074 [label="entropy = 0.0\nsamples = 3\nvalue = [3, 0]"] ;
1073 -> 1074 ;
1075 [label="url_1 <= 0.5\nentropy = 0.918\nsamples = 3\nvalue = [2, 1]"] ;
1073 -> 1075 ;
1076 [label="entropy = 0.0\nsamples = 2\nvalue = [2, 0]"] ;
1075 -> 1076 ;
1077 [label="entropy = 0.0\nsamples = 1\nvalue = [0, 1]"] ;
1075 -> 1077 ;
1078 [label="acumneg_2 <= 0.5\nentropy = 0.735\nsamples = 92\nvalue = [73, 19]"] ;
1070 -> 1078 ;
1079 [label="url_1 <= 0.5\nentropy = 0.781\nsamples = 82\nvalue = [63, 19]"] ;
1078 -> 1079 ;
1080 [label="glossary <= 0.5\nentropy = 0.879\nsamples = 57\nvalue = [40, 17]"] ;
1079 -> 1080 ;
1081 [label="resource_2 <= 0.5\nentropy = 0.905\nsamples = 53\nvalue = [36, 17]"] ;
1080 -> 1081 ;
1082 [label="resource_0 <= 0.5\nentropy = 0.89\nsamples = 52\nvalue = [36, 16]"] ;
1081 -> 1082 ;
1083 [label="homepage_1 <= 0.5\nentropy = 0.991\nsamples = 9\nvalue = [5, 4]"] ;
1082 -> 1083 ;
1084 [label="acumneg_1 <= 0.5\nentropy = 1.0\nsamples = 8\nvalue = [4, 4]"] ;
1083 -> 1084 ;
1085 [label="oucontent_1 <= 0.5\nentropy = 0.918\nsamples = 6\nvalue = [4, 2]"] ;
1084 -> 1085 ;
1086 [label="forumng_1 <= 0.5\nentropy = 0.722\nsamples = 5\nvalue = [4, 1]"] ;
1085 -> 1086 ;
1087 [label="entropy = 0.0\nsamples = 2\nvalue = [2, 0]"] ;
1086 -> 1087 ;
1088 [label="entropy = 0.918\nsamples = 3\nvalue = [2, 1]"] ;
1086 -> 1088 ;
1089 [label="entropy = 0.0\nsamples = 1\nvalue = [0, 1]"] ;
1085 -> 1089 ;
1090 [label="entropy = 0.0\nsamples = 2\nvalue = [0, 2]"] ;
1084 -> 1090 ;
1091 [label="entropy = 0.0\nsamples = 1\nvalue = [1, 0]"] ;
1083 -> 1091 ;
1092 [label="acumneg_0 <= 0.5\nentropy = 0.854\nsamples = 43\nvalue = [31, 12]"] ;
1082 -> 1092 ;
1093 [label="forumng_1 <= 0.5\nentropy = 0.696\nsamples = 16\nvalue = [13, 3]"] ;
1092 -> 1093 ;
1094 [label="homepage_0 <= 0.5\nentropy = 0.439\nsamples = 11\nvalue = [10, 1]"] ;
1093 -> 1094 ;
1095 [label="entropy = 0.0\nsamples = 1\nvalue = [0, 1]"] ;
1094 -> 1095 ;
1096 [label="entropy = 0.0\nsamples = 10\nvalue = [10, 0]"] ;
1094 -> 1096 ;
1097 [label="homepage_1 <= 0.5\nentropy = 0.971\nsamples = 5\nvalue = [3, 2]"] ;
1093 -> 1097 ;
1098 [label="entropy = 0.0\nsamples = 2\nvalue = [0, 2]"] ;
1097 -> 1098 ;
1099 [label="entropy = 0.0\nsamples = 3\nvalue = [3, 0]"] ;
1097 -> 1099 ;
1100 [label="oucollaborate_1 <= 0.5\nentropy = 0.918\nsamples = 27\nvalue = [18, 9]"] ;
1092 -> 1100 ;
1101 [label="oucontent_0 <= 0.5\nentropy = 0.931\nsamples = 26\nvalue = [17, 9]"] ;
1100 -> 1101 ;
1102 [label="forumng_1 <= 0.5\nentropy = 0.811\nsamples = 8\nvalue = [6, 2]"] ;
1101 -> 1102 ;
1103 [label="entropy = 0.592\nsamples = 7\nvalue = [6, 1]"] ;
1102 -> 1103 ;
1104 [label="entropy = 0.0\nsamples = 1\nvalue = [0, 1]"] ;
1102 -> 1104 ;
1105 [label="forumng_0 <= 0.5\nentropy = 0.964\nsamples = 18\nvalue = [11, 7]"] ;
1101 -> 1105 ;
1106 [label="entropy = 0.0\nsamples = 3\nvalue = [3, 0]"] ;
1105 -> 1106 ;
1107 [label="entropy = 0.997\nsamples = 15\nvalue = [8, 7]"] ;
1105 -> 1107 ;
1108 [label="entropy = 0.0\nsamples = 1\nvalue = [1, 0]"] ;
1100 -> 1108 ;
1109 [label="entropy = 0.0\nsamples = 1\nvalue = [0, 1]"] ;
1081 -> 1109 ;
1110 [label="entropy = 0.0\nsamples = 4\nvalue = [4, 0]"] ;
1080 -> 1110 ;
1111 [label="glossary <= 0.5\nentropy = 0.402\nsamples = 25\nvalue = [23, 2]"] ;
1079 -> 1111 ;
1112 [label="homepage_1 <= 0.5\nentropy = 0.25\nsamples = 24\nvalue = [23, 1]"] ;
1111 -> 1112 ;
1113 [label="entropy = 0.0\nsamples = 19\nvalue = [19, 0]"] ;
1112 -> 1113 ;
1114 [label="forumng_0 <= 0.5\nentropy = 0.722\nsamples = 5\nvalue = [4, 1]"] ;
1112 -> 1114 ;
1115 [label="entropy = 0.0\nsamples = 4\nvalue = [4, 0]"] ;
1114 -> 1115 ;
1116 [label="entropy = 0.0\nsamples = 1\nvalue = [0, 1]"] ;
1114 -> 1116 ;
1117 [label="entropy = 0.0\nsamples = 1\nvalue = [0, 1]"] ;
1111 -> 1117 ;
1118 [label="entropy = 0.0\nsamples = 10\nvalue = [10, 0]"] ;
1078 -> 1118 ;
}